{"learner":{"attributes":{},"feature_names":[],"feature_types":[],"gradient_booster":{"model":{"gbtree_model_param":{"num_parallel_tree":"1","num_trees":"100"},"iteration_indptr":[0,1,2,3,4,5,6,7,8,9,10,11,12,13,14,15,16,17,18,19,20,21,22,23,24,25,26,27,28,29,30,31,32,33,34,35,36,37,38,39,40,41,42,43,44,45,46,47,48,49,50,51,52,53,54,55,56,57,58,59,60,61,62,63,64,65,66,67,68,69,70,71,72,73,74,75,76,77,78,79,80,81,82,83,84,85,86,87,88,89,90,91,92,93,94,95,96,97,98,99,100],"tree_info":[0,0,0,0,0,0,0,0,0,0,0,0,0,0,0,0,0,0,0,0,0,0,0,0,0,0,0,0,0,0,0,0,0,0,0,0,0,0,0,0,0,0,0,0,0,0,0,0,0,0,0,0,0,0,0,0,0,0,0,0,0,0,0,0,0,0,0,0,0,0,0,0,0,0,0,0,0,0,0,0,0,0,0,0,0,0,0,0,0,0,0,0,0,0,0,0,0,0,0,0],"trees":[{"base_weights":[-7.836843E-9,-1.8519892E-1,1.4406465E-1,-2.4469472E-1,-8.290998E-2,1.01409495E-1,4.449853E-1,-2.7116163E-2,-2.0562994E-1,-1.10474296E-1,-4.033102E-2,4.9629804E-2,1.5669638E-1,4.6965027E-1,2.3937625E-1,-1.7329365E-1,-2.1322502E-2,-1.1325479E-1,3.3229873E-2,-5.3267125E-2,-4.811944E-3,2.8084172E-2,8.137007E-2,1.2375968E-1,2.066556E-1,2.815331E-1,4.8827273E-1,2.4810147E-2,5.861159E-3,-1.755175E-2,-3.994611E-3,-1.3819365E-1,-9.038273E-2,5.726963E-4,4.0488522E-3,-2.4388837E-2,-6.479626E-2,3.7729107E-2,-2.686621E-2,4.2576093E-2,1.0365951E-2,4.752392E-2,9.238166E-2,1.2897092E-1,3.8833022E-2,1.5570134E-1,2.1839246E-1,7.7842358E-3,2.9297387E-2,5.0789844E-2,3.3704378E-2,-9.775612E-3,-1.4786057E-2,-4.116203E-3,-1.0297473E-2,-3.8744044E-3,1.8059419E-3,-6.9217603E-3,1.2196228E-3,-1.905378E-3,6.140441E-3,-3.6754308E-3,-6.203767E-4,3.603299E-3,9.010711E-3,4.584739E-4,9.145248E-3,6.668112E-3,1.0921578E-3,1.06398715E-2,6.325343E-3,1.1403824E-2,1.5167571E-2,-7.6003796E-3,5.155573E-3,1.5854275E-2,3.0967356E-3,2.2928288E-2,1.5450847E-2],"categories":[],"categories_nodes":[],"categories_segments":[],"categories_sizes":[],"default_left":[0,0,0,0,0,0,0,0,0,0,0,0,0,0,0,0,0,0,0,0,0,0,0,0,0,0,0,0,0,0,0,0,0,0,0,0,0,0,0,0,0,0,0,0,0,0,0,0,0,0,0,0,0,0,0,0,0,0,0,0,0,0,0,0,0,0,0,0,0,0,0,0,0,0,0,0,0,0,0],"id":0,"left_children":[1,3,5,7,9,11,13,-1,15,17,19,21,23,25,27,29,-1,31,33,35,37,39,41,43,45,47,49,-1,-1,-1,-1,51,53,-1,-1,55,57,59,61,63,65,67,69,71,73,75,77,-1,-1,-1,-1,-1,-1,-1,-1,-1,-1,-1,-1,-1,-1,-1,-1,-1,-1,-1,-1,-1,-1,-1,-1,-1,-1,-1,-1,-1,-1,-1,-1],"loss_changes":[4.634423E1,4.6048927E0,1.249547E1,4.4052315E-1,3.25343E-1,2.445589E0,5.0120735E-1,0E0,1.1678696E-2,7.169008E-2,5.1205263E-2,3.0135036E-1,6.556597E-1,2.3737717E-1,9.116471E-3,5.7401657E-3,0E0,8.276701E-2,5.666595E-4,2.5720924E-2,3.0098202E-2,6.785974E-2,6.2323093E-2,1.06520414E-1,6.347656E-2,5.158782E-3,1.1374283E-1,0E0,0E0,0E0,0E0,1.603651E-2,5.1542163E-2,0E0,0E0,1.5933532E-2,2.058798E-2,1.595786E-2,4.06254E-3,4.215923E-2,5.6302905E-2,3.1526864E-2,4.7981024E-2,6.305647E-2,2.7294995E-2,7.140696E-3,5.501795E-2,0E0,0E0,0E0,0E0,0E0,0E0,0E0,0E0,0E0,0E0,0E0,0E0,0E0,0E0,0E0,0E0,0E0,0E0,0E0,0E0,0E0,0E0,0E0,0E0,0E0,0E0,0E0,0E0,0E0,0E0,0E0,0E0],"parents":[2147483647,0,0,1,1,2,2,3,3,4,4,5,5,6,6,8,8,9,9,10,10,11,11,12,12,13,13,14,14,15,15,17,17,18,18,19,19,20,20,21,21,22,22,23,23,24,24,25,25,26,26,31,31,32,32,35,35,36,36,37,37,38,38,39,39,40,40,41,41,42,42,43,43,44,44,45,45,46,46],"right_children":[2,4,6,8,10,12,14,-1,16,18,20,22,24,26,28,30,-1,32,34,36,38,40,42,44,46,48,50,-1,-1,-1,-1,52,54,-1,-1,56,58,60,62,64,66,68,70,72,74,76,78,-1,-1,-1,-1,-1,-1,-1,-1,-1,-1,-1,-1,-1,-1,-1,-1,-1,-1,-1,-1,-1,-1,-1,-1,-1,-1,-1,-1,-1,-1,-1,-1],"split_conditions":[2.8125E-1,1.3942307E-1,6.201923E-1,6.7307696E-2,2.3076923E-1,4.0865386E-1,7.2596157E-1,-2.7116163E-2,8.4134616E-2,4.1826922E-1,2.908654E-1,3.6298078E-1,4.783654E-1,5.6490386E-1,7.644231E-1,9.375E-2,-2.1322502E-2,1.875E-1,2.451923E-1,2.2596154E-1,1.2E1,1.9E1,3.5096154E-1,2E1,4.5432693E-1,4.3990386E-1,7.2596157E-1,2.4810147E-2,5.861159E-3,-1.755175E-2,-3.994611E-3,5.528846E-2,5.2884616E-2,5.726963E-4,4.0488522E-3,2.6923078E-1,3.8701922E-1,1E0,4.3028846E-1,1.2E1,4.7115386E-1,3.6298078E-1,4.1105768E-1,3.9903846E-1,3.4375E-1,4.5192307E-1,5.480769E-1,7.7842358E-3,2.9297387E-2,5.0789844E-2,3.3704378E-2,-9.775612E-3,-1.4786057E-2,-4.116203E-3,-1.0297473E-2,-3.8744044E-3,1.8059419E-3,-6.9217603E-3,1.2196228E-3,-1.905378E-3,6.140441E-3,-3.6754308E-3,-6.203767E-4,3.603299E-3,9.010711E-3,4.584739E-4,9.145248E-3,6.668112E-3,1.0921578E-3,1.06398715E-2,6.325343E-3,1.1403824E-2,1.5167571E-2,-7.6003796E-3,5.155573E-3,1.5854275E-2,3.0967356E-3,2.2928288E-2,1.5450847E-2],"split_indices":[11,11,11,11,11,11,5,0,2,6,10,11,11,10,4,4,0,11,1,3,12,12,10,12,10,6,6,0,0,0,0,4,3,0,0,11,6,12,4,12,8,4,0,2,8,10,1,0,0,0,0,0,0,0,0,0,0,0,0,0,0,0,0,0,0,0,0,0,0,0,0,0,0,0,0,0,0,0,0],"split_type":[0,0,0,0,0,0,0,0,0,0,0,0,0,0,0,0,0,0,0,0,0,0,0,0,0,0,0,0,0,0,0,0,0,0,0,0,0,0,0,0,0,0,0,0,0,0,0,0,0,0,0,0,0,0,0,0,0,0,0,0,0,0,0,0,0,0,0,0,0,0,0,0,0,0,0,0,0,0,0],"sum_hessian":[1.735E3,7.59E2,9.76E2,4.79E2,2.8E2,8.56E2,1.2E2,2.82E2,1.97E2,1.69E2,1.11E2,4.43E2,4.13E2,1.06E2,1.4E1,4.2E1,1.55E2,1.66E2,3E0,8.1E1,3E1,2.65E2,1.78E2,2.51E2,1.62E2,1.1E1,9.5E1,1.3E1,1E0,4.1E1,1E0,7.7E1,8.9E1,1E0,2E0,2.4E1,5.7E1,1E1,2E1,1.45E2,1.2E2,4.5E1,1.33E2,2.36E2,1.5E1,3.3E1,1.29E2,1E0,1E1,8.2E1,1.3E1,1.7E1,6E1,1.9E1,7E1,1.8E1,6E0,5.4E1,3E0,3E0,7E0,1.3E1,7E0,1.29E2,1.6E1,1.13E2,7E0,2.9E1,1.6E1,8.8E1,4.5E1,1.46E2,9E1,1E0,1.4E1,3.2E1,1E0,1.08E2,2.1E1],"tree_param":{"num_deleted":"0","num_feature":"16","num_nodes":"79","size_leaf_vector":"1"}},{"base_weights":[9.703821E-5,-1.6682662E-1,1.2994543E-1,-2.2037107E-1,-7.47691E-2,9.141836E-2,4.0174502E-1,-2.441413E-1,-1.8528347E-1,-9.962895E-2,-3.636784E-2,4.0019516E-2,1.3674214E-1,4.2382148E-1,2.1748339E-1,-2.4815213E-2,-1.9692183E-2,-1.9655691E-1,-1.6501537E-1,-1.02561615E-1,1.7661637E-2,-4.803517E-2,-4.332711E-3,1.8690921E-2,6.1574582E-2,1.0868248E-1,1.8634176E-1,2.5646994E-1,4.4032562E-1,2.2506347E-2,5.5681006E-3,-1.9728867E-2,-5.400677E-3,-1.1313672E-2,-1.728524E-2,-6.2709734E-2,-1.13505885E-1,-1.7970443E-3,3.1062268E-2,-1.0288372E-2,-5.499778E-2,4.040615E-2,-2.1650841E-2,3.0322164E-2,1.016119E-3,7.2355516E-2,3.5213143E-2,1.1319087E-1,4.1483458E-2,1.3070623E-2,1.9594628E-1,1.3141878E-2,2.8355157E-2,4.5772052E-1,3.0574685E-2,-7.99786E-3,1.8208988E-4,-1.36067895E-2,-9.598149E-3,5.440608E-4,3.7789287E-3,-2.6706017E-3,1.6052828E-3,-5.766257E-3,2.2848516E-3,6.306056E-3,-3.6770033E-4,-4.3444317E-3,6.0733425E-4,4.125281E-3,1.6607519E-4,-1.8721343E-3,2.2208488E-3,5.0648893E-3,9.5574055E-3,9.055974E-4,4.3730955E-3,1.0249732E-2,1.4070726E-2,-7.2203614E-3,5.126718E-3,2.0889118E-2,1.5225281E-2,1.3177435E-2,4.6008848E-2],"categories":[],"categories_nodes":[],"categories_segments":[],"categories_sizes":[],"default_left":[0,0,0,0,0,0,0,0,0,0,0,0,0,0,0,0,0,0,0,0,0,0,0,0,0,0,0,0,0,0,0,0,0,0,0,0,0,0,0,0,0,0,0,0,0,0,0,0,0,0,0,0,0,0,0,0,0,0,0,0,0,0,0,0,0,0,0,0,0,0,0,0,0,0,0,0,0,0,0,0,0,0,0,0,0],"id":1,"left_children":[1,3,5,7,9,11,13,15,17,19,21,23,25,27,29,-1,-1,31,33,35,37,39,41,43,45,47,49,51,53,-1,-1,-1,-1,-1,-1,55,57,-1,59,61,63,65,67,69,71,73,75,77,79,-1,81,-1,-1,83,-1,-1,-1,-1,-1,-1,-1,-1,-1,-1,-1,-1,-1,-1,-1,-1,-1,-1,-1,-1,-1,-1,-1,-1,-1,-1,-1,-1,-1,-1,-1],"loss_changes":[3.764908E1,3.7296906E0,1.0194067E1,3.5510445E-1,2.6463318E-1,1.9909868E0,4.0003395E-1,4.7302246E-3,1.2806416E-2,6.0287E-2,4.1653514E-2,1.84124E-1,6.1299324E-1,1.8260384E-1,5.865395E-3,0E0,0E0,2.0713806E-3,1.1750221E-2,6.528306E-2,2.9456646E-3,2.0985082E-2,2.4893424E-2,4.1907497E-2,5.429232E-2,8.4071636E-2,6.148815E-2,3.3750534E-3,8.4789276E-2,0E0,0E0,0E0,0E0,0E0,0E0,4.2491734E-2,3.7944794E-2,0E0,4.8383302E-4,6.4831544E-3,1.5631154E-2,9.219975E-3,1.4160597E-2,3.8465865E-2,3.4715023E-2,6.622279E-2,1.2972087E-2,6.6201925E-2,2.5947325E-2,0E0,4.568386E-2,0E0,0E0,3.4332275E-3,0E0,0E0,0E0,0E0,0E0,0E0,0E0,0E0,0E0,0E0,0E0,0E0,0E0,0E0,0E0,0E0,0E0,0E0,0E0,0E0,0E0,0E0,0E0,0E0,0E0,0E0,0E0,0E0,0E0,0E0,0E0],"parents":[2147483647,0,0,1,1,2,2,3,3,4,4,5,5,6,6,7,7,8,8,9,9,10,10,11,11,12,12,13,13,14,14,17,17,18,18,19,19,20,20,21,21,22,22,23,23,24,24,25,25,26,26,27,27,28,28,35,35,36,36,38,38,39,39,40,40,41,41,42,42,43,43,44,44,45,45,46,46,47,47,48,48,50,50,53,53],"right_children":[2,4,6,8,10,12,14,16,18,20,22,24,26,28,30,-1,-1,32,34,36,38,40,42,44,46,48,50,52,54,-1,-1,-1,-1,-1,-1,56,58,-1,60,62,64,66,68,70,72,74,76,78,80,-1,82,-1,-1,84,-1,-1,-1,-1,-1,-1,-1,-1,-1,-1,-1,-1,-1,-1,-1,-1,-1,-1,-1,-1,-1,-1,-1,-1,-1,-1,-1,-1,-1,-1,-1],"split_conditions":[2.8125E-1,1.3942307E-1,6.201923E-1,6.7307696E-2,2.3076923E-1,3.9903846E-1,7.2596157E-1,6E0,1.0576923E-1,3.1971154E-1,2.908654E-1,3.4855768E-1,4.783654E-1,5.6490386E-1,7.644231E-1,-2.4815213E-2,-1.9692183E-2,9E0,6.25E-2,5.7692308E-2,3.5576922E-1,5.7692308E-2,3.1730768E-1,2E1,1.9E1,2E1,1.5E1,4.2067307E-1,7.2596157E-1,2.2506347E-2,5.5681006E-3,-1.9728867E-2,-5.400677E-3,-1.1313672E-2,-1.728524E-2,1.4423077E-1,1.8028846E-1,-1.7970443E-3,2.451923E-1,2.6923078E-1,4.3509614E-1,1.2E1,4.2548078E-1,5E0,3.4855768E-1,1.2E1,4.9759614E-1,1.5E1,3.4375E-1,1.3070623E-2,5.0240386E-1,1.3141878E-2,2.8355157E-2,1.7E1,3.0574685E-2,-7.99786E-3,1.8208988E-4,-1.36067895E-2,-9.598149E-3,5.440608E-4,3.7789287E-3,-2.6706017E-3,1.6052828E-3,-5.766257E-3,2.2848516E-3,6.306056E-3,-3.6770033E-4,-4.3444317E-3,6.0733425E-4,4.125281E-3,1.6607519E-4,-1.8721343E-3,2.2208488E-3,5.0648893E-3,9.5574055E-3,9.055974E-4,4.3730955E-3,1.0249732E-2,1.4070726E-2,-7.2203614E-3,5.126718E-3,2.0889118E-2,1.5225281E-2,1.3177435E-2,4.6008848E-2],"split_indices":[11,11,11,11,11,11,5,12,11,10,10,11,11,10,4,0,0,12,5,3,4,1,5,12,12,12,12,5,6,0,0,0,0,0,0,9,11,0,1,11,3,12,4,13,8,12,2,12,8,0,2,0,0,12,0,0,0,0,0,0,0,0,0,0,0,0,0,0,0,0,0,0,0,0,0,0,0,0,0,0,0,0,0,0,0],"split_type":[0,0,0,0,0,0,0,0,0,0,0,0,0,0,0,0,0,0,0,0,0,0,0,0,0,0,0,0,0,0,0,0,0,0,0,0,0,0,0,0,0,0,0,0,0,0,0,0,0,0,0,0,0,0,0,0,0,0,0,0,0,0,0,0,0,0,0,0,0,0,0,0,0,0,0,0,0,0,0,0,0,0,0,0,0],"sum_hessian":[1.735E3,7.59E2,9.76E2,4.79E2,2.8E2,8.56E2,1.2E2,2.82E2,1.97E2,1.69E2,1.11E2,4.02E2,4.54E2,1.06E2,1.4E1,2.56E2,2.6E1,1.21E2,7.6E1,1.65E2,4E0,8.1E1,3E1,2.03E2,1.99E2,2.92E2,1.62E2,1.1E1,9.5E1,1.3E1,1E0,1.2E2,1E0,1.2E1,6.4E1,3.7E1,1.28E2,1E0,3E0,1.3E1,6.8E1,8E0,2.2E1,1.22E2,8.1E1,1.4E2,5.9E1,2.73E2,1.9E1,2.6E1,1.36E2,3E0,8E0,8.2E1,1.3E1,2.9E1,8E0,5.3E1,7.5E1,1E0,2E0,8E0,5E0,6.6E1,2E0,5E0,3E0,1.2E1,1E1,8.8E1,3.4E1,4.2E1,3.9E1,7.4E1,6.6E1,1.5E1,4.4E1,2E2,7.3E1,1E0,1.8E1,1.02E2,3.4E1,1E0,8.1E1],"tree_param":{"num_deleted":"0","num_feature":"16","num_nodes":"85","size_leaf_vector":"1"}},{"base_weights":[1.6003264E-4,-1.6062704E-1,1.09737895E-1,-1.9853862E-1,-7.903507E-2,7.430742E-2,3.510148E-1,-2.2307046E-2,-1.706759E-1,-9.2495285E-2,-3.8684197E-2,2.7183019E-2,1.19128965E-1,2.586055E-1,3.9906928E-1,-1.8296663E-1,-1.5206413E-1,-6.487313E-2,-1.092969E-1,-5.3397655E-2,7.0542274E-3,-3.1392842E-3,4.4290766E-2,9.670948E-2,1.6421667E-1,2.7853206E-1,1.662587E-2,4.204343E-2,2.3406282E-2,-1.8357538E-2,-5.1306426E-3,-1.11914285E-1,-1.5919706E-2,-8.1919655E-2,-3.8812857E-2,-1.3388785E-2,-9.523922E-2,-1.9297488E-2,-6.285954E-2,-4.925015E-3,4.12284E-3,1.3378118E-2,-2.0244192E-2,2.4434872E-2,5.665989E-2,1.0206831E-1,4.847245E-2,1.3891539E-1,1.8252574E-1,1.1122352E-2,2.89695E-1,-1.1469843E-2,-3.2291964E-3,-1.9465998E-3,-8.3050905E-3,-1.3107776E-3,-5.4674516E-3,-1.2936391E-2,-8.796445E-3,2.331902E-3,-2.589104E-3,-7.7377344E-3,-4.1690934E-3,-1.1340177E-3,3.282088E-3,-2.7865598E-3,2.4593638E-3,-3.4500663E-3,-3.6060723E-5,7.75139E-3,1.4575528E-3,6.9461986E-3,3.5870445E-3,9.175378E-3,1.3333589E-2,-5.520763E-4,5.831126E-3,8.331033E-3,1.449409E-2,2.0342676E-2,1.272724E-2,1.1716364E-2,2.9660104E-2],"categories":[],"categories_nodes":[],"categories_segments":[],"categories_sizes":[],"default_left":[0,0,0,0,0,0,0,0,0,0,0,0,0,0,0,0,0,0,0,0,0,0,0,0,0,0,0,0,0,0,0,0,0,0,0,0,0,0,0,0,0,0,0,0,0,0,0,0,0,0,0,0,0,0,0,0,0,0,0,0,0,0,0,0,0,0,0,0,0,0,0,0,0,0,0,0,0,0,0,0,0,0,0],"id":2,"left_children":[1,3,5,7,9,11,13,-1,15,17,19,21,23,25,27,29,31,33,35,37,39,41,43,45,47,49,-1,-1,-1,-1,-1,51,-1,53,55,-1,57,59,61,63,-1,65,67,69,71,73,75,77,79,-1,81,-1,-1,-1,-1,-1,-1,-1,-1,-1,-1,-1,-1,-1,-1,-1,-1,-1,-1,-1,-1,-1,-1,-1,-1,-1,-1,-1,-1,-1,-1,-1,-1],"loss_changes":[3.0603697E1,2.1619778E0,8.804574E0,2.9001808E-1,1.18626356E-1,1.9019561E0,4.8296928E-1,0E0,2.4560928E-2,7.087791E-2,3.940896E-2,2.2890621E-1,4.5112848E-1,4.201913E-2,2.0124722E-1,1.2412071E-3,9.963036E-3,2.6140124E-2,2.2854924E-2,1.298365E-2,6.343761E-3,4.547541E-2,6.787473E-2,7.544398E-2,4.5057297E-2,3.8749695E-2,0E0,0E0,0E0,0E0,0E0,2.8638542E-4,0E0,1.1387169E-3,1.0699641E-2,0E0,5.749762E-3,3.6946898E-3,7.22301E-3,3.2779467E-3,0E0,3.861603E-2,2.238167E-2,5.643587E-2,4.355204E-2,7.774639E-2,1.7852485E-2,1.0708213E-2,7.2271824E-2,0E0,6.951809E-3,0E0,0E0,0E0,0E0,0E0,0E0,0E0,0E0,0E0,0E0,0E0,0E0,0E0,0E0,0E0,0E0,0E0,0E0,0E0,0E0,0E0,0E0,0E0,0E0,0E0,0E0,0E0,0E0,0E0,0E0,0E0,0E0],"parents":[2147483647,0,0,1,1,2,2,3,3,4,4,5,5,6,6,8,8,9,9,10,10,11,11,12,12,13,13,14,14,15,15,16,16,17,17,18,18,19,19,20,20,21,21,22,22,23,23,24,24,25,25,31,31,33,33,34,34,36,36,37,37,38,38,39,39,41,41,42,42,43,43,44,44,45,45,46,46,47,47,48,48,50,50],"right_children":[2,4,6,8,10,12,14,-1,16,18,20,22,24,26,28,30,32,34,36,38,40,42,44,46,48,50,-1,-1,-1,-1,-1,52,-1,54,56,-1,58,60,62,64,-1,66,68,70,72,74,76,78,80,-1,82,-1,-1,-1,-1,-1,-1,-1,-1,-1,-1,-1,-1,-1,-1,-1,-1,-1,-1,-1,-1,-1,-1,-1,-1,-1,-1,-1,-1,-1,-1,-1,-1],"split_conditions":[2.596154E-1,1.3942307E-1,5.9615386E-1,5.528846E-2,2.451923E-1,3.9423078E-1,6.995192E-1,-2.2307046E-2,9.615385E-2,1.00961536E-1,3.4615386E-1,3.1971154E-1,4.783654E-1,6.995192E-1,7.644231E-1,9E0,7.692308E-2,1.7788461E-1,1.7067307E-1,2.8846154E-1,3.6057693E-1,1.3E1,3.3894232E-1,1.9E1,4.9519232E-1,4.3990386E-1,1.662587E-2,4.204343E-2,2.3406282E-2,-1.8357538E-2,-5.1306426E-3,8.4134616E-2,-1.5919706E-2,1.2019231E-2,4.0865384E-2,-1.3388785E-2,1E0,2.8846154E-2,3.9903846E-1,8.3413464E-1,4.12284E-3,2E0,3.4855768E-1,1.298077E-1,1.6E1,1.5E1,3.7740386E-1,3.1490386E-1,4.8076922E-1,1.1122352E-2,4.2067307E-1,-1.1469843E-2,-3.2291964E-3,-1.9465998E-3,-8.3050905E-3,-1.3107776E-3,-5.4674516E-3,-1.2936391E-2,-8.796445E-3,2.331902E-3,-2.589104E-3,-7.7377344E-3,-4.1690934E-3,-1.1340177E-3,3.282088E-3,-2.7865598E-3,2.4593638E-3,-3.4500663E-3,-3.6060723E-5,7.75139E-3,1.4575528E-3,6.9461986E-3,3.5870445E-3,9.175378E-3,1.3333589E-2,-5.520763E-4,5.831126E-3,8.331033E-3,1.449409E-2,2.0342676E-2,1.272724E-2,1.1716364E-2,2.9660104E-2],"split_indices":[11,11,11,11,10,11,11,0,11,1,8,11,11,4,6,12,2,10,11,0,10,12,10,12,10,9,0,0,0,0,0,4,0,5,2,0,12,0,0,1,0,12,8,4,12,12,8,2,1,0,5,0,0,0,0,0,0,0,0,0,0,0,0,0,0,0,0,0,0,0,0,0,0,0,0,0,0,0,0,0,0,0,0],"split_type":[0,0,0,0,0,0,0,0,0,0,0,0,0,0,0,0,0,0,0,0,0,0,0,0,0,0,0,0,0,0,0,0,0,0,0,0,0,0,0,0,0,0,0,0,0,0,0,0,0,0,0,0,0,0,0,0,0,0,0,0,0,0,0,0,0,0,0,0,0,0,0,0,0,0,0,0,0,0,0,0,0,0,0],"sum_hessian":[1.735E3,7.03E2,1.032E3,4.79E2,2.24E2,9.01E2,1.31E2,2.51E2,2.28E2,1.67E2,5.7E1,4.4E2,4.61E2,4.7E1,8.4E1,1.32E2,9.6E1,6.5E1,1.02E2,4.3E1,1.4E1,1.59E2,2.81E2,3.1E2,1.51E2,3.7E1,1E1,7.3E1,1.1E1,1.31E2,1E0,1.7E1,7.9E1,3.8E1,2.7E1,3.4E1,6.8E1,1E1,3.3E1,1.1E1,3E0,8.1E1,7.8E1,1.09E2,1.72E2,2.78E2,3.2E1,6.7E1,8.4E1,3E0,3.4E1,1.6E1,1E0,1E0,3.7E1,1.1E1,1.6E1,9E0,5.9E1,1E0,9E0,1.8E1,1.5E1,1E1,1E0,1.7E1,6.4E1,4.5E1,3.3E1,1.6E1,9.3E1,1.05E2,6.7E1,2.12E2,6.6E1,5E0,2.7E1,8E0,5.9E1,5.9E1,2.5E1,2E0,3.2E1],"tree_param":{"num_deleted":"0","num_feature":"16","num_nodes":"83","size_leaf_vector":"1"}},{"base_weights":[2.0147492E-4,-1.3551746E-1,1.0577588E-1,-1.7884396E-1,-6.102552E-2,7.2704375E-2,3.1693283E-1,-1.988058E-1,-1.513277E-1,-8.125752E-2,-2.9771356E-2,3.626703E-2,1.1266833E-1,2.3418504E-1,3.5993236E-1,-2.0203732E-2,-1.5840903E-2,-1.2773262E-1,-1.5807143E-1,-8.484655E-2,-7.626361E-3,-3.968704E-2,-2.5824064E-3,1.4984282E-2,5.413182E-2,9.081191E-2,1.4816274E-1,2.520604E-1,1.5114425E-1,3.8354173E-2,2.3414561E-1,-1.4026905E-2,-9.923606E-3,-1.718021E-2,-1.4425702E-2,-5.63569E-2,-9.7061954E-2,-2.9612115E-2,2.7258858E-2,-2.2660045E-2,-5.2519906E-2,3.682777E-2,-1.78915E-2,1.338137E-2,1.1791886E-2,6.377972E-2,3.275474E-2,9.7543776E-2,4.7711145E-2,1.5980265E-1,1.1596018E-1,1.0288177E-2,2.6190767E-1,1.5734186E-2,4.4584023E-3,9.750667E-3,2.467007E-2,-6.895079E-3,-2.4498345E-3,-1.0192126E-2,-4.8074313E-3,-3.2061345E-3,-8.682981E-4,5.735576E-4,3.2521428E-3,-3.0484505E-3,9.514179E-4,-6.215203E-3,-1.622205E-3,5.635311E-3,-1.6671792E-4,-3.6284605E-3,5.4723024E-4,2.4164363E-3,4.83407E-5,3.989687E-3,7.6015145E-3,2.1393748E-3,5.3001256E-3,8.287621E-3,1.26538E-2,-2.8053347E-3,5.8058375E-3,1.7068997E-2,1.0281951E-2,1.18677635E-2,3.9262385E-3,1.0935273E-2,2.6783971E-2],"categories":[],"categories_nodes":[],"categories_segments":[],"categories_sizes":[],"default_left":[0,0,0,0,0,0,0,0,0,0,0,0,0,0,0,0,0,0,0,0,0,0,0,0,0,0,0,0,0,0,0,0,0,0,0,0,0,0,0,0,0,0,0,0,0,0,0,0,0,0,0,0,0,0,0,0,0,0,0,0,0,0,0,0,0,0,0,0,0,0,0,0,0,0,0,0,0,0,0,0,0,0,0,0,0,0,0,0,0],"id":3,"left_children":[1,3,5,7,9,11,13,15,17,19,21,23,25,27,29,-1,-1,31,33,35,37,39,41,43,45,47,49,51,53,-1,55,-1,-1,-1,-1,57,59,61,63,65,67,69,71,73,-1,75,77,79,81,83,85,-1,87,-1,-1,-1,-1,-1,-1,-1,-1,-1,-1,-1,-1,-1,-1,-1,-1,-1,-1,-1,-1,-1,-1,-1,-1,-1,-1,-1,-1,-1,-1,-1,-1,-1,-1,-1,-1],"loss_changes":[2.4888515E1,2.441967E0,6.7996197E0,2.3356819E-1,1.7526674E-1,1.2278423E0,3.853798E-1,3.894806E-3,1.258707E-2,4.4277906E-2,3.0092388E-2,1.6800296E-1,2.9918528E-1,3.315282E-2,1.6262436E-1,0E0,0E0,4.2998195E-3,4.8065186E-3,5.090797E-2,7.709992E-3,1.6727298E-2,1.9362262E-2,3.2081056E-2,4.7615647E-2,6.8463326E-2,3.8444042E-2,2.8876543E-2,2.4968386E-4,0E0,3.3932924E-3,0E0,0E0,0E0,0E0,1.8773183E-2,2.1761298E-2,2.917368E-5,2.6654196E-4,9.604631E-3,1.5074551E-2,6.858593E-3,1.0082415E-2,2.808221E-2,0E0,4.5183003E-2,1.6577683E-2,8.179784E-2,2.985102E-2,5.007267E-2,4.5110583E-3,0E0,2.3846626E-3,0E0,0E0,0E0,0E0,0E0,0E0,0E0,0E0,0E0,0E0,0E0,0E0,0E0,0E0,0E0,0E0,0E0,0E0,0E0,0E0,0E0,0E0,0E0,0E0,0E0,0E0,0E0,0E0,0E0,0E0,0E0,0E0,0E0,0E0,0E0,0E0],"parents":[2147483647,0,0,1,1,2,2,3,3,4,4,5,5,6,6,7,7,8,8,9,9,10,10,11,11,12,12,13,13,14,14,17,17,18,18,19,19,20,20,21,21,22,22,23,23,24,24,25,25,26,26,27,27,28,28,30,30,35,35,36,36,37,37,38,38,39,39,40,40,41,41,42,42,43,43,45,45,46,46,47,47,48,48,49,49,50,50,52,52],"right_children":[2,4,6,8,10,12,14,16,18,20,22,24,26,28,30,-1,-1,32,34,36,38,40,42,44,46,48,50,52,54,-1,56,-1,-1,-1,-1,58,60,62,64,66,68,70,72,74,-1,76,78,80,82,84,86,-1,88,-1,-1,-1,-1,-1,-1,-1,-1,-1,-1,-1,-1,-1,-1,-1,-1,-1,-1,-1,-1,-1,-1,-1,-1,-1,-1,-1,-1,-1,-1,-1,-1,-1,-1,-1,-1],"split_conditions":[2.8125E-1,1.3942307E-1,5.9615386E-1,6.490385E-2,2.3076923E-1,4.0865386E-1,6.995192E-1,6E0,9.615385E-2,3.6298078E-1,2.908654E-1,3.4855768E-1,4.783654E-1,6.995192E-1,7.2596157E-1,-2.0203732E-2,-1.5840903E-2,8.6538464E-2,9.8557696E-2,8.6538464E-2,3.8221154E-1,2.8605768E-1,3.1730768E-1,4.6634614E-1,4.3269232E-1,1.8E1,5E0,4.3990386E-1,5.793269E-1,3.8354173E-2,7.2596157E-1,-1.4026905E-2,-9.923606E-3,-1.718021E-2,-1.4425702E-2,1.5384616E-1,4.0144232E-1,5.0721157E-1,2.451923E-1,2.6923078E-1,3.9423078E-1,1.2E1,4.2548078E-1,1.4E1,1.1791886E-2,3.5096154E-1,4.375E-1,3.9903846E-1,4.158654E-1,8.004808E-1,1.8E1,1.0288177E-2,4.2067307E-1,1.5734186E-2,4.4584023E-3,9.750667E-3,2.467007E-2,-6.895079E-3,-2.4498345E-3,-1.0192126E-2,-4.8074313E-3,-3.2061345E-3,-8.682981E-4,5.735576E-4,3.2521428E-3,-3.0484505E-3,9.514179E-4,-6.215203E-3,-1.622205E-3,5.635311E-3,-1.6671792E-4,-3.6284605E-3,5.4723024E-4,2.4164363E-3,4.83407E-5,3.989687E-3,7.6015145E-3,2.1393748E-3,5.3001256E-3,8.287621E-3,1.26538E-2,-2.8053347E-3,5.8058375E-3,1.7068997E-2,1.0281951E-2,1.18677635E-2,3.9262385E-3,1.0935273E-2,2.6783971E-2],"split_indices":[11,11,11,11,11,11,11,12,0,5,10,11,11,4,6,0,0,10,10,0,6,3,5,10,1,12,13,9,0,0,11,0,0,0,0,9,1,0,1,11,3,12,4,12,0,10,8,2,8,6,12,0,5,0,0,0,0,0,0,0,0,0,0,0,0,0,0,0,0,0,0,0,0,0,0,0,0,0,0,0,0,0,0,0,0,0,0,0,0],"split_type":[0,0,0,0,0,0,0,0,0,0,0,0,0,0,0,0,0,0,0,0,0,0,0,0,0,0,0,0,0,0,0,0,0,0,0,0,0,0,0,0,0,0,0,0,0,0,0,0,0,0,0,0,0,0,0,0,0,0,0,0,0,0,0,0,0,0,0,0,0,0,0,0,0,0,0,0,0,0,0,0,0,0,0,0,0,0,0,0,0],"sum_hessian":[1.735E3,7.59E2,9.76E2,4.79E2,2.8E2,8.45E2,1.31E2,2.74E2,2.05E2,1.69E2,1.11E2,4.43E2,4.02E2,4.7E1,8.4E1,2.5E2,2.4E1,5E1,1.55E2,1.61E2,8E0,8.1E1,3E1,2.03E2,2.4E2,2.51E2,1.51E2,3.7E1,1E1,6.9E1,1.5E1,3.2E1,1.8E1,7.2E1,8.3E1,5E1,1.11E2,5E0,3E0,3.6E1,4.5E1,8E0,2.2E1,2.01E2,2E0,1.64E2,7.6E1,2.16E2,3.5E1,1.08E2,4.3E1,3E0,3.4E1,9E0,1E0,2E0,1.3E1,3.5E1,1.5E1,1E2,1.1E1,4E0,1E0,1E0,2E0,2.9E1,7E0,3.5E1,1E1,5E0,3E0,1.2E1,1E1,1.09E2,9.2E1,5.7E1,1.07E2,5E1,2.6E1,1.46E2,7E1,4E0,3.1E1,8.9E1,1.9E1,4.1E1,2E0,2E0,3.2E1],"tree_param":{"num_deleted":"0","num_feature":"16","num_nodes":"89","size_leaf_vector":"1"}},{"base_weights":[2.4907303E-4,-1.2212853E-1,9.544531E-2,-1.611504E-1,-5.5037342E-2,6.555258E-2,2.863075E-1,-1.8287128E-2,-1.4026527E-1,-7.327644E-2,-2.6861602E-2,2.9315012E-2,9.829624E-2,2.1218736E-1,3.2479528E-1,-1.5132828E-1,-1.2466757E-1,-9.941075E-2,-6.336119E-2,-3.5839483E-2,-2.2471552E-3,1.3555742E-2,4.5242894E-2,7.9630464E-2,1.336303E-1,2.2811772E-1,1.3786552E-2,3.418628E-1,1.924794E-2,-1.5178378E-2,-4.37793E-3,-7.13201E-3,-1.27082765E-2,-1.0590731E-2,-6.165705E-3,-5.2640047E-2,-9.3209565E-2,-2.0450715E-2,-4.7438286E-2,2.9091723E-2,-1.8555751E-2,1.2055439E-2,1.100576E-2,5.4754503E-2,2.6391074E-2,8.489092E-2,4.4235807E-2,1.11205764E-1,1.4999782E-1,9.516563E-3,2.367946E-2,3.4390252E-2,9.648072E-3,-5.93484E-3,-1.2905585E-3,-1.0162207E-2,-4.8647476E-3,-2.753767E-3,8.681696E-4,-5.18057E-3,1.1370935E-3,-1.4533729E-3,4.7267987E-3,7.598162E-4,-2.1708698E-3,5.1059076E-3,9.102495E-4,5.8851163E-3,-1.6100064E-3,1.6624881E-3,4.4009984E-3,7.4542486E-3,1.2183803E-2,-6.691473E-3,4.880158E-3,6.1888373E-3,1.1674995E-2,1.6390147E-2,9.307451E-3],"categories":[],"categories_nodes":[],"categories_segments":[],"categories_sizes":[],"default_left":[0,0,0,0,0,0,0,0,0,0,0,0,0,0,0,0,0,0,0,0,0,0,0,0,0,0,0,0,0,0,0,0,0,0,0,0,0,0,0,0,0,0,0,0,0,0,0,0,0,0,0,0,0,0,0,0,0,0,0,0,0,0,0,0,0,0,0,0,0,0,0,0,0,0,0,0,0,0,0],"id":4,"left_children":[1,3,5,7,9,11,13,-1,15,17,19,21,23,25,27,29,31,33,35,37,39,41,43,45,47,49,-1,51,-1,-1,-1,-1,-1,-1,-1,53,55,57,59,61,63,65,-1,67,69,71,73,75,77,-1,-1,-1,-1,-1,-1,-1,-1,-1,-1,-1,-1,-1,-1,-1,-1,-1,-1,-1,-1,-1,-1,-1,-1,-1,-1,-1,-1,-1,-1],"loss_changes":[2.0235863E1,1.9808292E0,5.555401E0,1.9209862E-1,1.4243758E-1,1.0009401E0,3.0764198E-1,0E0,2.4101257E-2,3.7752986E-2,2.4669848E-2,1.0054445E-1,2.8219366E-1,2.5381327E-2,1.2615395E-1,2.6226044E-4,4.980445E-3,4.507154E-3,3.5414517E-2,1.3666138E-2,1.6383706E-2,2.8208751E-2,3.4417212E-2,5.0799012E-2,3.9108515E-2,2.1302462E-2,0E0,3.8585663E-3,0E0,0E0,0E0,0E0,0E0,0E0,0E0,2.4556577E-2,7.0524514E-3,7.878094E-3,1.2403898E-2,9.409403E-3,1.8966459E-3,2.2800693E-2,0E0,3.926274E-2,1.1141144E-2,8.803356E-2,2.3565076E-2,1.1367321E-2,5.201757E-2,0E0,0E0,0E0,0E0,0E0,0E0,0E0,0E0,0E0,0E0,0E0,0E0,0E0,0E0,0E0,0E0,0E0,0E0,0E0,0E0,0E0,0E0,0E0,0E0,0E0,0E0,0E0,0E0,0E0,0E0],"parents":[2147483647,0,0,1,1,2,2,3,3,4,4,5,5,6,6,8,8,9,9,10,10,11,11,12,12,13,13,14,14,15,15,16,16,17,17,18,18,19,19,20,20,21,21,22,22,23,23,24,24,25,25,27,27,35,35,36,36,37,37,38,38,39,39,40,40,41,41,43,43,44,44,45,45,46,46,47,47,48,48],"right_children":[2,4,6,8,10,12,14,-1,16,18,20,22,24,26,28,30,32,34,36,38,40,42,44,46,48,50,-1,52,-1,-1,-1,-1,-1,-1,-1,54,56,58,60,62,64,66,-1,68,70,72,74,76,78,-1,-1,-1,-1,-1,-1,-1,-1,-1,-1,-1,-1,-1,-1,-1,-1,-1,-1,-1,-1,-1,-1,-1,-1,-1,-1,-1,-1,-1,-1],"split_conditions":[2.8125E-1,1.3942307E-1,5.9615386E-1,4.8076924E-2,2.3076923E-1,3.9903846E-1,6.995192E-1,-1.8287128E-2,9.375E-2,5E0,2.908654E-1,3.4855768E-1,4.783654E-1,6.995192E-1,7.644231E-1,9E0,1.6826924E-2,2.0673077E-1,2.3E1,2.8605768E-1,1.2E1,4.6634614E-1,4.3269232E-1,1.8E1,4.9519232E-1,4.3990386E-1,1.3786552E-2,6.995192E-1,1.924794E-2,-1.5178378E-2,-4.37793E-3,-7.13201E-3,-1.27082765E-2,-1.0590731E-2,-6.165705E-3,2.4278846E-1,3.2451922E-1,2.6923078E-1,3.8701922E-1,1E0,2.5721154E-1,4.3269232E-2,1.100576E-2,4.6634614E-1,4.375E-1,1.5E1,3.4375E-1,3.1490386E-1,8.004808E-1,9.516563E-3,2.367946E-2,3.4390252E-2,9.648072E-3,-5.93484E-3,-1.2905585E-3,-1.0162207E-2,-4.8647476E-3,-2.753767E-3,8.681696E-4,-5.18057E-3,1.1370935E-3,-1.4533729E-3,4.7267987E-3,7.598162E-4,-2.1708698E-3,5.1059076E-3,9.102495E-4,5.8851163E-3,-1.6100064E-3,1.6624881E-3,4.4009984E-3,7.4542486E-3,1.2183803E-2,-6.691473E-3,4.880158E-3,6.1888373E-3,1.1674995E-2,1.6390147E-2,9.307451E-3],"split_indices":[11,11,11,11,11,11,11,0,11,12,10,11,11,4,6,12,0,11,12,3,12,10,1,12,10,9,0,4,0,0,0,0,0,0,0,10,5,11,6,12,5,2,0,6,8,12,8,2,6,0,0,0,0,0,0,0,0,0,0,0,0,0,0,0,0,0,0,0,0,0,0,0,0,0,0,0,0,0,0],"split_type":[0,0,0,0,0,0,0,0,0,0,0,0,0,0,0,0,0,0,0,0,0,0,0,0,0,0,0,0,0,0,0,0,0,0,0,0,0,0,0,0,0,0,0,0,0,0,0,0,0,0,0,0,0,0,0,0,0,0,0,0,0,0,0,0,0,0,0,0,0,0,0,0,0,0,0,0,0,0,0],"sum_hessian":[1.735E3,7.59E2,9.76E2,4.79E2,2.8E2,8.45E2,1.31E2,2.31E2,2.48E2,1.69E2,1.11E2,4.02E2,4.43E2,4.7E1,8.4E1,1.4E2,1.08E2,4.4E1,1.25E2,8.1E1,3E1,2.03E2,1.99E2,2.92E2,1.51E2,3.7E1,1E1,7.3E1,1.1E1,1.39E2,1E0,6E0,1.02E2,3.6E1,8E0,9.4E1,3.1E1,3.6E1,4.5E1,1E1,2E1,2.01E2,2E0,1.31E2,6.8E1,2.53E2,3.9E1,6.7E1,8.4E1,3E0,3.4E1,7.2E1,1E0,8E1,1.4E1,2.5E1,6E0,2.9E1,7E0,4.2E1,3E0,3E0,7E0,2E0,1.8E1,1.3E1,1.88E2,1.24E2,7E0,4.5E1,2.3E1,2E2,5.3E1,1E0,3.8E1,8E0,5.9E1,6.6E1,1.8E1],"tree_param":{"num_deleted":"0","num_feature":"16","num_nodes":"79","size_leaf_vector":"1"}},{"base_weights":[2.8076323E-4,-1.156531E-1,8.196892E-2,-1.4515553E-1,-5.5917453E-2,5.4114424E-2,2.4949111E-1,-1.6466297E-2,-1.2639697E-1,-6.744852E-2,-2.592832E-2,1.5311177E-2,8.108158E-2,1.9129765E-1,2.9839838E-1,-1.339097E-1,-1.0787617E-1,-8.9155264E-2,-5.502388E-2,-3.4891907E-2,5.3840782E-3,-1.5222601E-3,2.667104E-2,6.393041E-2,1.1066485E-1,2.1324211E-1,1.3472345E-1,3.1878784E-2,2.1385571E-2,-1.13928495E-2,-1.3944621E-2,-7.465216E-2,-1.1407432E-2,-6.316548E-2,-9.776119E-3,-2.4783349E-2,-6.298967E-2,2.5790386E-2,-3.9048653E-2,2.9281178E-2,-8.140165E-3,9.844173E-3,-1.4349209E-2,6.917754E-2,2.2197567E-2,5.078271E-2,7.521019E-2,9.008178E-2,1.311637E-1,1.4605916E-2,2.4868326E-2,8.5858E-3,1.4690794E-1,-7.721854E-3,-1.9361422E-3,-6.541838E-3,-1.2433112E-3,-4.2956914E-3,2.2518121E-4,-8.345247E-3,-5.533039E-3,4.1058264E-3,-1.0006622E-3,-1.7311616E-3,-4.405012E-3,3.3734806E-3,3.5065264E-4,1.964774E-3,-2.1016598E-3,2.2510902E-3,-1.3578946E-3,-2.389577E-3,8.609389E-4,2.6392788E-4,7.254064E-3,7.838332E-4,3.902246E-3,5.547046E-3,2.1467316E-3,4.818575E-3,8.069333E-3,9.234449E-3,-6.3568987E-3,1.40728755E-2,5.5669225E-3,2.6628883E-3,-1.375018E-3,3.5461546E-3,1.5090714E-2],"categories":[],"categories_nodes":[],"categories_segments":[],"categories_sizes":[],"default_left":[0,0,0,0,0,0,0,0,0,0,0,0,0,0,0,0,0,0,0,0,0,0,0,0,0,0,0,0,0,0,0,0,0,0,0,0,0,0,0,0,0,0,0,0,0,0,0,0,0,0,0,0,0,0,0,0,0,0,0,0,0,0,0,0,0,0,0,0,0,0,0,0,0,0,0,0,0,0,0,0,0,0,0,0,0,0,0,0,0],"id":5,"left_children":[1,3,5,7,9,11,13,-1,15,17,19,21,23,25,27,29,31,33,35,37,39,41,43,45,47,49,51,-1,-1,-1,-1,53,-1,55,-1,57,59,61,63,65,67,69,71,73,75,77,79,81,83,-1,-1,85,87,-1,-1,-1,-1,-1,-1,-1,-1,-1,-1,-1,-1,-1,-1,-1,-1,-1,-1,-1,-1,-1,-1,-1,-1,-1,-1,-1,-1,-1,-1,-1,-1,-1,-1,-1,-1],"loss_changes":[1.6450134E1,1.2572489E0,4.7414045E0,1.548338E-1,8.089906E-2,9.143703E-1,3.555994E-1,0E0,2.020073E-2,4.148245E-2,1.927352E-2,6.8881795E-2,2.5473738E-1,5.693388E-2,6.45566E-2,3.2513142E-3,7.3405504E-3,7.468492E-3,2.541855E-2,1.4375836E-2,5.409397E-3,2.1427568E-2,3.9347053E-2,4.49723E-2,6.750727E-2,7.7967644E-2,3.25509E-2,0E0,0E0,0E0,0E0,6.333962E-4,0E0,1.2439489E-3,0E0,1.23798605E-2,9.174794E-3,2.5970319E-3,4.67328E-3,5.7045184E-4,4.3488285E-3,2.3447827E-2,1.5328846E-2,4.2840466E-3,4.704628E-2,2.0109802E-2,2.204305E-2,3.9593816E-2,5.859971E-2,0E0,0E0,1.5751817E-3,3.5625398E-3,0E0,0E0,0E0,0E0,0E0,0E0,0E0,0E0,0E0,0E0,0E0,0E0,0E0,0E0,0E0,0E0,0E0,0E0,0E0,0E0,0E0,0E0,0E0,0E0,0E0,0E0,0E0,0E0,0E0,0E0,0E0,0E0,0E0,0E0,0E0,0E0],"parents":[2147483647,0,0,1,1,2,2,3,3,4,4,5,5,6,6,8,8,9,9,10,10,11,11,12,12,13,13,14,14,15,15,16,16,17,17,18,18,19,19,20,20,21,21,22,22,23,23,24,24,25,25,26,26,31,31,33,33,35,35,36,36,37,37,38,38,39,39,40,40,41,41,42,42,43,43,44,44,45,45,46,46,47,47,48,48,51,51,52,52],"right_children":[2,4,6,8,10,12,14,-1,16,18,20,22,24,26,28,30,32,34,36,38,40,42,44,46,48,50,52,-1,-1,-1,-1,54,-1,56,-1,58,60,62,64,66,68,70,72,74,76,78,80,82,84,-1,-1,86,88,-1,-1,-1,-1,-1,-1,-1,-1,-1,-1,-1,-1,-1,-1,-1,-1,-1,-1,-1,-1,-1,-1,-1,-1,-1,-1,-1,-1,-1,-1,-1,-1,-1,-1,-1,-1],"split_conditions":[2.6442307E-1,1.3942307E-1,5.6971157E-1,4.8076924E-2,2.451923E-1,3.7980768E-1,7.2596157E-1,-1.6466297E-2,1.0576923E-1,1.7788461E-1,3.5576922E-1,3.1971154E-1,4.5673078E-1,6.298077E-1,6.995192E-1,8.8942304E-2,9.134615E-2,8.173077E-2,4.0865384E-2,7.451923E-2,2.4278846E-1,1.3E1,1.826923E-1,4.1105768E-1,4.9519232E-1,1.7E1,5.9615386E-1,3.1878784E-2,2.1385571E-2,-1.13928495E-2,-1.3944621E-2,8.4134616E-2,-1.1407432E-2,9.375E-2,-9.776119E-3,1.3942307E-1,5E0,1.4182693E-1,2.8846154E-1,8.1490386E-1,3.5096154E-1,5E0,3.3894232E-1,1.1298077E-1,3.653846E-1,1.7E1,1.923077E-1,8.75E-1,6.995192E-1,1.4605916E-2,2.4868326E-2,3.8221154E-1,6.298077E-1,-7.721854E-3,-1.9361422E-3,-6.541838E-3,-1.2433112E-3,-4.2956914E-3,2.2518121E-4,-8.345247E-3,-5.533039E-3,4.1058264E-3,-1.0006622E-3,-1.7311616E-3,-4.405012E-3,3.3734806E-3,3.5065264E-4,1.964774E-3,-2.1016598E-3,2.2510902E-3,-1.3578946E-3,-2.389577E-3,8.609389E-4,2.6392788E-4,7.254064E-3,7.838332E-4,3.902246E-3,5.547046E-3,2.1467316E-3,4.818575E-3,8.069333E-3,9.234449E-3,-6.3568987E-3,1.40728755E-2,5.5669225E-3,2.6628883E-3,-1.375018E-3,3.5461546E-3,1.5090714E-2],"split_indices":[11,11,11,11,10,11,11,0,11,11,8,11,11,7,6,0,2,1,2,0,11,12,6,10,10,12,11,0,0,0,0,4,0,0,0,9,13,4,0,0,5,13,10,7,9,12,2,4,2,0,0,0,10,0,0,0,0,0,0,0,0,0,0,0,0,0,0,0,0,0,0,0,0,0,0,0,0,0,0,0,0,0,0,0,0,0,0,0,0],"split_type":[0,0,0,0,0,0,0,0,0,0,0,0,0,0,0,0,0,0,0,0,0,0,0,0,0,0,0,0,0,0,0,0,0,0,0,0,0,0,0,0,0,0,0,0,0,0,0,0,0,0,0,0,0,0,0,0,0,0,0,0,0,0,0,0,0,0,0,0,0,0,0,0,0,0,0,0,0,0,0,0,0,0,0,0,0,0,0,0,0],"sum_hessian":[1.735E3,7.17E2,1.018E3,4.79E2,2.38E2,8.74E2,1.44E2,2.31E2,2.48E2,1.71E2,6.7E1,3.59E2,5.15E2,6.8E1,7.6E1,1.72E2,7.6E1,6E1,1.11E2,5.2E1,1.5E1,1.45E2,2.14E2,3.28E2,1.87E2,4.7E1,2.1E1,5.9E1,1.7E1,4.2E1,1.3E2,1.4E1,6.2E1,1.7E1,4.3E1,2.4E1,8.7E1,3E0,4.9E1,5E0,1E1,7.7E1,6.8E1,1.9E1,1.95E2,1.54E2,1.74E2,9.6E1,9.1E1,1.8E1,2.9E1,2E0,1.9E1,1.3E1,1E0,1.6E1,1E0,1.4E1,1E1,2.1E1,6.6E1,2E0,1E0,1E1,3.9E1,4E0,1E0,3E0,7E0,5E1,2.7E1,4.8E1,2E1,1E0,1.8E1,1.06E2,8.9E1,1.32E2,2.2E1,3.1E1,1.43E2,9.5E1,1E0,8E1,1.1E1,1E0,1E0,1E0,1.8E1],"tree_param":{"num_deleted":"0","num_feature":"16","num_nodes":"89","size_leaf_vector":"1"}},{"base_weights":[2.9272548E-4,-9.920037E-2,7.768726E-2,-1.3077095E-1,-4.491894E-2,5.1895797E-2,2.25319E-1,-1.4348264E-1,-1.0738385E-1,-6.0400654E-2,-2.2376841E-2,2.2543076E-2,7.694903E-2,1.6696598E-1,2.6454505E-1,-1.4745769E-2,-1.1316336E-2,-8.725514E-2,-1.1185667E-2,-6.3292615E-2,-2.9195016E-3,-2.9868534E-2,-8.715992E-4,8.083675E-3,3.3938494E-2,6.031719E-2,9.971814E-2,1.7890677E-1,1.0911486E-1,2.8479E-1,1.8450947E-1,-1.0452133E-2,-6.994495E-2,-3.5057276E-2,-7.1337E-2,-2.0330727E-2,2.3927212E-2,-1.6564872E-2,-4.00555E-2,3.798973E-2,-1.1717906E-2,4.9388155E-2,1.9717934E-3,2.0493306E-2,4.345508E-2,6.289217E-2,2.7771363E-2,8.110326E-2,1.1826081E-1,1.2814063E-1,2.0678729E-2,-1.3062671E-3,1.2038488E-1,2.8674224E-2,7.894764E-3,6.811378E-3,1.9365823E-2,-7.160287E-3,-1.8393353E-3,-4.8019113E-3,1.0603892E-3,-8.732979E-3,-6.216374E-3,-2.2236456E-3,-5.401045E-4,4.4073464E-4,2.8964719E-3,-2.390906E-3,1.9519751E-4,-5.249598E-3,-2.0014024E-3,4.8845685E-3,7.233223E-4,8.759764E-4,-2.3784083E-3,1.0321534E-3,5.7496205E-3,4.3457744E-4,-3.1698514E-3,4.369959E-3,8.933924E-4,-7.5645617E-4,5.155599E-3,5.655941E-3,8.49434E-3,-3.199769E-4,4.0373136E-3,8.320621E-3,-6.039054E-3,1.3693357E-2,8.237982E-3,2.5297434E-3,1.3222198E-2,1.2520379E-2,3.368847E-3],"categories":[],"categories_nodes":[],"categories_segments":[],"categories_sizes":[],"default_left":[0,0,0,0,0,0,0,0,0,0,0,0,0,0,0,0,0,0,0,0,0,0,0,0,0,0,0,0,0,0,0,0,0,0,0,0,0,0,0,0,0,0,0,0,0,0,0,0,0,0,0,0,0,0,0,0,0,0,0,0,0,0,0,0,0,0,0,0,0,0,0,0,0,0,0,0,0,0,0,0,0,0,0,0,0,0,0,0,0,0,0,0,0,0,0],"id":6,"left_children":[1,3,5,7,9,11,13,15,17,19,21,23,25,27,29,-1,-1,31,-1,33,35,37,39,41,43,45,47,49,51,53,55,-1,57,59,61,63,65,67,69,71,73,75,77,79,81,83,85,87,89,91,-1,-1,93,-1,-1,-1,-1,-1,-1,-1,-1,-1,-1,-1,-1,-1,-1,-1,-1,-1,-1,-1,-1,-1,-1,-1,-1,-1,-1,-1,-1,-1,-1,-1,-1,-1,-1,-1,-1,-1,-1,-1,-1,-1,-1],"loss_changes":[1.3375292E1,1.296535E0,3.7083697E0,1.2729168E-1,9.6714735E-2,6.108372E-1,2.8772926E-1,2.0433903E-2,5.815506E-3,2.7409911E-2,1.8662807E-2,6.3162446E-2,1.6401815E-1,2.2616625E-2,8.518028E-2,0E0,0E0,3.448993E-3,0E0,3.3386588E-2,4.6933657E-3,1.09915435E-2,1.3511718E-2,4.307124E-2,2.661921E-2,2.0210326E-2,5.5300593E-2,4.2856097E-2,1.9472808E-2,3.8847923E-3,8.1067085E-3,0E0,4.7780573E-4,2.240773E-2,1.2469411E-2,5.061133E-5,2.6566815E-4,5.350328E-3,1.0916971E-2,1.9839276E-3,6.3855215E-3,6.3751414E-3,1.2127654E-2,2.4020363E-2,5.205317E-2,2.8989673E-2,8.325297E-3,3.3887804E-2,5.035913E-2,5.049914E-3,0E0,0E0,7.954389E-4,0E0,0E0,0E0,0E0,0E0,0E0,0E0,0E0,0E0,0E0,0E0,0E0,0E0,0E0,0E0,0E0,0E0,0E0,0E0,0E0,0E0,0E0,0E0,0E0,0E0,0E0,0E0,0E0,0E0,0E0,0E0,0E0,0E0,0E0,0E0,0E0,0E0,0E0,0E0,0E0,0E0,0E0],"parents":[2147483647,0,0,1,1,2,2,3,3,4,4,5,5,6,6,7,7,8,8,9,9,10,10,11,11,12,12,13,13,14,14,17,17,19,19,20,20,21,21,22,22,23,23,24,24,25,25,26,26,27,27,28,28,29,29,30,30,32,32,33,33,34,34,35,35,36,36,37,37,38,38,39,39,40,40,41,41,42,42,43,43,44,44,45,45,46,46,47,47,48,48,49,49,52,52],"right_children":[2,4,6,8,10,12,14,16,18,20,22,24,26,28,30,-1,-1,32,-1,34,36,38,40,42,44,46,48,50,52,54,56,-1,58,60,62,64,66,68,70,72,74,76,78,80,82,84,86,88,90,92,-1,-1,94,-1,-1,-1,-1,-1,-1,-1,-1,-1,-1,-1,-1,-1,-1,-1,-1,-1,-1,-1,-1,-1,-1,-1,-1,-1,-1,-1,-1,-1,-1,-1,-1,-1,-1,-1,-1,-1,-1,-1,-1,-1,-1],"split_conditions":[2.8125E-1,1.3942307E-1,5.6971157E-1,7.692308E-2,2.2836539E-1,3.9423078E-1,6.995192E-1,6E0,8.4134616E-2,3.6298078E-1,2.908654E-1,3.3894232E-1,4.5673078E-1,5.480769E-1,6.995192E-1,-1.4745769E-2,-1.1316336E-2,5.528846E-2,-1.1185667E-2,5.7692308E-2,3.8221154E-1,2.8605768E-1,2.716346E-1,4.3269232E-2,3.7259614E-1,2E1,4.9519232E-1,1.7E1,5.0240386E-1,6.298077E-1,7.2596157E-1,-1.0452133E-2,9.375E-2,1.4423077E-1,1.7067307E-1,5.0721157E-1,2.451923E-1,2.6442307E-1,3.028846E-1,1.2E1,1E0,1.15384616E-1,4.7115386E-1,3.221154E-1,1.4182693E-1,4.4230768E-1,2E0,8.75E-1,4.7596154E-1,3.6057693E-1,2.0678729E-2,-1.3062671E-3,5.793269E-1,2.8674224E-2,7.894764E-3,6.811378E-3,1.9365823E-2,-7.160287E-3,-1.8393353E-3,-4.8019113E-3,1.0603892E-3,-8.732979E-3,-6.216374E-3,-2.2236456E-3,-5.401045E-4,4.4073464E-4,2.8964719E-3,-2.390906E-3,1.9519751E-4,-5.249598E-3,-2.0014024E-3,4.8845685E-3,7.233223E-4,8.759764E-4,-2.3784083E-3,1.0321534E-3,5.7496205E-3,4.3457744E-4,-3.1698514E-3,4.369959E-3,8.933924E-4,-7.5645617E-4,5.155599E-3,5.655941E-3,8.49434E-3,-3.199769E-4,4.0373136E-3,8.320621E-3,-6.039054E-3,1.3693357E-2,8.237982E-3,2.5297434E-3,1.3222198E-2,1.2520379E-2,3.368847E-3],"split_indices":[11,11,11,11,11,11,11,12,2,5,10,10,11,2,6,0,0,9,0,3,6,3,5,2,9,12,10,12,0,2,11,0,4,9,11,0,1,11,8,12,13,7,6,6,0,7,13,4,4,3,0,0,0,0,0,0,0,0,0,0,0,0,0,0,0,0,0,0,0,0,0,0,0,0,0,0,0,0,0,0,0,0,0,0,0,0,0,0,0,0,0,0,0,0,0],"split_type":[0,0,0,0,0,0,0,0,0,0,0,0,0,0,0,0,0,0,0,0,0,0,0,0,0,0,0,0,0,0,0,0,0,0,0,0,0,0,0,0,0,0,0,0,0,0,0,0,0,0,0,0,0,0,0,0,0,0,0,0,0,0,0,0,0,0,0,0,0,0,0,0,0,0,0,0,0,0,0,0,0,0,0,0,0,0,0,0,0,0,0,0,0,0,0],"sum_hessian":[1.735E3,7.59E2,9.76E2,4.79E2,2.8E2,8.32E2,1.44E2,3.07E2,1.72E2,1.65E2,1.15E2,3.84E2,4.48E2,6E1,8.4E1,2.68E2,3.9E1,3.5E1,1.37E2,1.57E2,8E0,8.5E1,3E1,1.7E2,2.14E2,2.61E2,1.87E2,4.8E1,1.2E1,6.5E1,1.9E1,1.5E1,2E1,3.6E1,1.21E2,5E0,3E0,3.8E1,4.7E1,6E0,2.4E1,2.1E1,1.49E2,9E1,1.24E2,2.41E2,2E1,9.6E1,9.1E1,1.9E1,2.9E1,1E0,1.1E1,6.4E1,1E0,2E0,1.7E1,1.9E1,1E0,2.8E1,8E0,4.1E1,8E1,4E0,1E0,1E0,2E0,2.7E1,1.1E1,2.8E1,1.9E1,4E0,2E0,9E0,1.5E1,4E0,1.7E1,1.4E2,9E0,2.9E1,6.1E1,1.7E1,1.07E2,1.9E2,5.1E1,6E0,1.4E1,9.5E1,1E0,5.8E1,3.3E1,1E0,1.8E1,1E1,1E0],"tree_param":{"num_deleted":"0","num_feature":"16","num_nodes":"95","size_leaf_vector":"1"}},{"base_weights":[3.1494355E-4,-9.552232E-2,6.562871E-2,-1.19176306E-1,-5.0157454E-2,4.3055758E-2,2.0357165E-1,-1.3373327E-2,-1.04040414E-1,-6.6747434E-2,-3.4730934E-2,1.1239654E-2,6.603283E-2,1.5110567E-1,2.3882873E-1,-8.674125E-2,-1.0908048E-1,-6.978683E-2,1.4684525E-2,-3.8275898E-2,2.7267237E-3,-1.9120147E-3,2.2327572E-2,5.2207958E-2,8.987511E-2,1.6638586E-1,1.1146198E-1,2.515268E-1,1.4062156E-2,-9.562941E-3,-6.2170804E-2,-1.1304756E-1,-8.421591E-3,-4.819981E-2,-7.6748565E-2,-2.5595378E-3,2.7033747E-3,-1.1804204E-2,-4.29697E-2,1.29867E-2,-2.1039903E-2,1.0317833E-2,-1.4847068E-2,5.928854E-2,1.8630663E-2,4.0941704E-2,6.1888307E-2,7.301644E-2,1.0667311E-1,1.14945555E-2,1.9676745E-1,7.7486834E-3,1.225552E-1,2.5301948E-2,7.128097E-3,-6.3772188E-3,-1.7473683E-3,-2.9886165E-3,-1.1340997E-2,-5.0765383E-3,1.3100877E-3,-8.189215E-3,-5.5112666E-3,4.186973E-4,-8.0262794E-4,-2.4507812E-3,8.726731E-4,-4.9740574E-3,-3.1739145E-3,2.369533E-4,2.5665776E-3,-8.6470647E-4,-2.9109211E-3,-2.0837814E-3,1.7963442E-3,-2.4889172E-3,-7.6623015E-5,6.0817376E-3,1.6649142E-3,6.272263E-4,3.2927964E-3,6.9172876E-3,3.6246919E-3,6.5737814E-3,3.0528202E-3,7.4972264E-3,-5.737101E-3,1.1478703E-2,4.3014726E-3,6.624467E-3,2.0523705E-2,2.4032563E-3,-1.2409538E-3,1.2599915E-2,3.2004043E-3],"categories":[],"categories_nodes":[],"categories_segments":[],"categories_sizes":[],"default_left":[0,0,0,0,0,0,0,0,0,0,0,0,0,0,0,0,0,0,0,0,0,0,0,0,0,0,0,0,0,0,0,0,0,0,0,0,0,0,0,0,0,0,0,0,0,0,0,0,0,0,0,0,0,0,0,0,0,0,0,0,0,0,0,0,0,0,0,0,0,0,0,0,0,0,0,0,0,0,0,0,0,0,0,0,0,0,0,0,0,0,0,0,0,0,0],"id":7,"left_children":[1,3,5,7,9,11,13,-1,15,17,19,21,23,25,27,29,31,33,35,37,39,41,43,45,47,49,51,53,-1,-1,55,57,-1,59,61,63,-1,65,67,69,71,73,75,77,79,81,83,85,87,-1,89,91,93,-1,-1,-1,-1,-1,-1,-1,-1,-1,-1,-1,-1,-1,-1,-1,-1,-1,-1,-1,-1,-1,-1,-1,-1,-1,-1,-1,-1,-1,-1,-1,-1,-1,-1,-1,-1,-1,-1,-1,-1,-1,-1],"loss_changes":[1.0872748E1,7.494564E-1,3.2077694E0,8.787966E-2,5.9871733E-2,6.491531E-1,2.3213243E-1,0E0,1.0679007E-2,2.9735267E-2,1.7100975E-2,5.45811E-2,1.6538978E-1,1.8405795E-2,7.062864E-2,6.5026283E-3,7.7414513E-3,1.3132453E-2,1.1339475E-3,1.4030367E-2,3.1993792E-3,2.736251E-2,2.6633598E-2,3.334737E-2,4.5451045E-2,4.302168E-2,2.2060648E-2,1.87397E-3,0E0,0E0,1.7405301E-4,1.0713339E-3,0E0,5.3832084E-3,4.7234297E-3,1.4425011E-4,0E0,5.1693944E-3,5.9493035E-3,1.1507268E-3,1.4829729E-4,2.1574464E-2,1.1858633E-2,1.6084313E-4,3.265813E-2,1.8036276E-2,1.9119382E-2,2.9037654E-2,4.2582273E-2,0E0,1.4041066E-2,1.2829951E-3,1.5808642E-3,0E0,0E0,0E0,0E0,0E0,0E0,0E0,0E0,0E0,0E0,0E0,0E0,0E0,0E0,0E0,0E0,0E0,0E0,0E0,0E0,0E0,0E0,0E0,0E0,0E0,0E0,0E0,0E0,0E0,0E0,0E0,0E0,0E0,0E0,0E0,0E0,0E0,0E0,0E0,0E0,0E0,0E0],"parents":[2147483647,0,0,1,1,2,2,3,3,4,4,5,5,6,6,8,8,9,9,10,10,11,11,12,12,13,13,14,14,15,15,16,16,17,17,18,18,19,19,20,20,21,21,22,22,23,23,24,24,25,25,26,26,27,27,30,30,31,31,33,33,34,34,35,35,37,37,38,38,39,39,40,40,41,41,42,42,43,43,44,44,45,45,46,46,47,47,48,48,50,50,51,51,52,52],"right_children":[2,4,6,8,10,12,14,-1,16,18,20,22,24,26,28,30,32,34,36,38,40,42,44,46,48,50,52,54,-1,-1,56,58,-1,60,62,64,-1,66,68,70,72,74,76,78,80,82,84,86,88,-1,90,92,94,-1,-1,-1,-1,-1,-1,-1,-1,-1,-1,-1,-1,-1,-1,-1,-1,-1,-1,-1,-1,-1,-1,-1,-1,-1,-1,-1,-1,-1,-1,-1,-1,-1,-1,-1,-1,-1,-1,-1,-1,-1,-1],"split_conditions":[2.596154E-1,1.298077E-1,5.6971157E-1,4.8076924E-2,1.9471154E-1,3.7980768E-1,6.995192E-1,-1.3373327E-2,9.134615E-2,3.7019232E-1,3.4855768E-1,3.221154E-1,4.5673078E-1,6.298077E-1,7.644231E-1,8.6538464E-2,1.4423077E-1,8.173077E-2,2.451923E-1,4.5673076E-2,4.7115386E-1,1.3E1,1.9951923E-1,4.1105768E-1,4.9519232E-1,5.360577E-1,5.9615386E-1,6.995192E-1,1.4062156E-2,-9.562941E-3,9.375E-2,6.0096152E-2,-8.421591E-3,2.0913461E-1,2.2596154E-1,1.9471154E-1,2.7033747E-3,1.4423077E-1,2.451923E-1,3.1009614E-1,8.5096157E-1,2E0,3.4855768E-1,4.278846E-1,3.653846E-1,1.8990384E-1,5.6971157E-1,8.75E-1,6.995192E-1,1.14945555E-2,4.2307693E-1,3.8221154E-1,5.793269E-1,2.5301948E-2,7.128097E-3,-6.3772188E-3,-1.7473683E-3,-2.9886165E-3,-1.1340997E-2,-5.0765383E-3,1.3100877E-3,-8.189215E-3,-5.5112666E-3,4.186973E-4,-8.0262794E-4,-2.4507812E-3,8.726731E-4,-4.9740574E-3,-3.1739145E-3,2.369533E-4,2.5665776E-3,-8.6470647E-4,-2.9109211E-3,-2.0837814E-3,1.7963442E-3,-2.4889172E-3,-7.6623015E-5,6.0817376E-3,1.6649142E-3,6.272263E-4,3.2927964E-3,6.9172876E-3,3.6246919E-3,6.5737814E-3,3.0528202E-3,7.4972264E-3,-5.737101E-3,1.1478703E-2,4.3014726E-3,6.624467E-3,2.0523705E-2,2.4032563E-3,-1.2409538E-3,1.2599915E-2,3.2004043E-3],"split_indices":[11,11,11,11,11,11,11,0,0,5,8,11,11,7,6,10,9,1,1,2,6,12,6,10,10,10,11,4,0,0,4,3,0,10,9,0,0,9,10,9,0,12,8,2,9,4,3,4,2,0,6,0,0,0,0,0,0,0,0,0,0,0,0,0,0,0,0,0,0,0,0,0,0,0,0,0,0,0,0,0,0,0,0,0,0,0,0,0,0,0,0,0,0,0,0],"split_type":[0,0,0,0,0,0,0,0,0,0,0,0,0,0,0,0,0,0,0,0,0,0,0,0,0,0,0,0,0,0,0,0,0,0,0,0,0,0,0,0,0,0,0,0,0,0,0,0,0,0,0,0,0,0,0,0,0,0,0,0,0,0,0,0,0,0,0,0,0,0,0,0,0,0,0,0,0,0,0,0,0,0,0,0,0,0,0,0,0,0,0,0,0,0,0],"sum_hessian":[1.735E3,7.03E2,1.032E3,4.61E2,2.42E2,8.88E2,1.44E2,2.31E2,2.3E2,1.15E2,1.27E2,3.73E2,5.15E2,6E1,8.4E1,5.6E1,1.74E2,1.11E2,4E0,1.16E2,1.1E1,1.71E2,2.02E2,3.28E2,1.87E2,4.1E1,1.9E1,7.3E1,1.1E1,3.9E1,1.7E1,1.47E2,2.7E1,2.9E1,8.2E1,2E0,2E0,1.8E1,9.8E1,8E0,3E0,8.8E1,8.3E1,1.7E1,1.85E2,1.54E2,1.74E2,9.6E1,9.1E1,1.7E1,2.4E1,2E0,1.7E1,7.2E1,1E0,1.6E1,1E0,1E0,1.46E2,2.8E1,1E0,6.4E1,1.8E1,1E0,1E0,1.1E1,7E0,5.9E1,3.9E1,5E0,3E0,2E0,1E0,1.7E1,7.1E1,4.8E1,3.5E1,1.6E1,1E0,1E2,8.5E1,2E1,1.34E2,1.54E2,2E1,9.5E1,1E0,8E1,1.1E1,2E0,2.2E1,1E0,1E0,1.6E1,1E0],"tree_param":{"num_deleted":"0","num_feature":"16","num_nodes":"95","size_leaf_vector":"1"}},{"base_weights":[3.231769E-4,-8.010697E-2,6.362435E-2,-1.0615925E-1,-3.610277E-2,4.2481486E-2,1.8391861E-1,-1.1648871E-1,-8.715559E-2,-5.1038604E-2,-1.9486146E-2,2.1725424E-2,6.5736435E-2,1.4145711E-1,2.1957996E-1,-1.1979822E-2,-9.132006E-3,-5.1254244E-3,-8.858563E-2,-2.954522E-2,-5.9123576E-2,-2.7105587E-2,-9.843969E-4,1.08972965E-2,3.612416E-2,5.4025944E-2,8.649404E-2,1.5780558E-1,9.935784E-2,2.4140723E-2,1.7021809E-2,-9.422992E-3,-7.741782E-2,-4.1196465E-2,-1.107424E-2,-7.369408E-2,-4.835087E-2,-7.0081903E-3,-3.557347E-2,3.4886207E-2,-8.130392E-3,4.1765872E-2,7.0074415E-3,4.318552E-2,2.0340161E-2,5.9046768E-2,2.2260815E-2,5.7710975E-2,9.3886524E-2,1.212054E-1,2.0298558E-1,7.3612533E-3,1.0818944E-1,-3.0738483E-3,-7.847918E-3,-4.3944954E-3,1.375787E-3,-3.376506E-4,-2.5906959E-3,-7.470702E-3,-1.5069038E-3,-3.731152E-3,-6.8231807E-3,7.849516E-5,-1.8763317E-3,-4.6452223E-3,-1.3693584E-3,4.4276984E-3,7.6061784E-4,-2.3593444E-3,2.079296E-4,1.8507555E-3,5.1808893E-3,2.9462692E-4,2.3646667E-3,1.9749606E-3,5.7293153E-3,8.165822E-4,5.6318794E-3,4.821935E-3,8.157196E-3,-3.0747608E-3,2.9847731E-3,3.9382703E-3,7.463562E-3,1.0480034E-2,6.884461E-3,3.1006024E-3,1.2331944E-2,8.140648E-3,2.119718E-2,2.2830933E-3,-1.1789054E-3,3.0403838E-3,1.1068322E-2],"categories":[],"categories_nodes":[],"categories_segments":[],"categories_sizes":[],"default_left":[0,0,0,0,0,0,0,0,0,0,0,0,0,0,0,0,0,0,0,0,0,0,0,0,0,0,0,0,0,0,0,0,0,0,0,0,0,0,0,0,0,0,0,0,0,0,0,0,0,0,0,0,0,0,0,0,0,0,0,0,0,0,0,0,0,0,0,0,0,0,0,0,0,0,0,0,0,0,0,0,0,0,0,0,0,0,0,0,0,0,0,0,0,0,0],"id":8,"left_children":[1,3,5,7,9,11,13,15,17,19,21,23,25,27,29,-1,-1,-1,31,33,35,37,39,41,43,45,47,49,51,-1,-1,-1,53,55,57,59,61,63,65,67,69,71,73,75,77,79,81,83,85,87,89,91,93,-1,-1,-1,-1,-1,-1,-1,-1,-1,-1,-1,-1,-1,-1,-1,-1,-1,-1,-1,-1,-1,-1,-1,-1,-1,-1,-1,-1,-1,-1,-1,-1,-1,-1,-1,-1,-1,-1,-1,-1,-1,-1],"loss_changes":[8.843633E0,8.731713E-1,2.4643376E0,8.406973E-2,6.998581E-2,3.9823186E-1,1.8850279E-1,1.4715195E-2,4.341483E-3,2.4319232E-2,1.9286618E-2,6.805141E-2,9.012902E-2,3.181064E-2,4.187107E-2,0E0,0E0,0E0,3.1056404E-3,8.7978095E-3,1.3388902E-2,1.6258396E-2,1.07932165E-2,2.996605E-2,2.007544E-2,3.8876295E-2,2.4157882E-2,5.4769754E-2,1.7078072E-2,0E0,0E0,0E0,6.098449E-4,4.531659E-3,1.9677347E-3,1.4870912E-3,1.1719897E-2,2.763009E-3,1.554966E-2,1.4564861E-3,5.57461E-3,5.5814832E-3,1.5134651E-2,4.1519135E-2,2.5821075E-2,4.8990726E-2,1.5395882E-2,6.676838E-3,2.257508E-2,1.7062426E-3,4.594803E-3,1.1579025E-3,5.14403E-4,0E0,0E0,0E0,0E0,0E0,0E0,0E0,0E0,0E0,0E0,0E0,0E0,0E0,0E0,0E0,0E0,0E0,0E0,0E0,0E0,0E0,0E0,0E0,0E0,0E0,0E0,0E0,0E0,0E0,0E0,0E0,0E0,0E0,0E0,0E0,0E0,0E0,0E0,0E0,0E0,0E0,0E0],"parents":[2147483647,0,0,1,1,2,2,3,3,4,4,5,5,6,6,7,7,8,8,9,9,10,10,11,11,12,12,13,13,14,14,18,18,19,19,20,20,21,21,22,22,23,23,24,24,25,25,26,26,27,27,28,28,32,32,33,33,34,34,35,35,36,36,37,37,38,38,39,39,40,40,41,41,42,42,43,43,44,44,45,45,46,46,47,47,48,48,49,49,50,50,51,51,52,52],"right_children":[2,4,6,8,10,12,14,16,18,20,22,24,26,28,30,-1,-1,-1,32,34,36,38,40,42,44,46,48,50,52,-1,-1,-1,54,56,58,60,62,64,66,68,70,72,74,76,78,80,82,84,86,88,90,92,94,-1,-1,-1,-1,-1,-1,-1,-1,-1,-1,-1,-1,-1,-1,-1,-1,-1,-1,-1,-1,-1,-1,-1,-1,-1,-1,-1,-1,-1,-1,-1,-1,-1,-1,-1,-1,-1,-1,-1,-1,-1,-1],"split_conditions":[2.8365386E-1,1.3942307E-1,5.6971157E-1,7.692308E-2,2.2596154E-1,4.0865386E-1,7.2596157E-1,6E0,1.6826924E-2,6.0096152E-2,2.908654E-1,3.653846E-1,4.783654E-1,6.298077E-1,7.2596157E-1,-1.1979822E-2,-9.132006E-3,-5.1254244E-3,1.1057692E-1,1.6826923E-1,8E0,2.7403846E-1,2.716346E-1,1.826923E-1,1.7E1,1.8E1,4.5432693E-1,4.903846E-1,5.9615386E-1,2.4140723E-2,1.7021809E-2,-9.422992E-3,1.923077E-2,1.5384616E-1,4.0865384E-2,3.2451922E-1,2.3E1,2.2596154E-1,4.3509614E-1,1.2E1,3.8701922E-1,2.6923078E-1,3.7259614E-1,1.2E1,4.7596154E-1,4.0144232E-1,4.158654E-1,4.158654E-1,4.5673078E-1,3.6778846E-1,5.2403843E-1,3.8221154E-1,6.298077E-1,-3.0738483E-3,-7.847918E-3,-4.3944954E-3,1.375787E-3,-3.376506E-4,-2.5906959E-3,-7.470702E-3,-1.5069038E-3,-3.731152E-3,-6.8231807E-3,7.849516E-5,-1.8763317E-3,-4.6452223E-3,-1.3693584E-3,4.4276984E-3,7.6061784E-4,-2.3593444E-3,2.079296E-4,1.8507555E-3,5.1808893E-3,2.9462692E-4,2.3646667E-3,1.9749606E-3,5.7293153E-3,8.165822E-4,5.6318794E-3,4.821935E-3,8.157196E-3,-3.0747608E-3,2.9847731E-3,3.9382703E-3,7.463562E-3,1.0480034E-2,6.884461E-3,3.1006024E-3,1.2331944E-2,8.140648E-3,2.119718E-2,2.2830933E-3,-1.1789054E-3,3.0403838E-3,1.1068322E-2],"split_indices":[11,11,11,11,10,11,11,12,0,1,10,10,11,7,7,0,0,0,11,10,12,0,5,6,12,12,10,4,11,0,0,0,3,9,2,7,12,3,0,12,3,10,11,12,9,2,8,4,0,2,10,0,10,0,0,0,0,0,0,0,0,0,0,0,0,0,0,0,0,0,0,0,0,0,0,0,0,0,0,0,0,0,0,0,0,0,0,0,0,0,0,0,0,0,0],"split_type":[0,0,0,0,0,0,0,0,0,0,0,0,0,0,0,0,0,0,0,0,0,0,0,0,0,0,0,0,0,0,0,0,0,0,0,0,0,0,0,0,0,0,0,0,0,0,0,0,0,0,0,0,0,0,0,0,0,0,0,0,0,0,0,0,0,0,0,0,0,0,0,0,0,0,0,0,0,0,0,0,0,0,0,0,0,0,0,0,0,0,0,0,0,0,0],"sum_hessian":[1.735E3,7.64E2,9.71E2,4.79E2,2.85E2,8.27E2,1.44E2,3.07E2,1.72E2,1.49E2,1.36E2,4.38E2,3.89E2,6.8E1,7.6E1,2.68E2,3.9E1,8E0,1.64E2,4.2E1,1.07E2,9.6E1,4E1,2.51E2,1.87E2,2.51E2,1.38E2,4.7E1,2.1E1,5E1,2.6E1,1.04E2,6E1,2.5E1,1.7E1,4.3E1,6.4E1,2.9E1,6.7E1,6E0,3.4E1,2.7E1,2.24E2,1.28E2,5.9E1,2.16E2,3.5E1,3E1,1.08E2,2.8E1,1.9E1,2E0,1.9E1,2E0,5.8E1,2.4E1,1E0,1.2E1,5E0,4.2E1,1E0,4.3E1,2.1E1,1.8E1,1.1E1,4.4E1,2.3E1,4E0,2E0,1.3E1,2.1E1,9E0,1.8E1,1.81E2,4.3E1,4.9E1,7.9E1,4.5E1,1.4E1,1.48E2,6.8E1,4E0,3.1E1,1.6E1,1.4E1,7.3E1,3.5E1,1E0,2.7E1,2E0,1.7E1,1E0,1E0,1E0,1.8E1],"tree_param":{"num_deleted":"0","num_feature":"16","num_nodes":"95","size_leaf_vector":"1"}},{"base_weights":[3.4259152E-4,-7.0620365E-2,5.8720995E-2,-9.414808E-2,-2.8403843E-2,3.9380204E-2,1.662243E-1,-1.04908384E-1,-7.675868E-2,-3.9165728E-2,-1.0963731E-2,2.0817712E-2,5.9269603E-2,1.1925615E-1,1.9198577E-1,-1.0786294E-2,-8.241634E-3,-7.756145E-2,7.4030954E-4,-4.0790692E-2,2.3916101E-2,1.7619333E-3,-1.6756192E-2,1.0940281E-2,3.306638E-2,5.17587E-2,8.642729E-2,7.916375E-2,1.3003755E-1,2.0463656E-1,1.13402665E-1,-6.286814E-2,-8.145237E-2,1.5814856E-3,-1.4704391E-3,-5.8752995E-2,-3.5174627E-2,5.218705E-4,3.4641463E-3,-6.441862E-3,3.0254975E-2,-4.4809148E-2,-1.1750981E-2,3.784041E-2,7.248764E-3,3.9676532E-2,1.8413614E-2,5.537794E-2,1.8812196E-2,1.06508546E-1,5.725152E-2,2.1689385E-3,8.191644E-3,1.4576091E-1,7.39047E-2,2.0761754E-1,9.75839E-3,1.3310841E-2,7.1866326E-3,-6.572213E-3,-1.7184158E-3,-8.625891E-3,-7.0114112E-3,-7.3829414E-3,-5.019335E-3,-2.7668476E-3,-4.6190466E-3,-1.9426307E-3,1.8509576E-4,3.6790415E-3,7.099102E-4,-1.9894352E-3,-5.1665404E-3,-2.7387103E-3,-3.6658524E-4,1.6841878E-3,4.6900674E-3,1.1703907E-4,1.7710561E-3,1.9342043E-3,5.1635453E-3,7.366989E-4,5.1062363E-3,4.4835224E-3,7.7144178E-3,-2.8287794E-3,2.6551045E-3,8.597452E-3,1.5517904E-2,3.907923E-3,8.0087455E-3,6.8611577E-3,1.5464926E-2,-1.1199594E-3,8.353509E-3,2.098993E-2,8.288858E-3],"categories":[],"categories_nodes":[],"categories_segments":[],"categories_sizes":[],"default_left":[0,0,0,0,0,0,0,0,0,0,0,0,0,0,0,0,0,0,0,0,0,0,0,0,0,0,0,0,0,0,0,0,0,0,0,0,0,0,0,0,0,0,0,0,0,0,0,0,0,0,0,0,0,0,0,0,0,0,0,0,0,0,0,0,0,0,0,0,0,0,0,0,0,0,0,0,0,0,0,0,0,0,0,0,0,0,0,0,0,0,0,0,0,0,0,0,0],"id":9,"left_children":[1,3,5,7,9,11,13,15,17,19,21,23,25,27,29,-1,-1,31,33,35,37,39,41,43,45,47,49,51,53,55,57,59,61,-1,-1,63,65,-1,-1,67,69,71,73,75,77,79,81,83,85,87,89,-1,-1,91,93,95,-1,-1,-1,-1,-1,-1,-1,-1,-1,-1,-1,-1,-1,-1,-1,-1,-1,-1,-1,-1,-1,-1,-1,-1,-1,-1,-1,-1,-1,-1,-1,-1,-1,-1,-1,-1,-1,-1,-1,-1,-1],"loss_changes":[7.1958814E0,7.760403E-1,1.9749308E0,8.6066246E-2,5.2498758E-2,2.974465E-1,1.5255022E-1,1.1578083E-2,1.2251496E-2,1.8811494E-2,8.064229E-3,5.04521E-2,7.507837E-2,1.30473375E-2,6.825423E-2,0E0,0E0,5.9702396E-3,9.3101343E-4,1.5082568E-2,8.2189846E-4,8.376186E-3,1.0004271E-2,2.296244E-2,1.7381683E-2,3.5684526E-2,4.2530775E-2,4.382059E-4,2.541405E-2,4.6315193E-3,2.7115345E-3,4.7378093E-3,2.126813E-3,0E0,0E0,1.327157E-3,9.636611E-3,0E0,0E0,3.0509317E-3,9.494922E-4,8.511953E-4,8.116907E-3,4.537165E-3,1.31425485E-2,3.0128106E-2,2.1263335E-2,6.010586E-2,1.2415063E-2,3.4629762E-2,1.180958E-2,0E0,0E0,1.0646939E-2,9.9510215E-3,3.9470196E-3,0E0,0E0,0E0,0E0,0E0,0E0,0E0,0E0,0E0,0E0,0E0,0E0,0E0,0E0,0E0,0E0,0E0,0E0,0E0,0E0,0E0,0E0,0E0,0E0,0E0,0E0,0E0,0E0,0E0,0E0,0E0,0E0,0E0,0E0,0E0,0E0,0E0,0E0,0E0,0E0,0E0],"parents":[2147483647,0,0,1,1,2,2,3,3,4,4,5,5,6,6,7,7,8,8,9,9,10,10,11,11,12,12,13,13,14,14,17,17,18,18,19,19,20,20,21,21,22,22,23,23,24,24,25,25,26,26,27,27,28,28,29,29,30,30,31,31,32,32,35,35,36,36,39,39,40,40,41,41,42,42,43,43,44,44,45,45,46,46,47,47,48,48,49,49,50,50,53,53,54,54,55,55],"right_children":[2,4,6,8,10,12,14,16,18,20,22,24,26,28,30,-1,-1,32,34,36,38,40,42,44,46,48,50,52,54,56,58,60,62,-1,-1,64,66,-1,-1,68,70,72,74,76,78,80,82,84,86,88,90,-1,-1,92,94,96,-1,-1,-1,-1,-1,-1,-1,-1,-1,-1,-1,-1,-1,-1,-1,-1,-1,-1,-1,-1,-1,-1,-1,-1,-1,-1,-1,-1,-1,-1,-1,-1,-1,-1,-1,-1,-1,-1,-1,-1,-1],"split_conditions":[2.908654E-1,1.5384616E-1,5.6971157E-1,7.692308E-2,2.451923E-1,4.0865386E-1,6.8028843E-1,6E0,3.221154E-1,3.7740386E-1,2.7403846E-1,3.653846E-1,5.144231E-1,5.120192E-1,7.644231E-1,-1.0786294E-2,-8.241634E-3,8.6538464E-2,1.8990384E-1,5E0,8.3413464E-1,2.8125E-1,2.5480768E-1,1.826923E-1,1.7E1,1.8E1,1.7E1,3.6057693E-1,5.480769E-1,6.201923E-1,5.793269E-1,1.0576923E-1,1.4423077E-1,1.5814856E-3,-1.4704391E-3,5E0,2.2E1,5.218705E-4,3.4641463E-3,2.5721154E-1,1.2E1,2.5721154E-1,3.4855768E-1,2.6923078E-1,3.3894232E-1,1.2E1,4.7596154E-1,1.5E1,4.158654E-1,4.903846E-1,7.644231E-1,2.1689385E-3,8.191644E-3,4.2307693E-1,5.0240386E-1,6.4663464E-1,9.75839E-3,1.3310841E-2,7.1866326E-3,-6.572213E-3,-1.7184158E-3,-8.625891E-3,-7.0114112E-3,-7.3829414E-3,-5.019335E-3,-2.7668476E-3,-4.6190466E-3,-1.9426307E-3,1.8509576E-4,3.6790415E-3,7.099102E-4,-1.9894352E-3,-5.1665404E-3,-2.7387103E-3,-3.6658524E-4,1.6841878E-3,4.6900674E-3,1.1703907E-4,1.7710561E-3,1.9342043E-3,5.1635453E-3,7.366989E-4,5.1062363E-3,4.4835224E-3,7.7144178E-3,-2.8287794E-3,2.6551045E-3,8.597452E-3,1.5517904E-2,3.907923E-3,8.0087455E-3,6.8611577E-3,1.5464926E-2,-1.1199594E-3,8.353509E-3,2.098993E-2,8.288858E-3],"split_indices":[11,11,11,11,11,11,11,12,6,8,5,10,10,8,6,0,0,2,0,12,1,10,9,6,12,12,12,3,2,3,3,8,9,0,0,13,12,0,0,11,12,7,2,10,10,12,9,12,8,6,8,0,0,5,0,4,0,0,0,0,0,0,0,0,0,0,0,0,0,0,0,0,0,0,0,0,0,0,0,0,0,0,0,0,0,0,0,0,0,0,0,0,0,0,0,0,0],"split_type":[0,0,0,0,0,0,0,0,0,0,0,0,0,0,0,0,0,0,0,0,0,0,0,0,0,0,0,0,0,0,0,0,0,0,0,0,0,0,0,0,0,0,0,0,0,0,0,0,0,0,0,0,0,0,0,0,0,0,0,0,0,0,0,0,0,0,0,0,0,0,0,0,0,0,0,0,0,0,0,0,0,0,0,0,0,0,0,0,0,0,0,0,0,0,0,0,0],"sum_hessian":[1.735E3,7.83E2,9.52E2,5.02E2,2.81E2,8.08E2,1.44E2,3.07E2,1.95E2,1.73E2,1.08E2,4.19E2,3.89E2,5.3E1,9.1E1,2.68E2,3.9E1,1.93E2,2E0,1.69E2,4E0,3.4E1,7.4E1,2.33E2,1.86E2,3.07E2,8.2E1,1.3E1,4E1,7.7E1,1.4E1,4.4E1,1.49E2,1E0,1E0,3.8E1,1.31E2,2E0,2E0,2.7E1,7E0,1E1,6.4E1,2.7E1,2.06E2,1.27E2,5.9E1,2.76E2,3.1E1,4.7E1,3.5E1,1E0,1.2E1,3E1,1E1,7.4E1,3E0,8E0,6E0,4.1E1,3E0,1E2,4.9E1,1.1E1,2.7E1,8E1,5.1E1,1E1,1.7E1,5E0,2E0,3E0,7E0,2.1E1,4.3E1,9E0,1.8E1,1.31E2,7.5E1,4.8E1,7.9E1,4.5E1,1.4E1,1.88E2,8.8E1,4E0,2.7E1,3.5E1,1.2E1,2.1E1,1.4E1,4E0,2.6E1,1E0,9E0,7.2E1,2E0],"tree_param":{"num_deleted":"0","num_feature":"16","num_nodes":"97","size_leaf_vector":"1"}},{"base_weights":[3.673394E-4,-6.364287E-2,5.3025927E-2,-8.4818445E-2,-2.5646549E-2,3.5474762E-2,1.5058362E-1,-9.567797E-2,-7.064185E-2,-3.64478E-2,-1.1182219E-2,2.4959637E-2,6.534905E-2,1.6896816E-1,8.30674E-2,-9.8688705E-3,-7.557375E-3,-4.6862405E-2,-7.411332E-2,-2.4105938E-2,-4.47684E-2,1.5868623E-2,-1.5122698E-2,1.2022454E-2,3.7185725E-2,3.0760402E-2,7.0501365E-2,8.040173E-2,1.7773119E-1,2.5907643E-2,8.791979E-2,-4.8301138E-2,-1.8502325E-4,-7.490456E-2,7.032901E-4,-4.0627215E-2,-9.612277E-3,-4.895385E-2,-2.545009E-2,4.39213E-3,4.023848E-3,-2.2547504E-2,7.71182E-3,1.8984046E-2,1.8279584E-3,4.093549E-2,1.6021682E-2,6.297353E-3,1.7648337E-2,7.65523E-2,2.9439382E-2,1.0688811E-3,8.576756E-2,1.8832116E-1,1.3953273E-1,3.429687E-3,3.6998095E-5,8.921105E-3,2.5236562E-3,-4.9151736E-3,-1.1816837E-3,-8.275107E-3,-6.804465E-3,1.5024111E-3,-1.3969176E-3,-2.850143E-3,-5.3315563E-3,6.0668677E-5,-1.7427044E-3,-6.01075E-3,-4.309012E-3,-4.0599867E-3,-1.7139468E-3,-6.323526E-4,1.2949532E-3,-4.0253266E-3,-1.6849776E-3,3.832417E-3,2.2884358E-4,8.8807207E-4,3.2202024E-3,-5.096611E-4,2.5868015E-3,3.5596478E-3,7.229607E-3,4.9232866E-4,2.691494E-3,-2.8961182E-3,2.3757347E-3,7.066175E-3,1.184421E-2,-5.1550693E-3,3.4961912E-3,1.8835887E-3,9.057715E-3,1.5477943E-2,2.0536138E-2,5.5128653E-3,1.4426938E-2],"categories":[],"categories_nodes":[],"categories_segments":[],"categories_sizes":[],"default_left":[0,0,0,0,0,0,0,0,0,0,0,0,0,0,0,0,0,0,0,0,0,0,0,0,0,0,0,0,0,0,0,0,0,0,0,0,0,0,0,0,0,0,0,0,0,0,0,0,0,0,0,0,0,0,0,0,0,0,0,0,0,0,0,0,0,0,0,0,0,0,0,0,0,0,0,0,0,0,0,0,0,0,0,0,0,0,0,0,0,0,0,0,0,0,0,0,0,0,0],"id":10,"left_children":[1,3,5,7,9,11,13,15,17,19,21,23,25,27,29,-1,-1,31,33,35,37,39,41,43,45,47,49,51,53,55,57,59,-1,61,63,65,67,69,71,73,-1,75,77,79,81,83,85,-1,87,89,91,-1,93,95,97,-1,-1,-1,-1,-1,-1,-1,-1,-1,-1,-1,-1,-1,-1,-1,-1,-1,-1,-1,-1,-1,-1,-1,-1,-1,-1,-1,-1,-1,-1,-1,-1,-1,-1,-1,-1,-1,-1,-1,-1,-1,-1,-1,-1],"loss_changes":[5.8548875E0,6.2862635E-1,1.6264336E0,7.067871E-2,4.3650106E-2,2.525015E-1,1.65946E-1,9.610891E-3,1.4852881E-2,1.5454188E-2,1.3244354E-2,9.44556E-2,3.525591E-2,7.341075E-2,6.8751276E-3,0E0,0E0,1.9182116E-3,1.14187E-2,1.5652884E-2,6.435424E-3,4.2981557E-3,1.8314863E-2,2.075949E-2,2.3787111E-2,1.1137661E-2,4.2966664E-2,3.5720617E-3,1.4984131E-2,8.442758E-4,1.7683208E-4,3.501922E-4,0E0,4.5962334E-3,8.402397E-4,3.2499693E-3,2.965349E-3,2.4459064E-3,1.6963175E-3,1.1822648E-3,0E0,7.493235E-3,4.394906E-3,2.2950947E-2,2.0107884E-2,4.1126907E-2,5.670578E-3,0E0,6.952278E-3,3.0617893E-2,1.2984067E-2,0E0,1.8349364E-3,1.2223959E-2,2.4411678E-3,0E0,0E0,0E0,0E0,0E0,0E0,0E0,0E0,0E0,0E0,0E0,0E0,0E0,0E0,0E0,0E0,0E0,0E0,0E0,0E0,0E0,0E0,0E0,0E0,0E0,0E0,0E0,0E0,0E0,0E0,0E0,0E0,0E0,0E0,0E0,0E0,0E0,0E0,0E0,0E0,0E0,0E0,0E0,0E0],"parents":[2147483647,0,0,1,1,2,2,3,3,4,4,5,5,6,6,7,7,8,8,9,9,10,10,11,11,12,12,13,13,14,14,17,17,18,18,19,19,20,20,21,21,22,22,23,23,24,24,25,25,26,26,27,27,28,28,29,29,30,30,31,31,33,33,34,34,35,35,36,36,37,37,38,38,39,39,41,41,42,42,43,43,44,44,45,45,46,46,48,48,49,49,50,50,52,52,53,53,54,54],"right_children":[2,4,6,8,10,12,14,16,18,20,22,24,26,28,30,-1,-1,32,34,36,38,40,42,44,46,48,50,52,54,56,58,60,-1,62,64,66,68,70,72,74,-1,76,78,80,82,84,86,-1,88,90,92,-1,94,96,98,-1,-1,-1,-1,-1,-1,-1,-1,-1,-1,-1,-1,-1,-1,-1,-1,-1,-1,-1,-1,-1,-1,-1,-1,-1,-1,-1,-1,-1,-1,-1,-1,-1,-1,-1,-1,-1,-1,-1,-1,-1,-1,-1,-1],"split_conditions":[2.908654E-1,1.5384616E-1,5.6971157E-1,6.7307696E-2,2.451923E-1,4.5192307E-1,7.2596157E-1,6E0,8.173077E-2,1.00961536E-1,2.3557693E-1,3.7980768E-1,3.5096154E-1,5.360577E-1,7.8846157E-1,-9.8688705E-3,-7.557375E-3,1.0576923E-1,3.221154E-1,1.7067307E-1,3.9182693E-1,2.6442307E-1,3.5576922E-1,1.9E1,1.7E1,5.2884616E-2,5.360577E-1,3.3653846E-1,7.2596157E-1,5.3125E-1,9.1586536E-1,9.134615E-2,-1.8502325E-4,9.8557696E-2,1.8990384E-1,2.6442308E-2,4.0865384E-2,5E0,3.4134614E-1,2.5480768E-1,4.023848E-3,2.5480768E-1,2.6201922E-1,2.908654E-1,4.2067307E-1,1.5E1,4.591346E-1,6.297353E-3,4.5673078E-1,5.168269E-1,3.4375E-1,1.0688811E-3,4.3269232E-1,4.6634614E-1,7.2596157E-1,3.429687E-3,3.6998095E-5,8.921105E-3,2.5236562E-3,-4.9151736E-3,-1.1816837E-3,-8.275107E-3,-6.804465E-3,1.5024111E-3,-1.3969176E-3,-2.850143E-3,-5.3315563E-3,6.0668677E-5,-1.7427044E-3,-6.01075E-3,-4.309012E-3,-4.0599867E-3,-1.7139468E-3,-6.323526E-4,1.2949532E-3,-4.0253266E-3,-1.6849776E-3,3.832417E-3,2.2884358E-4,8.8807207E-4,3.2202024E-3,-5.096611E-4,2.5868015E-3,3.5596478E-3,7.229607E-3,4.9232866E-4,2.691494E-3,-2.8961182E-3,2.3757347E-3,7.066175E-3,1.184421E-2,-5.1550693E-3,3.4961912E-3,1.8835887E-3,9.057715E-3,1.5477943E-2,2.0536138E-2,5.5128653E-3,1.4426938E-2],"split_indices":[11,11,10,10,10,11,5,12,1,0,4,11,3,11,7,0,0,0,6,10,0,8,8,12,12,0,4,0,7,0,4,4,0,10,0,1,2,13,2,10,0,9,10,0,8,12,9,0,11,6,8,0,9,2,8,0,0,0,0,0,0,0,0,0,0,0,0,0,0,0,0,0,0,0,0,0,0,0,0,0,0,0,0,0,0,0,0,0,0,0,0,0,0,0,0,0,0,0,0],"split_type":[0,0,0,0,0,0,0,0,0,0,0,0,0,0,0,0,0,0,0,0,0,0,0,0,0,0,0,0,0,0,0,0,0,0,0,0,0,0,0,0,0,0,0,0,0,0,0,0,0,0,0,0,0,0,0,0,0,0,0,0,0,0,0,0,0,0,0,0,0,0,0,0,0,0,0,0,0,0,0,0,0,0,0,0,0,0,0,0,0,0,0,0,0,0,0,0,0,0,0],"sum_hessian":[1.735E3,7.83E2,9.52E2,5.02E2,2.81E2,8.08E2,1.44E2,2.81E2,2.21E2,1.6E2,1.21E2,5.99E2,2.09E2,1.12E2,3.2E1,2.41E2,4E1,3E1,1.91E2,6.6E1,9.4E1,1.5E1,1.06E2,2.92E2,3.07E2,2.8E1,1.81E2,1.1E1,1.01E2,3E0,2.9E1,2.9E1,1E0,1.89E2,2E0,3E1,3.6E1,7.6E1,1.8E1,1.1E1,4E0,8E1,2.6E1,1.73E2,1.19E2,2.6E2,4.7E1,7E0,2.1E1,1.57E2,2.4E1,1E0,1E1,7.6E1,2.5E1,2E0,1E0,2.8E1,1E0,2.8E1,1E0,8.3E1,1.06E2,1E0,1E0,1.7E1,1.3E1,1.6E1,2E1,2.3E1,5.3E1,5E0,1.3E1,5E0,6E0,1.8E1,6.2E1,3E0,2.3E1,9.9E1,7.4E1,9.3E1,2.6E1,2.24E2,3.6E1,2.4E1,2.3E1,2E0,1.9E1,1.4E2,1.7E1,1E0,2.3E1,1E0,9E0,2.9E1,4.7E1,2E0,2.3E1],"tree_param":{"num_deleted":"0","num_feature":"16","num_nodes":"99","size_leaf_vector":"1"}},{"base_weights":[3.6773636E-4,-5.689201E-2,4.8245214E-2,-7.6413505E-2,-2.27183E-2,3.2301664E-2,1.3609682E-1,-8.799341E-2,-6.54259E-2,-3.2084953E-2,-8.472468E-3,2.281945E-2,5.892381E-2,1.5340915E-1,7.73035E-2,-9.231474E-3,-7.790873E-2,-7.061311E-2,-5.4180223E-2,-3.3469833E-2,2.1417905E-2,3.9799763E-3,-1.390229E-2,1.1224049E-2,3.3512518E-2,2.7883576E-2,6.3546024E-2,7.2265156E-2,1.6072771E-1,8.051424E-3,1.621748E-2,-7.871478E-3,-3.1250622E-3,-2.5682203E-3,-7.1776696E-2,-5.5142153E-2,1.4272899E-3,-4.877634E-2,-2.8693898E-2,4.7182242E-4,3.0978282E-3,-1.6181476E-2,1.2356745E-2,-4.2662896E-2,-8.773295E-3,3.7210546E-2,8.592352E-3,3.688328E-2,1.4485833E-2,4.6978295E-2,9.432975E-3,6.889874E-2,2.543658E-2,1.0154367E-3,7.74608E-2,1.6438575E-1,7.541112E-3,2.3974732E-3,3.514886E-5,-1.7392256E-3,-7.19943E-3,-3.731946E-3,-5.899239E-3,-6.171442E-3,-4.1489433E-3,-2.4153367E-3,-4.27081E-3,-2.6570654E-3,1.5996695E-4,-6.837363E-4,1.725236E-3,-1.5312362E-3,-5.007837E-3,-2.1935243E-3,-1.865635E-4,1.0657456E-3,4.6432344E-3,1.8377139E-5,1.521429E-3,3.2052652E-3,6.5261866E-3,4.4506454E-4,2.4335578E-3,5.253333E-3,9.098719E-4,-6.662296E-4,3.7368808E-3,7.9420945E-3,5.0213407E-3,-4.8973165E-3,3.0801056E-3,8.209109E-3,1.789409E-3,2.6922838E-3,1.6554935E-2],"categories":[],"categories_nodes":[],"categories_segments":[],"categories_sizes":[],"default_left":[0,0,0,0,0,0,0,0,0,0,0,0,0,0,0,0,0,0,0,0,0,0,0,0,0,0,0,0,0,0,0,0,0,0,0,0,0,0,0,0,0,0,0,0,0,0,0,0,0,0,0,0,0,0,0,0,0,0,0,0,0,0,0,0,0,0,0,0,0,0,0,0,0,0,0,0,0,0,0,0,0,0,0,0,0,0,0,0,0,0,0,0,0,0,0],"id":11,"left_children":[1,3,5,7,9,11,13,15,17,19,21,23,25,27,29,-1,31,33,35,37,39,41,43,45,47,49,51,53,55,-1,57,-1,-1,-1,59,61,-1,63,65,-1,-1,67,69,71,73,75,77,79,81,83,85,87,89,-1,91,93,-1,-1,-1,-1,-1,-1,-1,-1,-1,-1,-1,-1,-1,-1,-1,-1,-1,-1,-1,-1,-1,-1,-1,-1,-1,-1,-1,-1,-1,-1,-1,-1,-1,-1,-1,-1,-1,-1,-1],"loss_changes":[4.7619066E0,5.2595735E-1,1.3206344E0,5.824232E-2,3.829111E-2,2.011097E-1,1.3572931E-1,3.3540726E-3,1.1457682E-2,1.3609365E-2,7.898618E-3,7.315019E-2,2.8357744E-2,5.430293E-2,5.558878E-3,0E0,5.1122904E-4,7.357955E-3,6.5157413E-3,1.1027917E-2,6.521137E-4,6.279912E-3,1.1574259E-2,1.9239403E-2,1.92191E-2,9.773819E-3,3.537345E-2,2.7631968E-3,1.9124985E-2,0E0,3.608025E-4,0E0,0E0,0E0,7.715225E-4,3.699869E-3,0E0,1.1163652E-3,7.3678717E-3,0E0,0E0,2.0745504E-3,2.5611017E-3,1.6669873E-3,6.3233553E-3,5.8716945E-3,1.4529975E-2,3.368771E-2,4.636205E-3,2.4679303E-3,7.443119E-3,2.7273118E-2,1.1088486E-2,0E0,1.2891628E-3,1.0897875E-2,0E0,0E0,0E0,0E0,0E0,0E0,0E0,0E0,0E0,0E0,0E0,0E0,0E0,0E0,0E0,0E0,0E0,0E0,0E0,0E0,0E0,0E0,0E0,0E0,0E0,0E0,0E0,0E0,0E0,0E0,0E0,0E0,0E0,0E0,0E0,0E0,0E0,0E0,0E0],"parents":[2147483647,0,0,1,1,2,2,3,3,4,4,5,5,6,6,7,7,8,8,9,9,10,10,11,11,12,12,13,13,14,14,16,16,17,17,18,18,19,19,20,20,21,21,22,22,23,23,24,24,25,25,26,26,27,27,28,28,30,30,34,34,35,35,37,37,38,38,41,41,42,42,43,43,44,44,45,45,46,46,47,47,48,48,49,49,50,50,51,51,52,52,54,54,55,55],"right_children":[2,4,6,8,10,12,14,16,18,20,22,24,26,28,30,-1,32,34,36,38,40,42,44,46,48,50,52,54,56,-1,58,-1,-1,-1,60,62,-1,64,66,-1,-1,68,70,72,74,76,78,80,82,84,86,88,90,-1,92,94,-1,-1,-1,-1,-1,-1,-1,-1,-1,-1,-1,-1,-1,-1,-1,-1,-1,-1,-1,-1,-1,-1,-1,-1,-1,-1,-1,-1,-1,-1,-1,-1,-1,-1,-1,-1,-1,-1,-1],"split_conditions":[2.9326922E-1,1.5384616E-1,5.6971157E-1,5.2884616E-2,2.451923E-1,4.5192307E-1,1.9E1,5E0,1.1057692E-1,3.7740386E-1,2.716346E-1,3.7980768E-1,3.5096154E-1,5.360577E-1,9.1586536E-1,-9.231474E-3,4.8076924E-2,1.6826924E-2,4.1826922E-1,5E0,8.3413464E-1,2.5721154E-1,2.5480768E-1,1.826923E-1,1.7E1,8.8942304E-2,1.8E1,3.3653846E-1,6.706731E-1,8.051424E-3,6.298077E-1,-7.871478E-3,-3.1250622E-3,-2.5682203E-3,1.2019231E-2,7.451923E-2,1.4272899E-3,5E0,2.3E1,4.7182242E-4,3.0978282E-3,1.9471154E-1,1.15384616E-1,2.5721154E-1,3.4855768E-1,2.6923078E-1,3.3894232E-1,1.5E1,4.591346E-1,4E0,2.8365386E-1,5E0,3.4375E-1,1.0154367E-3,4.5673078E-1,4.0384614E-1,7.541112E-3,2.3974732E-3,3.514886E-5,-1.7392256E-3,-7.19943E-3,-3.731946E-3,-5.899239E-3,-6.171442E-3,-4.1489433E-3,-2.4153367E-3,-4.27081E-3,-2.6570654E-3,1.5996695E-4,-6.837363E-4,1.725236E-3,-1.5312362E-3,-5.007837E-3,-2.1935243E-3,-1.865635E-4,1.0657456E-3,4.6432344E-3,1.8377139E-5,1.521429E-3,3.2052652E-3,6.5261866E-3,4.4506454E-4,2.4335578E-3,5.253333E-3,9.098719E-4,-6.662296E-4,3.7368808E-3,7.9420945E-3,5.0213407E-3,-4.8973165E-3,3.0801056E-3,8.209109E-3,1.789409E-3,2.6922838E-3,1.6554935E-2],"split_indices":[11,11,10,10,11,11,12,12,11,8,5,11,3,11,4,0,9,0,3,12,1,11,9,6,12,1,12,0,4,0,1,0,0,0,7,5,0,13,12,0,0,7,7,7,2,10,10,12,9,13,1,13,8,0,0,6,0,0,0,0,0,0,0,0,0,0,0,0,0,0,0,0,0,0,0,0,0,0,0,0,0,0,0,0,0,0,0,0,0,0,0,0,0,0,0],"split_type":[0,0,0,0,0,0,0,0,0,0,0,0,0,0,0,0,0,0,0,0,0,0,0,0,0,0,0,0,0,0,0,0,0,0,0,0,0,0,0,0,0,0,0,0,0,0,0,0,0,0,0,0,0,0,0,0,0,0,0,0,0,0,0,0,0,0,0,0,0,0,0,0,0,0,0,0,0,0,0,0,0,0,0,0,0,0,0,0,0,0,0,0,0,0,0],"sum_hessian":[1.735E3,7.9E2,9.45E2,5.02E2,2.88E2,8.01E2,1.44E2,2.41E2,2.61E2,1.73E2,1.15E2,5.92E2,2.09E2,1.1E2,3.4E1,1.63E2,7.8E1,1.75E2,8.6E1,1.69E2,4E0,3.5E1,8E1,2.85E2,3.07E2,2.8E1,1.81E2,1E1,1E2,3.2E1,2E0,7.6E1,2E0,5E0,1.7E2,8.5E1,1E0,3.8E1,1.31E2,2E0,2E0,1E1,2.5E1,1.1E1,6.9E1,2.5E1,2.6E2,2.6E2,4.7E1,1.3E1,1.5E1,1.58E2,2.3E1,1E0,9E0,9.5E1,5E0,1E0,1E0,1E0,1.69E2,1.7E1,6.8E1,1.1E1,2.7E1,1.01E2,3E1,6E0,4E0,5E0,2E1,3E0,8E0,2.3E1,4.6E1,7E0,1.8E1,1.15E2,1.45E2,2.24E2,3.6E1,2.4E1,2.3E1,1.1E1,2E0,1E1,5E0,9.9E1,5.9E1,1E0,2.2E1,8E0,1E0,1E0,9.4E1],"tree_param":{"num_deleted":"0","num_feature":"16","num_nodes":"95","size_leaf_vector":"1"}},{"base_weights":[3.4523197E-4,-5.1283408E-2,4.3514267E-2,-6.749565E-2,-1.7721977E-2,2.9121669E-2,1.2282013E-1,-7.5003356E-2,-5.1302135E-2,-2.5660357E-2,-7.714662E-3,2.0570988E-2,5.312849E-2,1.3845262E-1,6.973368E-2,-8.166873E-3,-6.7810215E-2,-5.2669212E-2,4.892105E-3,-7.790447E-3,-2.9717596E-2,2.1203163E-3,-1.3536913E-2,2.6949024E-2,4.673445E-3,2.8626056E-2,5.8203425E-2,6.603991E-2,1.4496833E-1,7.2559364E-2,1.5406609E-2,-6.8031214E-3,-1.4125593E-3,-3.9387304E-2,-5.6119926E-2,-1.317203E-3,2.1325538E-3,-1.9396799E-2,1.5040666E-2,-3.308435E-2,-4.618038E-3,-4.090209E-3,3.5531696E-2,-4.1078757E-2,-9.515167E-3,2.0960236E-2,4.918829E-2,-3.2844413E-3,1.7383484E-2,4.8407923E-2,1.2038884E-2,6.367139E-2,2.3286205E-2,9.6466544E-4,7.071457E-2,1.5064101E-1,7.828283E-3,3.9918523E-2,7.833442E-2,2.2775994E-3,3.3392014E-5,-4.525541E-3,-2.6095172E-3,-5.7178554E-3,-3.5416454E-3,-2.597124E-3,-4.416153E-4,2.237308E-3,6.423543E-4,-5.4488946E-3,-3.0196882E-3,-1.3055605E-3,1.4868218E-3,-7.318649E-4,2.518119E-3,4.5774537E-3,6.616394E-4,-2.143728E-3,-6.027128E-3,-5.152E-4,-3.6091318E-3,4.3737656E-3,1.7091222E-3,4.1135405E-3,8.087489E-3,-2.7891463E-3,3.4922964E-4,-3.249865E-4,2.1126044E-3,5.279682E-3,1.0327478E-3,1.753617E-3,-2.8622649E-3,7.4827634E-3,4.6350462E-3,-4.6524513E-3,2.8133506E-3,7.5176954E-3,1.5276552E-3,2.5576695E-3,1.5173428E-2,5.294691E-3,-1.9125879E-3,7.9636695E-3,2.2237718E-3],"categories":[],"categories_nodes":[],"categories_segments":[],"categories_sizes":[],"default_left":[0,0,0,0,0,0,0,0,0,0,0,0,0,0,0,0,0,0,0,0,0,0,0,0,0,0,0,0,0,0,0,0,0,0,0,0,0,0,0,0,0,0,0,0,0,0,0,0,0,0,0,0,0,0,0,0,0,0,0,0,0,0,0,0,0,0,0,0,0,0,0,0,0,0,0,0,0,0,0,0,0,0,0,0,0,0,0,0,0,0,0,0,0,0,0,0,0,0,0,0,0,0,0,0,0],"id":12,"left_children":[1,3,5,7,9,11,13,15,17,19,21,23,25,27,29,-1,31,33,35,37,39,41,43,45,47,49,51,53,55,57,59,-1,-1,61,63,-1,-1,65,67,69,71,73,75,77,79,81,83,85,87,89,91,93,95,-1,97,99,-1,101,103,-1,-1,-1,-1,-1,-1,-1,-1,-1,-1,-1,-1,-1,-1,-1,-1,-1,-1,-1,-1,-1,-1,-1,-1,-1,-1,-1,-1,-1,-1,-1,-1,-1,-1,-1,-1,-1,-1,-1,-1,-1,-1,-1,-1,-1,-1],"loss_changes":[3.8713565E0,4.291916E-1,1.0762044E0,6.0952663E-2,2.0377487E-2,1.6353732E-1,1.1067653E-1,1.1817932E-2,1.3471037E-2,1.0208853E-2,6.671062E-3,6.0001343E-2,2.4447024E-2,4.279828E-2,4.254997E-3,0E0,1.1746287E-3,5.489379E-3,1.7651796E-3,7.711347E-3,9.734184E-3,9.27543E-3,7.6950677E-3,5.5306792E-2,1.7352898E-2,1.188598E-2,3.1547546E-2,2.2176541E-3,2.6414156E-2,3.0936152E-3,3.2562396E-4,0E0,0E0,1.7830394E-3,8.4611773E-4,0E0,0E0,1.7566052E-3,4.881285E-4,4.720539E-3,2.6603623E-3,3.775328E-3,1.7703623E-3,2.1006744E-3,7.351208E-3,2.8774738E-2,1.9383162E-2,1.7773468E-2,5.165277E-3,2.295971E-3,5.419548E-3,2.5323927E-2,9.768736E-3,0E0,1.3254136E-3,8.698463E-3,0E0,6.397426E-3,2.014786E-4,0E0,0E0,0E0,0E0,0E0,0E0,0E0,0E0,0E0,0E0,0E0,0E0,0E0,0E0,0E0,0E0,0E0,0E0,0E0,0E0,0E0,0E0,0E0,0E0,0E0,0E0,0E0,0E0,0E0,0E0,0E0,0E0,0E0,0E0,0E0,0E0,0E0,0E0,0E0,0E0,0E0,0E0,0E0,0E0,0E0,0E0],"parents":[2147483647,0,0,1,1,2,2,3,3,4,4,5,5,6,6,7,7,8,8,9,9,10,10,11,11,12,12,13,13,14,14,16,16,17,17,18,18,19,19,20,20,21,21,22,22,23,23,24,24,25,25,26,26,27,27,28,28,29,29,30,30,33,33,34,34,37,37,38,38,39,39,40,40,41,41,42,42,43,43,44,44,45,45,46,46,47,47,48,48,49,49,50,50,51,51,52,52,54,54,55,55,57,57,58,58],"right_children":[2,4,6,8,10,12,14,16,18,20,22,24,26,28,30,-1,32,34,36,38,40,42,44,46,48,50,52,54,56,58,60,-1,-1,62,64,-1,-1,66,68,70,72,74,76,78,80,82,84,86,88,90,92,94,96,-1,98,100,-1,102,104,-1,-1,-1,-1,-1,-1,-1,-1,-1,-1,-1,-1,-1,-1,-1,-1,-1,-1,-1,-1,-1,-1,-1,-1,-1,-1,-1,-1,-1,-1,-1,-1,-1,-1,-1,-1,-1,-1,-1,-1,-1,-1,-1,-1,-1,-1],"split_conditions":[2.9326922E-1,1.7067307E-1,5.6971157E-1,9.134615E-2,2.451923E-1,4.5192307E-1,6.201923E-1,3.6057692E-2,3.221154E-1,5.2884616E-2,2.9567307E-1,1.7E1,4.0144232E-1,5.360577E-1,9.1586536E-1,-8.166873E-3,9E0,8.173077E-2,3.221154E-1,1.4423077E-1,3.2451922E-1,2.908654E-1,2.5480768E-1,1.4E1,4.2067307E-1,2E0,5.360577E-1,3.3653846E-1,8.3413464E-1,5.0240386E-1,6.298077E-1,-6.8031214E-3,-1.4125593E-3,1.03365384E-1,2.716346E-1,-1.317203E-3,2.1325538E-3,1.6826923E-1,3.3653848E-2,1E0,4.5432693E-1,2.3E1,2.908654E-1,2.7644232E-1,2.3E1,4.5673076E-2,4.471154E-1,2.1E1,1E0,4.3028846E-1,4.471154E-1,5E0,3.4375E-1,9.6466544E-4,5.6490386E-1,4.0384614E-1,7.828283E-3,4.9519232E-1,6.995192E-1,2.2775994E-3,3.3392014E-5,-4.525541E-3,-2.6095172E-3,-5.7178554E-3,-3.5416454E-3,-2.597124E-3,-4.416153E-4,2.237308E-3,6.423543E-4,-5.4488946E-3,-3.0196882E-3,-1.3055605E-3,1.4868218E-3,-7.318649E-4,2.518119E-3,4.5774537E-3,6.616394E-4,-2.143728E-3,-6.027128E-3,-5.152E-4,-3.6091318E-3,4.3737656E-3,1.7091222E-3,4.1135405E-3,8.087489E-3,-2.7891463E-3,3.4922964E-4,-3.249865E-4,2.1126044E-3,5.279682E-3,1.0327478E-3,1.753617E-3,-2.8622649E-3,7.4827634E-3,4.6350462E-3,-4.6524513E-3,2.8133506E-3,7.5176954E-3,1.5276552E-3,2.5576695E-3,1.5173428E-2,5.294691E-3,-1.9125879E-3,7.9636695E-3,2.2237718E-3],"split_indices":[11,11,10,11,11,11,3,11,6,3,5,12,7,11,4,0,12,1,3,9,8,9,9,12,8,13,4,0,7,0,1,0,0,10,6,0,0,10,3,12,0,12,7,11,12,0,2,12,13,3,9,13,8,0,7,6,0,0,2,0,0,0,0,0,0,0,0,0,0,0,0,0,0,0,0,0,0,0,0,0,0,0,0,0,0,0,0,0,0,0,0,0,0,0,0,0,0,0,0,0,0,0,0,0,0],"split_type":[0,0,0,0,0,0,0,0,0,0,0,0,0,0,0,0,0,0,0,0,0,0,0,0,0,0,0,0,0,0,0,0,0,0,0,0,0,0,0,0,0,0,0,0,0,0,0,0,0,0,0,0,0,0,0,0,0,0,0,0,0,0,0,0,0,0,0,0,0,0,0,0,0,0,0,0,0,0,0,0,0,0,0,0,0,0,0,0,0,0,0,0,0,0,0,0,0,0,0,0,0,0,0,0,0],"sum_hessian":[1.735E3,7.9E2,9.45E2,5.32E2,2.58E2,8.01E2,1.44E2,3.61E2,1.71E2,1.43E2,1.15E2,5.92E2,2.09E2,1.1E2,3.4E1,1.82E2,1.79E2,1.67E2,4E0,2.7E1,1.16E2,4.3E1,7.2E1,4.22E2,1.7E2,3.7E1,1.72E2,1E1,1E2,3.2E1,2E0,1.78E2,1E0,3.7E1,1.3E2,2E0,2E0,1.8E1,9E0,1.02E2,1.4E1,3.7E1,6E0,8E0,6.4E1,3.34E2,8.8E1,1.05E2,6.5E1,1.6E1,2.1E1,1.48E2,2.4E1,1E0,9E0,9.1E1,9E0,6E0,2.6E1,1E0,1E0,2.4E1,1.3E1,1.22E2,8E0,1.2E1,6E0,4E0,5E0,1E1,9.2E1,1E1,4E0,3.4E1,3E0,4E0,2E0,5E0,3E0,5.6E1,8E0,4.7E1,2.87E2,7.2E1,1.6E1,2.2E1,8.3E1,1E1,5.5E1,1.4E1,2E0,1.9E1,2E0,8.8E1,6E1,1E0,2.3E1,8E0,1E0,1E0,9E1,5E0,1E0,2.5E1,1E0],"tree_param":{"num_deleted":"0","num_feature":"16","num_nodes":"105","size_leaf_vector":"1"}},{"base_weights":[3.331068E-4,-4.6600286E-2,3.894323E-2,-6.080605E-2,-1.6369041E-2,2.5999283E-2,1.10892944E-1,-6.895948E-2,-4.832987E-2,-2.3687782E-2,-7.5842435E-3,1.3283992E-2,3.9761793E-2,1.2444953E-1,6.1111532E-2,-7.199403E-3,-5.517064E-2,-4.9359154E-2,4.5659603E-3,-8.645037E-3,-2.8569417E-2,1.5676113E-2,-1.0930529E-2,1.9079955E-2,1.1859892E-4,9.706277E-3,4.4592008E-2,6.1101858E-2,1.306821E-1,1.6158886E-2,6.506816E-2,-2.7412965E-3,-5.6117424E-3,-6.0126074E-2,-4.4006772E-2,-1.2293895E-3,1.990383E-3,-2.8320158E-2,-1.7664763E-3,-5.2338317E-2,-2.573688E-2,5.8152755E-3,3.4234732E-2,-1.6170593E-2,7.7710203E-3,4.914518E-3,2.393084E-2,-1.1669889E-2,8.127205E-3,4.0198576E-2,-2.3404201E-2,5.0733324E-2,1.736931E-2,9.1643183E-4,6.4990334E-2,1.350896E-1,7.662415E-2,2.1333694E-3,3.1723084E-5,6.770953E-2,3.0971915E-2,-6.0657472E-3,-1.2526878E-3,-3.1069245E-3,-4.713885E-3,-3.216228E-3,1.2084097E-4,-1.3530155E-3,3.0273193E-4,-5.7541816E-3,-2.1016202E-3,-2.8615207E-3,-1.664809E-3,1.2958418E-3,-2.2970785E-4,3.7809126E-3,9.968579E-4,-6.420543E-4,-2.2879764E-3,1.3199447E-3,-2.131387E-3,6.9952296E-4,-7.5569423E-3,5.053124E-3,2.0988723E-3,-2.6797429E-3,8.2113846E-5,-2.788916E-3,1.4456597E-3,5.884656E-3,2.7286662E-3,-3.2660388E-3,7.707813E-4,4.5812833E-3,8.171732E-3,-7.16506E-4,2.2133626E-3,1.3240532E-3,6.8841265E-3,1.4275977E-2,9.519943E-3,8.8355085E-3,1.9800286E-3,7.144627E-3,3.6978633E-3,5.340894E-3,-1.8169582E-3],"categories":[],"categories_nodes":[],"categories_segments":[],"categories_sizes":[],"default_left":[0,0,0,0,0,0,0,0,0,0,0,0,0,0,0,0,0,0,0,0,0,0,0,0,0,0,0,0,0,0,0,0,0,0,0,0,0,0,0,0,0,0,0,0,0,0,0,0,0,0,0,0,0,0,0,0,0,0,0,0,0,0,0,0,0,0,0,0,0,0,0,0,0,0,0,0,0,0,0,0,0,0,0,0,0,0,0,0,0,0,0,0,0,0,0,0,0,0,0,0,0,0,0,0,0,0,0],"id":13,"left_children":[1,3,5,7,9,11,13,15,17,19,21,23,25,27,29,-1,31,33,35,37,39,41,43,45,47,49,51,53,55,57,59,-1,-1,61,63,-1,-1,65,67,69,71,73,75,77,79,81,83,85,87,89,91,93,95,-1,97,99,101,-1,-1,103,105,-1,-1,-1,-1,-1,-1,-1,-1,-1,-1,-1,-1,-1,-1,-1,-1,-1,-1,-1,-1,-1,-1,-1,-1,-1,-1,-1,-1,-1,-1,-1,-1,-1,-1,-1,-1,-1,-1,-1,-1,-1,-1,-1,-1,-1,-1],"loss_changes":[3.1476274E0,3.3569956E-1,8.846586E-1,5.0886035E-2,1.6022354E-2,1.4104223E-1,9.0250015E-2,9.417653E-3,1.18765235E-2,9.813353E-3,9.200299E-3,3.219892E-2,5.589491E-2,3.6629796E-2,4.8179924E-3,0E0,9.1031194E-5,9.456098E-3,1.5376668E-3,4.6867505E-3,5.587578E-3,2.5459686E-3,1.0121386E-2,2.0015866E-2,1.2368062E-2,5.6469616E-2,5.4957986E-2,1.8278994E-3,1.3951302E-2,3.2114238E-4,6.047189E-4,0E0,0E0,9.3488395E-4,4.3705106E-3,0E0,0E0,1.0599368E-3,1.5635623E-3,4.205387E-4,1.9826964E-3,6.671911E-4,5.678041E-5,5.0862804E-3,3.9126906E-3,1.3255878E-2,1.6000427E-2,1.0036806E-2,1.8184192E-2,5.3769313E-3,8.027161E-3,3.7724495E-2,7.5226277E-3,0E0,1.2806393E-3,1.4864087E-2,4.9165115E-3,0E0,0E0,4.5851618E-4,5.380775E-3,0E0,0E0,0E0,0E0,0E0,0E0,0E0,0E0,0E0,0E0,0E0,0E0,0E0,0E0,0E0,0E0,0E0,0E0,0E0,0E0,0E0,0E0,0E0,0E0,0E0,0E0,0E0,0E0,0E0,0E0,0E0,0E0,0E0,0E0,0E0,0E0,0E0,0E0,0E0,0E0,0E0,0E0,0E0,0E0,0E0,0E0],"parents":[2147483647,0,0,1,1,2,2,3,3,4,4,5,5,6,6,7,7,8,8,9,9,10,10,11,11,12,12,13,13,14,14,16,16,17,17,18,18,19,19,20,20,21,21,22,22,23,23,24,24,25,25,26,26,27,27,28,28,29,29,30,30,33,33,34,34,37,37,38,38,39,39,40,40,41,41,42,42,43,43,44,44,45,45,46,46,47,47,48,48,49,49,50,50,51,51,52,52,54,54,55,55,56,56,59,59,60,60],"right_children":[2,4,6,8,10,12,14,16,18,20,22,24,26,28,30,-1,32,34,36,38,40,42,44,46,48,50,52,54,56,58,60,-1,-1,62,64,-1,-1,66,68,70,72,74,76,78,80,82,84,86,88,90,92,94,96,-1,98,100,102,-1,-1,104,106,-1,-1,-1,-1,-1,-1,-1,-1,-1,-1,-1,-1,-1,-1,-1,-1,-1,-1,-1,-1,-1,-1,-1,-1,-1,-1,-1,-1,-1,-1,-1,-1,-1,-1,-1,-1,-1,-1,-1,-1,-1,-1,-1,-1,-1,-1],"split_conditions":[2.908654E-1,1.7067307E-1,5.6971157E-1,8.173077E-2,2.4759616E-1,4.0865386E-1,7.2596157E-1,6E0,3.221154E-1,5.528846E-2,2.3557693E-1,1.9E1,1.9951923E-1,5.360577E-1,7.8846157E-1,-7.199403E-3,9.615385E-3,2E0,3.221154E-1,3.125E-2,1E0,2.6442307E-1,3.5817307E-1,3.1971154E-1,5.3125E-1,3.5817307E-1,1.8E1,3.3653846E-1,9.1586536E-1,5.3125E-1,9.1586536E-1,-2.7412965E-3,-5.6117424E-3,3.1971154E-1,8.173077E-2,-1.2293895E-3,1.990383E-3,4.0865384E-2,8.8942304E-2,3.9423078E-1,2.3798077E-1,8.173077E-2,2.4278846E-1,3.1971154E-1,5.0721157E-1,4.783654E-1,4.3269232E-2,3.2451922E-1,1E0,8.6538464E-2,2.1875E-1,4.9519232E-1,4.375E-1,9.1643183E-4,4.3269232E-1,4E0,5.793269E-1,2.1333694E-3,3.1723084E-5,7.644231E-1,4.591346E-1,-6.0657472E-3,-1.2526878E-3,-3.1069245E-3,-4.713885E-3,-3.216228E-3,1.2084097E-4,-1.3530155E-3,3.0273193E-4,-5.7541816E-3,-2.1016202E-3,-2.8615207E-3,-1.664809E-3,1.2958418E-3,-2.2970785E-4,3.7809126E-3,9.968579E-4,-6.420543E-4,-2.2879764E-3,1.3199447E-3,-2.131387E-3,6.9952296E-4,-7.5569423E-3,5.053124E-3,2.0988723E-3,-2.6797429E-3,8.2113846E-5,-2.788916E-3,1.4456597E-3,5.884656E-3,2.7286662E-3,-3.2660388E-3,7.707813E-4,4.5812833E-3,8.171732E-3,-7.16506E-4,2.2133626E-3,1.3240532E-3,6.8841265E-3,1.4275977E-2,9.519943E-3,8.8355085E-3,1.9800286E-3,7.144627E-3,3.6978633E-3,5.340894E-3,-1.8169582E-3],"split_indices":[11,11,10,10,10,10,5,12,6,0,4,12,0,11,7,0,2,12,3,5,12,8,8,10,0,7,12,0,9,0,8,0,0,6,1,0,0,3,8,2,11,2,7,6,5,8,0,8,13,2,2,6,8,0,9,13,3,0,0,3,0,0,0,0,0,0,0,0,0,0,0,0,0,0,0,0,0,0,0,0,0,0,0,0,0,0,0,0,0,0,0,0,0,0,0,0,0,0,0,0,0,0,0,0,0,0,0],"split_type":[0,0,0,0,0,0,0,0,0,0,0,0,0,0,0,0,0,0,0,0,0,0,0,0,0,0,0,0,0,0,0,0,0,0,0,0,0,0,0,0,0,0,0,0,0,0,0,0,0,0,0,0,0,0,0,0,0,0,0,0,0,0,0,0,0,0,0,0,0,0,0,0,0,0,0,0,0,0,0,0,0,0,0,0,0,0,0,0,0,0,0,0,0,0,0,0,0,0,0,0,0,0,0,0,0,0,0],"sum_hessian":[1.735E3,7.83E2,9.52E2,5.32E2,2.51E2,8.08E2,1.44E2,3.19E2,2.13E2,1.36E2,1.15E2,4.21E2,3.87E2,1.12E2,3.2E1,2.58E2,6.1E1,2.09E2,4E0,3.4E1,1.02E2,1.4E1,1.01E2,2.92E2,1.29E2,5.4E1,3.33E2,1.1E1,1.01E2,3E0,2.9E1,3E0,5.8E1,6.6E1,1.43E2,2E0,2E0,8E0,2.6E1,9E0,9.3E1,1E1,4E0,7.9E1,2.2E1,7.5E1,2.17E2,5.2E1,7.7E1,2.8E1,2.6E1,2.71E2,6.2E1,1E0,1E1,9.2E1,9E0,2E0,1E0,2.6E1,3E0,6.5E1,1E0,3E1,1.13E2,7E0,1E0,7E0,1.9E1,7E0,2E0,6.9E1,2.4E1,5E0,5E0,3E0,1E0,3.3E1,4.6E1,1.9E1,3E0,7.4E1,1E0,2E1,1.97E2,2.3E1,2.9E1,1.1E1,6.6E1,1E1,1.8E1,2E1,6E0,2.36E2,3.5E1,1E1,5.2E1,1E0,9E0,7.5E1,1.7E1,7E0,2E0,2.2E1,4E0,2E0,1E0],"tree_param":{"num_deleted":"0","num_feature":"16","num_nodes":"107","size_leaf_vector":"1"}},{"base_weights":[3.1859748E-4,-4.542045E-2,3.254658E-2,-5.8066197E-2,-2.4347695E-2,2.129505E-2,1.00219294E-1,-6.4943E-2,-5.0512947E-2,-3.3755444E-2,-1.5563502E-2,5.4689664E-3,3.2243345E-2,1.1299316E-1,5.684449E-2,-6.858395E-3,-5.661498E-3,-3.68877E-2,-5.3554837E-2,-3.5439454E-2,1.5432688E-2,-4.183032E-2,-1.4299529E-2,1.5630165E-2,1.4305507E-3,2.629539E-2,4.761565E-2,5.5135604E-2,1.1817573E-1,5.907206E-2,1.33930845E-2,-4.159715E-2,-2.7238124E-3,-5.566865E-2,-4.0920384E-2,-2.5109574E-2,-3.8545948E-2,4.5388192E-4,1.7021451E-3,-5.2882824E-3,-1.3150211E-3,-7.6158056E-3,-1.8174576E-2,2.4649054E-3,2.6835661E-2,3.4850934E-3,-3.7557762E-2,2.8683854E-2,8.142577E-3,3.639997E-2,6.1681297E-2,7.067688E-3,3.040506E-2,1.2299026E-1,6.206451E-3,3.1555086E-2,6.4018235E-2,1.978825E-3,3.0137599E-5,-8.515447E-4,-4.254201E-3,-5.6008617E-3,-2.0567537E-3,-4.182711E-3,-7.7660906E-4,-3.1283502E-3,-8.398583E-4,-4.4086585E-3,-3.0504512E-3,-1.3395271E-3,1.5536547E-4,-3.1467602E-3,-8.877834E-4,-1.5827826E-4,3.106252E-3,-1.6259205E-3,3.053446E-3,-1.000672E-3,7.9878356E-4,3.285554E-3,-4.61635E-3,2.4344493E-3,4.6406747E-3,2.302936E-5,2.395179E-3,4.7959634E-3,2.480029E-3,7.106735E-3,2.4424328E-3,3.9239945E-3,1.6177632E-3,8.862385E-3,1.290592E-2,4.256797E-3,-1.7261103E-3,6.5130205E-3,1.7553524E-3],"categories":[],"categories_nodes":[],"categories_segments":[],"categories_sizes":[],"default_left":[0,0,0,0,0,0,0,0,0,0,0,0,0,0,0,0,0,0,0,0,0,0,0,0,0,0,0,0,0,0,0,0,0,0,0,0,0,0,0,0,0,0,0,0,0,0,0,0,0,0,0,0,0,0,0,0,0,0,0,0,0,0,0,0,0,0,0,0,0,0,0,0,0,0,0,0,0,0,0,0,0,0,0,0,0,0,0,0,0,0,0,0,0,0,0,0,0],"id":14,"left_children":[1,3,5,7,9,11,13,15,17,19,21,23,25,27,29,-1,-1,31,33,35,37,39,41,43,45,47,49,51,53,55,57,59,-1,61,63,65,67,-1,-1,-1,-1,69,71,73,75,77,79,81,83,85,87,-1,89,91,-1,93,95,-1,-1,-1,-1,-1,-1,-1,-1,-1,-1,-1,-1,-1,-1,-1,-1,-1,-1,-1,-1,-1,-1,-1,-1,-1,-1,-1,-1,-1,-1,-1,-1,-1,-1,-1,-1,-1,-1,-1,-1],"loss_changes":[2.5604763E0,1.8991947E-1,7.737546E-1,1.998961E-2,2.1869957E-2,1.5143377E-1,7.39162E-2,3.1214952E-3,7.0598125E-3,1.1315241E-2,4.1163303E-3,1.4709258E-2,4.6019197E-2,2.676773E-2,2.5965273E-3,0E0,0E0,8.210689E-4,2.4223924E-3,3.0754358E-3,9.281444E-6,1.2065023E-3,3.4098495E-3,1.4981227E-2,2.0797506E-2,1.6025454E-2,2.0313859E-2,2.0788498E-3,1.9651651E-2,2.4713203E-3,2.4520722E-4,4.816875E-4,0E0,6.1413646E-4,5.469546E-4,3.0387808E-3,2.887845E-3,0E0,0E0,0E0,0E0,2.776529E-3,1.0348674E-2,5.605368E-3,9.263422E-3,1.502447E-2,9.394186E-3,2.4326146E-2,5.6233965E-3,9.805836E-3,1.9945338E-2,0E0,1.1937646E-4,7.7506304E-3,0E0,4.4980184E-3,2.5175512E-4,0E0,0E0,0E0,0E0,0E0,0E0,0E0,0E0,0E0,0E0,0E0,0E0,0E0,0E0,0E0,0E0,0E0,0E0,0E0,0E0,0E0,0E0,0E0,0E0,0E0,0E0,0E0,0E0,0E0,0E0,0E0,0E0,0E0,0E0,0E0,0E0,0E0,0E0,0E0,0E0],"parents":[2147483647,0,0,1,1,2,2,3,3,4,4,5,5,6,6,7,7,8,8,9,9,10,10,11,11,12,12,13,13,14,14,17,17,18,18,19,19,20,20,21,21,22,22,23,23,24,24,25,25,26,26,27,27,28,28,29,29,30,30,31,31,33,33,34,34,35,35,36,36,41,41,42,42,43,43,44,44,45,45,46,46,47,47,48,48,49,49,50,50,52,52,53,53,55,55,56,56],"right_children":[2,4,6,8,10,12,14,16,18,20,22,24,26,28,30,-1,-1,32,34,36,38,40,42,44,46,48,50,52,54,56,58,60,-1,62,64,66,68,-1,-1,-1,-1,70,72,74,76,78,80,82,84,86,88,-1,90,92,-1,94,96,-1,-1,-1,-1,-1,-1,-1,-1,-1,-1,-1,-1,-1,-1,-1,-1,-1,-1,-1,-1,-1,-1,-1,-1,-1,-1,-1,-1,-1,-1,-1,-1,-1,-1,-1,-1,-1,-1,-1,-1],"split_conditions":[2.6442307E-1,1.2259615E-1,5.6971157E-1,4.8076924E-2,1.9471154E-1,3.7980768E-1,6.201923E-1,5E0,9.134615E-2,3.7019232E-1,1E0,3.1009614E-1,4.783654E-1,5.360577E-1,9.1586536E-1,-6.858395E-3,-5.661498E-3,8.6538464E-2,1.3701923E-1,8.173077E-2,2.8365386E-1,3.5096154E-1,2.8846154E-1,3.1971154E-1,2.3E1,1.9E1,5.120192E-1,5.9615386E-1,8.3413464E-1,5.0240386E-1,6.298077E-1,7.2115385E-3,-2.7238124E-3,8E0,2.716346E-1,1.1057692E-1,2.0913461E-1,4.5388192E-4,1.7021451E-3,-5.2882824E-3,-1.3150211E-3,2.2115384E-1,3.4855768E-1,2.9567307E-1,8E0,2.8605768E-1,2.5721154E-1,4.3028846E-1,8.004808E-1,4E0,4.8076922E-1,7.067688E-3,4.158654E-1,4.3028846E-1,6.206451E-3,4.9519232E-1,6.995192E-1,1.978825E-3,3.0137599E-5,-8.515447E-4,-4.254201E-3,-5.6008617E-3,-2.0567537E-3,-4.182711E-3,-7.7660906E-4,-3.1283502E-3,-8.398583E-4,-4.4086585E-3,-3.0504512E-3,-1.3395271E-3,1.5536547E-4,-3.1467602E-3,-8.877834E-4,-1.5827826E-4,3.106252E-3,-1.6259205E-3,3.053446E-3,-1.000672E-3,7.9878356E-4,3.285554E-3,-4.61635E-3,2.4344493E-3,4.6406747E-3,2.302936E-5,2.395179E-3,4.7959634E-3,2.480029E-3,7.106735E-3,2.4424328E-3,3.9239945E-3,1.6177632E-3,8.862385E-3,1.290592E-2,4.256797E-3,-1.7261103E-3,6.5130205E-3,1.7553524E-3],"split_indices":[11,11,10,10,11,11,3,12,0,5,12,6,11,11,4,0,0,10,9,1,2,3,0,11,12,12,9,10,7,0,1,2,0,12,6,8,8,0,0,0,0,10,2,6,12,0,4,4,1,13,0,0,1,2,0,0,2,0,0,0,0,0,0,0,0,0,0,0,0,0,0,0,0,0,0,0,0,0,0,0,0,0,0,0,0,0,0,0,0,0,0,0,0,0,0,0,0],"split_type":[0,0,0,0,0,0,0,0,0,0,0,0,0,0,0,0,0,0,0,0,0,0,0,0,0,0,0,0,0,0,0,0,0,0,0,0,0,0,0,0,0,0,0,0,0,0,0,0,0,0,0,0,0,0,0,0,0,0,0,0,0,0,0,0,0,0,0,0,0,0,0,0,0,0,0,0,0,0,0,0,0,0,0,0,0,0,0,0,0,0,0,0,0,0,0,0,0],"sum_hessian":[1.735E3,7.17E2,1.018E3,4.47E2,2.7E2,8.74E2,1.44E2,2.3E2,2.17E2,1.29E2,1.41E2,3.58E2,5.16E2,1.1E2,3.4E1,1.55E2,7.5E1,4.2E1,1.75E2,1.25E2,4E0,5E0,1.36E2,1.01E2,2.57E2,3.74E2,1.42E2,1E1,1E2,3.2E1,2E0,2.6E1,1.6E1,1.47E2,2.8E1,3.1E1,9.4E1,1E0,3E0,3E0,2E0,5.1E1,8.5E1,4.7E1,5.4E1,2.45E2,1.2E1,3.3E2,4.4E1,8.1E1,6.1E1,5E0,5E0,9.1E1,9E0,6E0,2.6E1,1E0,1E0,1E0,2.5E1,1.45E2,2E0,2.7E1,1E0,2.2E1,9E0,5.3E1,4.1E1,3.1E1,2E1,3.4E1,5.1E1,4.2E1,5E0,4E0,5E1,6.1E1,1.84E2,1E0,1.1E1,2.67E2,6.3E1,3E1,1.4E1,3.9E1,4.2E1,4.8E1,1.3E1,2E0,3E0,1.6E1,7.5E1,5E0,1E0,2.5E1,1E0],"tree_param":{"num_deleted":"0","num_feature":"16","num_nodes":"97","size_leaf_vector":"1"}},{"base_weights":[3.0314917E-4,-3.7607525E-2,3.2001924E-2,-4.9394228E-2,-1.3206293E-2,2.1373825E-2,9.05656E-2,-5.617712E-2,-3.948867E-2,-1.9003266E-2,-5.8962037E-3,1.0810278E-2,3.261738E-2,1.0332512E-1,5.4488733E-2,-5.8634523E-2,-4.456233E-2,-4.0331073E-2,4.80088E-3,-4.5139375E-3,-2.2308376E-2,1.7688618E-3,-1.1937545E-2,1.5774736E-2,-3.1847975E-4,6.9507915E-3,3.6746256E-2,7.472954E-2,1.1414824E-1,5.7093225E-2,1.6775012E-3,-6.1269637E-2,-5.344135E-3,-2.6818458E-2,-4.6065062E-2,-4.9240418E-2,-3.5904888E-2,-9.440671E-4,1.7442137E-3,-1.4244955E-2,1.442639E-2,-2.5038699E-2,-2.0729392E-3,-8.226048E-3,1.4728794E-2,-2.2457274E-2,-5.2319174E-3,3.2709822E-2,1.2899784E-2,-1.1045047E-2,7.068878E-3,3.3960782E-2,-2.2317374E-2,4.1885465E-2,1.3974639E-2,3.208864E-2,8.333557E-2,1.2753347E-1,9.217641E-2,6.1282396E-2,2.5235439E-2,-6.4349384E-3,-5.345809E-3,-6.768413E-4,-2.9032065E-3,-2.5097933E-3,-4.7264462E-3,-5.0235186E-3,-2.0516627E-3,-2.5364992E-3,-3.8369563E-3,-2.5937033E-3,-6.8534544E-4,5.623311E-4,1.935789E-3,-4.2092144E-3,-2.2752392E-3,-9.393566E-4,1.4447029E-3,-2.3462498E-4,-3.1354201E-3,1.9784148E-3,-1.4230174E-3,-5.249628E-4,-3.0246188E-3,-3.4800307E-3,-1.0947859E-4,2.1817975E-3,6.043141E-3,-1.6404968E-4,2.0004623E-3,-2.435495E-3,-2.8956931E-6,-2.436944E-3,1.2124887E-3,5.1283734E-3,2.2144294E-3,-3.0835818E-3,6.4261555E-4,3.4119457E-3,5.670897E-3,-4.385154E-3,1.5614602E-3,4.0533147E-3,1.5621976E-3,9.140503E-3,4.12032E-3,1.3006951E-2,9.241849E-4,1.5478731E-4,9.504997E-3,6.4183967E-3,2.492544E-3,2.8631091E-5,3.0168004E-3],"categories":[],"categories_nodes":[],"categories_segments":[],"categories_sizes":[],"default_left":[0,0,0,0,0,0,0,0,0,0,0,0,0,0,0,0,0,0,0,0,0,0,0,0,0,0,0,0,0,0,0,0,0,0,0,0,0,0,0,0,0,0,0,0,0,0,0,0,0,0,0,0,0,0,0,0,0,0,0,0,0,0,0,0,0,0,0,0,0,0,0,0,0,0,0,0,0,0,0,0,0,0,0,0,0,0,0,0,0,0,0,0,0,0,0,0,0,0,0,0,0,0,0,0,0,0,0,0,0,0,0,0,0,0,0],"id":15,"left_children":[1,3,5,7,9,11,13,15,17,19,21,23,25,27,29,31,33,35,37,39,41,43,45,47,49,51,53,55,57,59,-1,61,-1,63,65,67,69,-1,-1,71,73,75,77,79,81,83,85,87,89,91,93,95,97,99,101,103,105,107,109,111,113,-1,-1,-1,-1,-1,-1,-1,-1,-1,-1,-1,-1,-1,-1,-1,-1,-1,-1,-1,-1,-1,-1,-1,-1,-1,-1,-1,-1,-1,-1,-1,-1,-1,-1,-1,-1,-1,-1,-1,-1,-1,-1,-1,-1,-1,-1,-1,-1,-1,-1,-1,-1,-1,-1],"loss_changes":[2.0873928E0,2.2684729E-1,5.8687407E-1,3.359294E-2,1.08634345E-2,9.490237E-2,6.1116815E-2,6.3494444E-3,8.401781E-3,6.795291E-3,5.3927605E-3,2.2933055E-2,4.086256E-2,2.4276018E-2,2.9712617E-3,2.2888184E-4,3.3779442E-4,6.7498684E-3,1.064821E-3,5.3661456E-3,6.4122602E-3,6.856894E-3,4.467694E-3,1.3551377E-2,1.0300164E-2,4.4237223E-2,3.8502008E-2,9.068891E-3,1.0301769E-2,3.3914447E-3,0E0,4.8142672E-4,0E0,1.1417968E-4,1.4660507E-4,9.409189E-4,2.871424E-3,0E0,0E0,1.4642605E-3,3.2526837E-4,3.05821E-3,1.9497569E-3,4.006101E-3,3.648682E-3,3.1919414E-3,4.977362E-3,1.106102E-2,2.5549486E-2,7.7703185E-3,1.2534814E-2,4.8005544E-3,6.809109E-3,2.937764E-2,6.65919E-3,3.4016185E-4,5.073428E-3,1.19975805E-2,8.186549E-3,1.7759353E-3,7.297413E-4,0E0,0E0,0E0,0E0,0E0,0E0,0E0,0E0,0E0,0E0,0E0,0E0,0E0,0E0,0E0,0E0,0E0,0E0,0E0,0E0,0E0,0E0,0E0,0E0,0E0,0E0,0E0,0E0,0E0,0E0,0E0,0E0,0E0,0E0,0E0,0E0,0E0,0E0,0E0,0E0,0E0,0E0,0E0,0E0,0E0,0E0,0E0,0E0,0E0,0E0,0E0,0E0,0E0,0E0],"parents":[2147483647,0,0,1,1,2,2,3,3,4,4,5,5,6,6,7,7,8,8,9,9,10,10,11,11,12,12,13,13,14,14,15,15,16,16,17,17,18,18,19,19,20,20,21,21,22,22,23,23,24,24,25,25,26,26,27,27,28,28,29,29,31,31,33,33,34,34,35,35,36,36,39,39,40,40,41,41,42,42,43,43,44,44,45,45,46,46,47,47,48,48,49,49,50,50,51,51,52,52,53,53,54,54,55,55,56,56,57,57,58,58,59,59,60,60],"right_children":[2,4,6,8,10,12,14,16,18,20,22,24,26,28,30,32,34,36,38,40,42,44,46,48,50,52,54,56,58,60,-1,62,-1,64,66,68,70,-1,-1,72,74,76,78,80,82,84,86,88,90,92,94,96,98,100,102,104,106,108,110,112,114,-1,-1,-1,-1,-1,-1,-1,-1,-1,-1,-1,-1,-1,-1,-1,-1,-1,-1,-1,-1,-1,-1,-1,-1,-1,-1,-1,-1,-1,-1,-1,-1,-1,-1,-1,-1,-1,-1,-1,-1,-1,-1,-1,-1,-1,-1,-1,-1,-1,-1,-1,-1,-1,-1],"split_conditions":[2.9326922E-1,1.7067307E-1,5.6971157E-1,7.932692E-2,2.451923E-1,4.0865386E-1,7.644231E-1,6E0,3.221154E-1,5.2884616E-2,3.0048078E-1,1.9E1,1.9951923E-1,6.8028843E-1,4E0,6.490385E-2,2.4038462E-2,2E0,3.221154E-1,1.4423077E-1,3.2451922E-1,2.5480768E-1,3.653846E-1,4.5673076E-2,5.3125E-1,3.5817307E-1,1.8E1,4.2307693E-1,6.0336536E-1,7.644231E-1,1.6775012E-3,5E0,-5.344135E-3,9.615385E-3,1.2019231E-2,3.4855768E-1,8.173077E-2,-9.440671E-4,1.7442137E-3,1.6826924E-2,8.8942304E-2,1E0,4.5432693E-1,3.125E-1,4.7355768E-1,2.6923078E-1,3.125E-1,2.2596154E-1,1.1E1,3.2451922E-1,1E0,8.6538464E-2,2.1875E-1,4.5673078E-1,3.4375E-1,4.0144232E-1,5.6490386E-1,6.0336536E-1,6.201923E-1,5.793269E-1,8.3413464E-1,-6.4349384E-3,-5.345809E-3,-6.768413E-4,-2.9032065E-3,-2.5097933E-3,-4.7264462E-3,-5.0235186E-3,-2.0516627E-3,-2.5364992E-3,-3.8369563E-3,-2.5937033E-3,-6.8534544E-4,5.623311E-4,1.935789E-3,-4.2092144E-3,-2.2752392E-3,-9.393566E-4,1.4447029E-3,-2.3462498E-4,-3.1354201E-3,1.9784148E-3,-1.4230174E-3,-5.249628E-4,-3.0246188E-3,-3.4800307E-3,-1.0947859E-4,2.1817975E-3,6.043141E-3,-1.6404968E-4,2.0004623E-3,-2.435495E-3,-2.8956931E-6,-2.436944E-3,1.2124887E-3,5.1283734E-3,2.2144294E-3,-3.0835818E-3,6.4261555E-4,3.4119457E-3,5.670897E-3,-4.385154E-3,1.5614602E-3,4.0533147E-3,1.5621976E-3,9.140503E-3,4.12032E-3,1.3006951E-2,9.241849E-4,1.5478731E-4,9.504997E-3,6.4183967E-3,2.492544E-3,2.8631091E-5,3.0168004E-3],"split_indices":[11,11,10,10,11,10,6,12,6,3,7,12,0,11,13,5,9,12,3,9,8,9,3,0,0,7,12,6,6,3,0,12,0,6,3,4,1,0,0,2,7,12,0,2,1,11,7,7,12,8,13,2,2,7,8,3,7,3,6,0,6,0,0,0,0,0,0,0,0,0,0,0,0,0,0,0,0,0,0,0,0,0,0,0,0,0,0,0,0,0,0,0,0,0,0,0,0,0,0,0,0,0,0,0,0,0,0,0,0,0,0,0,0,0,0],"split_type":[0,0,0,0,0,0,0,0,0,0,0,0,0,0,0,0,0,0,0,0,0,0,0,0,0,0,0,0,0,0,0,0,0,0,0,0,0,0,0,0,0,0,0,0,0,0,0,0,0,0,0,0,0,0,0,0,0,0,0,0,0,0,0,0,0,0,0,0,0,0,0,0,0,0,0,0,0,0,0,0,0,0,0,0,0,0,0,0,0,0,0,0,0,0,0,0,0,0,0,0,0,0,0,0,0,0,0,0,0,0,0,0,0,0,0],"sum_hessian":[1.735E3,7.9E2,9.45E2,5.32E2,2.58E2,8.01E2,1.44E2,3.13E2,2.19E2,1.43E2,1.15E2,4.14E2,3.87E2,1.05E2,3.9E1,2.55E2,5.8E1,2.15E2,4E0,2.7E1,1.16E2,5.1E1,6.4E1,2.86E2,1.28E2,5.4E1,3.33E2,3.1E1,7.4E1,3.6E1,3E0,1.62E2,9.3E1,6E0,5.2E1,6.8E1,1.47E2,2E0,2E0,1.8E1,9E0,1.02E2,1.4E1,2.9E1,2.2E1,2.4E1,4E1,4E1,2.46E2,5.2E1,7.6E1,2.8E1,2.6E1,2.71E2,6.2E1,6E0,2.5E1,4.3E1,3.1E1,3.1E1,5E0,1.11E2,5.1E1,1E0,5E0,4E0,4.8E1,6.5E1,3E0,3E1,1.17E2,6E0,1.2E1,4E0,5E0,1E1,9.2E1,1E1,4E0,2.4E1,5E0,1.9E1,3E0,8E0,1.6E1,4E0,3.6E1,3E1,1E1,8.1E1,1.65E2,2.3E1,2.9E1,1E1,6.6E1,1E1,1.8E1,2E1,6E0,1.8E2,9.1E1,1E0,6.1E1,3E0,3E0,2E1,5E0,4.2E1,1E0,1E0,3E1,2.8E1,3E0,1E0,4E0],"tree_param":{"num_deleted":"0","num_feature":"16","num_nodes":"115","size_leaf_vector":"1"}},{"base_weights":[2.8225916E-4,-3.391922E-2,2.8879602E-2,-4.6829134E-2,-1.5836466E-2,1.925834E-2,8.1895955E-2,-5.073133E-2,-3.5934173E-2,-2.674141E-2,-9.749459E-3,9.744678E-3,2.9384403E-2,9.573609E-2,5.4509524E-2,-5.2248333E-2,-3.701919E-2,-3.903719E-2,-2.3790259E-2,-2.83054E-2,1.4265856E-3,-1.2122533E-2,2.3208112E-3,1.423233E-2,-3.1502012E-4,6.3448343E-3,3.3090364E-2,7.9484954E-2,1.1609427E-1,4.575041E-2,7.4390724E-2,-5.525734E-2,-4.8343902E-3,-1.9007291E-3,-3.923957E-2,-3.6027487E-2,-4.7285026E-3,-1.345381E-2,-2.7252147E-2,9.207848E-3,-2.9402224E-2,-1.2955037E-3,-1.6789448E-2,9.500523E-3,-2.0273937E-2,3.113577E-3,1.7941337E-2,-8.729296E-3,7.6016127E-3,3.1769723E-2,-1.9306656E-2,3.773031E-2,1.2532352E-2,4.4549096E-2,8.9010924E-2,1.5967166E-2,1.0021018E-1,-1.4245808E-4,4.7063913E-2,1.0248501E-1,4.739557E-2,-5.8067213E-3,-4.814266E-3,-4.095965E-3,-2.1759209E-3,-4.005741E-3,-3.1177113E-3,-1.5041119E-3,-3.7766993E-5,-2.098702E-4,-2.8465556E-3,3.3721776E-4,1.3357431E-3,-3.7171326E-3,-2.6333476E-3,-5.19548E-4,2.6189403E-3,-2.3651111E-3,-8.1886706E-4,1.2529255E-3,-1.9915327E-3,4.879067E-4,-2.815752E-3,5.134837E-4,-7.1208584E-3,3.4984394E-3,1.476996E-3,3.3542738E-4,-1.4850944E-3,-2.2154048E-3,1.3210572E-3,3.522501E-3,-8.765996E-4,-3.4342397E-3,-1.8178886E-4,3.368871E-3,6.328945E-3,-4.165896E-3,1.4078324E-3,5.02271E-3,1.7797314E-3,3.6959827E-3,9.340181E-3,1.05833635E-2,5.8202962E-3,4.874971E-3,1.1708289E-3,2.423382E-3,1.1328849E-2,5.1008365E-3,9.246603E-4],"categories":[],"categories_nodes":[],"categories_segments":[],"categories_sizes":[],"default_left":[0,0,0,0,0,0,0,0,0,0,0,0,0,0,0,0,0,0,0,0,0,0,0,0,0,0,0,0,0,0,0,0,0,0,0,0,0,0,0,0,0,0,0,0,0,0,0,0,0,0,0,0,0,0,0,0,0,0,0,0,0,0,0,0,0,0,0,0,0,0,0,0,0,0,0,0,0,0,0,0,0,0,0,0,0,0,0,0,0,0,0,0,0,0,0,0,0,0,0,0,0,0,0,0,0,0,0,0,0,0,0],"id":16,"left_children":[1,3,5,7,9,11,13,15,17,19,21,23,25,27,29,31,33,35,37,39,-1,41,43,45,47,49,51,53,55,57,59,61,-1,-1,63,65,-1,67,69,71,73,75,77,79,81,83,85,87,89,91,93,95,97,99,101,-1,103,-1,105,107,109,-1,-1,-1,-1,-1,-1,-1,-1,-1,-1,-1,-1,-1,-1,-1,-1,-1,-1,-1,-1,-1,-1,-1,-1,-1,-1,-1,-1,-1,-1,-1,-1,-1,-1,-1,-1,-1,-1,-1,-1,-1,-1,-1,-1,-1,-1,-1,-1,-1,-1],"loss_changes":[1.6989114E0,1.8391478E-1,4.8096246E-1,1.7776132E-2,2.171056E-2,7.697511E-2,4.974103E-2,5.075872E-3,3.7816465E-3,7.971726E-3,6.157873E-3,1.873942E-2,3.291896E-2,2.2202492E-2,5.477831E-3,8.64923E-4,7.339157E-4,7.291287E-4,6.3529797E-4,4.961312E-3,0E0,9.022908E-3,6.032669E-3,1.1779886E-2,8.659399E-3,3.6483616E-2,3.1386733E-2,1.4671326E-2,1.1686683E-2,2.4216995E-3,5.7604015E-3,4.6306849E-4,0E0,0E0,7.09109E-5,2.3667514E-4,0E0,1.8112233E-4,5.506873E-4,5.1818788E-5,1.6675517E-3,6.031544E-3,7.1832836E-3,2.7441208E-3,1.9220447E-3,1.1332028E-2,1.1104025E-2,4.71001E-3,1.1474851E-2,4.230531E-3,7.3003536E-3,2.5965422E-2,5.8645187E-3,1.2326464E-3,6.375581E-3,0E0,1.3993979E-3,0E0,1.6345084E-3,2.3268908E-3,7.6876767E-4,0E0,0E0,0E0,0E0,0E0,0E0,0E0,0E0,0E0,0E0,0E0,0E0,0E0,0E0,0E0,0E0,0E0,0E0,0E0,0E0,0E0,0E0,0E0,0E0,0E0,0E0,0E0,0E0,0E0,0E0,0E0,0E0,0E0,0E0,0E0,0E0,0E0,0E0,0E0,0E0,0E0,0E0,0E0,0E0,0E0,0E0,0E0,0E0,0E0,0E0],"parents":[2147483647,0,0,1,1,2,2,3,3,4,4,5,5,6,6,7,7,8,8,9,9,10,10,11,11,12,12,13,13,14,14,15,15,16,16,17,17,18,18,19,19,21,21,22,22,23,23,24,24,25,25,26,26,27,27,28,28,29,29,30,30,31,31,34,34,35,35,37,37,38,38,39,39,40,40,41,41,42,42,43,43,44,44,45,45,46,46,47,47,48,48,49,49,50,50,51,51,52,52,53,53,54,54,56,56,58,58,59,59,60,60],"right_children":[2,4,6,8,10,12,14,16,18,20,22,24,26,28,30,32,34,36,38,40,-1,42,44,46,48,50,52,54,56,58,60,62,-1,-1,64,66,-1,68,70,72,74,76,78,80,82,84,86,88,90,92,94,96,98,100,102,-1,104,-1,106,108,110,-1,-1,-1,-1,-1,-1,-1,-1,-1,-1,-1,-1,-1,-1,-1,-1,-1,-1,-1,-1,-1,-1,-1,-1,-1,-1,-1,-1,-1,-1,-1,-1,-1,-1,-1,-1,-1,-1,-1,-1,-1,-1,-1,-1,-1,-1,-1,-1,-1,-1],"split_conditions":[2.9326922E-1,1.298077E-1,5.6971157E-1,6E0,1.9471154E-1,4.0865386E-1,6.995192E-1,5E0,9.8557696E-2,3.7019232E-1,3.1730768E-1,1.9E1,1.9951923E-1,5.0721157E-1,8.3413464E-1,7.451923E-2,1.0817308E-1,8.4134616E-2,3.846154E-2,2.8846154E-2,1.4265856E-3,2.2836539E-1,3.8221154E-1,3.1971154E-1,5.480769E-1,3.0528846E-1,1.8E1,4.6875E-1,5.0240386E-1,5.793269E-1,5.5288464E-1,5E0,-4.8343902E-3,-1.9007291E-3,1.5625E-1,5.0480768E-2,-4.7285026E-3,7.692308E-2,5.7692308E-2,2.4038462E-2,2E0,2.5480768E-1,3.9903846E-1,6E0,1.5625E-1,4.783654E-1,2.3557693E-1,3.6057693E-1,1E0,4.3028846E-1,1.8028846E-1,4.9519232E-1,3.4375E-1,5.6490386E-1,3.846154E-1,1.5967166E-2,8.1490386E-1,-1.4245808E-4,9.1586536E-1,5.144231E-1,5.480769E-1,-5.8067213E-3,-4.814266E-3,-4.095965E-3,-2.1759209E-3,-4.005741E-3,-3.1177113E-3,-1.5041119E-3,-3.7766993E-5,-2.098702E-4,-2.8465556E-3,3.3721776E-4,1.3357431E-3,-3.7171326E-3,-2.6333476E-3,-5.19548E-4,2.6189403E-3,-2.3651111E-3,-8.1886706E-4,1.2529255E-3,-1.9915327E-3,4.879067E-4,-2.815752E-3,5.134837E-4,-7.1208584E-3,3.4984394E-3,1.476996E-3,3.3542738E-4,-1.4850944E-3,-2.2154048E-3,1.3210572E-3,3.522501E-3,-8.765996E-4,-3.4342397E-3,-1.8178886E-4,3.368871E-3,6.328945E-3,-4.165896E-3,1.4078324E-3,5.02271E-3,1.7797314E-3,3.6959827E-3,9.340181E-3,1.05833635E-2,5.8202962E-3,4.874971E-3,1.1708289E-3,2.423382E-3,1.1328849E-2,5.1008365E-3,9.246603E-4],"split_indices":[11,10,10,12,11,10,6,13,10,5,10,12,0,2,10,4,5,7,5,4,0,2,7,10,1,6,12,6,4,4,2,12,0,0,8,9,0,8,9,0,12,10,0,13,1,8,5,3,13,8,2,6,8,7,2,0,8,0,4,0,1,0,0,0,0,0,0,0,0,0,0,0,0,0,0,0,0,0,0,0,0,0,0,0,0,0,0,0,0,0,0,0,0,0,0,0,0,0,0,0,0,0,0,0,0,0,0,0,0,0,0],"split_type":[0,0,0,0,0,0,0,0,0,0,0,0,0,0,0,0,0,0,0,0,0,0,0,0,0,0,0,0,0,0,0,0,0,0,0,0,0,0,0,0,0,0,0,0,0,0,0,0,0,0,0,0,0,0,0,0,0,0,0,0,0,0,0,0,0,0,0,0,0,0,0,0,0,0,0,0,0,0,0,0,0,0,0,0,0,0,0,0,0,0,0,0,0,0,0,0,0,0,0,0,0,0,0,0,0,0,0,0,0,0,0],"sum_hessian":[1.735E3,7.9E2,9.45E2,4.6E2,3.3E2,8.01E2,1.44E2,3.36E2,1.24E2,1.17E2,2.13E2,4.14E2,3.87E2,9.4E1,5E1,3E2,3.6E1,9.7E1,2.7E1,1.13E2,4E0,1.78E2,3.5E1,2.86E2,1.28E2,5.4E1,3.33E2,5.5E1,3.9E1,3.7E1,1.3E1,1.62E2,1.38E2,5E0,3.1E1,7.5E1,2.2E1,8E0,1.9E1,3E0,1.1E2,5.4E1,1.24E2,2.7E1,8E0,7.2E1,2.14E2,6.2E1,6.6E1,2.7E1,2.7E1,2.71E2,6.2E1,1.3E1,4.2E1,8E0,3.1E1,1E0,3.6E1,5E0,8E0,1.11E2,5.1E1,2.7E1,4E0,3.7E1,3.8E1,7E0,1E0,1E0,1.8E1,2E0,1E0,2.8E1,8.2E1,4.8E1,6E0,6.8E1,5.6E1,2.5E1,2E0,2E0,6E0,7.1E1,1E0,3.2E1,1.82E2,2.1E1,4.1E1,1E1,5.6E1,2.5E1,2E0,1.4E1,1.3E1,2.36E2,3.5E1,1E0,6.1E1,1E1,3E0,4E0,3.8E1,2.6E1,5E0,3.4E1,2E0,1E0,4E0,7E0,1E0],"tree_param":{"num_deleted":"0","num_feature":"16","num_nodes":"111","size_leaf_vector":"1"}},{"base_weights":[2.728707E-4,-3.411962E-2,2.3432871E-2,-4.344037E-2,-2.026495E-2,1.3083226E-2,6.466903E-2,-4.9142283E-3,-3.9317023E-2,-2.3230467E-2,-4.880007E-3,3.2483125E-3,2.0483682E-2,4.7623843E-2,8.6060934E-2,-4.19115E-2,-3.3377156E-2,-3.8062874E-2,-2.0472065E-2,-6.767974E-3,2.5066168E-3,8.7509705E-3,-3.2411658E-3,1.3289168E-2,2.4843285E-2,5.7465672E-2,3.0969987E-2,9.830318E-2,5.9195194E-2,-4.4474896E-2,-3.4146078E-2,-2.4184357E-2,-3.603835E-2,-3.88537E-2,-5.1919743E-4,-2.6572945E-2,-1.5625548E-2,-4.378148E-3,-3.0169155E-2,2.0186864E-3,2.2717804E-2,-6.7978003E-3,1.4403718E-2,3.0380147E-2,1.0608961E-2,9.855362E-3,2.7512366E-2,3.967101E-2,8.164899E-2,7.4651637E-3,4.102006E-2,1.2170331E-1,8.567746E-2,4.136462E-2,7.5456835E-2,-4.4799875E-3,-1.6542444E-3,-1.1464055E-3,-3.4916536E-3,-2.8753886E-3,-1.4896777E-3,-3.6733192E-3,-1.0591962E-3,-4.0790658E-3,-1.907384E-3,-2.2394308E-3,-3.0616352E-3,-2.3600012E-4,-1.7902633E-3,1.5958071E-3,-6.351654E-4,-6.4783543E-4,-3.590664E-3,2.38238E-3,-2.8009593E-4,-7.7796046E-4,2.7944772E-3,1.067821E-3,-1.0570629E-3,-1.0937236E-3,2.1812036E-3,8.2499406E-4,5.5784034E-3,-3.353537E-4,1.5213087E-3,2.3738965E-3,-3.6477826E-3,3.0364078E-3,7.926502E-4,3.0432097E-3,6.8040113E-3,8.434742E-3,1.6972423E-4,1.5023025E-3,-2.7773955E-3,4.376553E-3,-2.2044734E-3,6.599852E-3,1.423364E-2,1.0155455E-2,7.0183775E-3,5.1951054E-3,1.8819561E-3,9.375388E-3,5.284171E-3],"categories":[],"categories_nodes":[],"categories_segments":[],"categories_sizes":[],"default_left":[0,0,0,0,0,0,0,0,0,0,0,0,0,0,0,0,0,0,0,0,0,0,0,0,0,0,0,0,0,0,0,0,0,0,0,0,0,0,0,0,0,0,0,0,0,0,0,0,0,0,0,0,0,0,0,0,0,0,0,0,0,0,0,0,0,0,0,0,0,0,0,0,0,0,0,0,0,0,0,0,0,0,0,0,0,0,0,0,0,0,0,0,0,0,0,0,0,0,0,0,0,0,0,0,0],"id":17,"left_children":[1,3,5,7,9,11,13,-1,15,17,19,21,23,25,27,29,31,33,35,37,-1,39,41,43,45,47,49,51,53,55,57,59,61,63,-1,65,67,69,71,73,75,77,79,81,83,85,87,89,91,93,95,97,99,101,103,-1,-1,-1,-1,-1,-1,-1,-1,-1,-1,-1,-1,-1,-1,-1,-1,-1,-1,-1,-1,-1,-1,-1,-1,-1,-1,-1,-1,-1,-1,-1,-1,-1,-1,-1,-1,-1,-1,-1,-1,-1,-1,-1,-1,-1,-1,-1,-1,-1,-1],"loss_changes":[1.3835759E0,8.938569E-2,4.4215107E-1,7.871985E-3,1.2798324E-2,6.0415983E-2,7.174426E-2,0E0,2.4075806E-3,8.917317E-3,2.8269042E-3,1.2812319E-2,1.4536977E-2,1.7561018E-2,2.4110556E-2,1.8255711E-3,1.0855421E-3,7.3409826E-4,5.5575296E-3,2.3845292E-3,0E0,1.8195705E-2,1.045272E-2,7.968828E-3,1.1490017E-2,2.817528E-2,1.0560136E-2,7.594824E-3,5.8673546E-3,3.7543476E-4,4.0358305E-4,4.6289712E-4,6.717965E-4,5.6290627E-4,0E0,8.0120936E-4,3.431527E-3,1.7869733E-3,3.1108642E-4,1.3938995E-2,1.0260161E-2,9.2117665E-3,5.495109E-3,1.3032423E-2,1.0208061E-2,3.045644E-2,1.3666779E-2,9.461783E-3,6.329179E-3,4.4122348E-3,6.5053552E-3,1.24439E-2,3.4502745E-3,3.0797254E-3,1.2527257E-3,0E0,0E0,0E0,0E0,0E0,0E0,0E0,0E0,0E0,0E0,0E0,0E0,0E0,0E0,0E0,0E0,0E0,0E0,0E0,0E0,0E0,0E0,0E0,0E0,0E0,0E0,0E0,0E0,0E0,0E0,0E0,0E0,0E0,0E0,0E0,0E0,0E0,0E0,0E0,0E0,0E0,0E0,0E0,0E0,0E0,0E0,0E0,0E0,0E0,0E0],"parents":[2147483647,0,0,1,1,2,2,3,3,4,4,5,5,6,6,8,8,9,9,10,10,11,11,12,12,13,13,14,14,15,15,16,16,17,17,18,18,19,19,21,21,22,22,23,23,24,24,25,25,26,26,27,27,28,28,29,29,30,30,31,31,32,32,33,33,35,35,36,36,37,37,38,38,39,39,40,40,41,41,42,42,43,43,44,44,45,45,46,46,47,47,48,48,49,49,50,50,51,51,52,52,53,53,54,54],"right_children":[2,4,6,8,10,12,14,-1,16,18,20,22,24,26,28,30,32,34,36,38,-1,40,42,44,46,48,50,52,54,56,58,60,62,64,-1,66,68,70,72,74,76,78,80,82,84,86,88,90,92,94,96,98,100,102,104,-1,-1,-1,-1,-1,-1,-1,-1,-1,-1,-1,-1,-1,-1,-1,-1,-1,-1,-1,-1,-1,-1,-1,-1,-1,-1,-1,-1,-1,-1,-1,-1,-1,-1,-1,-1,-1,-1,-1,-1,-1,-1,-1,-1,-1,-1,-1,-1,-1,-1],"split_conditions":[2.5721154E-1,1.1057692E-1,5.168269E-1,3.3653848E-2,2.5480768E-1,3.7259614E-1,6.8028843E-1,-4.9142283E-3,6E0,1E0,8.3413464E-1,1.6E1,4.0865386E-1,4.7596154E-1,7.2596157E-1,1.0817308E-1,2.1634616E-2,4.0144232E-1,1.7067307E-1,3.7019232E-1,2.5066168E-3,1.1E1,4.2307693E-1,1.8990384E-1,2.0432693E-1,4.9759614E-1,5.6490386E-1,5.144231E-1,8.5096157E-1,1.9471154E-1,5.528846E-2,5.528846E-2,1.1298077E-1,2.596154E-1,-5.1919743E-4,1.4182693E-1,2.4038462E-2,1.9471154E-1,4.3269232E-1,4.0865384E-2,2.596154E-1,2.908654E-1,4.783654E-1,2.2596154E-1,1.2E1,4.4471154E-1,5.120192E-1,4.4471154E-1,5E0,6.995192E-1,9.1586536E-1,6.995192E-1,8.004808E-1,5.793269E-1,8.75E-1,-4.4799875E-3,-1.6542444E-3,-1.1464055E-3,-3.4916536E-3,-2.8753886E-3,-1.4896777E-3,-3.6733192E-3,-1.0591962E-3,-4.0790658E-3,-1.907384E-3,-2.2394308E-3,-3.0616352E-3,-2.3600012E-4,-1.7902633E-3,1.5958071E-3,-6.351654E-4,-6.4783543E-4,-3.590664E-3,2.38238E-3,-2.8009593E-4,-7.7796046E-4,2.7944772E-3,1.067821E-3,-1.0570629E-3,-1.0937236E-3,2.1812036E-3,8.2499406E-4,5.5784034E-3,-3.353537E-4,1.5213087E-3,2.3738965E-3,-3.6477826E-3,3.0364078E-3,7.926502E-4,3.0432097E-3,6.8040113E-3,8.434742E-3,1.6972423E-4,1.5023025E-3,-2.7773955E-3,4.376553E-3,-2.2044734E-3,6.599852E-3,1.423364E-2,1.0155455E-2,7.0183775E-3,5.1951054E-3,1.8819561E-3,9.375388E-3,5.284171E-3],"split_indices":[11,11,10,10,10,11,11,0,12,12,1,12,10,0,7,9,3,1,11,9,0,12,8,4,0,6,10,4,10,6,11,10,10,8,0,11,1,0,0,2,8,7,3,7,12,9,4,0,13,1,8,10,11,3,10,0,0,0,0,0,0,0,0,0,0,0,0,0,0,0,0,0,0,0,0,0,0,0,0,0,0,0,0,0,0,0,0,0,0,0,0,0,0,0,0,0,0,0,0,0,0,0,0,0,0],"split_type":[0,0,0,0,0,0,0,0,0,0,0,0,0,0,0,0,0,0,0,0,0,0,0,0,0,0,0,0,0,0,0,0,0,0,0,0,0,0,0,0,0,0,0,0,0,0,0,0,0,0,0,0,0,0,0,0,0,0,0,0,0,0,0,0,0,0,0,0,0,0,0,0,0,0,0,0,0,0,0,0,0,0,0,0,0,0,0,0,0,0,0,0,0,0,0,0,0,0,0,0,0,0,0,0,0],"sum_hessian":[1.735E3,6.98E2,1.037E3,4.16E2,2.82E2,8.3E2,2.07E2,1.7E2,2.46E2,2.36E2,4.6E1,3.57E2,4.73E2,1.17E2,9E1,1.67E2,7.9E1,3.5E1,2.01E2,4.4E1,2E0,1.93E2,1.64E2,1.8E2,2.93E2,7.2E1,4.5E1,6E1,3E1,1.22E2,4.5E1,2E1,5.9E1,3.4E1,1E0,