{"learner":{"attributes":{},"feature_names":[],"feature_types":[],"gradient_booster":{"model":{"gbtree_model_param":{"num_parallel_tree":"1","num_trees":"100"},"iteration_indptr":[0,1,2,3,4,5,6,7,8,9,10,11,12,13,14,15,16,17,18,19,20,21,22,23,24,25,26,27,28,29,30,31,32,33,34,35,36,37,38,39,40,41,42,43,44,45,46,47,48,49,50,51,52,53,54,55,56,57,58,59,60,61,62,63,64,65,66,67,68,69,70,71,72,73,74,75,76,77,78,79,80,81,82,83,84,85,86,87,88,89,90,91,92,93,94,95,96,97,98,99,100],"tree_info":[0,0,0,0,0,0,0,0,0,0,0,0,0,0,0,0,0,0,0,0,0,0,0,0,0,0,0,0,0,0,0,0,0,0,0,0,0,0,0,0,0,0,0,0,0,0,0,0,0,0,0,0,0,0,0,0,0,0,0,0,0,0,0,0,0,0,0,0,0,0,0,0,0,0,0,0,0,0,0,0,0,0,0,0,0,0,0,0,0,0,0,0,0,0,0,0,0,0,0,0],"trees":[{"base_weights":[-8.51617E-9,-1.0661718E-1,2.6321998E-1,-2.0360513E-1,-1.5237181E-2,1.9157733E-1,4.0017605E-1,-2.3248024E-1,-1.61981E-1,-6.322628E-2,1.9528724E-2,1.3415296E-1,2.303134E-1,3.2926333E-1,4.4534194E-1,-2.3852494E-2,-2.1162951E-2,-1.7810568E-1,-1.2701851E-1,-9.015816E-2,-4.1934155E-2,1.4177043E-3,5.0820023E-2,9.319639E-2,1.5592186E-1,2.8978628E-1,2.1862513E-1,3.1109306E-1,3.6995187E-1,3.8037725E-2,4.7539428E-1,-1.5445651E-1,-1.8489987E-1,-8.669454E-2,-1.3546588E-1,-3.139811E-2,-9.7520076E-2,-1.7699039E-2,-6.3651025E-2,9.297649E-3,-3.7140172E-2,1.05235144E-1,4.0390365E-2,1.5826726E-1,7.9947844E-2,1.6520424E-1,8.908942E-2,2.9568788E-1,8.3078295E-3,2.249054E-1,1.6503966E-1,3.1911965E-2,2.1147307E-2,3.8567923E-2,2.234462E-2,4.8909042E-2,3.0213064E-2,-1.5571716E-2,-5.380556E-3,-1.958013E-2,-1.7065613E-2,-2.7588333E-3,-8.885226E-3,-1.4180838E-2,-9.585514E-3,2.0091496E-3,-4.865577E-3,-1.053563E-2,-6.384389E-3,-7.480415E-3,-1.2731772E-3,-7.409099E-3,-4.715624E-3,8.1607135E-4,1.7296594E-2,-4.875674E-3,-1.5204543E-3,7.5739594E-3,1.392386E-2,3.3704655E-3,8.897734E-3,1.2186322E-2,2.0135539E-2,5.5497657E-3,1.1424306E-2,2.1480853E-2,1.5600962E-2,4.11232E-3,9.594142E-3,2.0697653E-2,3.1776186E-2,1.7428111E-2,2.3314958E-2,1.7414903E-2,8.861475E-3],"categories":[],"categories_nodes":[],"categories_segments":[],"categories_sizes":[],"default_left":[0,0,0,0,0,0,0,0,0,0,0,0,0,0,0,0,0,0,0,0,0,0,0,0,0,0,0,0,0,0,0,0,0,0,0,0,0,0,0,0,0,0,0,0,0,0,0,0,0,0,0,0,0,0,0,0,0,0,0,0,0,0,0,0,0,0,0,0,0,0,0,0,0,0,0,0,0,0,0,0,0,0,0,0,0,0,0,0,0,0,0,0,0,0,0],"id":0,"left_children":[1,3,5,7,9,11,13,15,17,19,21,23,25,27,29,-1,-1,31,33,35,37,39,41,43,45,47,49,51,53,-1,55,57,59,61,63,65,67,69,71,73,75,77,79,81,83,85,87,89,-1,91,93,-1,-1,-1,-1,-1,-1,-1,-1,-1,-1,-1,-1,-1,-1,-1,-1,-1,-1,-1,-1,-1,-1,-1,-1,-1,-1,-1,-1,-1,-1,-1,-1,-1,-1,-1,-1,-1,-1,-1,-1,-1,-1,-1,-1],"loss_changes":[1.4680159E2,3.299295E1,1.4719666E1,2.1329727E0,3.2011962E0,2.1757011E0,1.5092392E0,8.362198E-2,3.9624977E-1,4.5840955E-1,6.3068426E-1,3.438835E-1,3.4747314E-1,3.647232E-2,4.3025208E-1,0E0,0E0,5.2742004E-2,6.932616E-2,1.5050626E-1,2.3676604E-1,2.148521E-1,2.2730231E-1,1.0976422E-1,1.4719725E-1,9.010649E-2,1.3047409E-1,5.085659E-2,4.746151E-2,0E0,3.5056686E-1,6.7210197E-3,2.683258E-2,3.1602383E-3,3.5397053E-2,3.7409764E-2,7.640052E-2,6.003371E-2,3.7490904E-2,1.07817665E-1,2.983667E-2,5.4645896E-2,1.08745396E-1,1.1539578E-2,9.428269E-2,7.047653E-2,7.229179E-3,1.12427235E-1,0E0,1.4425659E-1,2.3554087E-2,0E0,0E0,0E0,0E0,0E0,0E0,0E0,0E0,0E0,0E0,0E0,0E0,0E0,0E0,0E0,0E0,0E0,0E0,0E0,0E0,0E0,0E0,0E0,0E0,0E0,0E0,0E0,0E0,0E0,0E0,0E0,0E0,0E0,0E0,0E0,0E0,0E0,0E0,0E0,0E0,0E0,0E0,0E0,0E0],"parents":[2147483647,0,0,1,1,2,2,3,3,4,4,5,5,6,6,7,7,8,8,9,9,10,10,11,11,12,12,13,13,14,14,17,17,18,18,19,19,20,20,21,21,22,22,23,23,24,24,25,25,26,26,27,27,28,28,30,30,31,31,32,32,33,33,34,34,35,35,36,36,37,37,38,38,39,39,40,40,41,41,42,42,43,43,44,44,45,45,46,46,47,47,49,49,50,50],"right_children":[2,4,6,8,10,12,14,16,18,20,22,24,26,28,30,-1,-1,32,34,36,38,40,42,44,46,48,50,52,54,-1,56,58,60,62,64,66,68,70,72,74,76,78,80,82,84,86,88,90,-1,92,94,-1,-1,-1,-1,-1,-1,-1,-1,-1,-1,-1,-1,-1,-1,-1,-1,-1,-1,-1,-1,-1,-1,-1,-1,-1,-1,-1,-1,-1,-1,-1,-1,-1,-1,-1,-1,-1,-1,-1,-1,-1,-1,-1,-1],"split_conditions":[3.483146E-1,1.4325842E-1,5.646067E-1,5.8988765E-2,2.3314607E-1,4.3539324E-1,6.488764E-1,3.9325844E-2,1.1235955E-1,1.8539326E-1,2.949438E-1,3.764045E-1,1.8539326E-1,6.4044946E-1,4.8595506E-1,-2.3852494E-2,-2.1162951E-2,5.8988765E-2,3.9325844E-2,4.775281E-2,1.8E1,2E1,1.4044943E-1,4.775281E-2,1.8E1,1E1,6.9382024E-1,5.898876E-1,8.455056E-1,3.8037725E-2,1.9E1,9E0,9.269663E-2,1.6853932E-2,3.0617976E-1,1.4044944E-2,2.1067415E-1,2E0,2.3033708E-1,4.2977527E-1,2.6685393E-1,2.8651685E-1,3.8483146E-1,2.752809E-1,3.7921348E-1,3.9325844E-2,3.483146E-1,8E0,8.3078295E-3,3.1460676E-1,7.8089887E-1,3.1911965E-2,2.1147307E-2,3.8567923E-2,2.234462E-2,4.8909042E-2,3.0213064E-2,-1.5571716E-2,-5.380556E-3,-1.958013E-2,-1.7065613E-2,-2.7588333E-3,-8.885226E-3,-1.4180838E-2,-9.585514E-3,2.0091496E-3,-4.865577E-3,-1.053563E-2,-6.384389E-3,-7.480415E-3,-1.2731772E-3,-7.409099E-3,-4.715624E-3,8.1607135E-4,1.7296594E-2,-4.875674E-3,-1.5204543E-3,7.5739594E-3,1.392386E-2,3.3704655E-3,8.897734E-3,1.2186322E-2,2.0135539E-2,5.5497657E-3,1.1424306E-2,2.1480853E-2,1.5600962E-2,4.11232E-3,9.594142E-3,2.0697653E-2,3.1776186E-2,1.7428111E-2,2.3314958E-2,1.7414903E-2,8.861475E-3],"split_indices":[11,11,11,11,11,11,11,11,11,11,11,11,1,10,3,0,0,0,0,6,12,12,2,1,12,12,4,5,7,0,12,12,10,7,0,0,10,12,10,10,10,10,10,9,10,1,10,12,0,1,2,0,0,0,0,0,0,0,0,0,0,0,0,0,0,0,0,0,0,0,0,0,0,0,0,0,0,0,0,0,0,0,0,0,0,0,0,0,0,0,0,0,0,0,0],"split_type":[0,0,0,0,0,0,0,0,0,0,0,0,0,0,0,0,0,0,0,0,0,0,0,0,0,0,0,0,0,0,0,0,0,0,0,0,0,0,0,0,0,0,0,0,0,0,0,0,0,0,0,0,0,0,0,0,0,0,0,0,0,0,0,0,0,0,0,0,0,0,0,0,0,0,0,0,0,0,0,0,0,0,0,0,0,0,0,0,0,0,0,0,0,0,0],"sum_hessian":[5.229E3,3.722E3,1.507E3,1.805E3,1.917E3,9.91E2,5.16E2,1.063E3,7.42E2,8.05E2,1.112E3,4.01E2,5.9E2,2.04E2,3.12E2,8.16E2,2.47E2,5.05E2,2.37E2,3.54E2,4.51E2,7.05E2,4.07E2,1.41E2,2.6E2,9.3E1,4.97E2,1.47E2,5.7E1,1.03E2,2.09E2,1.18E2,3.87E2,4.3E1,1.94E2,4E1,3.14E2,2.14E2,2.37E2,5.86E2,1.19E2,6.4E1,3.43E2,2.2E1,1.19E2,2.27E2,3.3E1,9E1,3E0,4.42E2,5.5E1,1.34E2,1.3E1,5E1,7E0,1.92E2,1.7E1,1.16E2,2E0,2.12E2,1.75E2,2E0,4.1E1,1.65E2,2.9E1,1E1,3E1,2.53E2,6.1E1,1.6E1,1.98E2,1.43E2,9.4E1,5.83E2,3E0,7.7E1,4.2E1,3.6E1,2.8E1,3.03E2,4E1,1.4E1,8E0,7.1E1,4.8E1,3.2E1,1.95E2,5E0,2.8E1,2E1,7E1,6.5E1,3.77E2,4.8E1,7E0],"tree_param":{"num_deleted":"0","num_feature":"16","num_nodes":"95","size_leaf_vector":"1"}},{"base_weights":[6.2292165E-5,-1.03707016E-1,2.1959089E-1,-1.8332104E-1,-2.134489E-2,1.5671544E-1,3.606055E-1,-2.0599903E-1,-1.4045371E-1,-6.1619543E-2,6.0933786E-3,8.19374E-2,1.9462861E-1,2.9689294E-1,4.011821E-1,-2.1306908E-1,-1.8105164E-1,-1.5591343E-1,-1.1446544E-1,-3.594873E-2,-7.8830495E-2,1.3766371E-2,-3.139565E-2,1.401298E-1,7.1851626E-2,1.7326127E-1,2.2404309E-1,3.5787505E-1,2.856323E-1,3.518145E-1,4.3570468E-1,-2.1838374E-2,-2.0342603E-2,-1.5827706E-2,-1.8803855E-2,-1.2218744E-1,-1.6016614E-1,-7.828972E-2,-1.22041166E-1,-9.6905015E-2,-2.5352351E-2,-1.0017103E-1,-6.6114254E-2,6.722194E-2,9.550077E-3,-3.8005643E-2,1.690228E-2,9.810079E-2,1.8015625E-1,4.3894984E-2,9.657754E-2,1.809891E-1,1.1552049E-1,2.372005E-1,1.7437334E-1,3.651957E-2,8.010906E-3,2.5159928E-1,3.1990844E-1,3.539221E-2,1.4180975E-2,4.502563E-2,2.696946E-2,-1.2424046E-2,-4.9978723E-3,-1.6895607E-2,-1.5039392E-2,-1.13329E-3,-7.958329E-3,-1.2771296E-2,-8.658916E-3,-1.1718935E-2,-7.3137926E-3,4.455348E-3,-2.9781943E-3,-1.1528936E-2,-8.618644E-3,-8.269772E-3,-5.5750892E-3,4.746252E-3,1.1398368E-2,1.9349123E-5,3.1722013E-3,-5.5019353E-3,-2.845898E-3,2.863771E-3,-1.9165156E-3,5.3806165E-3,1.0924237E-2,2.0998297E-2,1.29588265E-2,5.413191E-3,1.4782151E-3,1.106317E-2,2.8998207E-3,2.6247242E-2,1.75261E-2,9.189919E-3,1.4784892E-2,2.813062E-2,2.2565994E-2,1.8124534E-2,6.9719227E-3,2.770022E-2,2.1355279E-2,3.398461E-2,2.4296306E-2],"categories":[],"categories_nodes":[],"categories_segments":[],"categories_sizes":[],"default_left":[0,0,0,0,0,0,0,0,0,0,0,0,0,0,0,0,0,0,0,0,0,0,0,0,0,0,0,0,0,0,0,0,0,0,0,0,0,0,0,0,0,0,0,0,0,0,0,0,0,0,0,0,0,0,0,0,0,0,0,0,0,0,0,0,0,0,0,0,0,0,0,0,0,0,0,0,0,0,0,0,0,0,0,0,0,0,0,0,0,0,0,0,0,0,0,0,0,0,0,0,0,0,0,0,0,0,0],"id":1,"left_children":[1,3,5,7,9,11,13,15,17,19,21,23,25,27,29,31,33,35,37,39,41,43,45,47,49,51,53,55,57,59,61,-1,-1,-1,-1,63,65,67,69,71,73,75,77,79,81,83,85,87,89,91,93,95,97,99,101,-1,-1,103,105,-1,-1,-1,-1,-1,-1,-1,-1,-1,-1,-1,-1,-1,-1,-1,-1,-1,-1,-1,-1,-1,-1,-1,-1,-1,-1,-1,-1,-1,-1,-1,-1,-1,-1,-1,-1,-1,-1,-1,-1,-1,-1,-1,-1,-1,-1,-1,-1],"loss_changes":[1.191639E2,2.3287193E1,1.4830101E1,1.7267609E0,1.9309272E0,3.2812424E0,1.2174606E0,1.6937256E-1,2.344656E-1,3.099742E-1,2.9959136E-1,2.2058916E-1,4.4576073E-1,3.8553238E-2,3.8015747E-1,2.3651123E-3,1.2722969E-2,3.6509514E-2,5.5670977E-2,1.8227518E-1,1.0816741E-1,1.940901E-1,5.7149455E-2,7.8216076E-2,2.2871304E-1,1.8033314E-1,1.6842079E-1,2.7680159E-2,1.2715149E-1,9.119034E-3,3.1339645E-1,0E0,0E0,0E0,0E0,9.0640783E-4,4.1389465E-3,2.909124E-3,2.8151512E-2,1.1677176E-2,7.719216E-2,2.304554E-2,4.1448116E-2,5.2801073E-2,1.6637167E-1,2.3772389E-2,9.860717E-3,8.927405E-3,1.502043E-2,4.688394E-2,1.6585112E-1,1.3883018E-1,2.9176593E-2,6.4279556E-2,3.8425684E-2,0E0,0E0,3.1695366E-2,4.7829628E-2,0E0,0E0,0E0,0E0,0E0,0E0,0E0,0E0,0E0,0E0,0E0,0E0,0E0,0E0,0E0,0E0,0E0,0E0,0E0,0E0,0E0,0E0,0E0,0E0,0E0,0E0,0E0,0E0,0E0,0E0,0E0,0E0,0E0,0E0,0E0,0E0,0E0,0E0,0E0,0E0,0E0,0E0,0E0,0E0,0E0,0E0,0E0,0E0],"parents":[2147483647,0,0,1,1,2,2,3,3,4,4,5,5,6,6,7,7,8,8,9,9,10,10,11,11,12,12,13,13,14,14,15,15,16,16,17,17,18,18,19,19,20,20,21,21,22,22,23,23,24,24,25,25,26,26,27,27,28,28,29,29,30,30,35,35,36,36,37,37,38,38,39,39,40,40,41,41,42,42,43,43,44,44,45,45,46,46,47,47,48,48,49,49,50,50,51,51,52,52,53,53,54,54,57,57,58,58],"right_children":[2,4,6,8,10,12,14,16,18,20,22,24,26,28,30,32,34,36,38,40,42,44,46,48,50,52,54,56,58,60,62,-1,-1,-1,-1,64,66,68,70,72,74,76,78,80,82,84,86,88,90,92,94,96,98,100,102,-1,-1,104,106,-1,-1,-1,-1,-1,-1,-1,-1,-1,-1,-1,-1,-1,-1,-1,-1,-1,-1,-1,-1,-1,-1,-1,-1,-1,-1,-1,-1,-1,-1,-1,-1,-1,-1,-1,-1,-1,-1,-1,-1,-1,-1,-1,-1,-1,-1,-1,-1],"split_conditions":[3.2303372E-1,1.4325842E-1,5.646067E-1,7.022472E-2,2.247191E-1,3.960674E-1,6.488764E-1,4.494382E-2,1.1235955E-1,1.9E1,2E1,7.584269E-2,4.9157304E-1,1.0393258E-1,5.0842696E-1,2.8089888E-2,4.775281E-2,3.0898876E-2,3.9325844E-2,3E0,1.7134832E-1,5.3370785E-2,6.825843E-1,2.3314607E-1,3.4550563E-1,1.8E1,5.758427E-1,2.1910113E-1,1.5E1,5E0,1.9E1,-2.1838374E-2,-2.0342603E-2,-1.5827706E-2,-1.8803855E-2,7.865169E-2,9.269663E-2,2.8089888E-3,3.0617976E-1,1.6853933E-1,1.1235955E-2,2.9213482E-1,1.9382022E-1,2.4719101E-1,3.005618E-1,2.247191E-1,8.455056E-1,3.3426967E-1,1.488764E-1,3.258427E-1,1.9E1,2.8089888E-2,4.550562E-1,1.8258427E-1,7.8089887E-1,3.651957E-2,8.010906E-3,2.1629213E-1,1.9E1,3.539221E-2,1.4180975E-2,4.502563E-2,2.696946E-2,-1.2424046E-2,-4.9978723E-3,-1.6895607E-2,-1.5039392E-2,-1.13329E-3,-7.958329E-3,-1.2771296E-2,-8.658916E-3,-1.1718935E-2,-7.3137926E-3,4.455348E-3,-2.9781943E-3,-1.1528936E-2,-8.618644E-3,-8.269772E-3,-5.5750892E-3,4.746252E-3,1.1398368E-2,1.9349123E-5,3.1722013E-3,-5.5019353E-3,-2.845898E-3,2.863771E-3,-1.9165156E-3,5.3806165E-3,1.0924237E-2,2.0998297E-2,1.29588265E-2,5.413191E-3,1.4782151E-3,1.106317E-2,2.8998207E-3,2.6247242E-2,1.75261E-2,9.189919E-3,1.4784892E-2,2.813062E-2,2.2565994E-2,1.8124534E-2,6.9719227E-3,2.770022E-2,2.1355279E-2,3.398461E-2,2.4296306E-2],"split_indices":[11,11,11,11,11,11,11,11,11,12,12,2,11,2,2,11,1,2,0,12,11,0,5,9,10,12,6,4,12,13,12,0,0,0,0,8,10,0,0,11,0,0,10,10,10,10,3,11,7,0,12,2,11,1,2,0,0,1,12,0,0,0,0,0,0,0,0,0,0,0,0,0,0,0,0,0,0,0,0,0,0,0,0,0,0,0,0,0,0,0,0,0,0,0,0,0,0,0,0,0,0,0,0,0,0,0,0],"split_type":[0,0,0,0,0,0,0,0,0,0,0,0,0,0,0,0,0,0,0,0,0,0,0,0,0,0,0,0,0,0,0,0,0,0,0,0,0,0,0,0,0,0,0,0,0,0,0,0,0,0,0,0,0,0,0,0,0,0,0,0,0,0,0,0,0,0,0,0,0,0,0,0,0,0,0,0,0,0,0,0,0,0,0,0,0,0,0,0,0,0,0,0,0,0,0,0,0,0,0,0,0,0,0,0,0,0,0],"sum_hessian":[5.229E3,3.551E3,1.678E3,1.805E3,1.746E3,1.162E3,5.16E2,1.178E3,6.27E2,7.07E2,1.039E3,3.92E2,7.7E2,2.04E2,3.12E2,9.12E2,2.66E2,3.9E2,2.37E2,2.85E2,4.22E2,8.63E2,1.76E2,5.6E1,3.36E2,4.5E2,3.2E2,2.7E1,1.77E2,1.33E2,1.79E2,5.74E2,3.38E2,6.8E1,1.98E2,4.7E1,3.43E2,4.3E1,1.94E2,4.1E1,2.44E2,1.55E2,2.67E2,6.2E1,8.01E2,1.55E2,2.1E1,2.9E1,2.7E1,1.59E2,1.77E2,3.95E2,5.5E1,2.5E2,7E1,2.6E1,1E0,9.3E1,8.4E1,1.31E2,2E0,1.63E2,1.6E1,4.5E1,2E0,1.72E2,1.71E2,1E0,4.2E1,1.65E2,2.9E1,2E1,2.1E1,1.4E1,2.3E2,7.1E1,8.4E1,1E2,1.67E2,4.5E1,1.7E1,5.64E2,2.37E2,5.4E1,1.01E2,1.6E1,5E0,7E0,2.2E1,1.5E1,1.2E1,1.17E2,4.2E1,1.46E2,3.1E1,2.3E1,3.72E2,3.4E1,2.1E1,4.7E1,2.03E2,6.5E1,5E0,5.2E1,4.1E1,6.4E1,2E1],"tree_param":{"num_deleted":"0","num_feature":"16","num_nodes":"107","size_leaf_vector":"1"}},{"base_weights":[1.11854686E-4,-8.6461715E-2,2.1384746E-1,-1.6323976E-1,-1.0620813E-2,1.6453983E-1,3.454944E-1,-1.854643E-1,-1.2400472E-1,-4.8190664E-2,1.6924024E-2,1.0832807E-1,1.966782E-1,2.942452E-1,3.7423715E-1,-1.9333305E-2,-1.6724326E-1,-1.4044833E-1,-1.0076552E-1,-2.5705503E-2,-6.536035E-2,2.4554725E-3,4.3006036E-2,1.2004945E-1,5.7295635E-2,1.7876612E-1,2.3353888E-1,3.291255E-2,2.6045567E-1,3.892532E-1,2.4172189E-2,-1.4694984E-2,-1.728264E-2,-1.1283535E-1,-1.448229E-1,-6.521847E-2,-1.081454E-1,-8.012226E-2,-1.8508196E-2,-7.748875E-2,-4.4999696E-2,1.0155473E-2,-2.4093289E-2,9.0730466E-2,3.3769354E-2,9.709208E-2,1.4803697E-1,6.3181154E-2,5.807168E-3,3.1808117E-1,1.7507812E-1,2.3959282E-1,1.394848E-1,2.3344E-2,3.235238E-2,3.4688452E-1,4.173344E-2,-1.1378187E-2,-2.944196E-3,-1.4941583E-2,-1.3131413E-2,-7.1073207E-3,-2.4865116E-3,-1.1349699E-2,-6.9785193E-3,-9.798474E-3,-6.548539E-3,4.922097E-3,-2.1924048E-3,-8.876408E-3,-6.340583E-3,-5.0487793E-3,-1.2662233E-3,3.3413063E-4,3.482099E-3,-4.0115975E-3,-7.350877E-4,6.639746E-3,1.1447242E-2,2.7915698E-3,7.363578E-3,1.6211217E-2,7.581168E-3,1.5415049E-2,8.9112315E-3,3.9074435E-3,7.291379E-3,-2.2750876E-3,2.3878003E-3,3.3273887E-2,8.575204E-3,1.4687843E-2,1.8902104E-2,2.2673776E-2,2.7935103E-2,3.7684392E-3,1.5133597E-2,1.5548742E-2,3.5129193E-2],"categories":[],"categories_nodes":[],"categories_segments":[],"categories_sizes":[],"default_left":[0,0,0,0,0,0,0,0,0,0,0,0,0,0,0,0,0,0,0,0,0,0,0,0,0,0,0,0,0,0,0,0,0,0,0,0,0,0,0,0,0,0,0,0,0,0,0,0,0,0,0,0,0,0,0,0,0,0,0,0,0,0,0,0,0,0,0,0,0,0,0,0,0,0,0,0,0,0,0,0,0,0,0,0,0,0,0,0,0,0,0,0,0,0,0,0,0,0,0],"id":2,"left_children":[1,3,5,7,9,11,13,15,17,19,21,23,25,27,29,-1,31,33,35,37,39,41,43,45,47,49,51,-1,53,55,-1,-1,-1,57,59,61,63,65,67,69,71,73,75,77,79,81,83,85,87,89,91,93,95,-1,-1,97,-1,-1,-1,-1,-1,-1,-1,-1,-1,-1,-1,-1,-1,-1,-1,-1,-1,-1,-1,-1,-1,-1,-1,-1,-1,-1,-1,-1,-1,-1,-1,-1,-1,-1,-1,-1,-1,-1,-1,-1,-1,-1,-1],"loss_changes":[9.679365E1,2.1676985E1,9.73188E0,1.5901642E0,1.9401346E0,1.9640999E0,4.9382782E-1,1.367073E-1,2.4264336E-1,3.0446804E-1,4.0820757E-1,2.3358631E-1,4.1910744E-1,9.3421936E-2,4.212799E-1,0E0,1.5730858E-2,3.0889988E-2,6.692481E-2,1.3363776E-1,1.07390046E-1,1.4272922E-1,1.6709077E-1,1.9508839E-1,2.2966862E-2,1.8785E-1,9.469509E-2,0E0,6.419039E-2,1.3006973E-1,0E0,0E0,0E0,1.2281537E-3,1.1024475E-3,1.02819055E-2,3.9706707E-2,4.041493E-3,7.187313E-2,3.8832903E-2,2.9530823E-2,9.081219E-2,4.1821696E-2,2.8217554E-2,7.378784E-2,2.3953485E-1,3.8497686E-2,1.3339877E-2,5.187855E-3,8.92663E-3,1.5467453E-1,4.3990135E-2,1.360026E-2,0E0,0E0,2.8047562E-2,0E0,0E0,0E0,0E0,0E0,0E0,0E0,0E0,0E0,0E0,0E0,0E0,0E0,0E0,0E0,0E0,0E0,0E0,0E0,0E0,0E0,0E0,0E0,0E0,0E0,0E0,0E0,0E0,0E0,0E0,0E0,0E0,0E0,0E0,0E0,0E0,0E0,0E0,0E0,0E0,0E0,0E0,0E0],"parents":[2147483647,0,0,1,1,2,2,3,3,4,4,5,5,6,6,7,7,8,8,9,9,10,10,11,11,12,12,13,13,14,14,16,16,17,17,18,18,19,19,20,20,21,21,22,22,23,23,24,24,25,25,26,26,28,28,29,29,33,33,34,34,35,35,36,36,37,37,38,38,39,39,40,40,41,41,42,42,43,43,44,44,45,45,46,46,47,47,48,48,49,49,50,50,51,51,52,52,55,55],"right_children":[2,4,6,8,10,12,14,16,18,20,22,24,26,28,30,-1,32,34,36,38,40,42,44,46,48,50,52,-1,54,56,-1,-1,-1,58,60,62,64,66,68,70,72,74,76,78,80,82,84,86,88,90,92,94,96,-1,-1,98,-1,-1,-1,-1,-1,-1,-1,-1,-1,-1,-1,-1,-1,-1,-1,-1,-1,-1,-1,-1,-1,-1,-1,-1,-1,-1,-1,-1,-1,-1,-1,-1,-1,-1,-1,-1,-1,-1,-1,-1,-1,-1,-1],"split_conditions":[3.483146E-1,1.488764E-1,6.0393256E-1,7.022472E-2,2.3595506E-1,4.3539324E-1,4.494382E-1,3.9325844E-2,1.1235955E-1,1.9E1,2.977528E-1,1.8E1,5.3370786E-1,1.0393258E-1,1.9E1,-1.9333305E-2,4.494382E-2,3.6516853E-2,3.9325844E-2,3E0,2.1348314E-1,1.9E1,1.4044943E-1,4.1011235E-1,6.9382024E-1,1.1235955E-1,7.275281E-1,3.291255E-2,4.494382E-1,1.7E1,2.4172189E-2,-1.4694984E-2,-1.728264E-2,9E0,1.1235955E-1,1.3202247E-1,3.0617976E-1,1.6853933E-1,1.1235955E-2,1.8258427E-1,2.7808988E-1,3.005618E-1,2.6685393E-1,2.8370786E-1,3.8483146E-1,3.6516853E-2,5.8146065E-1,3.483146E-1,7.47191E-1,2.247191E-2,4.6067417E-1,5.955056E-1,5.02809E-1,2.3344E-2,3.235238E-2,1.5E1,4.173344E-2,-1.1378187E-2,-2.944196E-3,-1.4941583E-2,-1.3131413E-2,-7.1073207E-3,-2.4865116E-3,-1.1349699E-2,-6.9785193E-3,-9.798474E-3,-6.548539E-3,4.922097E-3,-2.1924048E-3,-8.876408E-3,-6.340583E-3,-5.0487793E-3,-1.2662233E-3,3.3413063E-4,3.482099E-3,-4.0115975E-3,-7.350877E-4,6.639746E-3,1.1447242E-2,2.7915698E-3,7.363578E-3,1.6211217E-2,7.581168E-3,1.5415049E-2,8.9112315E-3,3.9074435E-3,7.291379E-3,-2.2750876E-3,2.3878003E-3,3.3273887E-2,8.575204E-3,1.4687843E-2,1.8902104E-2,2.2673776E-2,2.7935103E-2,3.7684392E-3,1.5133597E-2,1.5548742E-2,3.5129193E-2],"split_indices":[11,11,11,11,11,11,0,11,11,12,11,12,11,1,12,0,0,0,0,12,10,12,2,10,0,5,4,0,2,12,0,0,0,12,10,10,1,11,0,11,10,10,10,10,10,2,8,10,0,1,10,10,10,0,0,12,0,0,0,0,0,0,0,0,0,0,0,0,0,0,0,0,0,0,0,0,0,0,0,0,0,0,0,0,0,0,0,0,0,0,0,0,0,0,0,0,0,0,0],"split_type":[0,0,0,0,0,0,0,0,0,0,0,0,0,0,0,0,0,0,0,0,0,0,0,0,0,0,0,0,0,0,0,0,0,0,0,0,0,0,0,0,0,0,0,0,0,0,0,0,0,0,0,0,0,0,0,0,0,0,0,0,0,0,0,0,0,0,0,0,0,0,0,0,0,0,0,0,0,0,0,0,0,0,0,0,0,0,0,0,0,0,0,0,0,0,0,0,0,0,0],"sum_hessian":[5.229E3,3.722E3,1.507E3,1.849E3,1.873E3,1.098E3,4.09E2,1.178E3,6.71E2,7.92E2,1.081E3,4.01E2,6.97E2,1.51E2,2.58E2,8.16E2,3.62E2,3.9E2,2.81E2,3.44E2,4.48E2,6.96E2,3.85E2,3.25E2,7.6E1,4.73E2,2.24E2,7E1,8.1E1,2.3E2,2.8E1,8.4E1,2.78E2,5.7E1,3.33E2,5E1,2.31E2,3.9E1,3.05E2,2.79E2,1.69E2,5.4E2,1.56E2,6.1E1,3.24E2,1.81E2,1.44E2,6.8E1,8E0,1E1,4.63E2,2.09E2,1.5E1,6E1,2.1E1,9.7E1,1.33E2,5.6E1,1E0,2.41E2,9.2E1,4.3E1,7E0,2.01E2,3E1,1.5E1,2.4E1,1.4E1,2.91E2,1.52E2,1.27E2,1.44E2,2.5E1,4.24E2,1.16E2,7.9E1,7.7E1,3.2E1,2.9E1,2.84E2,4E1,4.3E1,1.38E2,1.29E2,1.5E1,2.1E1,4.7E1,3E0,5E0,9E0,1E0,1.57E2,3.06E2,1.63E2,4.6E1,2E0,1.3E1,3E0,9.4E1],"tree_param":{"num_deleted":"0","num_feature":"16","num_nodes":"99","size_leaf_vector":"1"}},{"base_weights":[1.5422488E-4,-8.412499E-2,1.784506E-1,-1.4865924E-1,-1.7363116E-2,1.2727003E-1,2.9323697E-1,-1.6977355E-1,-1.1822279E-1,-5.491533E-2,2.1791328E-3,6.645109E-2,1.5810604E-1,2.419467E-1,3.2589278E-1,-1.7728368E-2,-1.6061416E-1,-1.3347252E-1,-9.904603E-2,-7.153861E-2,-4.0152214E-2,9.351469E-3,-2.8527146E-2,1.1625478E-1,5.8345642E-2,1.24899566E-1,1.710541E-1,2.2876363E-1,2.8373626E-1,2.724922E-2,3.4688985E-1,-1.6673672E-1,-1.4754407E-2,-1.1006859E-2,-1.3677911E-1,-7.359278E-2,-1.0628671E-1,-1.9206138E-2,-7.659393E-2,-2.0204531E-2,-5.4124888E-2,5.5805437E-2,5.808481E-3,-3.734729E-2,-4.67831E-3,7.753923E-2,1.5496618E-1,4.1789345E-2,8.758731E-2,1.3143675E-1,7.330275E-2,2.2067861E-1,1.6116694E-1,2.3390521E-1,1.3738683E-1,2.867656E-2,7.5222417E-3,3.5595962E-1,2.2482771E-2,-1.674283E-2,-6.9209347E-3,-1.4219137E-2,-1.2615295E-2,-7.6295207E-3,-4.074752E-3,-1.1364829E-2,-8.499724E-3,-7.785413E-3,-1.534992E-4,-8.127595E-3,-4.939618E-3,-1.2532436E-5,-3.8274028E-3,-5.699252E-3,-1.7443243E-3,3.909037E-3,9.820726E-3,-1.237555E-3,1.6396971E-3,-4.0221545E-3,1.21410565E-4,-9.822297E-4,4.325462E-3,5.3992155E-3,9.891165E-3,1.759923E-2,1.1029489E-2,4.623705E-3,-1.39487065E-5,1.0262553E-2,2.5134007E-3,-1.3683637E-3,1.3301969E-2,2.3050308E-4,7.5944783E-3,1.4390411E-2,2.3680726E-2,1.3296174E-2,1.7040178E-2,2.405881E-2,1.781029E-2,3.54196E-3,1.440416E-2,3.1573277E-2,3.768998E-2],"categories":[],"categories_nodes":[],"categories_segments":[],"categories_sizes":[],"default_left":[0,0,0,0,0,0,0,0,0,0,0,0,0,0,0,0,0,0,0,0,0,0,0,0,0,0,0,0,0,0,0,0,0,0,0,0,0,0,0,0,0,0,0,0,0,0,0,0,0,0,0,0,0,0,0,0,0,0,0,0,0,0,0,0,0,0,0,0,0,0,0,0,0,0,0,0,0,0,0,0,0,0,0,0,0,0,0,0,0,0,0,0,0,0,0,0,0,0,0,0,0,0,0,0,0],"id":3,"left_children":[1,3,5,7,9,11,13,15,17,19,21,23,25,27,29,-1,31,33,35,37,39,41,43,45,47,49,51,53,55,-1,57,59,-1,-1,61,63,65,67,69,71,73,75,77,79,81,83,85,87,89,91,93,95,97,99,101,-1,-1,103,-1,-1,-1,-1,-1,-1,-1,-1,-1,-1,-1,-1,-1,-1,-1,-1,-1,-1,-1,-1,-1,-1,-1,-1,-1,-1,-1,-1,-1,-1,-1,-1,-1,-1,-1,-1,-1,-1,-1,-1,-1,-1,-1,-1,-1,-1,-1],"loss_changes":[7.860454E1,1.5300951E1,9.826519E0,1.1405449E0,1.2821639E0,2.170599E0,7.870903E-1,4.471779E-2,2.0406246E-1,1.4388347E-1,2.535379E-1,1.5186381E-1,3.101349E-1,4.8028946E-2,2.5642776E-1,0E0,1.46102905E-2,1.675129E-2,5.3549528E-2,7.2605014E-2,8.781892E-2,1.5323442E-1,4.568161E-2,6.8915546E-2,1.6094518E-1,6.4570904E-2,2.3526955E-1,4.350567E-2,6.853819E-3,0E0,1.646328E-1,1.0398865E-2,0E0,0E0,2.5362968E-3,3.725797E-3,3.0618668E-2,2.6826302E-2,2.8457046E-2,4.8250414E-2,1.8676221E-2,4.2938486E-2,1.673289E-1,1.7671645E-2,1.5218841E-2,9.254023E-3,5.00983E-3,4.0847123E-2,1.1200136E-1,4.638529E-2,4.8895627E-3,7.612848E-2,9.820175E-2,1.3462067E-2,2.3623407E-3,0E0,0E0,5.2841187E-2,0E0,0E0,0E0,0E0,0E0,0E0,0E0,0E0,0E0,0E0,0E0,0E0,0E0,0E0,0E0,0E0,0E0,0E0,0E0,0E0,0E0,0E0,0E0,0E0,0E0,0E0,0E0,0E0,0E0,0E0,0E0,0E0,0E0,0E0,0E0,0E0,0E0,0E0,0E0,0E0,0E0,0E0,0E0,0E0,0E0,0E0,0E0],"parents":[2147483647,0,0,1,1,2,2,3,3,4,4,5,5,6,6,7,7,8,8,9,9,10,10,11,11,12,12,13,13,14,14,16,16,17,17,18,18,19,19,20,20,21,21,22,22,23,23,24,24,25,25,26,26,27,27,28,28,30,30,31,31,34,34,35,35,36,36,37,37,38,38,39,39,40,40,41,41,42,42,43,43,44,44,45,45,46,46,47,47,48,48,49,49,50,50,51,51,52,52,53,53,54,54,57,57],"right_children":[2,4,6,8,10,12,14,16,18,20,22,24,26,28,30,-1,32,34,36,38,40,42,44,46,48,50,52,54,56,-1,58,60,-1,-1,62,64,66,68,70,72,74,76,78,80,82,84,86,88,90,92,94,96,98,100,102,-1,-1,104,-1,-1,-1,-1,-1,-1,-1,-1,-1,-1,-1,-1,-1,-1,-1,-1,-1,-1,-1,-1,-1,-1,-1,-1,-1,-1,-1,-1,-1,-1,-1,-1,-1,-1,-1,-1,-1,-1,-1,-1,-1,-1,-1,-1,-1,-1,-1],"split_conditions":[3.2303372E-1,1.4325842E-1,5.646067E-1,5.8988765E-2,2.1348314E-1,3.960674E-1,6.488764E-1,2.8089888E-2,1.01123594E-1,1.769663E-1,2E1,4.494382E-2,4.4382024E-1,6.825843E-1,4.494382E-1,-1.7728368E-2,5E0,3.0898876E-2,6.460674E-2,3.0898876E-2,1.9E1,5.0561797E-2,2.7808988E-1,2.3314607E-1,3.8483146E-1,1.8E1,1.8539326E-1,7.3595506E-1,7.6404494E-1,2.724922E-2,1.9E1,1.6853933E-1,-1.4754407E-2,-1.1006859E-2,9.269663E-2,9E0,2.52809E-1,3.9325844E-2,3.764045E-1,5E0,4.4101125E-1,2.4438202E-1,2.5561798E-1,2.7808988E-1,7.3595506E-1,2.8370786E-1,1.488764E-1,5.280899E-1,1.9E1,1.488764E-1,2.52809E-1,8E0,3.6516854E-1,5E0,1E0,2.867656E-2,7.5222417E-3,1.7E1,2.2482771E-2,-1.674283E-2,-6.9209347E-3,-1.4219137E-2,-1.2615295E-2,-7.6295207E-3,-4.074752E-3,-1.1364829E-2,-8.499724E-3,-7.785413E-3,-1.534992E-4,-8.127595E-3,-4.939618E-3,-1.2532436E-5,-3.8274028E-3,-5.699252E-3,-1.7443243E-3,3.909037E-3,9.820726E-3,-1.237555E-3,1.6396971E-3,-4.0221545E-3,1.21410565E-4,-9.822297E-4,4.325462E-3,5.3992155E-3,9.891165E-3,1.759923E-2,1.1029489E-2,4.623705E-3,-1.39487065E-5,1.0262553E-2,2.5134007E-3,-1.3683637E-3,1.3301969E-2,2.3050308E-4,7.5944783E-3,1.4390411E-2,2.3680726E-2,1.3296174E-2,1.7040178E-2,2.405881E-2,1.781029E-2,3.54196E-3,1.440416E-2,3.1573277E-2,3.768998E-2],"split_indices":[11,11,11,11,11,11,11,11,11,11,12,1,11,10,0,0,12,0,1,5,12,2,10,9,10,12,1,5,4,0,12,6,0,0,10,12,0,8,1,13,4,10,10,11,6,10,7,6,12,8,9,12,0,13,13,0,0,12,0,0,0,0,0,0,0,0,0,0,0,0,0,0,0,0,0,0,0,0,0,0,0,0,0,0,0,0,0,0,0,0,0,0,0,0,0,0,0,0,0,0,0,0,0,0,0],"split_type":[0,0,0,0,0,0,0,0,0,0,0,0,0,0,0,0,0,0,0,0,0,0,0,0,0,0,0,0,0,0,0,0,0,0,0,0,0,0,0,0,0,0,0,0,0,0,0,0,0,0,0,0,0,0,0,0,0,0,0,0,0,0,0,0,0,0,0,0,0,0,0,0,0,0,0,0,0,0,0,0,0,0,0,0,0,0,0,0,0,0,0,0,0,0,0,0,0,0,0,0,0,0,0,0,0],"sum_hessian":[5.229E3,3.551E3,1.678E3,1.805E3,1.746E3,1.162E3,5.16E2,1.063E3,7.42E2,5.97E2,1.149E3,3.92E2,7.7E2,2.04E2,3.12E2,5.74E2,4.89E2,4.1E2,3.32E2,2.79E2,3.18E2,9.32E2,2.17E2,5.3E1,3.39E2,2.19E2,5.51E2,1.6E2,4.4E1,9.2E1,2.2E2,3.25E2,1.64E2,5.5E1,3.55E2,7.6E1,2.56E2,2.5E1,2.54E2,1.32E2,1.86E2,6.5E1,8.67E2,1.58E2,5.9E1,2.8E1,2.5E1,2.18E2,1.21E2,1.93E2,2.6E1,8.8E1,4.63E2,1.5E2,1E1,4.3E1,1E0,2.03E2,1.7E1,3.22E2,3E0,2.27E2,1.28E2,6.9E1,7E0,1.87E2,6.9E1,5E0,2E1,2.15E2,3.9E1,6.3E1,6.9E1,1.72E2,1.4E1,4.8E1,1.7E1,3.19E2,5.48E2,1.47E2,1.1E1,5.4E1,5E0,1.5E1,1.3E1,1.5E1,1E1,1.97E2,2.1E1,9.7E1,2.4E1,2E0,1.91E2,1E0,2.5E1,1.7E1,7.1E1,1.18E2,3.45E2,1.31E2,1.9E1,1E0,9E0,7.5E1,1.28E2],"tree_param":{"num_deleted":"0","num_feature":"16","num_nodes":"105","size_leaf_vector":"1"}},{"base_weights":[1.809066E-4,-7.0116945E-2,1.7373444E-1,-1.3386284E-1,-1.0056885E-2,1.3353916E-1,2.8105366E-1,-1.5284896E-1,-1.0649393E-1,-3.708733E-2,1.7582301E-2,9.1349855E-2,1.6156942E-1,2.5697604E-1,3.2238317E-1,-1.5798891E-2,-1.4181967E-1,-1.1712446E-1,-8.344544E-2,-6.053286E-2,-2.3515493E-2,4.249711E-2,7.867503E-3,6.997933E-2,1.1249942E-1,2.055293E-1,1.5109816E-1,2.3233424E-1,2.7333492E-1,2.4967773E-2,3.3966067E-1,-1.4762451E-1,-1.30420495E-2,-1.2812919E-2,-1.0848601E-1,-4.9081128E-2,-8.816586E-2,-6.5994505E-3,-6.424934E-2,-8.242463E-3,-4.043405E-2,7.285755E-2,3.2113876E-2,-4.1888594E-3,2.8294371E-2,7.623649E-2,2.1965228E-2,2.0298246E-2,1.0857283E-1,2.8263712E-1,1.9063707E-1,1.3565981E-1,1.7423466E-1,2.52929E-1,1.5448508E-1,2.857609E-1,1.9463842E-1,3.4569842E-1,1.7135225E-2,-1.484736E-2,-6.4018643E-3,-1.0283289E-2,-1.20293945E-2,-5.2149384E-3,-3.0609668E-4,-9.209226E-3,-6.1799516E-3,2.2181547E-3,-3.2658875E-3,-6.611732E-3,1.9668585E-3,-4.7604595E-3,-5.366774E-4,-4.6455213E-3,-2.6178425E-3,5.4119434E-3,1.3420838E-2,9.657896E-4,4.2610387E-3,-1.1729442E-3,1.1736172E-3,2.1581843E-3,6.366686E-3,4.2199693E-3,8.581161E-3,3.0626308E-3,-7.155904E-4,7.7494383E-3,1.2169854E-2,2.905253E-2,7.4269236E-3,1.2774954E-2,2.1460764E-2,6.765771E-3,1.3918206E-2,1.2572326E-2,1.8382777E-2,2.5460875E-2,5.4235384E-3,1.3193469E-2,2.2280972E-2,1.3852968E-2,2.893355E-2,1.9852957E-2,5.257091E-3,3.4710333E-2,9.557915E-3],"categories":[],"categories_nodes":[],"categories_segments":[],"categories_sizes":[],"default_left":[0,0,0,0,0,0,0,0,0,0,0,0,0,0,0,0,0,0,0,0,0,0,0,0,0,0,0,0,0,0,0,0,0,0,0,0,0,0,0,0,0,0,0,0,0,0,0,0,0,0,0,0,0,0,0,0,0,0,0,0,0,0,0,0,0,0,0,0,0,0,0,0,0,0,0,0,0,0,0,0,0,0,0,0,0,0,0,0,0,0,0,0,0,0,0,0,0,0,0,0,0,0,0,0,0,0,0],"id":4,"left_children":[1,3,5,7,9,11,13,15,17,19,21,23,25,27,29,-1,31,33,35,37,39,41,43,45,47,49,51,53,55,-1,57,59,-1,-1,61,63,65,67,69,71,73,75,77,79,81,83,85,-1,87,89,91,93,95,97,99,101,103,105,-1,-1,-1,-1,-1,-1,-1,-1,-1,-1,-1,-1,-1,-1,-1,-1,-1,-1,-1,-1,-1,-1,-1,-1,-1,-1,-1,-1,-1,-1,-1,-1,-1,-1,-1,-1,-1,-1,-1,-1,-1,-1,-1,-1,-1,-1,-1,-1,-1],"loss_changes":[6.3820484E1,1.4252466E1,6.4675674E0,9.2217255E-1,1.4335889E0,1.284895E0,3.2514954E-1,3.791237E-2,1.7227459E-1,3.0722952E-1,2.2936383E-1,1.9144917E-1,2.722931E-1,4.291725E-2,9.985161E-2,0E0,3.774166E-3,3.42021E-2,3.4279704E-2,7.073295E-2,1.588397E-1,8.151394E-2,1.6856974E-1,6.502128E-2,5.612564E-2,8.850908E-2,1.6781616E-1,1.4049435E-1,9.399605E-2,0E0,5.8644295E-2,6.325245E-3,0E0,0E0,6.9875717E-3,4.2176247E-3,1.5841722E-2,1.8724814E-2,5.3343654E-2,3.653232E-2,2.3847818E-2,6.9759846E-2,4.6730354E-2,5.189387E-2,5.8935434E-2,6.025648E-2,7.0291134E-3,0E0,7.745743E-2,8.00848E-3,1.3388109E-1,6.866646E-2,7.508278E-2,1.5227795E-2,1.06630325E-2,2.8335571E-2,2.8305054E-3,5.8279037E-3,0E0,0E0,0E0,0E0,0E0,0E0,0E0,0E0,0E0,0E0,0E0,0E0,0E0,0E0,0E0,0E0,0E0,0E0,0E0,0E0,0E0,0E0,0E0,0E0,0E0,0E0,0E0,0E0,0E0,0E0,0E0,0E0,0E0,0E0,0E0,0E0,0E0,0E0,0E0,0E0,0E0,0E0,0E0,0E0,0E0,0E0,0E0,0E0,0E0],"parents":[2147483647,0,0,1,1,2,2,3,3,4,4,5,5,6,6,7,7,8,8,9,9,10,10,11,11,12,12,13,13,14,14,16,16,17,17,18,18,19,19,20,20,21,21,22,22,23,23,24,24,25,25,26,26,27,27,28,28,30,30,31,31,34,34,35,35,36,36,37,37,38,38,39,39,40,40,41,41,42,42,43,43,44,44,45,45,46,46,48,48,49,49,50,50,51,51,52,52,53,53,54,54,55,55,56,56,57,57],"right_children":[2,4,6,8,10,12,14,16,18,20,22,24,26,28,30,-1,32,34,36,38,40,42,44,46,48,50,52,54,56,-1,58,60,-1,-1,62,64,66,68,70,72,74,76,78,80,82,84,86,-1,88,90,92,94,96,98,100,102,104,106,-1,-1,-1,-1,-1,-1,-1,-1,-1,-1,-1,-1,-1,-1,-1,-1,-1,-1,-1,-1,-1,-1,-1,-1,-1,-1,-1,-1,-1,-1,-1,-1,-1,-1,-1,-1,-1,-1,-1,-1,-1,-1,-1,-1,-1,-1,-1,-1,-1],"split_conditions":[3.483146E-1,1.4325842E-1,6.0393256E-1,5.8988765E-2,2.4719101E-1,4.4382024E-1,7.3595506E-1,3.3707865E-2,1.1235955E-1,1.8539326E-1,2.3595506E-1,3.960674E-1,1.8539326E-1,4.1853932E-1,5E-1,-1.5798891E-2,5E0,5E0,2.8089888E-2,2.247191E-2,1.8E1,3.6516853E-2,3.0617976E-1,1.9E1,1.1516854E-1,2.8089888E-2,5.196629E-1,3.960674E-1,1.9E1,2.4967773E-2,1.9E1,1.6573034E-1,-1.30420495E-2,-1.2812919E-2,2.3E1,1.3202247E-1,3.0617976E-1,1.9662922E-2,3.5674158E-1,2E0,5.449438E-1,2.247191E-1,2.3595506E-1,2.9213482E-1,3.8483146E-1,3.0617976E-1,7.6404494E-1,2.0298246E-2,3.988764E-1,2.5280898E-2,4.6348315E-1,1E1,1.1E1,2.1629213E-1,7.3595506E-1,3.6235955E-1,7.8089887E-1,8.455056E-1,1.7135225E-2,-1.484736E-2,-6.4018643E-3,-1.0283289E-2,-1.20293945E-2,-5.2149384E-3,-3.0609668E-4,-9.209226E-3,-6.1799516E-3,2.2181547E-3,-3.2658875E-3,-6.611732E-3,1.9668585E-3,-4.7604595E-3,-5.366774E-4,-4.6455213E-3,-2.6178425E-3,5.4119434E-3,1.3420838E-2,9.657896E-4,4.2610387E-3,-1.1729442E-3,1.1736172E-3,2.1581843E-3,6.366686E-3,4.2199693E-3,8.581161E-3,3.0626308E-3,-7.155904E-4,7.7494383E-3,1.2169854E-2,2.905253E-2,7.4269236E-3,1.2774954E-2,2.1460764E-2,6.765771E-3,1.3918206E-2,1.2572326E-2,1.8382777E-2,2.5460875E-2,5.4235384E-3,1.3193469E-2,2.2280972E-2,1.3852968E-2,2.893355E-2,1.9852957E-2,5.257091E-3,3.4710333E-2,9.557915E-3],"split_indices":[11,11,11,11,11,11,11,11,11,11,1,11,1,3,1,0,12,12,5,2,12,2,10,12,6,2,11,4,12,0,12,6,0,0,12,10,0,1,7,12,0,9,8,11,10,10,1,0,10,1,10,12,12,1,9,0,3,0,0,0,0,0,0,0,0,0,0,0,0,0,0,0,0,0,0,0,0,0,0,0,0,0,0,0,0,0,0,0,0,0,0,0,0,0,0,0,0,0,0,0,0,0,0,0,0,0,0],"split_type":[0,0,0,0,0,0,0,0,0,0,0,0,0,0,0,0,0,0,0,0,0,0,0,0,0,0,0,0,0,0,0,0,0,0,0,0,0,0,0,0,0,0,0,0,0,0,0,0,0,0,0,0,0,0,0,0,0,0,0,0,0,0,0,0,0,0,0,0,0,0,0,0,0,0,0,0,0,0,0,0,0,0,0,0,0,0,0,0,0,0,0,0,0,0,0,0,0,0,0,0,0,0,0,0,0,0,0],"sum_hessian":[5.229E3,3.722E3,1.507E3,1.805E3,1.917E3,1.098E3,4.09E2,1.063E3,7.42E2,9.69E2,9.48E2,4.4E2,6.58E2,2.63E2,1.46E2,7.16E2,3.47E2,5.05E2,2.37E2,3.54E2,6.15E2,2.65E2,6.83E2,2.21E2,2.19E2,1.23E2,5.35E2,1.11E2,1.52E2,3.1E1,1.15E2,2.22E2,1.25E2,2.16E2,2.89E2,3E1,2.07E2,2.3E1,3.31E2,3.24E2,2.91E2,6.6E1,1.99E2,4.3E2,2.53E2,1.95E2,2.6E1,7E0,2.12E2,1.7E1,1.06E2,3.25E2,2.1E2,8.6E1,2.5E1,1.29E2,2.3E1,1.1E2,5E0,2.19E2,3E0,2.02E2,8.7E1,2.8E1,2E0,1.78E2,2.9E1,1.1E1,1.2E1,3.24E2,7E0,2.1E1,3.03E2,2.03E2,8.8E1,5.2E1,1.4E1,6.4E1,1.35E2,2.92E2,1.38E2,2.14E2,3.9E1,4.4E1,1.51E2,2E1,6E0,6.5E1,1.47E2,1.6E1,1E0,3.1E1,7.5E1,1.7E1,3.08E2,3.7E1,1.73E2,8.5E1,1E0,2.1E1,4E0,4E0,1.25E2,2.2E1,1E0,1.09E2,1E0],"tree_param":{"num_deleted":"0","num_feature":"16","num_nodes":"107","size_leaf_vector":"1"}},{"base_weights":[2.2142775E-4,-6.824553E-2,1.4506622E-1,-1.2254385E-1,-1.6095871E-2,1.03359535E-1,2.3860548E-1,-1.388159E-1,-1.0010544E-1,-4.6977714E-2,1.7490331E-3,5.958991E-2,1.3140416E-1,2.1730828E-1,2.9073238E-1,-1.4036866E-1,-1.1569566E-2,-1.1128661E-1,-8.573617E-2,-6.009935E-2,-3.25982E-2,7.7190194E-3,-2.3809437E-2,4.802128E-2,8.43218E-2,2.3638107E-1,1.2816621E-1,1.8596578E-1,2.3637153E-1,2.2667399E-2,3.0658627E-1,-1.4544894E-1,-1.3433863E-2,-9.124638E-2,-1.1459479E-2,-6.2029425E-2,-9.0635285E-2,-3.0182162E-2,-6.6019535E-2,-1.6276022E-2,-4.4032704E-2,4.6432637E-2,4.7664642E-3,-2.7752195E-2,1.0824909E-2,9.2721924E-2,3.9774466E-2,2.3799695E-2,8.964351E-2,2.478323E-1,8.888003E-3,1.0285666E-1,1.436459E-1,1.7322807E-1,2.3300442E-1,2.1001855E-1,2.5408044E-1,3.1195438E-1,1.570729E-2,-1.4558843E-2,-3.8129014E-3,-9.361135E-3,-5.317738E-3,-4.482597E-3,-6.792545E-3,-9.410492E-3,-6.107374E-3,-6.054334E-3,-1.9391057E-3,-7.6010833E-3,-5.2192253E-3,3.321329E-3,-2.1458545E-3,-5.508329E-3,-3.6140948E-3,3.2295615E-3,8.233717E-3,-1.0710903E-3,1.3779199E-3,-3.96995E-3,-2.0018746E-3,2.1498585E-4,3.504591E-3,6.3072713E-3,1.2489497E-2,3.223118E-3,8.0384435E-3,5.132714E-3,1.4128601E-3,1.0319422E-2,5.5897012E-3,2.5513312E-2,6.1859223E-3,6.759368E-3,1.095715E-2,1.5570158E-2,1.0979407E-2,1.9306114E-2,1.3676419E-2,2.4714524E-2,8.637323E-3,2.2789907E-2,1.4940667E-2,2.6464006E-2,1.8616624E-2,3.1905364E-2,2.1905638E-2],"categories":[],"categories_nodes":[],"categories_segments":[],"categories_sizes":[],"default_left":[0,0,0,0,0,0,0,0,0,0,0,0,0,0,0,0,0,0,0,0,0,0,0,0,0,0,0,0,0,0,0,0,0,0,0,0,0,0,0,0,0,0,0,0,0,0,0,0,0,0,0,0,0,0,0,0,0,0,0,0,0,0,0,0,0,0,0,0,0,0,0,0,0,0,0,0,0,0,0,0,0,0,0,0,0,0,0,0,0,0,0,0,0,0,0,0,0,0,0,0,0,0,0,0,0,0,0],"id":5,"left_children":[1,3,5,7,9,11,13,15,17,19,21,23,25,27,29,31,-1,33,35,37,39,41,43,45,47,49,51,53,55,-1,57,59,-1,61,-1,63,65,67,69,71,73,75,77,79,81,83,85,87,89,91,-1,93,95,97,99,101,103,105,-1,-1,-1,-1,-1,-1,-1,-1,-1,-1,-1,-1,-1,-1,-1,-1,-1,-1,-1,-1,-1,-1,-1,-1,-1,-1,-1,-1,-1,-1,-1,-1,-1,-1,-1,-1,-1,-1,-1,-1,-1,-1,-1,-1,-1,-1,-1,-1,-1],"loss_changes":[5.187624E1,1.0056009E1,6.5254707E0,6.214142E-1,9.991965E-1,1.419755E0,5.107746E-1,1.9874573E-2,1.08548164E-1,1.2332618E-1,1.7565505E-1,1.2641883E-1,2.1036053E-1,1.7771149E-1,7.979393E-2,9.195328E-3,0E0,1.672554E-2,3.2240152E-2,5.9289336E-2,5.8820188E-2,1.06424406E-1,3.0069381E-2,1.1169571E-1,4.4246197E-2,1.1753917E-2,2.551632E-1,4.6515465E-2,5.257511E-2,0E0,4.330063E-2,1.8892288E-3,0E0,6.939769E-4,0E0,2.9396713E-3,2.1740913E-2,1.8156208E-2,3.582084E-2,3.4824464E-2,1.4317244E-2,3.084135E-2,1.2122787E-1,1.7314464E-2,4.75738E-3,3.7909985E-2,7.889363E-2,2.7356865E-3,5.459392E-2,8.657336E-3,0E0,5.534172E-2,1.5635014E-1,5.8932543E-2,3.671086E-2,7.107592E-2,4.467964E-2,2.6550293E-3,0E0,0E0,0E0,0E0,0E0,0E0,0E0,0E0,0E0,0E0,0E0,0E0,0E0,0E0,0E0,0E0,0E0,0E0,0E0,0E0,0E0,0E0,0E0,0E0,0E0,0E0,0E0,0E0,0E0,0E0,0E0,0E0,0E0,0E0,0E0,0E0,0E0,0E0,0E0,0E0,0E0,0E0,0E0,0E0,0E0,0E0,0E0,0E0,0E0],"parents":[2147483647,0,0,1,1,2,2,3,3,4,4,5,5,6,6,7,7,8,8,9,9,10,10,11,11,12,12,13,13,14,14,15,15,17,17,18,18,19,19,20,20,21,21,22,22,23,23,24,24,25,25,26,26,27,27,28,28,30,30,31,31,33,33,35,35,36,36,37,37,38,38,39,39,40,40,41,41,42,42,43,43,44,44,45,45,46,46,47,47,48,48,49,49,51,51,52,52,53,53,54,54,55,55,56,56,57,57],"right_children":[2,4,6,8,10,12,14,16,18,20,22,24,26,28,30,32,-1,34,36,38,40,42,44,46,48,50,52,54,56,-1,58,60,-1,62,-1,64,66,68,70,72,74,76,78,80,82,84,86,88,90,92,-1,94,96,98,100,102,104,106,-1,-1,-1,-1,-1,-1,-1,-1,-1,-1,-1,-1,-1,-1,-1,-1,-1,-1,-1,-1,-1,-1,-1,-1,-1,-1,-1,-1,-1,-1,-1,-1,-1,-1,-1,-1,-1,-1,-1,-1,-1,-1,-1,-1,-1,-1,-1,-1,-1],"split_conditions":[3.2303372E-1,1.3483146E-1,5.646067E-1,5.3370785E-2,2.1348314E-1,4.1011235E-1,7.3595506E-1,6E0,9.269663E-2,1.769663E-1,2E1,3.764045E-1,1.1235955E-1,6.207865E-1,5.0842696E-1,2.5280898E-2,-1.1569566E-2,3.0898876E-2,3.9325844E-2,4.775281E-2,1.9E1,5.0561797E-2,7.47191E-1,7.584269E-2,3.1179774E-1,2.247191E-2,4.6629214E-1,6.4044946E-1,4.4101125E-1,2.2667399E-2,1.9E1,2.1629213E-1,-1.3433863E-2,8.707865E-2,-1.1459479E-2,1.6853932E-2,3.005618E-1,3.9325844E-2,2.6966292E-1,1.6853932E-2,2.52809E-1,2.4438202E-1,2.5561798E-1,2.275281E-1,7.050562E-1,2.275281E-1,4.1853932E-1,3E0,5.1123595E-1,3.7921348E-1,8.888003E-3,3.6516854E-1,5.646067E-1,5.196629E-1,8.455056E-1,3.960674E-1,7.977528E-1,8.230337E-1,1.570729E-2,-1.4558843E-2,-3.8129014E-3,-9.361135E-3,-5.317738E-3,-4.482597E-3,-6.792545E-3,-9.410492E-3,-6.107374E-3,-6.054334E-3,-1.9391057E-3,-7.6010833E-3,-5.2192253E-3,3.321329E-3,-2.1458545E-3,-5.508329E-3,-3.6140948E-3,3.2295615E-3,8.233717E-3,-1.0710903E-3,1.3779199E-3,-3.96995E-3,-2.0018746E-3,2.1498585E-4,3.504591E-3,6.3072713E-3,1.2489497E-2,3.223118E-3,8.0384435E-3,5.132714E-3,1.4128601E-3,1.0319422E-2,5.5897012E-3,2.5513312E-2,6.1859223E-3,6.759368E-3,1.095715E-2,1.5570158E-2,1.0979407E-2,1.9306114E-2,1.3676419E-2,2.4714524E-2,8.637323E-3,2.2789907E-2,1.4940667E-2,2.6464006E-2,1.8616624E-2,3.1905364E-2,2.1905638E-2],"split_indices":[11,11,11,11,11,11,11,12,11,11,12,11,5,11,1,10,0,0,0,0,12,2,4,2,10,1,10,10,3,0,12,2,0,11,0,3,0,8,1,2,4,10,10,10,6,9,10,13,6,9,0,10,5,8,7,4,7,7,0,0,0,0,0,0,0,0,0,0,0,0,0,0,0,0,0,0,0,0,0,0,0,0,0,0,0,0,0,0,0,0,0,0,0,0,0,0,0,0,0,0,0,0,0,0,0,0,0],"split_type":[0,0,0,0,0,0,0,0,0,0,0,0,0,0,0,0,0,0,0,0,0,0,0,0,0,0,0,0,0,0,0,0,0,0,0,0,0,0,0,0,0,0,0,0,0,0,0,0,0,0,0,0,0,0,0,0,0,0,0,0,0,0,0,0,0,0,0,0,0,0,0,0,0,0,0,0,0,0,0,0,0,0,0,0,0,0,0,0,0,0,0,0,0,0,0,0,0,0,0,0,0,0,0,0,0,0,0],"sum_hessian":[5.229E3,3.551E3,1.678E3,1.739E3,1.812E3,1.162E3,5.16E2,1.005E3,7.34E2,6.63E2,1.149E3,4.55E2,7.07E2,3.7E2,1.46E2,9.37E2,6.8E1,4.09E2,3.25E2,3.45E2,3.18E2,9.32E2,2.17E2,3.12E2,1.43E2,1.9E1,6.88E2,1.44E2,2.26E2,3.2E1,1.14E2,4.96E2,4.41E2,6.2E1,3.47E2,5.8E1,2.67E2,5.8E1,2.87E2,1.32E2,1.86E2,6.5E1,8.67E2,1.95E2,2.2E1,4.7E1,2.65E2,1.2E1,1.31E2,1.7E1,2E0,2.64E2,4.24E2,1.17E2,2.7E1,9.6E1,1.3E2,1.09E2,5E0,4.95E2,1E0,5.7E1,5E0,1.7E1,4.1E1,2.37E2,3E1,1.4E1,4.4E1,1.64E2,1.23E2,1.2E1,1.2E2,7.5E1,1.11E2,4.8E1,1.7E1,3.19E2,5.48E2,7.5E1,1.2E2,1.7E1,5E0,2.6E1,2.1E1,2.25E2,4E1,2E0,1E1,9.2E1,3.9E1,1.6E1,1E0,4.4E1,2.2E2,3.1E2,1.14E2,7.3E1,4.4E1,2.4E1,3E0,7.2E1,2.4E1,1.1E2,2E1,9.9E1,1E1],"tree_param":{"num_deleted":"0","num_feature":"16","num_nodes":"107","size_leaf_vector":"1"}},{"base_weights":[2.4960013E-4,-6.1453503E-2,1.3078514E-1,-1.1034482E-1,-1.4496893E-2,8.671377E-2,2.0328967E-1,-1.2497743E-1,-9.016691E-2,-3.9124142E-2,3.8454046E-3,4.8913393E-2,1.0929608E-1,1.6013762E-1,2.3305522E-1,-1.2824011E-1,-1.1496974E-2,-9.870443E-2,-7.4832596E-2,-5.4149568E-2,-2.6914535E-2,1.6995724E-2,-5.378995E-3,8.91249E-2,4.2382997E-2,1.8171185E-1,1.0612898E-1,2.317967E-1,1.5260305E-1,1.9372454E-1,2.5186357E-1,-1.3143015E-2,-1.182845E-1,-8.1975706E-2,-1.0133679E-1,-5.2906673E-2,-8.014289E-2,-2.9814646E-2,-6.0103703E-2,-1.3233367E-2,-3.8366362E-2,4.2902078E-3,2.9980663E-2,-1.1982963E-2,1.3194748E-2,5.8226377E-2,1.2016076E-1,2.3308456E-2,5.8428217E-2,1.4080343E-1,2.5615541E-2,6.7738205E-2,1.151399E-1,6.2518762E-3,2.366494E-1,1.576085E-1,8.608657E-2,2.193209E-2,1.6417792E-1,2.602005E-1,1.667566E-2,-3.90968E-3,-1.1891229E-2,-8.3539495E-3,-3.5679308E-3,-1.0587525E-2,-9.117452E-3,-5.4871584E-3,-2.228329E-3,-8.214246E-3,-3.1337428E-3,-3.9372854E-3,-7.170698E-4,-7.164489E-3,-4.8298086E-3,9.7317454E-5,-2.9130718E-3,-4.6937093E-3,-2.9163898E-3,3.2615631E-3,-4.115481E-4,6.7849867E-3,2.45551E-3,-3.3611836E-4,-2.613126E-3,1.0284319E-3,8.666677E-3,3.85385E-3,7.6567787E-3,1.6957475E-2,9.685784E-3,3.217535E-3,-1.946007E-5,6.8123722E-3,1.0245705E-3,1.541663E-2,8.615618E-3,5.137054E-3,9.661438E-3,1.1878823E-2,5.3050253E-3,6.7747044E-3,2.4146631E-2,1.4411213E-2,1.8544666E-2,4.2371653E-4,9.546666E-3,1.41438395E-2,2.2599924E-2,2.4373572E-2,3.0047083E-2],"categories":[],"categories_nodes":[],"categories_segments":[],"categories_sizes":[],"default_left":[0,0,0,0,0,0,0,0,0,0,0,0,0,0,0,0,0,0,0,0,0,0,0,0,0,0,0,0,0,0,0,0,0,0,0,0,0,0,0,0,0,0,0,0,0,0,0,0,0,0,0,0,0,0,0,0,0,0,0,0,0,0,0,0,0,0,0,0,0,0,0,0,0,0,0,0,0,0,0,0,0,0,0,0,0,0,0,0,0,0,0,0,0,0,0,0,0,0,0,0,0,0,0,0,0,0,0,0,0,0,0],"id":6,"left_children":[1,3,5,7,9,11,13,15,17,19,21,23,25,27,29,31,-1,33,35,37,39,41,43,45,47,49,51,53,55,57,59,-1,61,63,65,67,69,71,73,75,77,79,81,83,85,87,89,91,93,95,-1,97,99,-1,101,103,105,-1,107,109,-1,-1,-1,-1,-1,-1,-1,-1,-1,-1,-1,-1,-1,-1,-1,-1,-1,-1,-1,-1,-1,-1,-1,-1,-1,-1,-1,-1,-1,-1,-1,-1,-1,-1,-1,-1,-1,-1,-1,-1,-1,-1,-1,-1,-1,-1,-1,-1,-1,-1,-1],"loss_changes":[4.21328E1,8.152976E0,5.3474083E0,5.0247574E-1,8.191194E-1,8.8754034E-1,7.770157E-1,1.8105507E-2,8.883762E-2,1.4053655E-1,1.2624738E-1,9.942329E-2,1.307087E-1,1.06086254E-1,2.271328E-1,8.271217E-3,0E0,1.2345791E-2,2.6847482E-2,4.8341155E-2,6.6705555E-2,7.064793E-2,7.5226285E-2,4.4787467E-2,1.02696896E-1,4.311204E-2,2.0979404E-1,4.0984154E-3,6.6339016E-2,5.8528423E-2,1.3328362E-1,0E0,4.8959255E-3,2.0148158E-3,8.841515E-3,2.0867437E-3,1.8212676E-2,1.4868155E-2,3.4281015E-2,4.4520088E-2,1.7008275E-2,5.2038867E-2,4.189183E-2,5.504871E-2,3.3536144E-2,7.5211823E-3,1.3514072E-2,3.2724924E-2,8.5258305E-2,5.9226155E-4,0E0,5.2698374E-2,1.087718E-1,0E0,1.5404224E-3,5.668354E-2,1.4182851E-2,0E0,5.51939E-2,7.594776E-2,0E0,0E0,0E0,0E0,0E0,0E0,0E0,0E0,0E0,0E0,0E0,0E0,0E0,0E0,0E0,0E0,0E0,0E0,0E0,0E0,0E0,0E0,0E0,0E0,0E0,0E0,0E0,0E0,0E0,0E0,0E0,0E0,0E0,0E0,0E0,0E0,0E0,0E0,0E0,0E0,0E0,0E0,0E0,0E0,0E0,0E0,0E0,0E0,0E0,0E0,0E0],"parents":[2147483647,0,0,1,1,2,2,3,3,4,4,5,5,6,6,7,7,8,8,9,9,10,10,11,11,12,12,13,13,14,14,15,15,17,17,18,18,19,19,20,20,21,21,22,22,23,23,24,24,25,25,26,26,27,27,28,28,29,29,30,30,32,32,33,33,34,34,35,35,36,36,37,37,38,38,39,39,40,40,41,41,42,42,43,43,44,44,45,45,46,46,47,47,48,48,49,49,51,51,52,52,54,54,55,55,56,56,58,58,59,59],"right_children":[2,4,6,8,10,12,14,16,18,20,22,24,26,28,30,32,-1,34,36,38,40,42,44,46,48,50,52,54,56,58,60,-1,62,64,66,68,70,72,74,76,78,80,82,84,86,88,90,92,94,96,-1,98,100,-1,102,104,106,-1,108,110,-1,-1,-1,-1,-1,-1,-1,-1,-1,-1,-1,-1,-1,-1,-1,-1,-1,-1,-1,-1,-1,-1,-1,-1,-1,-1,-1,-1,-1,-1,-1,-1,-1,-1,-1,-1,-1,-1,-1,-1,-1,-1,-1,-1,-1,-1,-1,-1,-1,-1,-1],"split_conditions":[3.2303372E-1,1.3483146E-1,5.3370786E-1,5.3370785E-2,2.247191E-1,3.960674E-1,6.207865E-1,5E0,1.01123594E-1,1.769663E-1,2.6966292E-1,4.494382E-2,2.8089888E-2,8.988764E-2,4.494382E-1,5.6179777E-2,-1.1496974E-2,3.0898876E-2,4.2134833E-2,8.4269665E-2,1.9E1,2.6404494E-1,3.0617976E-1,2.3314607E-1,3.4269664E-1,4.6067417E-1,4.1011235E-1,8.426966E-3,7.275281E-1,1.0393258E-1,1.9E1,-1.3143015E-2,2.8089888E-3,8.988764E-2,9.269663E-2,9E0,2.8089887E-1,1.4325842E-1,2.52809E-1,5E0,2.0786516E-1,5.8988765E-2,1.3764045E-1,1.8E1,4.550562E-1,2.8370786E-1,7.865169E-2,3.2303372E-1,1.9E1,4.2134833E-2,2.5615541E-2,4.1853932E-1,7.6404494E-1,6.2518762E-3,8E0,1.5E1,5.02809E-1,2.193209E-2,4.6629214E-1,7.050562E-1,1.667566E-2,-3.90968E-3,-1.1891229E-2,-8.3539495E-3,-3.5679308E-3,-1.0587525E-2,-9.117452E-3,-5.4871584E-3,-2.228329E-3,-8.214246E-3,-3.1337428E-3,-3.9372854E-3,-7.170698E-4,-7.164489E-3,-4.8298086E-3,9.7317454E-5,-2.9130718E-3,-4.6937093E-3,-2.9163898E-3,3.2615631E-3,-4.115481E-4,6.7849867E-3,2.45551E-3,-3.3611836E-4,-2.613126E-3,1.0284319E-3,8.666677E-3,3.85385E-3,7.6567787E-3,1.6957475E-2,9.685784E-3,3.217535E-3,-1.946007E-5,6.8123722E-3,1.0245705E-3,1.541663E-2,8.615618E-3,5.137054E-3,9.661438E-3,1.1878823E-2,5.3050253E-3,6.7747044E-3,2.4146631E-2,1.4411213E-2,1.8544666E-2,4.2371653E-4,9.546666E-3,1.41438395E-2,2.2599924E-2,2.4373572E-2,3.0047083E-2],"split_indices":[11,11,11,11,11,11,11,12,11,11,1,1,2,2,0,7,0,0,0,4,12,10,10,9,10,11,10,1,4,1,12,0,8,10,10,12,5,10,1,13,10,0,3,12,10,10,6,3,12,3,0,0,4,0,12,12,10,0,2,4,0,0,0,0,0,0,0,0,0,0,0,0,0,0,0,0,0,0,0,0,0,0,0,0,0,0,0,0,0,0,0,0,0,0,0,0,0,0,0,0,0,0,0,0,0,0,0,0,0,0,0],"split_type":[0,0,0,0,0,0,0,0,0,0,0,0,0,0,0,0,0,0,0,0,0,0,0,0,0,0,0,0,0,0,0,0,0,0,0,0,0,0,0,0,0,0,0,0,0,0,0,0,0,0,0,0,0,0,0,0,0,0,0,0,0,0,0,0,0,0,0,0,0,0,0,0,0,0,0,0,0,0,0,0,0,0,0,0,0,0,0,0,0,0,0,0,0,0,0,0,0,0,0,0,0,0,0,0,0,0,0,0,0,0,0],"sum_hessian":[5.229E3,3.551E3,1.678E3,1.739E3,1.812E3,1.045E3,6.33E2,1.005E3,7.34E2,7.73E2,1.039E3,3.92E2,6.53E2,2.61E2,3.72E2,7.49E2,2.56E2,4.68E2,2.66E2,3.45E2,4.28E2,4.28E2,6.11E2,5.3E1,3.39E2,2.5E1,6.28E2,2.2E1,2.39E2,1.24E2,2.48E2,5.58E2,1.91E2,6.8E1,4E2,5.4E1,2.12E2,6.9E1,2.76E2,1.96E2,2.32E2,2.17E2,2.11E2,4.51E2,1.6E2,2.8E1,2.5E1,1.56E2,1.83E2,1.8E1,7E0,1.21E2,5.07E2,1E0,2.1E1,2.21E2,1.8E1,6.3E1,6.1E1,2.24E2,2.4E1,2E0,1.89E2,6.5E1,3E0,2.7E2,1.3E2,5E1,4E0,2.03E2,9E0,4.8E1,2.1E1,1.37E2,1.39E2,1.04E2,9.2E1,1.18E2,1.14E2,4.9E1,1.68E2,2.5E1,1.86E2,2.81E2,1.7E2,1.55E2,5E0,1.5E1,1.3E1,6E0,1.9E1,1.13E2,4.3E1,1.52E2,3.1E1,1.3E1,5E0,7.9E1,4.2E1,4.78E2,2.9E1,1E0,2E1,1.53E2,6.8E1,2E0,1.6E1,4.7E1,1.4E1,1.64E2,6E1],"tree_param":{"num_deleted":"0","num_feature":"16","num_nodes":"111","size_leaf_vector":"1"}},{"base_weights":[2.7078416E-4,-5.5336125E-2,1.1790954E-1,-9.991887E-2,-1.3565833E-2,7.816746E-2,1.8329173E-1,-1.1251988E-1,-8.199946E-2,-3.5167158E-2,3.9973035E-3,4.4147216E-2,9.8491296E-2,1.4442958E-1,2.1009761E-1,-1.1863335E-2,-1.07557766E-1,-9.46987E-2,-7.409226E-2,-4.921009E-2,-2.3757147E-2,-4.319809E-3,1.5750559E-2,8.091896E-2,3.8177155E-2,1.3378182E-1,9.28404E-2,2.1023326E-1,1.3752161E-1,1.748215E-1,2.2696275E-1,-1.1146745E-1,-9.840933E-3,-1.0428852E-2,-8.8444166E-2,-8.252259E-2,-6.329852E-2,-1.4940343E-2,-5.2881084E-2,-1.1086879E-2,-3.462384E-2,3.0393305E-3,-2.2100717E-2,2.7505022E-2,5.0417683E-3,5.280065E-2,1.0916943E-1,2.6170354E-2,5.9417415E-2,1.9973418E-2,1.2276569E-1,5.9162643E-2,1.0045576E-1,5.9392825E-3,2.1438997E-2,1.419961E-1,7.800267E-2,2.0028552E-2,1.5053128E-1,2.3442233E-1,1.5074799E-2,-1.1188974E-2,-1.9836554E-3,-5.11128E-3,-9.146677E-3,-8.283926E-3,-2.469875E-4,-5.3944285E-3,-7.3591555E-3,-4.8000852E-4,-4.595447E-3,-5.72594E-3,-3.3652203E-3,2.0099062E-5,-2.4219719E-3,-3.8805287E-3,-1.7106099E-3,3.0084096E-3,1.2102402E-5,-3.034043E-3,-1.20398E-3,1.4248859E-3,3.5344728E-3,-1.5250572E-4,1.3930192E-3,6.0912343E-3,1.8605015E-3,1.5503977E-2,8.765633E-3,2.9861252E-3,-8.237281E-4,7.5333775E-3,2.490553E-3,2.982684E-3,1.2738635E-2,3.971946E-3,8.717763E-3,1.0360586E-2,4.3767313E-3,1.0441477E-2,1.5096076E-2,3.2631462E-3,9.643312E-3,1.3263958E-2,2.0490598E-2,2.1271639E-2,2.5942758E-2],"categories":[],"categories_nodes":[],"categories_segments":[],"categories_sizes":[],"default_left":[0,0,0,0,0,0,0,0,0,0,0,0,0,0,0,0,0,0,0,0,0,0,0,0,0,0,0,0,0,0,0,0,0,0,0,0,0,0,0,0,0,0,0,0,0,0,0,0,0,0,0,0,0,0,0,0,0,0,0,0,0,0,0,0,0,0,0,0,0,0,0,0,0,0,0,0,0,0,0,0,0,0,0,0,0,0,0,0,0,0,0,0,0,0,0,0,0,0,0,0,0,0,0,0,0,0,0],"id":7,"left_children":[1,3,5,7,9,11,13,15,17,19,21,23,25,27,29,-1,31,33,35,37,39,41,43,45,47,49,51,53,55,57,59,61,-1,-1,63,65,67,69,71,73,75,77,79,81,83,85,87,89,91,-1,93,95,97,-1,-1,99,101,-1,103,105,-1,-1,-1,-1,-1,-1,-1,-1,-1,-1,-1,-1,-1,-1,-1,-1,-1,-1,-1,-1,-1,-1,-1,-1,-1,-1,-1,-1,-1,-1,-1,-1,-1,-1,-1,-1,-1,-1,-1,-1,-1,-1,-1,-1,-1,-1,-1],"loss_changes":[3.421871E1,6.6132994E0,4.3484287E0,3.7870407E-1,6.963158E-1,7.188792E-1,6.301136E-1,1.7757416E-2,6.457996E-2,1.3070011E-1,9.909198E-2,8.318585E-2,1.1800194E-1,9.018612E-2,1.8223381E-1,0E0,9.275436E-3,6.970644E-3,3.5178185E-2,4.550588E-2,6.2399983E-2,7.7793375E-2,5.2729286E-2,3.7130952E-2,8.5154414E-2,3.9414883E-2,1.3947439E-1,1.6877651E-3,5.2840233E-2,4.7166824E-2,1.06225014E-1,1.2832642E-2,0E0,0E0,1.4507413E-2,6.031513E-3,1.5190542E-2,1.141559E-2,2.6024163E-2,3.1432122E-2,1.7282307E-2,3.3223752E-2,1.4059134E-2,2.028124E-2,1.2920734E-2,6.9108754E-3,1.20669305E-2,2.8057873E-2,6.513879E-2,0E0,2.9696703E-2,5.48203E-2,7.778835E-2,0E0,0E0,5.902958E-2,1.2741268E-2,0E0,3.8975596E-2,6.69384E-2,0E0,0E0,0E0,0E0,0E0,0E0,0E0,0E0,0E0,0E0,0E0,0E0,0E0,0E0,0E0,0E0,0E0,0E0,0E0,0E0,0E0,0E0,0E0,0E0,0E0,0E0,0E0,0E0,0E0,0E0,0E0,0E0,0E0,0E0,0E0,0E0,0E0,0E0,0E0,0E0,0E0,0E0,0E0,0E0,0E0,0E0,0E0],"parents":[2147483647,0,0,1,1,2,2,3,3,4,4,5,5,6,6,7,7,8,8,9,9,10,10,11,11,12,12,13,13,14,14,16,16,17,17,18,18,19,19,20,20,21,21,22,22,23,23,24,24,25,25,26,26,27,27,28,28,29,29,30,30,31,31,34,34,35,35,36,36,37,37,38,38,39,39,40,40,41,41,42,42,43,43,44,44,45,45,46,46,47,47,48,48,50,50,51,51,52,52,55,55,56,56,58,58,59,59],"right_children":[2,4,6,8,10,12,14,16,18,20,22,24,26,28,30,-1,32,34,36,38,40,42,44,46,48,50,52,54,56,58,60,62,-1,-1,64,66,68,70,72,74,76,78,80,82,84,86,88,90,92,-1,94,96,98,-1,-1,100,102,-1,104,106,-1,-1,-1,-1,-1,-1,-1,-1,-1,-1,-1,-1,-1,-1,-1,-1,-1,-1,-1,-1,-1,-1,-1,-1,-1,-1,-1,-1,-1,-1,-1,-1,-1,-1,-1,-1,-1,-1,-1,-1,-1,-1,-1,-1,-1,-1,-1],"split_conditions":[3.2303372E-1,1.3202247E-1,5.3370786E-1,5.3370785E-2,2.275281E-1,3.960674E-1,6.207865E-1,2.247191E-2,5E0,1.769663E-1,2.7808988E-1,4.494382E-2,9E0,8.988764E-2,4.494382E-1,-1.1863335E-2,5E0,5E0,1.01123594E-1,2.5280898E-2,1.9E1,1.8E1,2.752809E-1,2.3314607E-1,3.8483146E-1,1.6853932E-2,4.1011235E-1,8.426966E-3,7.275281E-1,8.4269665E-2,1.9E1,1.6853933E-1,-9.840933E-3,-1.0428852E-2,1E0,2.0786516E-1,2.2E1,4E0,3.6235955E-1,5E0,5.280899E-1,8.146068E-2,5.0842696E-1,2.6404494E-1,3.2022473E-1,2.5280898E-2,7.865169E-2,5.280899E-1,1.8E1,1.9973418E-2,2.752809E-1,4.1853932E-1,7.8089887E-1,5.9392825E-3,2.1438997E-2,4.8314607E-1,6.4044946E-1,2.0028552E-2,4.6629214E-1,5.955056E-1,1.5074799E-2,-1.1188974E-2,-1.9836554E-3,-5.11128E-3,-9.146677E-3,-8.283926E-3,-2.469875E-4,-5.3944285E-3,-7.3591555E-3,-4.8000852E-4,-4.595447E-3,-5.72594E-3,-3.3652203E-3,2.0099062E-5,-2.4219719E-3,-3.8805287E-3,-1.7106099E-3,3.0084096E-3,1.2102402E-5,-3.034043E-3,-1.20398E-3,1.4248859E-3,3.5344728E-3,-1.5250572E-4,1.3930192E-3,6.0912343E-3,1.8605015E-3,1.5503977E-2,8.765633E-3,2.9861252E-3,-8.237281E-4,7.5333775E-3,2.490553E-3,2.982684E-3,1.2738635E-2,3.971946E-3,8.717763E-3,1.0360586E-2,4.3767313E-3,1.0441477E-2,1.5096076E-2,3.2631462E-3,9.643312E-3,1.3263958E-2,2.0490598E-2,2.1271639E-2,2.5942758E-2],"split_indices":[11,11,11,11,11,11,11,11,12,11,11,1,12,2,0,0,12,13,11,2,12,12,1,9,10,1,10,1,4,1,12,6,0,0,12,8,12,13,0,13,1,0,0,10,9,3,6,6,12,0,9,0,4,0,0,10,9,0,2,2,0,0,0,0,0,0,0,0,0,0,0,0,0,0,0,0,0,0,0,0,0,0,0,0,0,0,0,0,0,0,0,0,0,0,0,0,0,0,0,0,0,0,0,0,0,0,0],"split_type":[0,0,0,0,0,0,0,0,0,0,0,0,0,0,0,0,0,0,0,0,0,0,0,0,0,0,0,0,0,0,0,0,0,0,0,0,0,0,0,0,0,0,0,0,0,0,0,0,0,0,0,0,0,0,0,0,0,0,0,0,0,0,0,0,0,0,0,0,0,0,0,0,0,0,0,0,0,0,0,0,0,0,0,0,0,0,0,0,0,0,0,0,0,0,0,0,0,0,0,0,0,0,0,0,0,0,0],"sum_hessian":[5.229E3,3.551E3,1.678E3,1.717E3,1.834E3,1.045E3,6.33E2,1.005E3,7.12E2,8.22E2,1.012E3,3.92E2,6.53E2,2.61E2,3.72E2,4.4E2,5.65E2,2.69E2,4.43E2,3.67E2,4.55E2,5.93E2,4.19E2,5.3E1,3.39E2,8.7E1,5.66E2,2.2E1,2.39E2,1.24E2,2.48E2,3.88E2,1.77E2,1E2,1.69E2,2.45E2,1.98E2,3.6E1,3.31E2,2.11E2,2.44E2,4.2E2,1.73E2,1.99E2,2.2E2,2.8E1,2.5E1,2.18E2,1.21E2,1E1,7.7E1,1.06E2,4.6E2,1E0,2.1E1,2.21E2,1.8E1,5.7E1,6.7E1,2.24E2,2.4E1,3.86E2,2E0,1.4E1,1.55E2,2.44E2,1E0,1.07E2,9.1E1,2.8E1,8E0,2.68E2,6.3E1,1.14E2,9.7E1,1.96E2,4.8E1,4E1,3.8E2,9.4E1,7.9E1,7.5E1,1.24E2,1.27E2,9.3E1,2.2E1,6E0,6E0,1.9E1,1.97E2,2.1E1,8.2E1,3.9E1,4E0,7.3E1,6.4E1,4.2E1,4.35E2,2.5E1,4.5E1,1.76E2,6E0,1.2E1,5.3E1,1.4E1,1.25E2,9.9E1],"tree_param":{"num_deleted":"0","num_feature":"16","num_nodes":"107","size_leaf_vector":"1"}},{"base_weights":[2.8030146E-4,-4.611732E-2,1.14828095E-1,-8.483735E-2,-3.2539258E-3,8.814791E-2,1.8606393E-1,-9.713897E-2,-5.933128E-2,-2.1022497E-2,1.2102747E-2,5.904357E-2,1.0749065E-1,1.6974941E-1,2.1409775E-1,-1.0243788E-1,-8.4983684E-2,-7.018491E-2,-4.9272504E-2,-9.6115265E-3,-3.1920318E-2,3.0419365E-2,4.9619237E-3,6.614191E-2,2.7160084E-2,1.4166619E-1,9.9541016E-2,1.2604119E-1,1.74197E-1,1.6333656E-1,2.2625516E-1,-1.0804261E-1,-9.8728605E-2,-7.1242645E-2,-8.8294104E-2,-5.227454E-2,-7.519992E-2,-1.847662E-2,-5.2576438E-2,-4.4637907E-2,-6.044348E-3,-3.697031E-2,-1.6068203E-2,3.92222E-2,1.185695E-2,-3.856127E-3,1.9905303E-2,2.8321372E-2,7.272357E-2,6.937115E-2,2.2914853E-2,2.0155345E-1,1.313871E-1,7.470229E-2,1.08515345E-1,1.3099042E-2,6.3598203E-3,1.7831244E-1,1.281529E-1,1.656243E-1,4.6208277E-3,2.3425688E-1,1.4483719E-1,-1.0818855E-2,-2.833606E-3,-1.0112381E-2,-8.992356E-3,-6.5131295E-3,-8.754241E-3,-8.841827E-3,-2.415624E-3,-3.954908E-3,-5.93452E-3,-7.798824E-3,-6.126025E-3,-2.5424059E-3,1.1952649E-3,-5.4824976E-3,-2.6598691E-3,-5.036586E-3,-1.2894429E-3,3.8931493E-3,-8.2116196E-4,-4.104258E-3,-2.2282712E-3,-2.4525942E-3,-8.531779E-4,3.6875873E-3,1.1396854E-2,-2.052452E-3,2.5245035E-3,-9.25951E-4,7.5614796E-4,1.7106557E-3,7.0473845E-3,7.252422E-3,1.1458836E-3,1.1244821E-2,6.6671395E-3,8.214316E-3,2.4960756E-3,2.642E-3,-6.1145856E-4,1.0235119E-2,2.2609161E-2,8.680867E-3,1.50093585E-2,1.7953551E-3,7.874299E-3,9.009273E-3,1.2916374E-2,1.5721051E-2,1.9370805E-2,9.596314E-3,1.6040329E-2,1.6795732E-2,4.781687E-3,2.3562146E-2,4.6852618E-3,1.5387217E-2,1.8208802E-3],"categories":[],"categories_nodes":[],"categories_segments":[],"categories_sizes":[],"default_left":[0,0,0,0,0,0,0,0,0,0,0,0,0,0,0,0,0,0,0,0,0,0,0,0,0,0,0,0,0,0,0,0,0,0,0,0,0,0,0,0,0,0,0,0,0,0,0,0,0,0,0,0,0,0,0,0,0,0,0,0,0,0,0,0,0,0,0,0,0,0,0,0,0,0,0,0,0,0,0,0,0,0,0,0,0,0,0,0,0,0,0,0,0,0,0,0,0,0,0,0,0,0,0,0,0,0,0,0,0,0,0,0,0,0,0,0,0,0,0,0,0],"id":8,"left_children":[1,3,5,7,9,11,13,15,17,19,21,23,25,27,29,31,33,35,37,39,41,43,45,47,49,51,53,55,57,59,61,63,65,67,69,71,73,75,77,79,81,83,85,87,89,91,93,95,97,99,101,103,105,107,109,-1,-1,111,113,115,-1,117,119,-1,-1,-1,-1,-1,-1,-1,-1,-1,-1,-1,-1,-1,-1,-1,-1,-1,-1,-1,-1,-1,-1,-1,-1,-1,-1,-1,-1,-1,-1,-1,-1,-1,-1,-1,-1,-1,-1,-1,-1,-1,-1,-1,-1,-1,-1,-1,-1,-1,-1,-1,-1,-1,-1,-1,-1,-1,-1],"loss_changes":[2.7801416E1,6.1786814E0,2.84968E0,6.0796356E-1,4.8268172E-1,6.123438E-1,1.5117455E-1,7.6187134E-2,6.630421E-2,1.0166407E-1,1.2397422E-1,9.801054E-2,1.6493702E-1,2.9364109E-2,5.3761482E-2,8.313179E-3,1.2177944E-2,2.3464203E-2,3.3113956E-2,4.9958233E-2,3.2948166E-2,4.299985E-2,9.020844E-2,8.755231E-2,1.310442E-2,4.8619986E-2,1.11819744E-1,3.2246113E-4,2.205801E-2,9.215474E-4,4.1643143E-2,1.0404587E-3,2.737999E-3,2.665788E-3,4.3654442E-4,3.951356E-3,4.3953657E-3,7.4916715E-3,1.6182184E-2,6.078087E-3,3.5995487E-2,1.8045813E-2,6.356083E-3,2.7365595E-2,3.823489E-2,2.6659999E-2,3.4742653E-2,4.0164422E-2,6.607175E-2,1.9201152E-3,7.8947395E-3,1.5807152E-2,7.619846E-2,3.2064617E-2,1.3785934E-1,0E0,0E0,3.9396286E-2,8.484244E-3,4.890561E-4,0E0,1.5556335E-2,1.2071282E-2,0E0,0E0,0E0,0E0,0E0,0E0,0E0,0E0,0E0,0E0,0E0,0E0,0E0,0E0,0E0,0E0,0E0,0E0,0E0,0E0,0E0,0E0,0E0,0E0,0E0,0E0,0E0,0E0,0E0,0E0,0E0,0E0,0E0,0E0,0E0,0E0,0E0,0E0,0E0,0E0,0E0,0E0,0E0,0E0,0E0,0E0,0E0,0E0,0E0,0E0,0E0,0E0,0E0,0E0,0E0,0E0,0E0,0E0],"parents":[2147483647,0,0,1,1,2,2,3,3,4,4,5,5,6,6,7,7,8,8,9,9,10,10,11,11,12,12,13,13,14,14,15,15,16,16,17,17,18,18,19,19,20,20,21,21,22,22,23,23,24,24,25,25,26,26,27,27,28,28,29,29,30,30,31,31,32,32,33,33,34,34,35,35,36,36,37,37,38,38,39,39,40,40,41,41,42,42,43,43,44,44,45,45,46,46,47,47,48,48,49,49,50,50,51,51,52,52,53,53,54,54,57,57,58,58,59,59,61,61,62,62],"right_children":[2,4,6,8,10,12,14,16,18,20,22,24,26,28,30,32,34,36,38,40,42,44,46,48,50,52,54,56,58,60,62,64,66,68,70,72,74,76,78,80,82,84,86,88,90,92,94,96,98,100,102,104,106,108,110,-1,-1,112,114,116,-1,118,120,-1,-1,-1,-1,-1,-1,-1,-1,-1,-1,-1,-1,-1,-1,-1,-1,-1,-1,-1,-1,-1,-1,-1,-1,-1,-1,-1,-1,-1,-1,-1,-1,-1,-1,-1,-1,-1,-1,-1,-1,-1,-1,-1,-1,-1,-1,-1,-1,-1,-1,-1,-1,-1,-1,-1,-1,-1,-1],"split_conditions":[3.483146E-1,1.6011237E-1,6.0393256E-1,8.146068E-2,2.4719101E-1,4.4382024E-1,7.3595506E-1,4.494382E-2,1.2078652E-1,1.9E1,2.3595506E-1,1.8E1,1.8258427E-1,5.3932583E-1,4.9438202E-1,1.9662922E-2,3.0898876E-2,5.8988765E-2,2.5280898E-2,2E0,5.449438E-1,6E0,3.0617976E-1,3.1179774E-1,2.724719E-1,1.0674157E-1,3.764045E-1,5.3370786E-1,1.9E1,7.8089887E-1,8.230337E-1,2.1629213E-1,5E0,6E0,2.8089887E-1,5E0,1.488764E-1,1.5168539E-1,3.3707866E-1,2.3876405E-1,1.4044944E-2,2.3595506E-1,2.3876405E-1,4.0449437E-1,1.769663E-1,2.9213482E-1,4.550562E-1,3.0898876E-2,4.2134833E-2,2.7808988E-1,6.9382024E-1,5.0561797E-2,4.6348315E-1,2.8932583E-1,5.0842696E-1,1.3099042E-2,6.3598203E-3,4.2696628E-1,7.6404494E-1,6.4044946E-1,4.6208277E-3,8.455056E-1,7.6404494E-1,-1.0818855E-2,-2.833606E-3,-1.0112381E-2,-8.992356E-3,-6.5131295E-3,-8.754241E-3,-8.841827E-3,-2.415624E-3,-3.954908E-3,-5.93452E-3,-7.798824E-3,-6.126025E-3,-2.5424059E-3,1.1952649E-3,-5.4824976E-3,-2.6598691E-3,-5.036586E-3,-1.2894429E-3,3.8931493E-3,-8.2116196E-4,-4.104258E-3,-2.2282712E-3,-2.4525942E-3,-8.531779E-4,3.6875873E-3,1.1396854E-2,-2.052452E-3,2.5245035E-3,-9.25951E-4,7.5614796E-4,1.7106557E-3,7.0473845E-3,7.252422E-3,1.1458836E-3,1.1244821E-2,6.6671395E-3,8.214316E-3,2.4960756E-3,2.642E-3,-6.1145856E-4,1.0235119E-2,2.2609161E-2,8.680867E-3,1.50093585E-2,1.7953551E-3,7.874299E-3,9.009273E-3,1.2916374E-2,1.5721051E-2,1.9370805E-2,9.596314E-3,1.6040329E-2,1.6795732E-2,4.781687E-3,2.3562146E-2,4.6852618E-3,1.5387217E-2,1.8208802E-3],"split_indices":[11,11,11,11,11,11,11,11,11,12,1,12,1,10,0,10,5,0,2,12,0,13,10,10,6,5,0,2,12,7,7,2,12,13,3,13,9,11,2,10,0,10,9,10,5,11,10,2,1,3,0,4,10,5,10,0,0,2,10,3,0,0,0,0,0,0,0,0,0,0,0,0,0,0,0,0,0,0,0,0,0,0,0,0,0,0,0,0,0,0,0,0,0,0,0,0,0,0,0,0,0,0,0,0,0,0,0,0,0,0,0,0,0,0,0,0,0,0,0,0,0],"split_type":[0,0,0,0,0,0,0,0,0,0,0,0,0,0,0,0,0,0,0,0,0,0,0,0,0,0,0,0,0,0,0,0,0,0,0,0,0,0,0,0,0,0,0,0,0,0,0,0,0,0,0,0,0,0,0,0,0,0,0,0,0,0,0,0,0,0,0,0,0,0,0,0,0,0,0,0,0,0,0,0,0,0,0,0,0,0,0,0,0,0,0,0,0,0,0,0,0,0,0,0,0,0,0,0,0,0,0,0,0,0,0,0,0,0,0,0,0,0,0,0,0],"sum_hessian":[5.229E3,3.722E3,1.507E3,1.955E3,1.767E3,1.098E3,4.09E2,1.317E3,6.38E2,8.19E2,9.48E2,4.4E2,6.58E2,2.63E2,1.46E2,9.12E2,4.05E2,3.04E2,3.34E2,4.01E2,4.18E2,2.65E2,6.83E2,3.59E2,8.1E1,1.21E2,5.37E2,2.7E1,2.36E2,3.1E1,1.15E2,3.52E2,5.6E2,8.3E1,3.22E2,6.9E1,2.35E2,3.3E1,3.01E2,3.6E1,3.65E2,3.16E2,1.02E2,1.79E2,8.6E1,4.3E2,2.53E2,5.4E1,3.05E2,6E0,7.5E1,1.5E1,1.06E2,1.45E2,3.92E2,2.4E1,3E0,2.14E2,2.2E1,3E1,1E0,1.03E2,1.2E1,3.51E2,1E0,4.32E2,1.28E2,6.4E1,1.9E1,3.21E2,1E0,2.7E1,4.2E1,1.92E2,4.3E1,2.7E1,6E0,2.76E2,2.5E1,3E1,6E0,1.6E1,3.49E2,2.46E2,7E1,4.7E1,5.5E1,1.75E2,4E0,2.5E1,6.1E1,2.92E2,1.38E2,2.41E2,1.2E1,1.4E1,4E1,3.8E1,2.67E2,4E0,2E0,6.7E1,8E0,4E0,1.1E1,3.3E1,7.3E1,1E1,1.35E2,2.1E2,1.82E2,9.5E1,1.19E2,1.3E1,9E0,2.9E1,1E0,1.02E2,1E0,1.1E1,1E0],"tree_param":{"num_deleted":"0","num_feature":"16","num_nodes":"121","size_leaf_vector":"1"}},{"base_weights":[2.900712E-4,-4.4899147E-2,9.588972E-2,-8.214343E-2,-1.2030164E-2,6.338507E-2,1.4936602E-1,-9.159769E-2,-6.851761E-2,-3.469347E-2,3.7280166E-5,3.5820954E-2,7.98519E-2,1.1815772E-1,1.708867E-1,-9.747036E-3,-8.809105E-2,-7.804323E-2,-6.1634753E-2,2.0709353E-2,-3.619982E-2,-9.399958E-3,1.0009233E-2,4.063662E-2,1.9727566E-3,8.4221415E-2,4.6982396E-2,1.7552939E-1,1.12167284E-1,1.6042434E-1,2.1239704E-1,-8.834571E-2,-5.928775E-3,-8.650878E-3,-7.259411E-2,-6.728702E-2,-5.3962298E-2,-3.1197284E-4,7.542719E-3,-5.179903E-2,-3.0064331E-2,-1.7997983E-3,-2.4203062E-2,6.0734637E-2,7.6057576E-3,3.4847043E-2,6.978932E-2,-2.493429E-2,1.1125885E-2,7.086224E-2,9.461309E-2,3.492715E-2,1.1138029E-1,1.3767166E-1,2.1912232E-2,1.1613997E-1,5.9845977E-2,1.3783588E-1,1.7125528E-1,2.2530805E-1,1.203171E-1,-9.089931E-3,-8.182234E-3,2.915892E-3,-3.8052083E-3,-3.9746827E-3,-7.4927057E-3,-5.576559E-3,-7.106988E-3,-3.861719E-3,-5.833661E-3,-2.582539E-3,1.6731637E-3,4.0334734E-4,-5.3098253E-3,-3.0816952E-3,4.4737905E-3,2.237477E-3,-4.90591E-4,-3.4210365E-3,-1.7651421E-3,7.3662796E-3,2.6693563E-3,8.5057116E-5,1.6357076E-3,6.582116E-3,2.712013E-3,1.1863603E-3,7.919645E-3,-3.9911247E-3,-1.0584791E-3,4.6236563E-4,3.4931283E-3,1.381209E-2,6.2985234E-3,8.572342E-3,1.1580887E-2,4.6351156E-3,1.3423804E-3,1.35320965E-2,-5.548706E-4,1.4362049E-2,2.7194053E-3,1.0415488E-2,1.4120611E-2,3.334124E-3,9.212233E-3,1.52841555E-2,5.848448E-3,1.7865187E-2,1.3720258E-2,2.3046605E-2,9.290034E-3,3.155312E-3,1.2603819E-2],"categories":[],"categories_nodes":[],"categories_segments":[],"categories_sizes":[],"default_left":[0,0,0,0,0,0,0,0,0,0,0,0,0,0,0,0,0,0,0,0,0,0,0,0,0,0,0,0,0,0,0,0,0,0,0,0,0,0,0,0,0,0,0,0,0,0,0,0,0,0,0,0,0,0,0,0,0,0,0,0,0,0,0,0,0,0,0,0,0,0,0,0,0,0,0,0,0,0,0,0,0,0,0,0,0,0,0,0,0,0,0,0,0,0,0,0,0,0,0,0,0,0,0,0,0,0,0,0,0,0,0,0,0,0,0],"id":9,"left_children":[1,3,5,7,9,11,13,15,17,19,21,23,25,27,29,-1,31,33,35,37,39,41,43,45,47,49,51,53,55,57,59,61,63,-1,65,67,69,71,-1,73,75,77,79,81,83,85,87,89,91,93,95,97,99,101,-1,103,105,107,109,111,113,-1,-1,-1,-1,-1,-1,-1,-1,-1,-1,-1,-1,-1,-1,-1,-1,-1,-1,-1,-1,-1,-1,-1,-1,-1,-1,-1,-1,-1,-1,-1,-1,-1,-1,-1,-1,-1,-1,-1,-1,-1,-1,-1,-1,-1,-1,-1,-1,-1,-1,-1,-1,-1,-1],"loss_changes":[2.2598288E1,4.3473053E0,2.9090185E0,2.0821285E-1,5.163469E-1,4.7191238E-1,4.0561676E-1,1.1594772E-2,4.0166378E-2,5.549687E-2,1.1612888E-1,6.397945E-2,8.997345E-2,7.035589E-2,1.279192E-1,0E0,1.2532234E-2,6.820798E-3,1.3845921E-2,2.072788E-2,5.960059E-2,7.1285196E-2,7.268843E-2,5.5629015E-2,1.2591599E-2,7.325792E-2,5.7440087E-2,7.790625E-3,4.2935133E-2,5.0281048E-2,5.8488607E-2,2.9234886E-3,4.4909557E-3,0E0,1.073885E-2,5.973935E-3,9.561062E-3,6.5198713E-3,0E0,1.3198584E-2,2.7331889E-2,3.164711E-2,1.3492465E-2,9.916067E-3,3.3919122E-2,6.7382544E-2,2.9575676E-2,2.3714006E-3,5.720439E-3,1.2692833E-1,5.055642E-2,1.6082294E-2,3.4343153E-2,5.952567E-3,0E0,5.198598E-2,1.3182573E-2,1.137054E-1,2.586317E-2,2.0932913E-2,1.6091913E-3,0E0,0E0,0E0,0E0,0E0,0E0,0E0,0E0,0E0,0E0,0E0,0E0,0E0,0E0,0E0,0E0,0E0,0E0,0E0,0E0,0E0,0E0,0E0,0E0,0E0,0E0,0E0,0E0,0E0,0E0,0E0,0E0,0E0,0E0,0E0,0E0,0E0,0E0,0E0,0E0,0E0,0E0,0E0,0E0,0E0,0E0,0E0,0E0,0E0,0E0,0E0,0E0,0E0,0E0],"parents":[2147483647,0,0,1,1,2,2,3,3,4,4,5,5,6,6,7,7,8,8,9,9,10,10,11,11,12,12,13,13,14,14,16,16,17,17,18,18,19,19,20,20,21,21,22,22,23,23,24,24,25,25,26,26,27,27,28,28,29,29,30,30,31,31,32,32,34,34,35,35,36,36,37,37,39,39,40,40,41,41,42,42,43,43,44,44,45,45,46,46,47,47,48,48,49,49,50,50,51,51,52,52,53,53,55,55,56,56,57,57,58,58,59,59,60,60],"right_children":[2,4,6,8,10,12,14,16,18,20,22,24,26,28,30,-1,32,34,36,38,40,42,44,46,48,50,52,54,56,58,60,62,64,-1,66,68,70,72,-1,74,76,78,80,82,84,86,88,90,92,94,96,98,100,102,-1,104,106,108,110,112,114,-1,-1,-1,-1,-1,-1,-1,-1,-1,-1,-1,-1,-1,-1,-1,-1,-1,-1,-1,-1,-1,-1,-1,-1,-1,-1,-1,-1,-1,-1,-1,-1,-1,-1,-1,-1,-1,-1,-1,-1,-1,-1,-1,-1,-1,-1,-1,-1,-1,-1,-1,-1,-1,-1],"split_conditions":[3.2303372E-1,1.264045E-1,5.3370786E-1,5.0561797E-2,2.0505618E-1,3.960674E-1,6.207865E-1,1.9662922E-2,5E0,1.1235955E-2,2.6404494E-1,1.9E1,1.8E1,8.988764E-2,7.050562E-1,-9.747036E-3,1.6853933E-1,5E0,9.550562E-2,4.2134833E-2,1.4606741E-1,1.8E1,1.3764045E-1,4.213483E-1,3.3988765E-1,4.6067417E-1,6.0955054E-1,3.6516854E-1,7.275281E-1,1.5E1,1.9E1,5E0,2.1629213E-1,-8.650878E-3,1E0,2.8089888E-2,3.9325844E-2,2.5280898E-2,7.542719E-3,1.4044944E-2,3.1460676E-1,5.0561797E-2,2.1E1,1E1,2.8089887E-1,7.584269E-2,1E1,3E0,7.050562E-1,2.8089888E-2,1.4E1,5.8146065E-1,5.280899E-1,5.955056E-1,2.1912232E-2,1.5E1,7.8089887E-1,4.1011235E-1,7.6404494E-1,8.230337E-1,6.4044946E-1,-9.089931E-3,-8.182234E-3,2.915892E-3,-3.8052083E-3,-3.9746827E-3,-7.4927057E-3,-5.576559E-3,-7.106988E-3,-3.861719E-3,-5.833661E-3,-2.582539E-3,1.6731637E-3,4.0334734E-4,-5.3098253E-3,-3.0816952E-3,4.4737905E-3,2.237477E-3,-4.90591E-4,-3.4210365E-3,-1.7651421E-3,7.3662796E-3,2.6693563E-3,8.5057116E-5,1.6357076E-3,6.582116E-3,2.712013E-3,1.1863603E-3,7.919645E-3,-3.9911247E-3,-1.0584791E-3,4.6236563E-4,3.4931283E-3,1.381209E-2,6.2985234E-3,8.572342E-3,1.1580887E-2,4.6351156E-3,1.3423804E-3,1.35320965E-2,-5.548706E-4,1.4362049E-2,2.7194053E-3,1.0415488E-2,1.4120611E-2,3.334124E-3,9.212233E-3,1.52841555E-2,5.848448E-3,1.7865187E-2,1.3720258E-2,2.3046605E-2,9.290034E-3,3.155312E-3,1.2603819E-2],"split_indices":[11,11,11,11,11,11,11,11,12,0,10,12,12,2,4,0,6,13,11,7,10,12,3,10,11,10,10,8,4,12,12,12,0,0,12,5,0,7,0,5,10,5,12,12,11,2,12,13,7,2,12,8,11,10,0,12,8,4,7,7,11,0,0,0,0,0,0,0,0,0,0,0,0,0,0,0,0,0,0,0,0,0,0,0,0,0,0,0,0,0,0,0,0,0,0,0,0,0,0,0,0,0,0,0,0,0,0,0,0,0,0,0,0,0,0],"split_type":[0,0,0,0,0,0,0,0,0,0,0,0,0,0,0,0,0,0,0,0,0,0,0,0,0,0,0,0,0,0,0,0,0,0,0,0,0,0,0,0,0,0,0,0,0,0,0,0,0,0,0,0,0,0,0,0,0,0,0,0,0,0,0,0,0,0,0,0,0,0,0,0,0,0,0,0,0,0,0,0,0,0,0,0,0,0,0,0,0,0,0,0,0,0,0,0,0,0,0,0,0,0,0,0,0,0,0,0,0,0,0,0,0,0,0],"sum_hessian":[5.229E3,3.551E3,1.678E3,1.664E3,1.887E3,1.045E3,6.33E2,9.79E2,6.85E2,6.55E2,1.232E3,3.92E2,6.53E2,2.61E2,3.72E2,3.56E2,6.23E2,2.83E2,4.02E2,1.7E1,6.38E2,6.33E2,5.99E2,3.43E2,4.9E1,5.75E2,7.8E1,2.2E1,2.39E2,3.01E2,7.1E1,6.21E2,2E0,1.05E2,1.78E2,2.27E2,1.75E2,1.3E1,4E0,1.78E2,4.6E2,4.19E2,2.14E2,2.6E1,5.73E2,2.88E2,5.5E1,1.2E1,3.7E1,2.55E2,3.2E2,6.7E1,1.1E1,1.4E1,8E0,2.21E2,1.8E1,1.02E2,1.99E2,6.1E1,1E1,4.37E2,1.84E2,1E0,1E0,1.3E1,1.65E2,6E1,1.67E2,4.1E1,1.34E2,5E0,8E0,4E0,1.74E2,4.56E2,4E0,4.7E1,3.72E2,8.3E1,1.31E2,1.8E1,8E0,3.24E2,2.49E2,5.6E1,2.32E2,8E0,4.7E1,5E0,7E0,3E1,7E0,2.5E1,2.3E2,2.29E2,9.1E1,4.3E1,2.4E1,9E0,2E0,1.3E1,1E0,1.53E2,6.8E1,1.1E1,7E0,8.5E1,1.7E1,1.6E2,3.9E1,5.8E1,3E0,1E0,9E0],"tree_param":{"num_deleted":"0","num_feature":"16","num_nodes":"115","size_leaf_vector":"1"}},{"base_weights":[2.9824476E-4,-3.7399806E-2,9.336823E-2,-6.886584E-2,-2.5666715E-3,6.7564584E-2,1.4269869E-1,-7.960067E-2,-4.9704332E-2,-1.7106384E-2,9.9993255E-3,4.5762405E-2,8.228017E-2,1.1583043E-1,1.594224E-1,-8.3833985E-2,-7.037414E-2,-5.8087427E-2,-4.0271997E-2,-7.6569477E-3,-2.6131604E-2,2.5517352E-2,3.9499183E-3,7.7870704E-2,4.076954E-2,1.1347205E-1,7.6152384E-2,9.601046E-2,1.305912E-1,1.4377405E-1,1.8070564E-1,-8.651275E-2,-7.6753483E-3,-5.4309458E-2,-7.210712E-2,-3.9803136E-2,-6.08771E-2,-1.3411196E-2,-4.316271E-2,-3.7872393E-2,-4.5814607E-3,-3.450874E-2,-1.8684952E-2,1.0906973E-2,3.330844E-2,-3.4769436E-3,1.653664E-2,4.3620046E-2,1.00770526E-1,1.5650049E-2,5.061488E-2,1.16978094E-1,4.4650137E-3,3.1950206E-2,7.963832E-2,1.1292603E-1,6.182205E-2,1.342337E-1,6.6004223E-3,1.5084162E-1,1.1659796E-1,8.5181305E-3,1.8384516E-1,-8.675995E-3,-4.712719E-3,-4.4354186E-3,-6.4550103E-3,-7.3056147E-3,-4.7255666E-3,-4.3364214E-3,-2.2587832E-3,-6.753555E-3,-5.6759864E-3,-5.9446803E-4,-4.1361377E-3,-4.620338E-3,-2.7655596E-3,-4.053141E-3,5.773594E-4,3.2466778E-3,-6.367857E-4,-7.005778E-3,-3.0741186E-3,-2.8461488E-3,-1.4767627E-3,1.8901828E-3,-5.173745E-4,5.900031E-3,2.5884917E-3,-1.0743247E-3,3.4763E-4,2.706047E-3,5.285366E-4,1.968061E-3,6.3924477E-3,1.051998E-2,5.6698313E-3,-2.0579426E-3,2.1787167E-3,3.379766E-3,6.3495E-3,7.3366924E-3,1.2807332E-2,-1.3604373E-3,2.9336587E-3,5.312737E-3,-5.4105083E-3,8.559733E-3,4.5784106E-3,1.1511303E-2,-6.9599005E-4,9.718168E-3,4.376039E-3,1.0281342E-2,1.458499E-2,1.2732587E-2,1.65494E-2,1.2041937E-2,4.923442E-3,1.8479574E-2,3.298667E-3],"categories":[],"categories_nodes":[],"categories_segments":[],"categories_sizes":[],"default_left":[0,0,0,0,0,0,0,0,0,0,0,0,0,0,0,0,0,0,0,0,0,0,0,0,0,0,0,0,0,0,0,0,0,0,0,0,0,0,0,0,0,0,0,0,0,0,0,0,0,0,0,0,0,0,0,0,0,0,0,0,0,0,0,0,0,0,0,0,0,0,0,0,0,0,0,0,0,0,0,0,0,0,0,0,0,0,0,0,0,0,0,0,0,0,0,0,0,0,0,0,0,0,0,0,0,0,0,0,0,0,0,0,0,0,0,0,0,0,0,0,0],"id":10,"left_children":[1,3,5,7,9,11,13,15,17,19,21,23,25,27,29,31,33,35,37,39,41,43,45,47,49,51,53,55,57,59,61,63,-1,65,67,69,71,73,75,77,79,81,83,85,87,89,91,93,95,97,99,101,103,105,107,109,111,113,-1,115,117,-1,119,-1,-1,-1,-1,-1,-1,-1,-1,-1,-1,-1,-1,-1,-1,-1,-1,-1,-1,-1,-1,-1,-1,-1,-1,-1,-1,-1,-1,-1,-1,-1,-1,-1,-1,-1,-1,-1,-1,-1,-1,-1,-1,-1,-1,-1,-1,-1,-1,-1,-1,-1,-1,-1,-1,-1,-1,-1,-1],"loss_changes":[1.8353245E1,4.0804577E0,1.9099007E0,3.983841E-1,3.2319525E-1,3.1449938E-1,2.1384144E-1,4.300165E-2,5.3406477E-2,6.973216E-2,8.8986434E-2,6.1270833E-2,1.04320526E-1,4.655838E-2,7.926273E-2,9.5386505E-3,7.2199106E-3,1.6500592E-2,2.5432825E-2,3.718323E-2,2.5493085E-2,2.9915705E-2,6.399771E-2,3.7174076E-2,8.5766375E-2,3.57852E-2,7.403636E-2,4.506713E-2,1.7724276E-2,1.8329382E-2,2.3326874E-2,1.8601418E-3,0E0,1.5207082E-3,4.9910545E-3,2.2083595E-3,4.939437E-3,6.8495963E-3,1.2962043E-2,4.528057E-3,2.4429653E-2,2.4097174E-2,8.158423E-3,1.2182719E-2,3.1468064E-2,2.1813352E-2,2.9932223E-2,9.921696E-3,8.684397E-5,2.268282E-2,5.222255E-2,3.512025E-2,2.196762E-3,7.212593E-2,8.887982E-2,1.62704E-2,1.6184203E-2,2.3692966E-2,0E0,2.8889418E-2,5.140424E-3,0E0,1.1829376E-2,0E0,0E0,0E0,0E0,0E0,0E0,0E0,0E0,0E0,0E0,0E0,0E0,0E0,0E0,0E0,0E0,0E0,0E0,0E0,0E0,0E0,0E0,0E0,0E0,0E0,0E0,0E0,0E0,0E0,0E0,0E0,0E0,0E0,0E0,0E0,0E0,0E0,0E0,0E0,0E0,0E0,0E0,0E0,0E0,0E0,0E0,0E0,0E0,0E0,0E0,0E0,0E0,0E0,0E0,0E0,0E0,0E0,0E0],"parents":[2147483647,0,0,1,1,2,2,3,3,4,4,5,5,6,6,7,7,8,8,9,9,10,10,11,11,12,12,13,13,14,14,15,15,16,16,17,17,18,18,19,19,20,20,21,21,22,22,23,23,24,24,25,25,26,26,27,27,28,28,29,29,30,30,31,31,33,33,34,34,35,35,36,36,37,37,38,38,39,39,40,40,41,41,42,42,43,43,44,44,45,45,46,46,47,47,48,48,49,49,50,50,51,51,52,52,53,53,54,54,55,55,56,56,57,57,59,59,60,60,62,62],"right_children":[2,4,6,8,10,12,14,16,18,20,22,24,26,28,30,32,34,36,38,40,42,44,46,48,50,52,54,56,58,60,62,64,-1,66,68,70,72,74,76,78,80,82,84,86,88,90,92,94,96,98,100,102,104,106,108,110,112,114,-1,116,118,-1,120,-1,-1,-1,-1,-1,-1,-1,-1,-1,-1,-1,-1,-1,-1,-1,-1,-1,-1,-1,-1,-1,-1,-1,-1,-1,-1,-1,-1,-1,-1,-1,-1,-1,-1,-1,-1,-1,-1,-1,-1,-1,-1,-1,-1,-1,-1,-1,-1,-1,-1,-1,-1,-1,-1,-1,-1,-1,-1],"split_conditions":[3.483146E-1,1.6011237E-1,5.646067E-1,7.584269E-2,2.4719101E-1,4.3539324E-1,6.320225E-1,4.2134833E-2,1.2078652E-1,1.9E1,2.3595506E-1,3.9325844E-2,1.8820225E-1,6.0393256E-1,7.3595506E-1,5E0,3.6516853E-2,3.0898876E-2,2.5280898E-2,2E0,3.483146E-1,2.52809E-1,3.0617976E-1,2.752809E-1,3.539326E-1,5E0,1E1,5.196629E-1,6.0955054E-1,7.6404494E-1,3.9044943E-1,7.865169E-2,-7.6753483E-3,3.6516853E-2,1.09550565E-1,1.1235955E-1,4E0,3.0898876E-2,3.0617976E-1,2.949438E-1,1.4044944E-2,1.5168539E-1,2.1E1,6E0,7.3033705E-2,2.752809E-1,3.4550563E-1,3.0337077E-1,4.2977527E-1,2.5E-1,3.7078652E-1,8E0,1.6011237E-1,2.6404494E-1,1.8E1,5.5898875E-1,2.0786516E-1,5.3932583E-1,6.6004223E-3,2.275281E-1,7.6404494E-1,8.5181305E-3,8.455056E-1,-8.675995E-3,-4.712719E-3,-4.4354186E-3,-6.4550103E-3,-7.3056147E-3,-4.7255666E-3,-4.3364214E-3,-2.2587832E-3,-6.753555E-3,-5.6759864E-3,-5.9446803E-4,-4.1361377E-3,-4.620338E-3,-2.7655596E-3,-4.053141E-3,5.773594E-4,3.2466778E-3,-6.367857E-4,-7.005778E-3,-3.0741186E-3,-2.8461488E-3,-1.4767627E-3,1.8901828E-3,-5.173745E-4,5.900031E-3,2.5884917E-3,-1.0743247E-3,3.4763E-4,2.706047E-3,5.285366E-4,1.968061E-3,6.3924477E-3,1.051998E-2,5.6698313E-3,-2.0579426E-3,2.1787167E-3,3.379766E-3,6.3495E-3,7.3366924E-3,1.2807332E-2,-1.3604373E-3,2.9336587E-3,5.312737E-3,-5.4105083E-3,8.559733E-3,4.5784106E-3,1.1511303E-2,-6.9599005E-4,9.718168E-3,4.376039E-3,1.0281342E-2,1.458499E-2,1.2732587E-2,1.65494E-2,1.2041937E-2,4.923442E-3,1.8479574E-2,3.298667E-3],"split_indices":[11,11,11,11,11,11,10,10,11,12,1,1,1,11,11,12,0,2,2,12,0,10,10,9,10,13,12,8,2,8,5,9,0,9,10,11,12,5,1,7,0,9,12,13,2,9,4,10,11,8,0,12,1,0,12,5,1,10,0,0,0,0,0,0,0,0,0,0,0,0,0,0,0,0,0,0,0,0,0,0,0,0,0,0,0,0,0,0,0,0,0,0,0,0,0,0,0,0,0,0,0,0,0,0,0,0,0,0,0,0,0,0,0,0,0,0,0,0,0,0,0],"split_type":[0,0,0,0,0,0,0,0,0,0,0,0,0,0,0,0,0,0,0,0,0,0,0,0,0,0,0,0,0,0,0,0,0,0,0,0,0,0,0,0,0,0,0,0,0,0,0,0,0,0,0,0,0,0,0,0,0,0,0,0,0,0,0,0,0,0,0,0,0,0,0,0,0,0,0,0,0,0,0,0,0,0,0,0,0,0,0,0,0,0,0,0,0,0,0,0,0,0,0,0,0,0,0,0,0,0,0,0,0,0,0,0,0,0,0,0,0,0,0,0,0],"sum_hessian":[5.229E3,3.722E3,1.507E3,1.955E3,1.767E3,9.91E2,5.16E2,1.251E3,7.04E2,8.19E2,9.48E2,4.01E2,5.9E2,2.01E2,3.15E2,8.52E2,3.99E2,3.7E2,3.34E2,4.01E2,4.18E2,2.65E2,6.83E2,5.2E1,3.49E2,9.4E1,4.96E2,8.9E1,1.12E2,1.86E2,1.29E2,6.1E2,2.42E2,4.2E1,3.57E2,5.1E1,3.19E2,3.3E1,3.01E2,3.6E1,3.65E2,1.95E2,2.23E2,9.3E1,1.72E2,4.3E2,2.53E2,2.2E1,3E1,9.9E1,2.5E2,9.1E1,3E0,3.7E1,4.59E2,5.8E1,3.1E1,1.05E2,7E0,1.44E2,4.2E1,5E0,1.24E2,6.05E2,5E0,2.4E1,1.8E1,3.42E2,1.5E1,4.1E1,1E1,1.16E2,2.03E2,2.7E1,6E0,2.5E2,5.1E1,3.4E1,2E0,1.6E1,3.49E2,1.7E1,1.78E2,6.2E1,1.61E2,6.2E1,3.1E1,3.7E1,1.35E2,2.1E2,2.2E2,1.3E2,1.23E2,1.1E1,1.1E1,2.6E1,4E0,1.4E1,8.5E1,1.1E2,1.4E2,2E1,7.1E1,2E0,1E0,3E1,7E0,3.89E2,7E1,5.7E1,1E0,9E0,2.2E1,3.1E1,7.4E1,5.9E1,8.5E1,3.9E1,3E0,1.23E2,1E0],"tree_param":{"num_deleted":"0","num_feature":"16","num_nodes":"121","size_leaf_vector":"1"}},{"base_weights":[2.9213808E-4,-3.6432967E-2,7.798558E-2,-6.539202E-2,-8.619855E-3,5.142135E-2,1.2168936E-1,-7.260371E-2,-5.0955415E-2,-2.2419414E-2,3.74675E-3,2.9226987E-2,6.4679705E-2,9.683057E-2,1.4010029E-1,-7.6265745E-2,-6.5527186E-2,-6.091423E-2,-4.606131E-2,-3.3137955E-2,-1.4246707E-2,3.9964296E-2,1.8741142E-3,3.3559483E-2,-1.1651281E-3,6.299317E-2,1.3727906E-1,1.01283655E-1,3.1969108E-2,1.1105838E-1,1.500176E-1,-7.845053E-2,-7.020133E-3,-5.1715195E-2,-6.73422E-2,-6.980962E-2,-5.6544174E-2,-4.1120186E-2,-5.8333006E-2,-1.568514E-2,-3.869177E-2,1.510413E-2,-1.831851E-2,2.4246162E-2,6.394095E-2,-1.0803951E-2,6.297412E-3,1.8385105E-2,4.2028744E-2,-2.359234E-2,6.5380004E-3,6.710483E-2,3.0081779E-2,-3.1471252E-4,1.4832317E-2,1.3364048E-1,9.332976E-2,-8.572519E-3,5.134005E-2,1.3057472E-1,4.7068756E-2,1.5787597E-1,9.5207654E-2,-7.85292E-3,-1.7707739E-3,-3.9332923E-3,-5.8434955E-3,-7.020663E-3,-6.0312278E-3,-7.036455E-3,-1.9089304E-3,-3.6502231E-3,-5.93885E-3,-4.3941857E-3,-2.6633344E-3,-6.6399523E-3,-5.0886897E-3,-2.595418E-3,3.1499678E-4,-4.6200682E-3,-3.028442E-3,-2.0399878E-3,2.5358428E-3,-3.5045282E-3,-1.272073E-3,3.6214E-3,5.810222E-4,3.02369E-3,7.457813E-3,-1.1865486E-3,2.0933E-3,1.179285E-3,-7.318478E-4,5.468496E-3,8.763291E-4,3.7667223E-3,9.189474E-3,-3.9760624E-3,-1.1988591E-3,-1.05001316E-4,2.30662E-3,1.4454863E-2,6.5460852E-3,2.3772162E-3,9.6577145E-3,3.7720934E-3,1.34878745E-2,7.920351E-3,1.19471885E-2,2.0797015E-3,-2.4479737E-3,1.9567967E-3,6.328676E-3,1.4846188E-2,1.0691259E-2,-6.406069E-4,5.501307E-3,1.4773302E-2,1.8388765E-2,4.183536E-3,1.0664802E-2],"categories":[],"categories_nodes":[],"categories_segments":[],"categories_sizes":[],"default_left":[0,0,0,0,0,0,0,0,0,0,0,0,0,0,0,0,0,0,0,0,0,0,0,0,0,0,0,0,0,0,0,0,0,0,0,0,0,0,0,0,0,0,0,0,0,0,0,0,0,0,0,0,0,0,0,0,0,0,0,0,0,0,0,0,0,0,0,0,0,0,0,0,0,0,0,0,0,0,0,0,0,0,0,0,0,0,0,0,0,0,0,0,0,0,0,0,0,0,0,0,0,0,0,0,0,0,0,0,0,0,0,0,0,0,0,0,0,0,0,0,0],"id":11,"left_children":[1,3,5,7,9,11,13,15,17,19,21,23,25,27,29,31,33,35,37,39,41,43,45,47,49,51,53,55,57,59,61,63,-1,65,67,69,71,73,75,77,79,81,83,85,87,89,91,93,95,97,99,101,103,-1,-1,105,107,109,111,113,115,117,119,-1,-1,-1,-1,-1,-1,-1,-1,-1,-1,-1,-1,-1,-1,-1,-1,-1,-1,-1,-1,-1,-1,-1,-1,-1,-1,-1,-1,-1,-1,-1,-1,-1,-1,-1,-1,-1,-1,-1,-1,-1,-1,-1,-1,-1,-1,-1,-1,-1,-1,-1,-1,-1,-1,-1,-1,-1,-1],"loss_changes":[1.4925599E1,2.860364E0,1.9429893E0,1.774559E-1,3.0947912E-1,3.059063E-1,2.7659893E-1,2.5011063E-2,2.5609374E-2,7.460067E-2,6.4831026E-2,5.178687E-2,7.142925E-2,7.5613976E-2,8.760166E-2,4.5228004E-3,6.5950155E-3,3.3997893E-3,2.1552503E-2,3.525716E-2,5.8597974E-2,1.6162485E-2,5.1155876E-2,4.3436736E-2,8.792232E-3,8.47218E-2,2.2179127E-2,5.3154707E-2,1.5361378E-2,1.1374295E-1,9.997034E-2,1.2280941E-3,0E0,1.9450933E-3,2.8538704E-3,2.8929114E-4,5.3569376E-3,1.0479659E-2,3.2882392E-3,1.7682834E-2,1.6277254E-2,2.2361431E-2,3.972265E-2,6.40874E-3,4.198283E-3,8.199198E-3,5.066819E-2,4.317958E-2,4.4386744E-2,1.9622906E-3,4.790035E-3,6.298089E-2,2.8332062E-2,0E0,0E0,6.13451E-4,6.734967E-2,3.7794178E-3,3.696043E-3,1.5024662E-2,1.0548111E-2,3.404379E-2,1.7519891E-2,0E0,0E0,0E0,0E0,0E0,0E0,0E0,0E0,0E0,0E0,0E0,0E0,0E0,0E0,0E0,0E0,0E0,0E0,0E0,0E0,0E0,0E0,0E0,0E0,0E0,0E0,0E0,0E0,0E0,0E0,0E0,0E0,0E0,0E0,0E0,0E0,0E0,0E0,0E0,0E0,0E0,0E0,0E0,0E0,0E0,0E0,0E0,0E0,0E0,0E0,0E0,0E0,0E0,0E0,0E0,0E0,0E0,0E0],"parents":[2147483647,0,0,1,1,2,2,3,3,4,4,5,5,6,6,7,7,8,8,9,9,10,10,11,11,12,12,13,13,14,14,15,15,16,16,17,17,18,18,19,19,20,20,21,21,22,22,23,23,24,24,25,25,26,26,27,27,28,28,29,29,30,30,31,31,33,33,34,34,35,35,36,36,37,37,38,38,39,39,40,40,41,41,42,42,43,43,44,44,45,45,46,46,47,47,48,48,49,49,50,50,51,51,52,52,55,55,56,56,57,57,58,58,59,59,60,60,61,61,62,62],"right_children":[2,4,6,8,10,12,14,16,18,20,22,24,26,28,30,32,34,36,38,40,42,44,46,48,50,52,54,56,58,60,62,64,-1,66,68,70,72,74,76,78,80,82,84,86,88,90,92,94,96,98,100,102,104,-1,-1,106,108,110,112,114,116,118,120,-1,-1,-1,-1,-1,-1,-1,-1,-1,-1,-1,-1,-1,-1,-1,-1,-1,-1,-1,-1,-1,-1,-1,-1,-1,-1,-1,-1,-1,-1,-1,-1,-1,-1,-1,-1,-1,-1,-1,-1,-1,-1,-1,-1,-1,-1,-1,-1,-1,-1,-1,-1,-1,-1,-1,-1,-1,-1],"split_conditions":[3.2303372E-1,1.3483146E-1,5.3370786E-1,6.741573E-2,2.3314607E-1,3.960674E-1,6.0955054E-1,3.6516853E-2,5E0,1.8258427E-1,1.3764045E-1,1.9E1,6.488764E-1,1.8E1,3.960674E-1,5E0,3.3707865E-2,5E0,2.3E1,9.550562E-2,4.2134833E-2,2.8370786E-1,2.4438202E-1,3.2022473E-1,3.3988765E-1,1.8E1,4.494382E-1,1.5730338E-1,5.533708E-1,4.8314607E-1,1.9E1,2.1910113E-1,-7.020133E-3,3E0,6E0,1.4606741E-1,1E0,2.0786516E-1,1.2078652E-1,1.4325842E-1,2.4719101E-1,4.2134833E-2,1.8539326E-1,1E1,1.488764E-1,3.4550563E-1,1.9E1,3.0898876E-2,5.0842696E-1,2E0,7.47191E-1,1.6853932E-2,7.1348315E-1,-3.1471252E-4,1.4832317E-2,8.426966E-3,1.5E1,6.320225E-1,4.4101125E-1,6.7134833E-1,4.9438202E-1,7.050562E-1,1E0,-7.85292E-3,-1.7707739E-3,-3.9332923E-3,-5.8434955E-3,-7.020663E-3,-6.0312278E-3,-7.036455E-3,-1.9089304E-3,-3.6502231E-3,-5.93885E-3,-4.3941857E-3,-2.6633344E-3,-6.6399523E-3,-5.0886897E-3,-2.595418E-3,3.1499678E-4,-4.6200682E-3,-3.028442E-3,-2.0399878E-3,2.5358428E-3,-3.5045282E-3,-1.272073E-3,3.6214E-3,5.810222E-4,3.02369E-3,7.457813E-3,-1.1865486E-3,2.0933E-3,1.179285E-3,-7.318478E-4,5.468496E-3,8.763291E-4,3.7667223E-3,9.189474E-3,-3.9760624E-3,-1.1988591E-3,-1.05001316E-4,2.30662E-3,1.4454863E-2,6.5460852E-3,2.3772162E-3,9.6577145E-3,3.7720934E-3,1.34878745E-2,7.920351E-3,1.19471885E-2,2.0797015E-3,-2.4479737E-3,1.9567967E-3,6.328676E-3,1.4846188E-2,1.0691259E-2,-6.406069E-4,5.501307E-3,1.4773302E-2,1.8388765E-2,4.183536E-3,1.0664802E-2],"split_indices":[11,11,11,11,10,11,10,10,12,11,3,12,10,12,2,12,0,13,12,3,3,10,9,10,11,12,7,3,11,5,12,2,0,13,13,10,12,2,9,10,2,7,10,12,8,8,12,3,0,13,6,1,9,0,0,1,12,9,2,11,6,4,13,0,0,0,0,0,0,0,0,0,0,0,0,0,0,0,0,0,0,0,0,0,0,0,0,0,0,0,0,0,0,0,0,0,0,0,0,0,0,0,0,0,0,0,0,0,0,0,0,0,0,0,0,0,0,0,0,0,0],"split_type":[0,0,0,0,0,0,0,0,0,0,0,0,0,0,0,0,0,0,0,0,0,0,0,0,0,0,0,0,0,0,0,0,0,0,0,0,0,0,0,0,0,0,0,0,0,0,0,0,0,0,0,0,0,0,0,0,0,0,0,0,0,0,0,0,0,0,0,0,0,0,0,0,0,0,0,0,0,0,0,0,0,0,0,0,0,0,0,0,0,0,0,0,0,0,0,0,0,0,0,0,0,0,0,0,0,0,0,0,0,0,0,0,0,0,0,0,0,0,0,0,0],"sum_hessian":[5.229E3,3.551E3,1.678E3,1.739E3,1.812E3,1.045E3,6.33E2,1.157E3,5.82E2,8.56E2,9.56E2,3.92E2,6.53E2,2.72E2,3.61E2,7.56E2,4.01E2,1.88E2,3.94E2,3.69E2,4.87E2,4.6E1,9.1E2,3.43E2,4.9E1,6.4E2,1.3E1,2.54E2,1.8E1,9.5E1,2.66E2,5.47E2,2.09E2,5E1,3.51E2,5.7E1,1.31E2,2.84E2,1.1E2,9E1,2.79E2,5.9E1,4.28E2,2.9E1,1.7E1,2.35E2,6.75E2,1.24E2,2.19E2,1.2E1,3.7E1,5.68E2,7.2E1,1E0,1.2E1,4.7E1,2.07E2,6E0,1.2E1,7.2E1,2.3E1,2.31E2,3.5E1,5.46E2,1E0,2E1,3E1,2.43E2,1.08E2,5.6E1,1E0,1.8E1,1.13E2,2.36E2,4.8E1,4.9E1,6.1E1,5.8E1,3.2E1,1.45E2,1.34E2,1.3E1,4.6E1,1.06E2,3.22E2,1.7E1,1.2E1,5E0,1.2E1,2.28E2,7E0,4.81E2,1.94E2,2.5E1,9.9E1,2.03E2,1.6E1,4E0,8E0,2.6E1,1.1E1,1E1,5.58E2,6.7E1,5E0,1E0,4.6E1,1.37E2,7E1,2E0,4E0,4E0,8E0,3.8E1,3.4E1,3E0,2E1,1.71E2,6E1,7E0,2.8E1],"tree_param":{"num_deleted":"0","num_feature":"16","num_nodes":"121","size_leaf_vector":"1"}},{"base_weights":[2.8441078E-4,-3.2810774E-2,7.02986E-2,-5.7946645E-2,-6.807231E-3,4.634029E-2,1.09715134E-1,-6.5206E-2,-4.4225752E-2,-1.8728042E-2,3.7578093E-3,3.0757034E-2,6.2286742E-2,8.7312505E-2,1.2630686E-1,-6.7869365E-2,-5.6769084E-2,-4.8339758E-2,-3.4113083E-2,7.480437E-3,-2.1450533E-2,3.0366038E-3,8.6226694E-2,3.642166E-2,1.0401684E-2,1.380368E-1,6.03634E-2,9.130088E-2,2.9188894E-2,1.00269176E-1,1.3519566E-1,-7.2940536E-2,-6.551116E-2,-4.058888E-2,-5.8910973E-2,-3.3614747E-2,-5.0421696E-2,-5.107516E-3,-3.5567302E-2,-4.2477757E-2,1.379677E-2,-3.283391E-2,-1.3378379E-2,1.5445209E-2,-1.6420287E-3,1.3077016E-2,4.9583845E-2,1.2863968E-2,4.281359E-2,4.8133437E-2,6.425507E-3,1.584868E-2,5.751514E-3,4.4616383E-2,6.948314E-2,1.2506354E-1,8.48122E-2,-7.7678817E-3,4.6843395E-2,1.1738005E-1,4.085724E-2,1.4223132E-1,8.609935E-2,-7.3435428E-3,-3.859636E-3,-6.5767625E-3,-9.701348E-4,-2.9670189E-3,-5.0465823E-3,-6.159741E-3,-5.354018E-3,-5.59001E-3,-2.8380703E-3,-5.568042E-3,-4.567656E-3,-1.8017789E-3,6.502298E-4,-3.965239E-3,-2.4479835E-3,-1.1697918E-3,-4.9600867E-3,1.998662E-3,-2.5340996E-3,-5.0796254E-4,-3.4337298E-3,1.4768122E-3,-1.6329831E-3,1.8949706E-4,2.363233E-3,3.189663E-4,-1.1385073E-3,5.483476E-3,1.1664629E-3,-4.1723327E-4,3.2433365E-3,4.993901E-3,1.8301344E-3,6.4364783E-3,1.5782857E-3,-2.1879582E-3,9.896711E-4,4.6849637E-3,-4.6490557E-3,1.0621676E-2,6.4711445E-3,9.022295E-3,1.3720666E-2,5.6422236E-3,9.433652E-3,-2.3241134E-3,2.0610164E-3,-3.81884E-4,5.1383483E-3,1.3654977E-2,9.862029E-3,-5.9256185E-4,4.817095E-3,1.2865454E-2,1.5886612E-2,6.4788037E-3,1.1882029E-2],"categories":[],"categories_nodes":[],"categories_segments":[],"categories_sizes":[],"default_left":[0,0,0,0,0,0,0,0,0,0,0,0,0,0,0,0,0,0,0,0,0,0,0,0,0,0,0,0,0,0,0,0,0,0,0,0,0,0,0,0,0,0,0,0,0,0,0,0,0,0,0,0,0,0,0,0,0,0,0,0,0,0,0,0,0,0,0,0,0,0,0,0,0,0,0,0,0,0,0,0,0,0,0,0,0,0,0,0,0,0,0,0,0,0,0,0,0,0,0,0,0,0,0,0,0,0,0,0,0,0,0,0,0,0,0,0,0,0,0,0,0],"id":12,"left_children":[1,3,5,7,9,11,13,15,17,19,21,23,25,27,29,31,33,35,37,39,41,43,45,47,49,51,53,55,57,59,61,63,65,67,69,71,73,75,77,79,81,83,85,87,89,-1,91,93,95,97,99,-1,-1,101,103,105,107,109,111,113,115,117,119,-1,-1,-1,-1,-1,-1,-1,-1,-1,-1,-1,-1,-1,-1,-1,-1,-1,-1,-1,-1,-1,-1,-1,-1,-1,-1,-1,-1,-1,-1,-1,-1,-1,-1,-1,-1,-1,-1,-1,-1,-1,-1,-1,-1,-1,-1,-1,-1,-1,-1,-1,-1,-1,-1,-1,-1,-1,-1],"loss_changes":[1.2120909E1,2.3212695E0,1.5804844E0,1.7700243E-1,2.2009426E-1,2.5801277E-1,2.2462845E-1,2.2639751E-2,2.4477959E-2,5.8740735E-2,5.4873332E-2,6.0848355E-2,6.684542E-2,6.0621977E-2,7.022667E-2,5.877018E-3,7.6245666E-3,1.1916637E-2,7.6217204E-3,2.5199158E-2,6.792569E-2,5.3436242E-2,6.573513E-3,6.1939597E-2,1.724401E-2,1.06446E-2,6.9422364E-2,4.525709E-2,1.2760488E-2,9.279686E-2,7.998276E-2,1.82271E-3,8.207798E-3,2.4928674E-3,3.5244226E-4,5.178787E-3,7.113695E-3,1.6160158E-3,7.000953E-3,1.3930071E-3,1.7464466E-2,1.2676984E-2,3.654407E-2,2.7911447E-2,3.1529747E-2,0E0,5.550366E-4,3.0140433E-2,5.6025207E-2,4.7601685E-3,1.0729577E-2,0E0,0E0,4.0429413E-2,4.8866153E-2,4.120648E-3,5.335307E-2,3.5527078E-3,3.1863675E-3,1.3145208E-2,8.155037E-3,3.195715E-2,1.74056E-2,0E0,0E0,0E0,0E0,0E0,0E0,0E0,0E0,0E0,0E0,0E0,0E0,0E0,0E0,0E0,0E0,0E0,0E0,0E0,0E0,0E0,0E0,0E0,0E0,0E0,0E0,0E0,0E0,0E0,0E0,0E0,0E0,0E0,0E0,0E0,0E0,0E0,0E0,0E0,0E0,0E0,0E0,0E0,0E0,0E0,0E0,0E0,0E0,0E0,0E0,0E0,0E0,0E0,0E0,0E0,0E0,0E0,0E0],"parents":[2147483647,0,0,1,1,2,2,3,3,4,4,5,5,6,6,7,7,8,8,9,9,10,10,11,11,12,12,13,13,14,14,15,15,16,16,17,17,18,18,19,19,20,20,21,21,22,22,23,23,24,24,25,25,26,26,27,27,28,28,29,29,30,30,31,31,32,32,33,33,34,34,35,35,36,36,37,37,38,38,39,39,40,40,41,41,42,42,43,43,44,44,46,46,47,47,48,48,49,49,50,50,53,53,54,54,55,55,56,56,57,57,58,58,59,59,60,60,61,61,62,62],"right_children":[2,4,6,8,10,12,14,16,18,20,22,24,26,28,30,32,34,36,38,40,42,44,46,48,50,52,54,56,58,60,62,64,66,68,70,72,74,76,78,80,82,84,86,88,90,-1,92,94,96,98,100,-1,-1,102,104,106,108,110,112,114,116,118,120,-1,-1,-1,-1,-1,-1,-1,-1,-1,-1,-1,-1,-1,-1,-1,-1,-1,-1,-1,-1,-1,-1,-1,-1,-1,-1,-1,-1,-1,-1,-1,-1,-1,-1,-1,-1,-1,-1,-1,-1,-1,-1,-1,-1,-1,-1,-1,-1,-1,-1,-1,-1,-1,-1,-1,-1,-1,-1],"split_conditions":[3.2303372E-1,1.4325842E-1,5.3370786E-1,7.022472E-2,2.3595506E-1,4.2696628E-1,6.0955054E-1,4.494382E-2,1.2078652E-1,2.5280898E-2,4.550562E-1,1.8E1,1.1235955E-1,1.8E1,3.960674E-1,1.6853932E-2,3.6516853E-2,3.0898876E-2,1.4044944E-2,2.8089888E-2,1.8539326E-1,2.5E-1,3.4269664E-1,3.005618E-1,2.724719E-1,3.6235955E-1,4.6348315E-1,1.0674157E-1,5.533708E-1,4.8595506E-1,1.9E1,1.6011237E-1,8.146068E-2,4.2134833E-2,6E0,1.9662922E-2,9.269663E-2,7.584269E-2,2.52809E-1,1.1235955E-2,8E0,2.8089888E-2,1.4044943E-1,2.6966292E-1,1.9E1,1.3077016E-2,7.1348315E-1,2.7808988E-1,4.9157304E-1,2.4438202E-1,3.0617976E-1,1.584868E-2,5.751514E-3,5.955056E-1,1.8539326E-1,4.2977527E-1,4.9438202E-1,7.6404494E-1,5.0842696E-1,4.494382E-1,4.9438202E-1,5.955056E-1,7.6404494E-1,-7.3435428E-3,-3.859636E-3,-6.5767625E-3,-9.701348E-4,-2.9670189E-3,-5.0465823E-3,-6.159741E-3,-5.354018E-3,-5.59001E-3,-2.8380703E-3,-5.568042E-3,-4.567656E-3,-1.8017789E-3,6.502298E-4,-3.965239E-3,-2.4479835E-3,-1.1697918E-3,-4.9600867E-3,1.998662E-3,-2.5340996E-3,-5.0796254E-4,-3.4337298E-3,1.4768122E-3,-1.6329831E-3,1.8949706E-4,2.363233E-3,3.189663E-4,-1.1385073E-3,5.483476E-3,1.1664629E-3,-4.1723327E-4,3.2433365E-3,4.993901E-3,1.8301344E-3,6.4364783E-3,1.5782857E-3,-2.1879582E-3,9.896711E-4,4.6849637E-3,-4.6490557E-3,1.0621676E-2,6.4711445E-3,9.022295E-3,1.3720666E-2,5.6422236E-3,9.433652E-3,-2.3241134E-3,2.0610164E-3,-3.81884E-4,5.1383483E-3,1.3654977E-2,9.862029E-3,-5.9256185E-4,4.817095E-3,1.2865454E-2,1.5886612E-2,6.4788037E-3,1.1882029E-2],"split_indices":[11,11,11,11,10,11,10,10,11,1,10,12,5,12,2,11,7,2,2,7,10,0,0,10,6,9,10,2,11,5,12,1,9,0,13,8,10,10,0,0,12,2,2,10,12,0,0,9,7,0,9,0,0,8,1,10,10,4,9,7,6,2,10,0,0,0,0,0,0,0,0,0,0,0,0,0,0,0,0,0,0,0,0,0,0,0,0,0,0,0,0,0,0,0,0,0,0,0,0,0,0,0,0,0,0,0,0,0,0,0,0,0,0,0,0,0,0,0,0,0,0],"split_type":[0,0,0,0,0,0,0,0,0,0,0,0,0,0,0,0,0,0,0,0,0,0,0,0,0,0,0,0,0,0,0,0,0,0,0,0,0,0,0,0,0,0,0,0,0,0,0,0,0,0,0,0,0,0,0,0,0,0,0,0,0,0,0,0,0,0,0,0,0,0,0,0,0,0,0,0,0,0,0,0,0,0,0,0,0,0,0,0,0,0,0,0,0,0,0,0,0,0,0,0,0,0,0,0,0,0,0,0,0,0,0,0,0,0,0,0,0,0,0,0,0],"sum_hessian":[5.229E3,3.551E3,1.678E3,1.805E3,1.746E3,1.045E3,6.33E2,1.178E3,6.27E2,8.2E2,9.26E2,5.3E2,5.15E2,2.72E2,3.61E2,8.9E2,2.88E2,4.43E2,1.84E2,7.7E1,7.43E2,9.19E2,7E0,4.14E2,1.16E2,1.1E1,5.04E2,2.54E2,1.8E1,9.5E1,2.66E2,2.73E2,6.17E2,3.6E1,2.52E2,5.7E1,3.86E2,9E0,1.75E2,8E0,6.9E1,3.07E2,4.36E2,2.51E2,6.68E2,2E0,5E0,8.9E1,3.25E2,1E1,1.06E2,8E0,3E0,1.87E2,3.17E2,3.8E1,2.16E2,6E0,1.2E1,7.3E1,2.2E1,2.31E2,3.5E1,2.68E2,5E0,6.14E2,3E0,1.9E1,1.7E1,1.61E2,9.1E1,9E0,4.8E1,1.78E2,2.08E2,4E0,5E0,1.26E2,4.9E1,2E0,6E0,6E1,9E0,1.6E1,2.91E2,4.1E1,3.95E2,9.5E1,1.56E2,4.47E2,2.21E2,4E0,1E0,4.8E1,4.1E1,2.51E2,7.4E1,6E0,4E0,1.1E1,9.5E1,1.83E2,4E0,3.4E1,2.83E2,1.2E1,2.6E1,5.6E1,1.6E2,4E0,2E0,1E0,1.1E1,3.3E1,4E1,3E0,1.9E1,1.32E2,9.9E1,2.3E1,1.2E1],"tree_param":{"num_deleted":"0","num_feature":"16","num_nodes":"121","size_leaf_vector":"1"}},{"base_weights":[2.7865593E-4,-2.6996892E-2,6.953769E-2,-4.9643435E-2,-5.712365E-4,5.0714705E-2,1.0453187E-1,-5.7621986E-2,-3.46358E-2,-7.158659E-3,1.6012054E-2,5.5487137E-2,1.2419157E-2,8.490352E-2,1.1860595E-1,-6.0909137E-2,-5.0297115E-2,-1.8995913E-2,-3.781695E-2,-8.067641E-4,-1.6414477E-2,4.5769036E-2,9.43333E-3,4.331998E-2,6.738441E-2,4.006391E-3,7.358888E-2,1.1236624E-1,6.7316964E-2,5.4331377E-2,1.22301094E-1,-6.309988E-2,-5.517072E-2,-3.8605016E-2,-5.187E-2,-2.313128E-2,3.0442527E-3,-4.3509852E-2,-2.9115988E-2,-7.919115E-3,5.2380827E-3,-2.169339E-2,-9.477278E-3,2.3453541E-2,6.805867E-2,1.452893E-2,-7.817812E-3,9.649945E-2,3.933625E-2,9.85036E-2,6.2281415E-2,1.5947032E-3,5.9076534E-3,1.0611566E-2,1.795503E-2,1.170437E-1,7.454785E-2,5.8403026E-2,1.027835E-1,1.0045722E-2,7.059158E-2,1.331703E-1,9.381945E-2,-6.8098255E-3,-6.127961E-3,-6.0655335E-3,-5.14323E-3,-2.7637973E-3,-4.814225E-3,-5.614588E-3,-4.8085502E-3,-8.894598E-4,-2.951241E-3,2.225625E-3,-1.1618433E-3,-4.845205E-3,-3.953623E-3,-3.1528433E-3,-1.584316E-3,-2.301102E-4,-2.0769115E-3,3.60932E-3,3.341781E-4,-3.267432E-3,-1.6147131E-3,-5.940499E-4,-1.9979605E-3,-3.7177806E-3,2.7054462E-3,1.106498E-2,4.862919E-3,-3.0417307E-3,1.6266765E-3,-3.4341658E-4,-2.8699476E-3,6.7429105E-3,1.4499021E-2,1.9925775E-3,4.613477E-3,1.0351486E-2,2.3679088E-3,3.5585798E-3,7.51152E-3,2.009817E-3,-3.7500568E-4,-3.0561702E-3,3.3770718E-3,1.1955016E-2,-3.1710775E-3,-1.4476844E-3,1.0583129E-2,7.743075E-3,3.5324828E-3,-1.7966047E-3,1.0833213E-2,-4.0484132E-4,4.02582E-3,7.782589E-3,3.4857893E-3,1.159522E-2,1.4940107E-2,1.549386E-2,8.775978E-3],"categories":[],"categories_nodes":[],"categories_segments":[],"categories_sizes":[],"default_left":[0,0,0,0,0,0,0,0,0,0,0,0,0,0,0,0,0,0,0,0,0,0,0,0,0,0,0,0,0,0,0,0,0,0,0,0,0,0,0,0,0,0,0,0,0,0,0,0,0,0,0,0,0,0,0,0,0,0,0,0,0,0,0,0,0,0,0,0,0,0,0,0,0,0,0,0,0,0,0,0,0,0,0,0,0,0,0,0,0,0,0,0,0,0,0,0,0,0,0,0,0,0,0,0,0,0,0,0,0,0,0,0,0,0,0,0,0,0,0,0,0,0,0],"id":13,"left_children":[1,3,5,7,9,11,13,15,17,19,21,23,25,27,29,31,33,35,37,39,41,43,45,47,49,51,53,55,57,59,61,63,65,67,69,71,73,75,77,79,81,83,85,87,89,91,93,95,97,99,101,103,-1,-1,105,107,109,111,113,115,117,119,121,-1,-1,-1,-1,-1,-1,-1,-1,-1,-1,-1,-1,-1,-1,-1,-1,-1,-1,-1,-1,-1,-1,-1,-1,-1,-1,-1,-1,-1,-1,-1,-1,-1,-1,-1,-1,-1,-1,-1,-1,-1,-1,-1,-1,-1,-1,-1,-1,-1,-1,-1,-1,-1,-1,-1,-1,-1,-1,-1,-1],"loss_changes":[9.881755E0,2.2459533E0,9.682493E-1,2.3999739E-1,1.8942954E-1,1.7531157E-1,1.3247538E-1,2.8671265E-2,3.430754E-2,7.294759E-2,9.6079394E-2,1.20991945E-1,5.528269E-2,9.8207474E-2,6.413126E-2,7.89547E-3,5.6111813E-3,1.1098862E-2,2.7660906E-2,3.1727374E-2,1.8287942E-2,4.2672753E-2,3.5715073E-2,8.645338E-2,6.230843E-2,1.2655742E-2,2.1619357E-2,6.1336756E-3,3.6993086E-2,1.2252543E-2,7.449627E-2,1.7228127E-3,2.1703243E-3,4.2129904E-3,3.158152E-3,9.003799E-3,5.8925725E-3,4.9774647E-3,6.9931597E-3,2.4425117E-2,2.3225114E-2,1.689069E-2,8.053081E-3,1.1048945E-2,3.1030223E-2,2.4942942E-2,8.414459E-3,3.1103075E-2,5.1601827E-2,1.9671738E-2,1.2511873E-1,9.27275E-3,0E0,0E0,5.636043E-3,3.100884E-2,3.495208E-2,4.6007693E-2,1.9366145E-2,2.7178943E-3,6.477684E-4,3.88484E-2,1.6401827E-2,0E0,0E0,0E0,0E0,0E0,0E0,0E0,0E0,0E0,0E0,0E0,0E0,0E0,0E0,0E0,0E0,0E0,0E0,0E0,0E0,0E0,0E0,0E0,0E0,0E0,0E0,0E0,0E0,0E0,0E0,0E0,0E0,0E0,0E0,0E0,0E0,0E0,0E0,0E0,0E0,0E0,0E0,0E0,0E0,0E0,0E0,0E0,0E0,0E0,0E0,0E0,0E0,0E0,0E0,0E0,0E0,0E0,0E0,0E0,0E0],"parents":[2147483647,0,0,1,1,2,2,3,3,4,4,5,5,6,6,7,7,8,8,9,9,10,10,11,11,12,12,13,13,14,14,15,15,16,16,17,17,18,18,19,19,20,20,21,21,22,22,23,23,24,24,25,25,26,26,27,27,28,28,29,29,30,30,31,31,32,32,33,33,34,34,35,35,36,36,37,37,38,38,39,39,40,40,41,41,42,42,43,43,44,44,45,45,46,46,47,47,48,48,49,49,50,50,51,51,54,54,55,55,56,56,57,57,58,58,59,59,60,60,61,61,62,62],"right_children":[2,4,6,8,10,12,14,16,18,20,22,24,26,28,30,32,34,36,38,40,42,44,46,48,50,52,54,56,58,60,62,64,66,68,70,72,74,76,78,80,82,84,86,88,90,92,94,96,98,100,102,104,-1,-1,106,108,110,112,114,116,118,120,122,-1,-1,-1,-1,-1,-1,-1,-1,-1,-1,-1,-1,-1,-1,-1,-1,-1,-1,-1,-1,-1,-1,-1,-1,-1,-1,-1,-1,-1,-1,-1,-1,-1,-1,-1,-1,-1,-1,-1,-1,-1,-1,-1,-1,-1,-1,-1,-1,-1,-1,-1,-1,-1,-1,-1,-1,-1,-1,-1,-1],"split_conditions":[3.539326E-1,1.6853933E-1,5.646067E-1,8.146068E-2,2.9213482E-1,1.9E1,4.494382E-1,4.494382E-2,4.2134833E-2,1.8E1,4.775281E-2,4.6629214E-1,6.0955054E-1,1.0393258E-1,1.5E1,5E0,4.494382E-2,1.3764045E-1,1.4606741E-1,2.4438202E-1,3.988764E-1,2.3314607E-1,3.3988765E-1,3.3707865E-2,2.0505618E-1,7.3595506E-1,5.280899E-1,1.8539326E-1,4.6348315E-1,4.550562E-1,7.47191E-1,1.4044944E-2,2.5280898E-2,6E0,5E0,1.6853932E-2,4.2134833E-2,8E0,3.3988765E-1,6E0,1.3764045E-1,3E0,5E0,2.977528E-1,1.264045E-1,1.3764045E-1,6.0393256E-1,8E0,1.1E1,5.758427E-1,1.2E1,4.7191012E-1,5.9076534E-3,1.0611566E-2,6.320225E-1,6.0955054E-1,3.0898875E-1,2.1629213E-1,3.7921348E-1,6.7134833E-1,5.1404494E-1,1.7E1,6.4044946E-1,-6.8098255E-3,-6.127961E-3,-6.0655335E-3,-5.14323E-3,-2.7637973E-3,-4.814225E-3,-5.614588E-3,-4.8085502E-3,-8.894598E-4,-2.951241E-3,2.225625E-3,-1.1618433E-3,-4.845205E-3,-3.953623E-3,-3.1528433E-3,-1.584316E-3,-2.301102E-4,-2.0769115E-3,3.60932E-3,3.341781E-4,-3.267432E-3,-1.6147131E-3,-5.940499E-4,-1.9979605E-3,-3.7177806E-3,2.7054462E-3,1.106498E-2,4.862919E-3,-3.0417307E-3,1.6266765E-3,-3.4341658E-4,-2.8699476E-3,6.7429105E-3,1.4499021E-2,1.9925775E-3,4.613477E-3,1.0351486E-2,2.3679088E-3,3.5585798E-3,7.51152E-3,2.009817E-3,-3.7500568E-4,-3.0561702E-3,3.3770718E-3,1.1955016E-2,-3.1710775E-3,-1.4476844E-3,1.0583129E-2,7.743075E-3,3.5324828E-3,-1.7966047E-3,1.0833213E-2,-4.0484132E-4,4.02582E-3,7.782589E-3,3.4857893E-3,1.159522E-2,1.4940107E-2,1.549386E-2,8.775978E-3],"split_indices":[10,11,11,11,11,12,0,10,0,12,1,10,10,1,12,12,0,10,10,10,0,9,0,2,1,9,11,3,2,8,7,10,11,13,13,3,6,12,2,13,3,13,13,11,7,4,6,12,12,6,12,3,0,0,7,7,5,1,4,0,8,12,6,0,0,0,0,0,0,0,0,0,0,0,0,0,0,0,0,0,0,0,0,0,0,0,0,0,0,0,0,0,0,0,0,0,0,0,0,0,0,0,0,0,0,0,0,0,0,0,0,0,0,0,0,0,0,0,0,0,0,0,0],"split_type":[0,0,0,0,0,0,0,0,0,0,0,0,0,0,0,0,0,0,0,0,0,0,0,0,0,0,0,0,0,0,0,0,0,0,0,0,0,0,0,0,0,0,0,0,0,0,0,0,0,0,0,0,0,0,0,0,0,0,0,0,0,0,0,0,0,0,0,0,0,0,0,0,0,0,0,0,0,0,0,0,0,0,0,0,0,0,0,0,0,0,0,0,0,0,0,0,0,0,0,0,0,0,0,0,0,0,0,0,0,0,0,0,0,0,0,0,0,0,0,0,0,0,0],"sum_hessian":[5.229E3,3.752E3,1.477E3,2.02E3,1.732E3,9.62E2,5.15E2,1.317E3,7.03E2,1.24E3,4.92E2,8.55E2,1.07E2,2.18E2,2.97E2,9.04E2,4.13E2,1.2E2,5.83E2,7.36E2,5.04E2,8.8E1,4.04E2,4.25E2,4.3E2,9.5E1,1.2E1,8.3E1,1.35E2,1.7E1,2.8E2,6.47E2,2.57E2,5.2E1,3.61E2,1.01E2,1.9E1,3.5E2,2.33E2,3.38E2,3.98E2,2.85E2,2.19E2,4.5E1,4.3E1,3.12E2,9.2E1,2.8E1,3.97E2,5.8E1,3.72E2,9.2E1,3E0,7E0,5E0,7.2E1,1.1E1,1.1E2,2.5E1,5E0,1.2E1,2E2,8E1,1.63E2,4.84E2,9.8E1,1.59E2,2.6E1,2.6E1,1.63E2,1.98E2,3.2E1,6.9E1,8E0,1.1E1,1.51E2,1.99E2,1.96E2,3.7E1,2.36E2,1.02E2,2.2E1,3.76E2,9.4E1,1.91E2,1.65E2,5.4E1,2E0,4.3E1,1.2E1,3.1E1,1.1E1,3.01E2,7.7E1,1.5E1,1.9E1,9E0,1.04E2,2.93E2,5.4E1,4E0,1.22E2,2.5E2,2E1,7.2E1,1E0,4E0,7.1E1,1E0,3E0,8E0,5.9E1,5.1E1,1E0,2.4E1,4E0,1E0,9E0,3E0,1.01E2,9.9E1,5E0,7.5E1],"tree_param":{"num_deleted":"0","num_feature":"16","num_nodes":"123","size_leaf_vector":"1"}},{"base_weights":[2.737401E-4,-2.4311593E-2,6.270167E-2,-4.4708017E-2,-5.1154336E-4,4.463558E-2,9.240806E-2,-5.1891763E-2,-3.1195393E-2,-7.3973923E-3,1.2437448E-2,4.8969127E-2,1.0854335E-2,7.468237E-2,1.0564847E-1,-5.6934945E-2,-4.7960583E-2,-1.7119274E-2,-3.4058433E-2,-1.320336E-3,-1.5560309E-2,3.913292E-2,7.3581524E-3,3.7078563E-2,5.8090787E-2,3.1087636E-3,7.126891E-2,1.0066494E-1,6.0231734E-2,4.0439606E-2,1.09208845E-1,-5.8619004E-2,-5.193992E-2,-5.0356235E-2,-4.3112505E-2,-2.0855809E-2,2.7930164E-3,-3.9183937E-2,-2.622463E-2,-7.108094E-3,4.4892933E-3,-2.0608474E-2,-9.010023E-3,1.973035E-2,6.1614808E-2,1.52491825E-2,-7.906732E-5,2.8184997E-2,4.76098E-2,8.328039E-2,5.2888468E-2,1.4528108E-3,5.340704E-3,-1.4236957E-2,8.979378E-2,2.8724095E-3,1.0205238E-1,5.177938E-2,9.189478E-2,-1.5435666E-3,5.6705717E-2,1.153094E-1,6.667245E-2,-5.870407E-3,-1.1487622E-3,-2.6967817E-3,-5.242932E-3,-5.2498304E-3,-4.0928726E-3,-3.466018E-3,-4.666149E-3,-8.0320885E-4,-2.6603339E-3,2.0277917E-3,-1.055341E-3,-4.363873E-3,-3.5602376E-3,-2.733178E-3,-1.2949665E-4,-1.598997E-4,-1.9190827E-3,3.7668974E-3,2.4212047E-4,-3.0864705E-3,-1.5451809E-3,-5.74496E-4,-1.9754113E-3,-8.156566E-4,2.561987E-3,9.2460355E-3,3.8769082E-3,-6.717189E-4,2.088712E-3,-7.1034295E-4,7.443707E-4,5.416637E-3,1.6600566E-3,3.301826E-3,6.1100316E-3,7.657233E-3,1.8655954E-2,2.518551E-3,5.909206E-3,1.8184064E-3,-3.380191E-4,-2.9033616E-3,7.678181E-4,9.907261E-3,3.5118987E-3,1.0633466E-2,6.785437E-3,6.853615E-3,3.366875E-3,9.996924E-3,-1.948139E-3,7.4477296E-4,-7.901147E-4,2.1802982E-4,6.642122E-3,1.0749166E-2,1.3917922E-2,5.033482E-3,1.0059903E-2],"categories":[],"categories_nodes":[],"categories_segments":[],"categories_sizes":[],"default_left":[0,0,0,0,0,0,0,0,0,0,0,0,0,0,0,0,0,0,0,0,0,0,0,0,0,0,0,0,0,0,0,0,0,0,0,0,0,0,0,0,0,0,0,0,0,0,0,0,0,0,0,0,0,0,0,0,0,0,0,0,0,0,0,0,0,0,0,0,0,0,0,0,0,0,0,0,0,0,0,0,0,0,0,0,0,0,0,0,0,0,0,0,0,0,0,0,0,0,0,0,0,0,0,0,0,0,0,0,0,0,0,0,0,0,0,0,0,0,0,0,0,0,0],"id":14,"left_children":[1,3,5,7,9,11,13,15,17,19,21,23,25,27,29,31,33,35,37,39,41,43,45,47,49,51,53,55,57,59,61,63,65,67,69,71,73,75,77,79,81,83,85,87,89,91,93,95,97,99,101,103,-1,105,107,-1,109,111,113,115,117,119,121,-1,-1,-1,-1,-1,-1,-1,-1,-1,-1,-1,-1,-1,-1,-1,-1,-1,-1,-1,-1,-1,-1,-1,-1,-1,-1,-1,-1,-1,-1,-1,-1,-1,-1,-1,-1,-1,-1,-1,-1,-1,-1,-1,-1,-1,-1,-1,-1,-1,-1,-1,-1,-1,-1,-1,-1,-1,-1,-1,-1],"loss_changes":[8.028588E0,1.8218181E0,7.8908587E-1,1.9456244E-1,1.5461458E-1,1.3429618E-1,1.2307024E-1,2.3399353E-2,2.778846E-2,5.613402E-2,8.133976E-2,8.635092E-2,4.9380653E-2,8.479929E-2,6.9180965E-2,1.7670393E-3,6.5048933E-3,9.061012E-3,2.24213E-2,2.1887984E-2,1.578565E-2,4.0660128E-2,2.975568E-2,3.2094806E-2,5.587578E-2,7.835109E-3,2.0286206E-2,5.5527687E-3,3.7526846E-2,1.2379779E-2,7.016063E-2,1.0094643E-3,4.5597553E-4,7.827282E-3,6.0019493E-3,7.304199E-3,4.8812195E-3,4.046619E-3,6.423205E-3,2.1669488E-2,2.2209812E-2,1.3908595E-2,7.3235035E-3,8.913716E-3,2.7421713E-2,3.060618E-2,1.3897661E-2,5.8092773E-2,2.9871881E-2,3.9060533E-2,6.45051E-2,7.5816484E-3,0E0,1.1957379E-3,1.5938506E-3,0E0,4.9396753E-3,3.6233902E-2,3.072521E-2,4.0182294E-4,6.741829E-3,3.3744335E-2,1.7107576E-2,0E0,0E0,0E0,0E0,0E0,0E0,0E0,0E0,0E0,0E0,0E0,0E0,0E0,0E0,0E0,0E0,0E0,0E0,0E0,0E0,0E0,0E0,0E0,0E0,0E0,0E0,0E0,0E0,0E0,0E0,0E0,0E0,0E0,0E0,0E0,0E0,0E0,0E0,0E0,0E0,0E0,0E0,0E0,0E0,0E0,0E0,0E0,0E0,0E0,0E0,0E0,0E0,0E0,0E0,0E0,0E0,0E0,0E0,0E0,0E0],"parents":[2147483647,0,0,1,1,2,2,3,3,4,4,5,5,6,6,7,7,8,8,9,9,10,10,11,11,12,12,13,13,14,14,15,15,16,16,17,17,18,18,19,19,20,20,21,21,22,22,23,23,24,24,25,25,26,26,27,27,28,28,29,29,30,30,31,31,32,32,33,33,34,34,35,35,36,36,37,37,38,38,39,39,40,40,41,41,42,42,43,43,44,44,45,45,46,46,47,47,48,48,49,49,50,50,51,51,53,53,54,54,56,56,57,57,58,58,59,59,60,60,61,61,62,62],"right_children":[2,4,6,8,10,12,14,16,18,20,22,24,26,28,30,32,34,36,38,40,42,44,46,48,50,52,54,56,58,60,62,64,66,68,70,72,74,76,78,80,82,84,86,88,90,92,94,96,98,100,102,104,-1,106,108,-1,110,112,114,116,118,120,122,-1,-1,-1,-1,-1,-1,-1,-1,-1,-1,-1,-1,-1,-1,-1,-1,-1,-1,-1,-1,-1,-1,-1,-1,-1,-1,-1,-1,-1,-1,-1,-1,-1,-1,-1,-1,-1,-1,-1,-1,-1,-1,-1,-1,-1,-1,-1,-1,-1,-1,-1,-1,-1,-1,-1,-1,-1,-1,-1,-1],"split_conditions":[3.539326E-1,1.6853933E-1,5.533708E-1,8.146068E-2,2.8089887E-1,1.9E1,4.494382E-1,2.8089888E-2,4.2134833E-2,1.8E1,4.775281E-2,4.4382024E-1,6.0955054E-1,1.0393258E-1,4.97191E-1,5E0,5E0,1.3764045E-1,1.4606741E-1,2.4719101E-1,3.988764E-1,2.3314607E-1,2.6966292E-1,3.7078652E-1,1.8820225E-1,7.3595506E-1,6.488764E-1,8.426966E-3,4.6067417E-1,4.7191012E-1,1.9E1,2.1629213E-1,2.8089888E-3,6E0,2.8089888E-2,1.6853932E-2,4.2134833E-2,8E0,5.02809E-1,6E0,1.3764045E-1,3E0,5E0,6.1797753E-2,1.1797753E-1,2.3314607E-1,3.1741574E-1,2.8370786E-1,4.4101125E-1,6.488764E-1,1.1E1,4.7191012E-1,5.340704E-3,6.825843E-1,7.3595506E-1,2.8724095E-3,1.8539326E-1,2.1629213E-1,5.646067E-1,4.775281E-1,4.2977527E-1,7.050562E-1,7.8089887E-1,-5.870407E-3,-1.1487622E-3,-2.6967817E-3,-5.242932E-3,-5.2498304E-3,-4.0928726E-3,-3.466018E-3,-4.666149E-3,-8.0320885E-4,-2.6603339E-3,2.0277917E-3,-1.055341E-3,-4.363873E-3,-3.5602376E-3,-2.733178E-3,-1.2949665E-4,-1.598997E-4,-1.9190827E-3,3.7668974E-3,2.4212047E-4,-3.0864705E-3,-1.5451809E-3,-5.74496E-4,-1.9754113E-3,-8.156566E-4,2.561987E-3,9.2460355E-3,3.8769082E-3,-6.717189E-4,2.088712E-3,-7.1034295E-4,7.443707E-4,5.416637E-3,1.6600566E-3,3.301826E-3,6.1100316E-3,7.657233E-3,1.8655954E-2,2.518551E-3,5.909206E-3,1.8184064E-3,-3.380191E-4,-2.9033616E-3,7.678181E-4,9.907261E-3,3.5118987E-3,1.0633466E-2,6.785437E-3,6.853615E-3,3.366875E-3,9.996924E-3,-1.948139E-3,7.4477296E-4,-7.901147E-4,2.1802982E-4,6.642122E-3,1.0749166E-2,1.3917922E-2,5.033482E-3,1.0059903E-2],"split_indices":[10,11,11,11,11,12,0,10,0,12,1,11,10,1,10,12,12,10,10,10,0,9,1,0,1,9,7,0,2,8,12,2,2,13,5,3,6,12,0,13,3,13,13,7,6,7,9,6,8,10,12,3,0,0,0,0,3,1,2,3,2,4,10,0,0,0,0,0,0,0,0,0,0,0,0,0,0,0,0,0,0,0,0,0,0,0,0,0,0,0,0,0,0,0,0,0,0,0,0,0,0,0,0,0,0,0,0,0,0,0,0,0,0,0,0,0,0,0,0,0,0,0,0],"split_type":[0,0,0,0,0,0,0,0,0,0,0,0,0,0,0,0,0,0,0,0,0,0,0,0,0,0,0,0,0,0,0,0,0,0,0,0,0,0,0,0,0,0,0,0,0,0,0,0,0,0,0,0,0,0,0,0,0,0,0,0,0,0,0,0,0,0,0,0,0,0,0,0,0,0,0,0,0,0,0,0,0,0,0,0,0,0,0,0,0,0,0,0,0,0,0,0,0,0,0,0,0,0,0,0,0,0,0,0,0,0,0,0,0,0,0,0,0,0,0,0,0,0,0],"sum_hessian":[5.229E3,3.752E3,1.477E3,2.02E3,1.732E3,9.2E2,5.57E2,1.317E3,7.03E2,1.131E3,6.01E2,8.15E2,1.05E2,2.41E2,3.16E2,5.71E2,7.46E2,1.2E2,5.83E2,6.49E2,4.82E2,9.5E1,5.06E2,3.56E2,4.59E2,9.4E1,1.1E1,8.4E1,1.57E2,1.7E1,2.99E2,4.19E2,1.52E2,4.93E2,2.53E2,1.01E2,1.9E1,3.5E2,2.33E2,3.25E2,3.24E2,2.71E2,2.11E2,5.2E1,4.3E1,2.45E2,2.61E2,1.95E2,1.61E2,7.6E1,3.83E2,9.2E1,2E0,2E0,9E0,2E0,8.2E1,1.26E2,3.1E1,5E0,1.2E1,2.6E2,3.9E1,4.18E2,1E0,4E0,1.48E2,3.98E2,9.5E1,7.8E1,1.75E2,3.2E1,6.9E1,8E0,1.1E1,1.51E2,1.99E2,2.23E2,1E1,2.24E2,1.01E2,1.8E1,3.06E2,8.9E1,1.82E2,1.63E2,4.8E1,9E0,4.3E1,1.7E1,2.6E1,5E1,1.95E2,1.35E2,1.26E2,5.9E1,1.36E2,7.9E1,8.2E1,7.3E1,3E0,7.1E1,3.12E2,2E1,7.2E1,1E0,1E0,7E0,2E0,7.1E1,1.1E1,6.4E1,6.2E1,2.9E1,2E0,2E0,3E0,2E0,1E1,2E2,6E1,2.8E1,1.1E1],"tree_param":{"num_deleted":"0","num_feature":"16","num_nodes":"123","size_leaf_vector":"1"}},{"base_weights":[2.6927647E-4,-2.1889664E-2,5.6536015E-2,-4.0259834E-2,-4.5400308E-4,4.391562E-2,9.138763E-2,-4.6727195E-2,-2.8094716E-2,-9.284343E-3,7.9398E-3,3.1226002E-2,5.7897292E-2,7.1430914E-2,9.891886E-2,-4.9484342E-2,-4.0587235E-2,-1.812218E-2,-3.140974E-2,-1.848168E-2,-5.9167906E-3,3.410189E-2,4.16333E-3,3.594297E-2,3.3947644E-3,9.727825E-2,5.4917563E-2,9.279704E-2,4.1454613E-2,1.0490109E-1,6.508133E-2,-5.6087557E-2,-4.8233394E-2,-3.0852843E-2,-4.1900314E-2,-2.249041E-2,-2.4895242E-3,-3.7125558E-2,-2.4472604E-2,2.15698E-2,-2.1842659E-2,1.927506E-2,-7.780688E-3,1.8805284E-2,5.4856654E-2,1.0453468E-2,-9.781896E-4,2.6264125E-2,4.5713264E-2,-1.8217438E-3,2.7512152E-2,1.04013115E-1,-6.5853596E-3,4.314333E-2,6.505787E-2,1.15164965E-1,6.68302E-2,3.074593E-2,7.10185E-2,1.1080384E-1,7.712256E-2,-9.907946E-3,7.067361E-2,-5.68956E-3,-2.3214507E-3,-4.8409244E-3,-1.1717355E-3,-2.1505542E-3,-3.905745E-3,-4.543669E-3,-3.8775366E-3,-1.0347615E-3,-2.819337E-3,1.322531E-3,-8.168646E-4,-3.7821492E-3,9.689281E-4,-3.7484677E-3,-2.2004705E-3,-3.1803378E-3,3.436466E-3,-3.912621E-3,-1.752036E-3,2.7165262E-3,6.8072637E-4,-1.315154E-3,-2.5837304E-4,-2.1846246E-3,2.1780324E-3,7.629197E-3,3.1135648E-3,1.3725483E-4,2.5810623E-3,-4.6775953E-4,6.940818E-4,7.199929E-3,1.9398738E-3,2.6906303E-3,5.8994093E-3,2.3758754E-3,-6.481139E-4,3.7288375E-3,-8.694559E-4,4.0939483E-3,1.0879639E-2,4.6113613E-3,-1.7129064E-4,6.9823647E-3,2.3586939E-3,1.1899901E-2,-3.7621707E-4,2.619268E-3,7.928469E-3,5.0118417E-3,7.5128325E-4,7.860473E-3,2.205821E-3,9.796636E-3,1.3214501E-2,-2.9598295E-3,8.277466E-3,-2.758193E-3,5.177359E-4,3.3772103E-3,8.114995E-3],"categories":[],"categories_nodes":[],