{"learner":{"attributes":{},"feature_names":[],"feature_types":[],"gradient_booster":{"model":{"gbtree_model_param":{"num_parallel_tree":"1","num_trees":"100"},"iteration_indptr":[0,1,2,3,4,5,6,7,8,9,10,11,12,13,14,15,16,17,18,19,20,21,22,23,24,25,26,27,28,29,30,31,32,33,34,35,36,37,38,39,40,41,42,43,44,45,46,47,48,49,50,51,52,53,54,55,56,57,58,59,60,61,62,63,64,65,66,67,68,69,70,71,72,73,74,75,76,77,78,79,80,81,82,83,84,85,86,87,88,89,90,91,92,93,94,95,96,97,98,99,100],"tree_info":[0,0,0,0,0,0,0,0,0,0,0,0,0,0,0,0,0,0,0,0,0,0,0,0,0,0,0,0,0,0,0,0,0,0,0,0,0,0,0,0,0,0,0,0,0,0,0,0,0,0,0,0,0,0,0,0,0,0,0,0,0,0,0,0,0,0,0,0,0,0,0,0,0,0,0,0,0,0,0,0,0,0,0,0,0,0,0,0,0,0,0,0,0,0,0,0,0,0,0,0],"trees":[{"base_weights":[3.5472172E-10,-1.042976E-1,2.4498585E-1,-1.7592795E-1,-1.9480791E-2,2.0533647E-1,4.7726157E-1,-1.9416541E-1,-1.393256E-1,-4.5692433E-2,7.004656E-3,1.2916143E-1,2.2727022E-1,6.1039146E-2,4.1019097E-1,-2.0054663E-2,-1.7609563E-2,-1.4856546E-1,-1.172567E-1,-7.57179E-2,-3.3516843E-2,1.21040106E-1,5.2470656E-4,2.154444E-1,1.2192076E-1,2.1044356E-1,2.5711557E-1,4.3071877E-2,3.3094108E-2,-1.3459292E-2,-1.5352934E-2,-8.6472265E-2,-1.2797701E-2,-3.8166046E-2,-8.5005924E-2,2.3805834E-2,-3.5831027E-2,1.2719281E-1,4.637989E-2,-8.049236E-3,4.0228672E-2,1.1760489E-2,2.7413294E-1,1.0631925E-1,1.5587859E-1,6.578598E-3,2.1099722E-1,4.055364E-2,2.4968097E-1,-9.069201E-3,-5.48278E-3,-5.1755644E-3,-8.741786E-4,-9.899943E-3,-6.5502534E-3,-1.0698056E-3,7.318109E-3,-5.0499686E-3,-2.877806E-3,9.801293E-3,1.479385E-2,-3.049212E-3,7.3220925E-3,-1.4754188E-3,6.3664274E-4,9.652151E-3,3.2761102E-3,6.6162157E-3,2.859503E-2,1.2631309E-2,9.100509E-3,1.6600586E-2,9.193789E-3,2.045553E-2,2.2747291E-2,2.2830956E-2,2.6324844E-2],"categories":[],"categories_nodes":[],"categories_segments":[],"categories_sizes":[],"default_left":[0,0,0,0,0,0,0,0,0,0,0,0,0,0,0,0,0,0,0,0,0,0,0,0,0,0,0,0,0,0,0,0,0,0,0,0,0,0,0,0,0,0,0,0,0,0,0,0,0,0,0,0,0,0,0,0,0,0,0,0,0,0,0,0,0,0,0,0,0,0,0,0,0,0,0,0,0],"id":0,"left_children":[1,3,5,7,9,11,13,15,17,19,21,23,25,-1,27,-1,-1,29,31,33,35,37,39,41,43,45,47,-1,-1,-1,-1,49,-1,51,53,55,57,59,61,63,65,-1,67,69,71,-1,73,-1,75,-1,-1,-1,-1,-1,-1,-1,-1,-1,-1,-1,-1,-1,-1,-1,-1,-1,-1,-1,-1,-1,-1,-1,-1,-1,-1,-1,-1],"loss_changes":[1.3365956E2,2.228743E1,1.4287376E1,1.3006744E0,1.1673157E0,2.2028427E0,1.7765312E0,1.1746979E-1,1.18183136E-1,3.063755E-1,6.184326E-1,1.6178131E-1,4.6616364E-1,0E0,1.0798836E-1,0E0,0E0,1.1587143E-2,5.5267096E-2,8.150971E-2,8.0844164E-2,1.4772117E-2,2.7027646E-1,9.408605E-2,1.317687E-1,3.9621353E-2,3.0591583E-1,0E0,0E0,0E0,0E0,2.3717582E-3,0E0,1.9540764E-2,4.646206E-2,4.167022E-2,5.8552086E-2,1.031971E-2,1.2549282E-2,6.321052E-2,5.611013E-2,0E0,1.3030529E-2,4.821205E-2,4.042673E-2,0E0,2.4047852E-2,0E0,4.2541504E-2,0E0,0E0,0E0,0E0,0E0,0E0,0E0,0E0,0E0,0E0,0E0,0E0,0E0,0E0,0E0,0E0,0E0,0E0,0E0,0E0,0E0,0E0,0E0,0E0,0E0,0E0,0E0,0E0],"parents":[2147483647,0,0,1,1,2,2,3,3,4,4,5,5,6,6,7,7,8,8,9,9,10,10,11,11,12,12,14,14,17,17,18,18,19,19,20,20,21,21,22,22,23,23,24,24,25,25,26,26,31,31,33,33,34,34,35,35,36,36,37,37,38,38,39,39,40,40,42,42,43,43,44,44,46,46,48,48],"right_children":[2,4,6,8,10,12,14,16,18,20,22,24,26,-1,28,-1,-1,30,32,34,36,38,40,42,44,46,48,-1,-1,-1,-1,50,-1,52,54,56,58,60,62,64,66,-1,68,70,72,-1,74,-1,76,-1,-1,-1,-1,-1,-1,-1,-1,-1,-1,-1,-1,-1,-1,-1,-1,-1,-1,-1,-1,-1,-1,-1,-1,-1,-1,-1,-1],"split_conditions":[2.9553902E-1,1.0966543E-1,5.613383E-1,4.6468403E-2,1.9330855E-1,3.7174723E-1,1.6356878E-1,2.6022306E-2,8.364312E-2,1.4498141E-1,3.345725E-2,1.6171004E-1,4.6096656E-1,6.1039146E-2,4.9070632E-1,-2.0054663E-2,-1.7609563E-2,4.6468403E-2,3.717472E-2,3.345725E-2,2.6022306E-2,2.6022306E-2,2.639405E-1,2.4163568E-2,3.66171E-1,5.5762082E-3,2.9739777E-2,4.3071877E-2,3.3094108E-2,-1.3459292E-2,-1.5352934E-2,1.0594796E-1,-1.2797701E-2,1.3011153E-1,1.4869888E-1,8.178439E-2,1.6914499E-1,6.877323E-2,2.7881041E-2,2.2862454E-1,1.598513E-1,1.1760489E-2,7.434944E-3,2.2862454E-1,4.832714E-1,6.578598E-3,4.8698884E-1,4.055364E-2,4.6096656E-1,-9.069201E-3,-5.48278E-3,-5.1755644E-3,-8.741786E-4,-9.899943E-3,-6.5502534E-3,-1.0698056E-3,7.318109E-3,-5.0499686E-3,-2.877806E-3,9.801293E-3,1.479385E-2,-3.049212E-3,7.3220925E-3,-1.4754188E-3,6.3664274E-4,9.652151E-3,3.2761102E-3,6.6162157E-3,2.859503E-2,1.2631309E-2,9.100509E-3,1.6600586E-2,9.193789E-3,2.045553E-2,2.2747291E-2,2.2830956E-2,2.6324844E-2],"split_indices":[11,11,11,11,11,11,4,11,11,11,2,9,11,0,0,0,0,2,0,3,4,1,10,4,10,0,2,0,0,0,0,11,0,11,10,9,10,8,1,11,3,0,0,6,3,0,0,0,10,0,0,0,0,0,0,0,0,0,0,0,0,0,0,0,0,0,0,0,0,0,0,0,0,0,0,0,0],"split_type":[0,0,0,0,0,0,0,0,0,0,0,0,0,0,0,0,0,0,0,0,0,0,0,0,0,0,0,0,0,0,0,0,0,0,0,0,0,0,0,0,0,0,0,0,0,0,0,0,0,0,0,0,0,0,0,0,0,0,0,0,0,0,0,0,0,0,0,0,0,0,0,0,0,0,0,0,0],"sum_hessian":[5.229E3,3.668E3,1.561E3,1.988E3,1.68E3,1.335E3,2.26E2,1.324E3,6.64E2,8.44E2,8.36E2,3E2,1.035E3,7.3E1,1.53E2,9.71E2,3.53E2,4.64E2,2E2,2.42E2,6.02E2,4.4E1,7.92E2,2.1E1,2.79E2,6.67E2,3.68E2,1.18E2,3.5E1,1.29E2,3.35E2,5.4E1,1.46E2,4.9E1,1.93E2,2.3E1,5.79E2,4E1,4E0,6.52E2,1.4E2,9E0,1.2E1,1.94E2,8.5E1,3E0,6.64E2,1.5E1,3.53E2,4.6E1,8E0,3.3E1,1.6E1,1.1E2,8.3E1,1.4E1,9E0,1.86E2,3.93E2,1.9E1,2.1E1,1E0,3E0,4.45E2,2.07E2,1.5E1,1.25E2,1E0,1.1E1,8.1E1,1.13E2,7.2E1,1.3E1,4.87E2,1.77E2,1.44E2,2.09E2],"tree_param":{"num_deleted":"0","num_feature":"12","num_nodes":"77","size_leaf_vector":"1"}},{"base_weights":[5.6244906E-5,-9.333774E-2,2.2205533E-1,-1.5638322E-1,-1.4396758E-2,1.861844E-1,4.3013984E-1,-1.7477728E-1,-1.2245719E-1,-3.7711903E-2,7.2072595E-3,1.2452407E-1,2.0638546E-1,5.5017717E-2,3.6966646E-1,-1.805126E-2,-1.585358E-2,-1.3263512E-1,-9.919193E-2,-5.677661E-2,-2.7303614E-2,8.1904925E-2,-8.749191E-4,9.554358E-2,1.4158767E-1,3.4375647E-1,2.0307074E-1,3.8800884E-2,2.9876623E-2,-1.2011418E-1,-1.3702975E-1,-7.049412E-2,-1.1124934E-1,-1.3985521E-2,-6.153229E-2,2.990108E-2,-2.9573511E-2,1.15235254E-1,5.119852E-2,-8.412464E-3,3.359657E-2,1.17423445E-1,7.608421E-2,2.2594535E-1,1.3469915E-1,6.3369344E-3,3.5409067E-2,1.896633E-1,2.25312E-1,-1.2870005E-2,-1.0716645E-2,-1.4267506E-2,-1.2555069E-2,-7.227916E-3,-7.130375E-4,-1.1507244E-2,-7.322095E-3,-4.7719427E-3,-1.0829412E-4,-6.871149E-3,-3.9706305E-3,-9.338758E-4,7.889852E-3,-4.023313E-3,-2.2257739E-3,7.1794875E-3,1.2587421E-2,-5.6619704E-4,8.931522E-3,-1.9795345E-3,-6.908529E-5,6.811853E-3,2.8183416E-3,1.2385268E-2,8.299276E-3,3.5425813E-3,8.489016E-3,7.4989717E-3,2.6029784E-2,9.8859295E-3,1.5268782E-2,1.761982E-2,1.9873686E-2,2.011026E-2,2.3512049E-2],"categories":[],"categories_nodes":[],"categories_segments":[],"categories_sizes":[],"default_left":[0,0,0,0,0,0,0,0,0,0,0,0,0,0,0,0,0,0,0,0,0,0,0,0,0,0,0,0,0,0,0,0,0,0,0,0,0,0,0,0,0,0,0,0,0,0,0,0,0,0,0,0,0,0,0,0,0,0,0,0,0,0,0,0,0,0,0,0,0,0,0,0,0,0,0,0,0,0,0,0,0,0,0,0,0],"id":1,"left_children":[1,3,5,7,9,11,13,15,17,19,21,23,25,-1,27,-1,-1,29,31,33,35,37,39,41,43,45,47,-1,-1,49,51,53,55,57,59,61,63,65,67,69,71,73,75,77,79,-1,-1,81,83,-1,-1,-1,-1,-1,-1,-1,-1,-1,-1,-1,-1,-1,-1,-1,-1,-1,-1,-1,-1,-1,-1,-1,-1,-1,-1,-1,-1,-1,-1,-1,-1,-1,-1,-1,-1],"loss_changes":[1.084563E2,1.8322594E1,1.1481934E1,1.2560005E0,8.243263E-1,1.6222382E0,1.4444275E0,9.480286E-2,1.5804386E-1,1.5461493E-1,5.132335E-1,1.491661E-1,3.8326645E-1,0E0,8.4350586E-2,0E0,0E0,1.1053085E-2,6.9666386E-2,5.550921E-2,6.723702E-2,7.9046905E-2,1.9983236E-1,4.4286847E-2,8.869076E-2,4.1308165E-2,2.4770737E-1,0E0,0E0,1.5488863E-3,5.610466E-3,7.2889924E-3,1.4254332E-2,1.2570701E-2,3.628826E-2,3.9189845E-2,3.7472337E-2,8.987129E-3,9.803573E-2,5.544755E-2,2.386862E-2,2.3388267E-3,2.1697223E-2,5.308014E-2,1.0869026E-1,0E0,0E0,3.999901E-2,3.8438797E-2,0E0,0E0,0E0,0E0,0E0,0E0,0E0,0E0,0E0,0E0,0E0,0E0,0E0,0E0,0E0,0E0,0E0,0E0,0E0,0E0,0E0,0E0,0E0,0E0,0E0,0E0,0E0,0E0,0E0,0E0,0E0,0E0,0E0,0E0,0E0,0E0],"parents":[2147483647,0,0,1,1,2,2,3,3,4,4,5,5,6,6,7,7,8,8,9,9,10,10,11,11,12,12,14,14,17,17,18,18,19,19,20,20,21,21,22,22,23,23,24,24,25,25,26,26,29,29,30,30,31,31,32,32,33,33,34,34,35,35,36,36,37,37,38,38,39,39,40,40,41,41,42,42,43,43,44,44,47,47,48,48],"right_children":[2,4,6,8,10,12,14,16,18,20,22,24,26,-1,28,-1,-1,30,32,34,36,38,40,42,44,46,48,-1,-1,50,52,54,56,58,60,62,64,66,68,70,72,74,76,78,80,-1,-1,82,84,-1,-1,-1,-1,-1,-1,-1,-1,-1,-1,-1,-1,-1,-1,-1,-1,-1,-1,-1,-1,-1,-1,-1,-1,-1,-1,-1,-1,-1,-1,-1,-1,-1,-1,-1,-1],"split_conditions":[2.992565E-1,1.1710037E-1,5.613383E-1,4.6468403E-2,1.9330855E-1,3.7918216E-1,1.6356878E-1,2.6022306E-2,8.73606E-2,1.5427509E-1,7.992565E-2,3.30855E-1,9.665427E-2,5.5017717E-2,4.9070632E-1,-1.805126E-2,-1.585358E-2,4.6468403E-2,3.9033458E-2,2.2304833E-2,2.4163568E-2,2.4163568E-2,2.639405E-1,2.2862454E-1,1.6914499E-1,9.29368E-3,4.6096656E-1,3.8800884E-2,2.9876623E-2,6.5055765E-2,7.249071E-2,1.2639405E-1,1.5241636E-1,8.178439E-2,1.8215613E-1,8.178439E-2,1.7657992E-1,2.7881041E-2,1.8773234E-1,2.0260224E-1,1.8587361E-1,3.4386617E-1,3.0669144E-1,3.345725E-2,9.1078065E-2,6.3369344E-3,3.5409067E-2,4.2565057E-1,4.4237918E-1,-1.2870005E-2,-1.0716645E-2,-1.4267506E-2,-1.2555069E-2,-7.227916E-3,-7.130375E-4,-1.1507244E-2,-7.322095E-3,-4.7719427E-3,-1.0829412E-4,-6.871149E-3,-3.9706305E-3,-9.338758E-4,7.889852E-3,-4.023313E-3,-2.2257739E-3,7.1794875E-3,1.2587421E-2,-5.6619704E-4,8.931522E-3,-1.9795345E-3,-6.908529E-5,6.811853E-3,2.8183416E-3,1.2385268E-2,8.299276E-3,3.5425813E-3,8.489016E-3,7.4989717E-3,2.6029784E-2,9.8859295E-3,1.5268782E-2,1.761982E-2,1.9873686E-2,2.011026E-2,2.3512049E-2],"split_indices":[11,11,11,11,11,11,4,11,11,11,1,11,6,0,0,0,0,2,0,3,3,2,10,6,9,2,10,0,0,11,11,10,10,10,10,9,10,6,10,10,2,10,9,5,0,0,0,11,11,0,0,0,0,0,0,0,0,0,0,0,0,0,0,0,0,0,0,0,0,0,0,0,0,0,0,0,0,0,0,0,0,0,0,0,0],"split_type":[0,0,0,0,0,0,0,0,0,0,0,0,0,0,0,0,0,0,0,0,0,0,0,0,0,0,0,0,0,0,0,0,0,0,0,0,0,0,0,0,0,0,0,0,0,0,0,0,0,0,0,0,0,0,0,0,0,0,0,0,0,0,0,0,0,0,0,0,0,0,0,0,0,0,0,0,0,0,0,0,0,0,0,0,0],"sum_hessian":[5.229E3,3.681E3,1.548E3,2.046E3,1.635E3,1.322E3,2.26E2,1.324E3,7.22E2,7.86E2,8.49E2,3.28E2,9.94E2,7.3E1,1.53E2,9.71E2,3.53E2,4.99E2,2.23E2,2.76E2,5.1E2,8.2E1,7.67E2,1.24E2,2.04E2,2.1E1,9.73E2,1.18E2,3.5E1,1.37E2,3.62E2,6.8E1,1.55E2,2.8E1,2.48E2,1.9E1,4.91E2,3.8E1,4.4E1,6.3E2,1.37E2,5.6E1,6.8E1,1.3E1,1.91E2,1E0,2E1,6.13E2,3.6E2,7.7E1,6E1,2.35E2,1.27E2,6.6E1,2E0,1.39E2,1.6E1,7E0,2.1E1,1.85E2,6.3E1,1.1E1,8E0,1.98E2,2.93E2,9E0,2.9E1,1.8E1,2.6E1,2.54E2,3.76E2,1.7E1,1.2E2,4.5E1,1.1E1,1.3E1,5.5E1,3E0,1E1,6.6E1,1.25E2,2.55E2,3.58E2,1.1E2,2.5E2],"tree_param":{"num_deleted":"0","num_feature":"12","num_nodes":"85","size_leaf_vector":"1"}},{"base_weights":[9.7957265E-5,-8.453371E-2,1.988902E-1,-1.4079916E-1,-1.3517112E-2,1.6666557E-1,3.876708E-1,-1.5732513E-1,-1.1031822E-1,-2.832827E-2,1.3094857E-2,1.0514854E-1,1.843779E-1,4.8133366E-2,3.2377708E-1,-1.641438E-2,-1.4570919E-1,-1.1947242E-1,-8.9392245E-2,-4.7874432E-2,-1.7955659E-2,1.0983781E-1,7.2558555E-3,1.790751E-1,9.896449E-2,1.7604548E-1,2.2668225E-1,3.3145614E-2,2.1552578E-2,-1.3476851E-2,-1.4943691E-2,-1.0827368E-1,-1.2340067E-1,-6.468866E-2,-1.0090664E-1,-1.8336074E-2,-5.3237747E-2,6.1375514E-2,-2.1188514E-2,1.12680525E-1,9.435482E-4,-4.6431503E-4,3.8784184E-2,9.685097E-3,2.2854942E-1,8.796502E-2,1.3329662E-1,1.6409564E-1,1.8600626E-1,3.2967977E-2,2.1510287E-1,-1.1871884E-2,-9.921696E-3,-1.30197285E-2,-1.14828255E-2,-6.6208276E-3,-6.6550175E-4,-1.0498484E-2,-6.894523E-3,-4.098105E-3,-7.687436E-4,-6.6781202E-3,-4.306632E-3,-1.3524704E-3,7.901305E-3,-2.7500445E-3,-1.2375669E-3,7.1183513E-3,1.2145235E-2,-3.4559148E-4,2.3600066E-3,8.3392225E-3,3.233951E-3,5.6661414E-3,2.3815164E-2,7.13256E-3,9.768764E-3,1.4457007E-2,7.051863E-3,2.7130411E-3,1.6470958E-2,1.7820407E-2,1.9615963E-2,5.2244784E-3,2.158306E-2],"categories":[],"categories_nodes":[],"categories_segments":[],"categories_sizes":[],"default_left":[0,0,0,0,0,0,0,0,0,0,0,0,0,0,0,0,0,0,0,0,0,0,0,0,0,0,0,0,0,0,0,0,0,0,0,0,0,0,0,0,0,0,0,0,0,0,0,0,0,0,0,0,0,0,0,0,0,0,0,0,0,0,0,0,0,0,0,0,0,0,0,0,0,0,0,0,0,0,0,0,0,0,0,0,0],"id":2,"left_children":[1,3,5,7,9,11,13,15,17,19,21,23,25,-1,27,-1,29,31,33,35,37,39,41,43,45,47,49,-1,-1,-1,-1,51,53,55,57,59,61,63,65,67,-1,69,71,-1,73,75,77,79,81,-1,83,-1,-1,-1,-1,-1,-1,-1,-1,-1,-1,-1,-1,-1,-1,-1,-1,-1,-1,-1,-1,-1,-1,-1,-1,-1,-1,-1,-1,-1,-1,-1,-1,-1,-1],"loss_changes":[8.8006935E1,1.4658619E1,9.437622E0,1.013771E0,6.400831E-1,1.4363327E0,1.2026329E0,8.10318E-2,1.2781906E-1,2.1060312E-1,3.2739967E-1,1.1988473E-1,3.2527924E-1,0E0,4.327774E-2,0E0,2.117157E-4,8.635044E-3,5.718851E-2,5.621469E-2,1.764669E-1,8.355528E-3,1.3364685E-1,6.73604E-2,9.40125E-2,7.303238E-2,1.282568E-1,0E0,0E0,0E0,0E0,1.2756586E-3,6.19936E-3,6.085336E-3,1.2444019E-2,1.3429834E-2,3.9139688E-2,3.6737107E-2,3.6205977E-2,3.0027032E-3,0E0,3.1901576E-2,2.8351456E-2,0E0,7.962525E-3,2.7814746E-2,3.6514997E-2,2.9503822E-2,2.0389557E-3,0E0,6.8559647E-3,0E0,0E0,0E0,0E0,0E0,0E0,0E0,0E0,0E0,0E0,0E0,0E0,0E0,0E0,0E0,0E0,0E0,0E0,0E0,0E0,0E0,0E0,0E0,0E0,0E0,0E0,0E0,0E0,0E0,0E0,0E0,0E0,0E0,0E0],"parents":[2147483647,0,0,1,1,2,2,3,3,4,4,5,5,6,6,7,7,8,8,9,9,10,10,11,11,12,12,14,14,16,16,17,17,18,18,19,19,20,20,21,21,22,22,23,23,24,24,25,25,26,26,31,31,32,32,33,33,34,34,35,35,36,36,37,37,38,38,39,39,41,41,42,42,44,44,45,45,46,46,47,47,48,48,50,50],"right_children":[2,4,6,8,10,12,14,16,18,20,22,24,26,-1,28,-1,30,32,34,36,38,40,42,44,46,48,50,-1,-1,-1,-1,52,54,56,58,60,62,64,66,68,-1,70,72,-1,74,76,78,80,82,-1,84,-1,-1,-1,-1,-1,-1,-1,-1,-1,-1,-1,-1,-1,-1,-1,-1,-1,-1,-1,-1,-1,-1,-1,-1,-1,-1,-1,-1,-1,-1,-1,-1,-1,-1],"split_conditions":[2.9553902E-1,1.1710037E-1,5.613383E-1,4.6468403E-2,2.1003717E-1,3.7174723E-1,2.32342E-1,2.0446097E-2,8.73606E-2,1.6356878E-1,4.8327137E-2,1.6171004E-1,4.944238E-1,4.8133366E-2,7.6022303E-1,-1.641438E-2,2.4163568E-2,4.6468403E-2,4.4609666E-2,2.9739777E-2,2.6022306E-2,3.9033458E-2,2.788104E-1,2.4163568E-2,3.7546468E-1,4.2936802E-1,2.9739777E-2,3.3145614E-2,2.1552578E-2,-1.3476851E-2,-1.4943691E-2,5.9479553E-2,7.434944E-2,1.2639405E-1,1.4869888E-1,9.479554E-2,1.5241636E-1,8.178439E-2,2.007435E-1,9.29368E-3,9.435482E-4,2.5836432E-1,1.598513E-1,9.685097E-3,7.434944E-3,3.2156134E-1,4.832714E-1,5.5762082E-3,4.684015E-1,3.2967977E-2,1.858736E-2,-1.1871884E-2,-9.921696E-3,-1.30197285E-2,-1.14828255E-2,-6.6208276E-3,-6.6550175E-4,-1.0498484E-2,-6.894523E-3,-4.098105E-3,-7.687436E-4,-6.6781202E-3,-4.306632E-3,-1.3524704E-3,7.901305E-3,-2.7500445E-3,-1.2375669E-3,7.1183513E-3,1.2145235E-2,-3.4559148E-4,2.3600066E-3,8.3392225E-3,3.233951E-3,5.6661414E-3,2.3815164E-2,7.13256E-3,9.768764E-3,1.4457007E-2,7.051863E-3,2.7130411E-3,1.6470958E-2,1.7820407E-2,1.9615963E-2,5.2244784E-3,2.158306E-2],"split_indices":[11,11,11,11,11,11,4,11,11,11,3,9,11,0,1,0,0,2,1,0,4,1,10,4,10,11,2,0,0,0,0,11,10,10,10,10,10,9,10,3,0,11,3,0,0,11,3,0,2,0,0,0,0,0,0,0,0,0,0,0,0,0,0,0,0,0,0,0,0,0,0,0,0,0,0,0,0,0,0,0,0,0,0,0,0],"split_type":[0,0,0,0,0,0,0,0,0,0,0,0,0,0,0,0,0,0,0,0,0,0,0,0,0,0,0,0,0,0,0,0,0,0,0,0,0,0,0,0,0,0,0,0,0,0,0,0,0,0,0,0,0,0,0,0,0,0,0,0,0,0,0,0,0,0,0,0,0,0,0,0,0,0,0,0,0,0,0,0,0,0,0,0,0],"sum_hessian":[5.229E3,3.668E3,1.561E3,2.046E3,1.622E3,1.335E3,2.26E2,1.324E3,7.22E2,1.042E3,5.8E2,3E2,1.035E3,8.9E1,1.37E2,8.26E2,4.98E2,4.99E2,2.23E2,3.6E2,6.82E2,3.2E1,5.48E2,2.1E1,2.79E2,8.69E2,1.66E2,1.26E2,1.1E1,1.36E2,3.62E2,1.37E2,3.62E2,7.3E1,1.5E2,5.6E1,3.04E2,2.6E1,6.56E2,3.1E1,1E0,4.41E2,1.07E2,9E0,1.2E1,2.14E2,6.5E1,4.03E2,4.66E2,1.4E1,1.52E2,5.8E1,7.9E1,1.94E2,1.68E2,7.1E1,2E0,1.31E2,1.9E1,1.7E1,3.9E1,1.28E2,1.76E2,5E0,2.1E1,3.81E2,2.75E2,7E0,2.4E1,3.93E2,4.8E1,1.2E1,9.5E1,1E0,1.1E1,8.2E1,1.32E2,5.4E1,1.1E1,2E0,4.01E2,2.74E2,1.92E2,1E0,1.51E2],"tree_param":{"num_deleted":"0","num_feature":"12","num_nodes":"85","size_leaf_vector":"1"}},{"base_weights":[1.2668569E-4,-7.565606E-2,1.802635E-1,-1.2677583E-1,-1.1647608E-2,1.5111428E-1,3.493567E-1,-1.4083132E-1,-9.7806856E-2,-2.5508186E-2,1.2709683E-2,1.01236336E-1,1.6745472E-1,4.5078397E-1,3.0030465E-1,-1.4570566E-1,-1.2493965E-1,-1.0468042E-1,-7.672944E-2,-4.31309E-2,-1.6156346E-2,6.5346025E-2,3.5485239E-3,8.000592E-2,1.17329165E-1,2.8493533E-1,1.6462922E-1,1.7268417E-2,4.5626275E-2,3.1995252E-1,2.5225213E-2,-1.4926734E-2,-1.3954716E-2,-1.2525235E-2,-1.1030779E-3,-9.007415E-2,-1.0905975E-1,-5.3313702E-2,-8.639799E-2,-1.00899385E-2,-4.710142E-2,5.548051E-2,-1.9075735E-2,1.0478767E-1,4.6170413E-2,-5.593233E-3,2.236137E-2,1.0101803E-1,6.263056E-2,1.8272027E-1,1.12145126E-1,5.19654E-3,2.9355457E-2,1.5312058E-1,1.8374744E-1,1.4502838E-2,3.236039E-2,-9.632743E-3,-6.861041E-3,-1.1371697E-2,-9.9232765E-3,-6.1358106E-3,-3.31424E-3,-8.928757E-3,-5.0173197E-3,-3.991908E-3,-1.3851824E-4,-6.939622E-3,-4.141042E-3,-1.2397643E-3,7.1470886E-3,-2.417762E-3,-1.0051609E-3,6.495496E-3,1.1497215E-2,-7.695061E-4,6.0919295E-3,-1.5655042E-3,-8.824186E-5,-2.1095695E-3,2.4986907E-3,1.6897805E-2,9.239467E-3,5.442201E-3,1.1628988E-2,6.384468E-3,2.1525163E-2,7.793493E-3,1.2901875E-2,1.4229431E-2,1.6041419E-2,1.7661931E-2,2.090063E-2],"categories":[],"categories_nodes":[],"categories_segments":[],"categories_sizes":[],"default_left":[0,0,0,0,0,0,0,0,0,0,0,0,0,0,0,0,0,0,0,0,0,0,0,0,0,0,0,0,0,0,0,0,0,0,0,0,0,0,0,0,0,0,0,0,0,0,0,0,0,0,0,0,0,0,0,0,0,0,0,0,0,0,0,0,0,0,0,0,0,0,0,0,0,0,0,0,0,0,0,0,0,0,0,0,0,0,0,0,0,0,0,0,0],"id":3,"left_children":[1,3,5,7,9,11,13,15,17,19,21,23,25,27,29,31,33,35,37,39,41,43,45,47,49,51,53,-1,-1,55,-1,-1,-1,-1,-1,57,59,61,63,65,67,69,71,73,75,77,79,81,83,85,87,-1,-1,89,91,-1,-1,-1,-1,-1,-1,-1,-1,-1,-1,-1,-1,-1,-1,-1,-1,-1,-1,-1,-1,-1,-1,-1,-1,-1,-1,-1,-1,-1,-1,-1,-1,-1,-1,-1,-1,-1,-1],"loss_changes":[7.140974E1,1.2046383E1,7.5821266E0,8.197098E-1,5.526478E-1,1.061327E0,9.940014E-1,8.838081E-2,8.932543E-2,1.7119461E-1,2.8620082E-1,1.0301852E-1,2.8337288E-1,3.0914307E-2,6.657505E-2,2.1362305E-3,1.0372639E-2,2.2415161E-2,3.365481E-2,4.688424E-2,1.4389811E-1,6.1717838E-2,8.732017E-2,4.6611667E-2,4.2222023E-2,2.8921962E-2,1.8616867E-1,0E0,0E0,2.1411896E-2,0E0,0E0,0E0,0E0,0E0,9.765685E-3,6.2441826E-3,6.4042956E-3,7.871687E-3,1.033092E-2,3.798151E-2,3.0191801E-2,3.0005276E-2,3.8909316E-3,4.8930556E-2,1.6196754E-2,1.9467406E-2,2.1894097E-2,2.9789418E-2,3.2663554E-2,9.038639E-2,0E0,0E0,2.5655746E-2,2.8083801E-2,0E0,0E0,0E0,0E0,0E0,0E0,0E0,0E0,0E0,0E0,0E0,0E0,0E0,0E0,0E0,0E0,0E0,0E0,0E0,0E0,0E0,0E0,0E0,0E0,0E0,0E0,0E0,0E0,0E0,0E0,0E0,0E0,0E0,0E0,0E0,0E0,0E0,0E0],"parents":[2147483647,0,0,1,1,2,2,3,3,4,4,5,5,6,6,7,7,8,8,9,9,10,10,11,11,12,12,13,13,14,14,15,15,16,16,17,17,18,18,19,19,20,20,21,21,22,22,23,23,24,24,25,25,26,26,29,29,35,35,36,36,37,37,38,38,39,39,40,40,41,41,42,42,43,43,44,44,45,45,46,46,47,47,48,48,49,49,50,50,53,53,54,54],"right_children":[2,4,6,8,10,12,14,16,18,20,22,24,26,28,30,32,34,36,38,40,42,44,46,48,50,52,54,-1,-1,56,-1,-1,-1,-1,-1,58,60,62,64,66,68,70,72,74,76,78,80,82,84,86,88,-1,-1,90,92,-1,-1,-1,-1,-1,-1,-1,-1,-1,-1,-1,-1,-1,-1,-1,-1,-1,-1,-1,-1,-1,-1,-1,-1,-1,-1,-1,-1,-1,-1,-1,-1,-1,-1,-1,-1,-1,-1],"split_conditions":[2.992565E-1,1.1710037E-1,5.613383E-1,5.0185874E-2,2.1003717E-1,3.7918216E-1,2.32342E-1,2.9739777E-2,9.479554E-2,1.6356878E-1,1.2825279E-1,3.3643124E-1,9.665427E-2,7.620818E-2,5.0743496E-1,1.4869888E-2,1.598513E-1,3.717472E-2,3.9033458E-2,3.717472E-2,2.6022306E-2,3.1598512E-2,2.5836432E-1,2.2862454E-1,8.178439E-2,9.29368E-3,4.6096656E-1,1.7268417E-2,4.5626275E-2,5.4275095E-1,2.5225213E-2,-1.4926734E-2,-1.3954716E-2,-1.2525235E-2,-1.1030779E-3,7.8066915E-2,8.364312E-2,9.293681E-2,1.6171004E-1,8.178439E-2,1.3011153E-1,8.178439E-2,2.0446096E-1,9.29368E-3,1.8215613E-1,2.007435E-1,2.3605949E-1,1.0037175E-1,4.070632E-1,3.345725E-2,9.1078065E-2,5.19654E-3,2.9355457E-2,4.2565057E-1,5.0743496E-1,1.4502838E-2,3.236039E-2,-9.632743E-3,-6.861041E-3,-1.1371697E-2,-9.9232765E-3,-6.1358106E-3,-3.31424E-3,-8.928757E-3,-5.0173197E-3,-3.991908E-3,-1.3851824E-4,-6.939622E-3,-4.141042E-3,-1.2397643E-3,7.1470886E-3,-2.417762E-3,-1.0051609E-3,6.495496E-3,1.1497215E-2,-7.695061E-4,6.0919295E-3,-1.5655042E-3,-8.824186E-5,-2.1095695E-3,2.4986907E-3,1.6897805E-2,9.239467E-3,5.442201E-3,1.1628988E-2,6.384468E-3,2.1525163E-2,7.793493E-3,1.2901875E-2,1.4229431E-2,1.6041419E-2,1.7661931E-2,2.090063E-2],"split_indices":[11,11,11,11,11,11,5,11,11,11,1,11,6,6,1,11,6,0,0,5,4,2,9,6,7,2,10,0,0,9,0,0,0,0,0,11,10,10,10,10,11,9,10,3,10,9,8,8,10,5,0,0,0,11,11,0,0,0,0,0,0,0,0,0,0,0,0,0,0,0,0,0,0,0,0,0,0,0,0,0,0,0,0,0,0,0,0,0,0,0,0,0,0],"split_type":[0,0,0,0,0,0,0,0,0,0,0,0,0,0,0,0,0,0,0,0,0,0,0,0,0,0,0,0,0,0,0,0,0,0,0,0,0,0,0,0,0,0,0,0,0,0,0,0,0,0,0,0,0,0,0,0,0,0,0,0,0,0,0,0,0,0,0,0,0,0,0,0,0,0,0,0,0,0,0,0,0,0,0,0,0,0,0,0,0,0,0,0,0],"sum_hessian":[5.229E3,3.681E3,1.548E3,2.046E3,1.635E3,1.322E3,2.26E2,1.375E3,6.71E2,1.042E3,5.93E2,3.28E2,9.94E2,7.1E1,1.55E2,1.046E3,3.29E2,5.03E2,1.68E2,3.6E2,6.82E2,8.7E1,5.06E2,1.44E2,1.84E2,2.1E1,9.73E2,2E0,6.9E1,1.06E2,4.9E1,6.48E2,3.98E2,3.28E2,1E0,1.21E2,3.82E2,5.1E1,1.17E2,3.9E1,3.21E2,2.6E1,6.56E2,2.7E1,6E1,3.41E2,1.65E2,6.3E1,8.1E1,1.1E1,1.73E2,1E0,2E1,6.13E2,3.6E2,3E0,1.03E2,9.1E1,3E1,2.52E2,1.3E2,3.5E1,1.6E1,1.07E2,1E1,8E0,3.1E1,6.3E1,2.58E2,5E0,2.1E1,4.18E2,2.38E2,7E0,2E1,1.3E1,4.7E1,1.08E2,2.33E2,9E0,1.56E2,5E0,5.8E1,7.2E1,9E0,3E0,8E0,5.9E1,1.14E2,2.55E2,3.58E2,2.87E2,7.3E1],"tree_param":{"num_deleted":"0","num_feature":"12","num_nodes":"93","size_leaf_vector":"1"}},{"base_weights":[1.5910491E-4,-6.852866E-2,1.615005E-1,-1.1563659E-1,-1.2748656E-2,1.3529582E-1,3.1501567E-1,-1.2887283E-1,-9.392468E-2,-3.5132784E-2,1.2564452E-3,8.236207E-2,1.4875036E-1,4.0706003E-1,2.7051434E-1,-1.3304981E-2,-1.200688E-2,-1.0132862E-1,-7.9796135E-2,-5.2690256E-2,-2.633373E-2,7.9216376E-2,-2.5323534E-3,1.4551753E-1,7.706494E-2,1.3687982E-1,1.707372E-1,3.163841E-2,4.3142635E-1,2.836428E-1,2.1298569E-2,-9.037246E-2,-1.0516637E-1,-5.716589E-2,-8.558622E-2,-2.8594948E-2,-6.07943E-2,-5.914525E-3,-3.0594977E-2,8.439905E-2,1.1071227E-3,-1.1239473E-2,1.5428867E-2,8.202872E-3,2.0080347E-2,7.014918E-2,1.0936901E-1,1.2587498E-1,1.4475591E-1,2.7683986E-2,1.654593E-1,4.613359E-2,3.3155777E-2,1.5469071E-2,2.8776104E-2,-5.7070376E-3,-9.229824E-3,-1.1070236E-2,-9.7750975E-3,-3.6097243E-3,-6.1982037E-3,-8.814014E-3,-7.0371344E-3,-3.6319164E-3,-5.060814E-4,-7.126026E-3,-4.5958622E-3,-1.0498083E-3,2.9373977E-3,-4.222063E-3,-2.275672E-3,6.9484906E-3,1.1576581E-2,3.572488E-3,-2.2340424E-3,-2.190738E-3,-7.710701E-4,8.144577E-4,3.8204591E-3,8.459142E-3,6.038876E-3,1.2859853E-2,8.082514E-3,5.03073E-3,1.2751989E-2,1.4502175E-2,1.9475982E-3,1.5657924E-2,1.8449476E-2],"categories":[],"categories_nodes":[],"categories_segments":[],"categories_sizes":[],"default_left":[0,0,0,0,0,0,0,0,0,0,0,0,0,0,0,0,0,0,0,0,0,0,0,0,0,0,0,0,0,0,0,0,0,0,0,0,0,0,0,0,0,0,0,0,0,0,0,0,0,0,0,0,0,0,0,0,0,0,0,0,0,0,0,0,0,0,0,0,0,0,0,0,0,0,0,0,0,0,0,0,0,0,0,0,0,0,0,0,0],"id":4,"left_children":[1,3,5,7,9,11,13,15,17,19,21,23,25,27,29,-1,-1,31,33,35,37,39,41,43,45,47,49,-1,51,53,-1,55,57,59,61,63,65,67,69,71,73,75,77,-1,-1,79,81,83,85,-1,87,-1,-1,-1,-1,-1,-1,-1,-1,-1,-1,-1,-1,-1,-1,-1,-1,-1,-1,-1,-1,-1,-1,-1,-1,-1,-1,-1,-1,-1,-1,-1,-1,-1,-1,-1,-1,-1,-1],"loss_changes":[5.7970867E1,9.639484E0,6.2410164E0,5.5950356E-1,5.2702415E-1,9.3924713E-1,8.1970024E-1,2.9367447E-2,7.110214E-2,9.856689E-2,3.0591315E-1,8.0115914E-2,2.5432777E-1,2.2583961E-2,5.7408333E-2,0E0,0E0,1.1225224E-2,2.9830575E-2,4.024458E-2,3.7494898E-2,1.9337714E-2,1.5468723E-1,5.3729087E-2,4.907322E-2,4.2105675E-2,1.6083431E-1,0E0,8.338928E-3,2.133751E-2,0E0,3.3903122E-3,3.916025E-3,3.5464019E-3,1.9186735E-3,9.996034E-3,2.156806E-2,1.2601135E-2,3.1661898E-2,1.3007402E-2,4.044914E-3,2.4902388E-2,5.327616E-2,0E0,0E0,2.4775624E-2,1.3208032E-2,3.0626297E-2,1.0463715E-2,0E0,3.0949593E-2,0E0,0E0,0E0,0E0,0E0,0E0,0E0,0E0,0E0,0E0,0E0,0E0,0E0,0E0,0E0,0E0,0E0,0E0,0E0,0E0,0E0,0E0,0E0,0E0,0E0,0E0,0E0,0E0,0E0,0E0,0E0,0E0,0E0,0E0,0E0,0E0,0E0,0E0],"parents":[2147483647,0,0,1,1,2,2,3,3,4,4,5,5,6,6,7,7,8,8,9,9,10,10,11,11,12,12,13,13,14,14,17,17,18,18,19,19,20,20,21,21,22,22,23,23,24,24,25,25,26,26,28,28,29,29,31,31,32,32,33,33,34,34,35,35,36,36,37,37,38,38,39,39,40,40,41,41,42,42,45,45,46,46,47,47,48,48,50,50],"right_children":[2,4,6,8,10,12,14,16,18,20,22,24,26,28,30,-1,-1,32,34,36,38,40,42,44,46,48,50,-1,52,54,-1,56,58,60,62,64,66,68,70,72,74,76,78,-1,-1,80,82,84,86,-1,88,-1,-1,-1,-1,-1,-1,-1,-1,-1,-1,-1,-1,-1,-1,-1,-1,-1,-1,-1,-1,-1,-1,-1,-1,-1,-1,-1,-1,-1,-1,-1,-1,-1,-1,-1,-1,-1,-1],"split_conditions":[2.9553902E-1,1.0966543E-1,5.613383E-1,4.0892195E-2,1.802974E-1,3.66171E-1,1.5613383E-1,2.0446097E-2,7.8066915E-2,1.4126395E-1,2.6022306E-2,1.6171004E-1,4.6096656E-1,4.070632E-1,5.8178437E-1,-1.3304981E-2,-1.200688E-2,3.9033458E-2,2.9739777E-2,3.717472E-2,1.3197026E-1,2.6022306E-2,2.2862454E-1,2.6022306E-2,3.866171E-1,4.2007434E-1,2.9739777E-2,3.163841E-2,2.5464684E-1,5.4275095E-1,2.1298569E-2,5.5762082E-3,7.434944E-2,3.717472E-3,1.2639405E-1,1.3011153E-1,1.4869888E-1,1.7286246E-1,1.7100371E-1,3.1598512E-2,1.3011153E-2,1.8215613E-1,2.881041E-1,8.202872E-3,2.0080347E-2,2.2862454E-1,4.163569E-1,9.29368E-3,8.085502E-1,2.7683986E-2,5E-1,4.613359E-2,3.3155777E-2,1.5469071E-2,2.8776104E-2,-5.7070376E-3,-9.229824E-3,-1.1070236E-2,-9.7750975E-3,-3.6097243E-3,-6.1982037E-3,-8.814014E-3,-7.0371344E-3,-3.6319164E-3,-5.060814E-4,-7.126026E-3,-4.5958622E-3,-1.0498083E-3,2.9373977E-3,-4.222063E-3,-2.275672E-3,6.9484906E-3,1.1576581E-2,3.572488E-3,-2.2340424E-3,-2.190738E-3,-7.710701E-4,8.144577E-4,3.8204591E-3,8.459142E-3,6.038876E-3,1.2859853E-2,8.082514E-3,5.03073E-3,1.2751989E-2,1.4502175E-2,1.9475982E-3,1.5657924E-2,1.8449476E-2],"split_indices":[11,11,11,11,11,11,4,11,11,11,1,9,11,9,1,0,0,0,0,0,0,0,11,4,10,10,2,0,6,9,0,6,9,0,10,11,10,11,10,5,1,10,10,0,0,6,2,0,3,0,9,0,0,0,0,0,0,0,0,0,0,0,0,0,0,0,0,0,0,0,0,0,0,0,0,0,0,0,0,0,0,0,0,0,0,0,0,0,0],"split_type":[0,0,0,0,0,0,0,0,0,0,0,0,0,0,0,0,0,0,0,0,0,0,0,0,0,0,0,0,0,0,0,0,0,0,0,0,0,0,0,0,0,0,0,0,0,0,0,0,0,0,0,0,0,0,0,0,0,0,0,0,0,0,0,0,0,0,0,0,0,0,0,0,0,0,0,0,0,0,0,0,0,0,0,0,0,0,0,0,0],"sum_hessian":[5.229E3,3.668E3,1.561E3,1.988E3,1.68E3,1.335E3,2.26E2,1.232E3,7.56E2,6.46E2,1.034E3,2.72E2,1.063E3,7.1E1,1.55E2,8.26E2,4.06E2,4.92E2,2.64E2,2.14E2,4.32E2,4.7E1,9.87E2,1.9E1,2.53E2,6.95E2,3.68E2,1.8E1,5.3E1,1.23E2,3.2E1,1.34E2,3.58E2,5.6E1,2.08E2,5.5E1,1.59E2,7.5E1,3.57E2,4.4E1,3E0,6.65E2,3.22E2,1E1,9E0,2.11E2,4.2E1,2.97E2,3.98E2,1.5E1,3.53E2,3.8E1,1.5E1,5E0,1.18E2,9E0,1.25E2,1.97E2,1.61E2,1.2E1,4.4E1,1.74E2,3.4E1,4.1E1,1.4E1,9.1E1,6.8E1,6.7E1,8E0,1.42E2,2.15E2,3.2E1,1.2E1,1E0,2E0,1.64E2,5.01E2,2.45E2,7.7E1,8.2E1,1.29E2,2.3E1,1.9E1,7E0,2.9E2,3.97E2,1E0,2.47E2,1.06E2],"tree_param":{"num_deleted":"0","num_feature":"12","num_nodes":"89","size_leaf_vector":"1"}},{"base_weights":[1.9109706E-4,-6.1333317E-2,1.4643559E-1,-1.0279568E-1,-9.417188E-3,1.2267161E-1,2.842915E-1,-1.14176884E-1,-7.933834E-2,-2.5048802E-2,5.0669257E-3,8.229626E-2,1.3589856E-1,3.548116E-1,2.3624006E-1,-1.1814317E-1,-1.01246946E-1,-8.388418E-2,-5.836641E-2,-3.8928486E-2,-1.8399946E-2,5.752416E-2,-6.0887827E-4,5.891068E-2,9.2544794E-2,2.3601003E-1,1.3349779E-1,1.4007962E-2,3.581001E-1,2.4397583E-1,1.6682802E-2,-1.2139797E-2,-1.12893935E-2,-1.01524636E-1,-4.944123E-4,-7.294649E-2,-8.769285E-2,-3.753502E-2,-6.795341E-2,-1.1862919E-2,-4.3057423E-2,1.19979745E-2,-2.075301E-2,7.921437E-2,3.8355634E-2,-5.759195E-3,2.294517E-2,7.11685E-2,3.306211E-2,1.5271696E-1,8.7258205E-2,4.685177E-3,2.4278654E-2,1.2612748E-1,1.552703E-1,3.8610825E-1,2.9971955E-2,1.592419E-2,2.4852522E-2,-4.016055E-3,-1.0177714E-2,-8.817329E-3,-6.7076543E-3,-9.3748E-3,-8.107812E-3,-3.933831E-3,-1.580576E-4,-7.2823153E-3,-4.3009887E-3,-3.4910615E-3,-2.542154E-4,-5.982039E-3,-3.548485E-3,3.2970333E-4,5.1302705E-3,-2.8837156E-3,-1.5464396E-3,5.55743E-3,9.992949E-3,-2.4876252E-4,6.718932E-3,-1.0004151E-3,5.359114E-4,4.940133E-3,1.8819914E-3,8.137775E-3,6.013948E-3,2.9742156E-4,5.070613E-3,6.8809167E-3,1.8194446E-2,6.465673E-3,1.0112382E-2,1.1666409E-2,1.3317741E-2,1.4991179E-2,1.9087052E-2,2.9538635E-2,4.1501235E-2],"categories":[],"categories_nodes":[],"categories_segments":[],"categories_sizes":[],"default_left":[0,0,0,0,0,0,0,0,0,0,0,0,0,0,0,0,0,0,0,0,0,0,0,0,0,0,0,0,0,0,0,0,0,0,0,0,0,0,0,0,0,0,0,0,0,0,0,0,0,0,0,0,0,0,0,0,0,0,0,0,0,0,0,0,0,0,0,0,0,0,0,0,0,0,0,0,0,0,0,0,0,0,0,0,0,0,0,0,0,0,0,0,0,0,0,0,0,0,0],"id":5,"left_children":[1,3,5,7,9,11,13,15,17,19,21,23,25,27,29,31,33,35,37,39,41,43,45,47,49,51,53,-1,55,57,-1,-1,-1,59,-1,61,63,65,67,69,71,73,75,77,79,81,83,85,87,89,91,-1,-1,93,95,97,-1,-1,-1,-1,-1,-1,-1,-1,-1,-1,-1,-1,-1,-1,-1,-1,-1,-1,-1,-1,-1,-1,-1,-1,-1,-1,-1,-1,-1,-1,-1,-1,-1,-1,-1,-1,-1,-1,-1,-1,-1,-1,-1],"loss_changes":[4.706646E1,7.924778E0,5.039654E0,5.374336E-1,3.7053376E-1,6.9535637E-1,6.853905E-1,5.8605194E-2,5.9168816E-2,7.1911246E-2,2.5311148E-1,7.339883E-2,2.0763588E-1,1.3389587E-2,3.339815E-2,4.184723E-3,8.322954E-3,1.6515017E-2,2.2013783E-2,2.7874231E-2,3.8445055E-2,3.1470537E-2,9.329884E-2,3.0282259E-2,5.8884144E-2,1.6825318E-2,1.3671303E-1,0E0,2.8167725E-2,7.4539185E-3,0E0,0E0,0E0,1.0101795E-3,0E0,7.3140264E-3,8.54063E-3,2.5961138E-3,6.9497824E-3,7.430027E-3,2.5803804E-2,1.3168392E-2,2.076E-2,1.3055354E-2,5.4339588E-2,2.9834753E-2,1.4131382E-2,2.8752387E-3,1.8429685E-2,2.9171556E-2,5.958569E-2,0E0,0E0,3.3366203E-2,1.7551422E-2,2.4256706E-2,0E0,0E0,0E0,0E0,0E0,0E0,0E0,0E0,0E0,0E0,0E0,0E0,0E0,0E0,0E0,0E0,0E0,0E0,0E0,0E0,0E0,0E0,0E0,0E0,0E0,0E0,0E0,0E0,0E0,0E0,0E0,0E0,0E0,0E0,0E0,0E0,0E0,0E0,0E0,0E0,0E0,0E0,0E0],"parents":[2147483647,0,0,1,1,2,2,3,3,4,4,5,5,6,6,7,7,8,8,9,9,10,10,11,11,12,12,13,13,14,14,15,15,16,16,17,17,18,18,19,19,20,20,21,21,22,22,23,23,24,24,25,25,26,26,28,28,29,29,33,33,35,35,36,36,37,37,38,38,39,39,40,40,41,41,42,42,43,43,44,44,45,45,46,46,47,47,48,48,49,49,50,50,53,53,54,54,55,55],"right_children":[2,4,6,8,10,12,14,16,18,20,22,24,26,28,30,32,34,36,38,40,42,44,46,48,50,52,54,-1,56,58,-1,-1,-1,60,-1,62,64,66,68,70,72,74,76,78,80,82,84,86,88,90,92,-1,-1,94,96,98,-1,-1,-1,-1,-1,-1,-1,-1,-1,-1,-1,-1,-1,-1,-1,-1,-1,-1,-1,-1,-1,-1,-1,-1,-1,-1,-1,-1,-1,-1,-1,-1,-1,-1,-1,-1,-1,-1,-1,-1,-1,-1,-1],"split_conditions":[2.992565E-1,1.1710037E-1,5.613383E-1,5.0185874E-2,1.9330855E-1,3.7918216E-1,2.32342E-1,2.9739777E-2,1.0037175E-1,1.5241636E-1,7.992565E-2,3.2527882E-1,9.665427E-2,7.620818E-2,7.230483E-1,1.4869888E-2,1.598513E-1,4.6468403E-2,3.9033458E-2,2.9739777E-2,1.0037175E-1,3.1598512E-2,2.639405E-1,2.67658E-1,1.6914499E-1,9.29368E-3,4.795539E-1,1.4007962E-2,2.6951674E-1,5.613383E-1,1.6682802E-2,-1.2139797E-2,-1.12893935E-2,3.717472E-3,-4.944123E-4,4.0892195E-2,7.249071E-2,1.2639405E-1,1.4869888E-1,8.178439E-2,1.3754646E-1,1.2267658E-1,1.7657992E-1,6.877323E-2,1.8773234E-1,2.3420075E-1,1.8587361E-1,2.825279E-1,3.2156134E-1,3.345725E-2,3.494424E-1,4.685177E-3,2.4278654E-2,4.2936802E-1,5.613383E-1,4.070632E-1,2.9971955E-2,1.592419E-2,2.4852522E-2,-4.016055E-3,-1.0177714E-2,-8.817329E-3,-6.7076543E-3,-9.3748E-3,-8.107812E-3,-3.933831E-3,-1.580576E-4,-7.2823153E-3,-4.3009887E-3,-3.4910615E-3,-2.542154E-4,-5.982039E-3,-3.548485E-3,3.2970333E-4,5.1302705E-3,-2.8837156E-3,-1.5464396E-3,5.55743E-3,9.992949E-3,-2.4876252E-4,6.718932E-3,-1.0004151E-3,5.359114E-4,4.940133E-3,1.8819914E-3,8.137775E-3,6.013948E-3,2.9742156E-4,5.070613E-3,6.8809167E-3,1.8194446E-2,6.465673E-3,1.0112382E-2,1.1666409E-2,1.3317741E-2,1.4991179E-2,1.9087052E-2,2.9538635E-2,4.1501235E-2],"split_indices":[11,11,11,11,11,11,4,11,11,11,1,11,6,6,1,10,6,2,0,3,7,3,10,3,9,2,10,0,6,9,0,0,0,6,0,10,11,10,10,10,10,9,10,8,10,9,2,8,10,5,10,0,0,11,10,9,0,0,0,0,0,0,0,0,0,0,0,0,0,0,0,0,0,0,0,0,0,0,0,0,0,0,0,0,0,0,0,0,0,0,0,0,0,0,0,0,0,0,0],"split_type":[0,0,0,0,0,0,0,0,0,0,0,0,0,0,0,0,0,0,0,0,0,0,0,0,0,0,0,0,0,0,0,0,0,0,0,0,0,0,0,0,0,0,0,0,0,0,0,0,0,0,0,0,0,0,0,0,0,0,0,0,0,0,0,0,0,0,0,0,0,0,0,0,0,0,0,0,0,0,0,0,0,0,0,0,0,0,0,0,0,0,0,0,0,0,0,0,0,0,0],"sum_hessian":[5.229E3,3.681E3,1.548E3,2.046E3,1.635E3,1.322E3,2.26E2,1.375E3,6.71E2,7.86E2,8.49E2,3.28E2,9.94E2,8.9E1,1.37E2,1.046E3,3.29E2,5.49E2,1.22E2,2.53E2,5.33E2,8.2E1,7.67E2,1.02E2,2.26E2,2.1E1,9.73E2,2E0,8.7E1,1.21E2,1.6E1,6.32E2,4.14E2,3.28E2,1E0,1.47E2,4.02E2,4E1,8.2E1,3.4E1,2.19E2,3.8E1,4.95E2,3.7E1,4.5E1,6.3E2,1.37E2,6.8E1,3.4E1,1.6E1,2.1E2,1E0,2E1,7.32E2,2.41E2,5.5E1,3.2E1,8E0,1.13E2,2E0,3.26E2,3.7E1,1.1E2,2.03E2,1.99E2,3.8E1,2E0,6.7E1,1.5E1,9E0,2.5E1,6.6E1,1.53E2,3.2E1,6E0,1.94E2,3.01E2,1.9E1,1.8E1,1.9E1,2.6E1,4.56E2,1.74E2,1.7E1,1.2E2,3.2E1,3.6E1,1.3E1,2.1E1,5E0,1.1E1,8.2E1,1.28E2,3.2E2,4.12E2,2.14E2,2.7E1,1.6E1,3.9E1],"tree_param":{"num_deleted":"0","num_feature":"12","num_nodes":"99","size_leaf_vector":"1"}},{"base_weights":[2.1998346E-4,-5.5554196E-2,1.3122846E-1,-9.255852E-2,-8.848465E-3,1.0982456E-1,2.566222E-1,-1.027869E-1,-7.147695E-2,-1.8821497E-2,9.070157E-3,6.3377656E-2,1.1993759E-1,3.1945932E-1,2.1222779E-1,-1.0635123E-1,-9.116676E-2,-7.8406334E-2,-6.0124677E-2,-3.1898927E-2,-1.1881856E-2,7.757831E-2,4.9356595E-3,1.128107E-1,5.888167E-2,1.1127895E-1,1.4192794E-1,3.4350204E-1,2.7048966E-2,2.1767217E-1,1.3782987E-2,-1.1037563E-2,-1.0258478E-2,-9.141531E-2,-4.6969205E-4,-5.897854E-3,-7.982483E-2,-4.427297E-2,-6.788529E-2,-1.6600028E-2,-3.7696976E-2,4.1711055E-2,-1.406622E-2,7.943604E-2,9.065621E-4,1.7226177E-4,3.0228963E-2,6.7516364E-2,1.5563592E-2,6.4370856E-2,3.369327E-2,9.761709E-2,1.1755921E-1,1.924202E-2,1.33832E-1,2.5942892E-2,3.7484925E-2,1.0661032E-2,2.1952933E-2,-8.228934E-3,-9.471553E-3,-8.109419E-3,-6.0834964E-3,-3.165268E-3,-4.9340106E-3,-7.0405253E-3,-4.5213304E-3,-3.1438896E-3,-9.5794006E-4,-6.3388534E-3,-3.3437714E-3,-1.716886E-3,5.2697514E-3,-1.7272206E-3,-4.3233912E-4,4.3769632E-3,8.59833E-3,-2.0710284E-4,2.1055958E-3,6.0182507E-3,2.4633964E-3,2.6923649E-3,7.354545E-3,5.887568E-3,8.364531E-3,2.4705918E-3,7.51006E-3,1.684746E-2,9.40373E-3,5.6149242E-3,1.1838176E-2,1.1357795E-2,1.4115217E-2],"categories":[],"categories_nodes":[],"categories_segments":[],"categories_sizes":[],"default_left":[0,0,0,0,0,0,0,0,0,0,0,0,0,0,0,0,0,0,0,0,0,0,0,0,0,0,0,0,0,0,0,0,0,0,0,0,0,0,0,0,0,0,0,0,0,0,0,0,0,0,0,0,0,0,0,0,0,0,0,0,0,0,0,0,0,0,0,0,0,0,0,0,0,0,0,0,0,0,0,0,0,0,0,0,0,0,0,0,0,0,0,0,0],"id":6,"left_children":[1,3,5,7,9,11,13,15,17,19,21,23,25,27,29,31,33,35,37,39,41,43,45,47,49,51,53,55,-1,57,-1,-1,-1,59,-1,-1,61,63,65,67,69,71,73,75,-1,77,79,81,-1,83,85,87,89,-1,91,-1,-1,-1,-1,-1,-1,-1,-1,-1,-1,-1,-1,-1,-1,-1,-1,-1,-1,-1,-1,-1,-1,-1,-1,-1,-1,-1,-1,-1,-1,-1,-1,-1,-1,-1,-1,-1,-1],"loss_changes":[3.822233E1,6.3403635E0,4.164089E0,4.340477E-1,2.9020566E-1,6.199436E-1,5.65444E-1,4.729557E-2,4.8148394E-2,9.427601E-2,1.6418353E-1,4.6919823E-2,1.9289303E-1,1.5404701E-2,2.508545E-2,4.548073E-3,6.663084E-3,6.7009926E-3,2.8856397E-2,3.139627E-2,8.054307E-2,3.480032E-3,6.6139445E-2,2.6347086E-2,2.8663993E-2,5.639267E-2,9.933519E-2,5.5609703E-2,0E0,2.377987E-3,0E0,0E0,0E0,2.1145344E-3,0E0,0E0,4.2989254E-3,4.065737E-3,6.6435933E-3,1.0220828E-2,2.6440918E-2,1.8370569E-2,2.0446956E-2,3.7090927E-3,0E0,2.173432E-2,1.30978E-2,7.119961E-4,0E0,1.4352202E-2,1.377454E-2,4.8839092E-2,2.0478249E-2,0E0,2.3554325E-2,0E0,0E0,0E0,0E0,0E0,0E0,0E0,0E0,0E0,0E0,0E0,0E0,0E0,0E0,0E0,0E0,0E0,0E0,0E0,0E0,0E0,0E0,0E0,0E0,0E0,0E0,0E0,0E0,0E0,0E0,0E0,0E0,0E0,0E0,0E0,0E0,0E0,0E0],"parents":[2147483647,0,0,1,1,2,2,3,3,4,4,5,5,6,6,7,7,8,8,9,9,10,10,11,11,12,12,13,13,14,14,15,15,16,16,17,17,18,18,19,19,20,20,21,21,22,22,23,23,24,24,25,25,26,26,27,27,29,29,33,33,36,36,37,37,38,38,39,39,40,40,41,41,42,42,43,43,45,45,46,46,47,47,49,49,50,50,51,51,52,52,54,54],"right_children":[2,4,6,8,10,12,14,16,18,20,22,24,26,28,30,32,34,36,38,40,42,44,46,48,50,52,54,56,-1,58,-1,-1,-1,60,-1,-1,62,64,66,68,70,72,74,76,-1,78,80,82,-1,84,86,88,90,-1,92,-1,-1,-1,-1,-1,-1,-1,-1,-1,-1,-1,-1,-1,-1,-1,-1,-1,-1,-1,-1,-1,-1,-1,-1,-1,-1,-1,-1,-1,-1,-1,-1,-1,-1,-1,-1,-1,-1],"split_conditions":[2.9553902E-1,1.1710037E-1,5.613383E-1,5.0185874E-2,2.1003717E-1,3.5873607E-1,2.3791821E-1,2.9739777E-2,8.364312E-2,1.6356878E-1,4.8327137E-2,1.6171004E-1,4.684015E-1,2.6951674E-1,7.6022303E-1,1.11524165E-2,1.598513E-1,7.434944E-3,8.921933E-2,1.3568774E-1,2.6022306E-2,3.9033458E-2,2.881041E-1,9.29368E-3,4.275093E-1,4.0520447E-1,3.5687733E-1,5.613383E-1,2.7048966E-2,4.7397768E-1,1.3782987E-2,-1.1037563E-2,-1.0258478E-2,2.4163568E-2,-4.6969205E-4,-5.897854E-3,1.0594796E-1,1.6728625E-2,1.4869888E-1,1.3011153E-1,1.3011153E-1,6.877323E-2,2.1561338E-1,2.4163568E-2,9.065621E-4,3.7174723E-1,1.8959108E-1,1.3011153E-2,1.5563592E-2,3.66171E-1,3.5315984E-1,1.2639405E-1,3.605948E-1,1.924202E-2,4.4423792E-1,2.5942892E-2,3.7484925E-2,1.0661032E-2,2.1952933E-2,-8.228934E-3,-9.471553E-3,-8.109419E-3,-6.0834964E-3,-3.165268E-3,-4.9340106E-3,-7.0405253E-3,-4.5213304E-3,-3.1438896E-3,-9.5794006E-4,-6.3388534E-3,-3.3437714E-3,-1.716886E-3,5.2697514E-3,-1.7272206E-3,-4.3233912E-4,4.3769632E-3,8.59833E-3,-2.0710284E-4,2.1055958E-3,6.0182507E-3,2.4633964E-3,2.6923649E-3,7.354545E-3,5.887568E-3,8.364531E-3,2.4705918E-3,7.51006E-3,1.684746E-2,9.40373E-3,5.6149242E-3,1.1838176E-2,1.1357795E-2,1.4115217E-2],"split_indices":[11,11,11,11,11,11,4,11,11,11,3,9,11,6,1,11,6,1,0,0,4,1,10,1,1,0,0,10,0,7,0,0,0,0,0,0,10,5,10,11,10,9,10,5,0,6,3,4,0,10,11,8,2,0,3,0,0,0,0,0,0,0,0,0,0,0,0,0,0,0,0,0,0,0,0,0,0,0,0,0,0,0,0,0,0,0,0,0,0,0,0,0,0],"split_type":[0,0,0,0,0,0,0,0,0,0,0,0,0,0,0,0,0,0,0,0,0,0,0,0,0,0,0,0,0,0,0,0,0,0,0,0,0,0,0,0,0,0,0,0,0,0,0,0,0,0,0,0,0,0,0,0,0,0,0,0,0,0,0,0,0,0,0,0,0,0,0,0,0,0,0,0,0,0,0,0,0,0,0,0,0,0,0,0,0,0,0,0,0],"sum_hessian":[5.229E3,3.668E3,1.561E3,2.046E3,1.622E3,1.335E3,2.26E2,1.375E3,6.71E2,1.042E3,5.8E2,2.4E2,1.095E3,9.1E1,1.35E2,1.046E3,3.29E2,4.13E2,2.58E2,3.6E2,6.82E2,3.2E1,5.48E2,1.8E1,2.22E2,7.9E2,3.05E2,5.7E1,3.4E1,1.24E2,1.1E1,4.92E2,5.54E2,3.28E2,1E0,3.1E1,3.82E2,8.7E1,1.71E2,1E2,2.6E2,2.6E1,6.56E2,3.1E1,1E0,4.62E2,8.6E1,1E1,8E0,1.81E2,4.1E1,2.54E2,5.36E2,3.9E1,2.66E2,1.8E1,3.9E1,3E0,1.21E2,9.4E1,2.34E2,3.55E2,2.7E1,2.7E1,6E1,1.52E2,1.9E1,3.1E1,6.9E1,3.5E1,2.25E2,4E0,2.2E1,4.93E2,1.63E2,6E0,2.5E1,4.18E2,4.4E1,1.2E1,7.4E1,2E0,8E0,1.44E2,3.7E1,3.5E1,6E0,1E1,2.44E2,8E0,5.28E2,7.5E1,1.91E2],"tree_param":{"num_deleted":"0","num_feature":"12","num_nodes":"93","size_leaf_vector":"1"}},{"base_weights":[2.3771683E-4,-5.146986E-2,1.1498066E-1,-8.495009E-2,-1.1506526E-2,9.598198E-2,2.3156294E-1,-9.407276E-2,-6.9425166E-2,-2.9122708E-2,-2.1136368E-3,5.2249752E-2,1.08024515E-1,2.8849682E-1,1.9134617E-1,-9.79029E-3,-8.848792E-2,-7.6277E-2,-6.2249053E-2,-4.4748463E-2,-2.2892794E-2,6.2313862E-2,-4.6662614E-3,7.232324E-2,4.1906178E-2,9.901359E-2,1.2550941E-1,3.1024542E-1,2.4421353E-2,1.9762754E-1,1.3575139E-2,-8.1517436E-2,-9.1045775E-2,-6.1538685E-2,-7.85542E-2,-4.6069533E-2,-6.563491E-2,-2.7489116E-2,-5.4900255E-2,3.1647347E-3,-2.5633138E-2,3.4200437E-3,6.687337E-2,-9.074754E-3,8.096133E-3,9.891771E-2,6.287215E-2,3.3023726E-2,6.580362E-2,8.615463E-2,1.0520014E-1,2.1637484E-2,1.215835E-1,2.3426931E-2,3.3857796E-2,1.293373E-2,2.0135062E-2,-8.227921E-3,-4.342714E-3,-9.23854E-3,-7.4176393E-3,-3.81427E-3,-6.4778365E-3,-8.644032E-3,-7.542128E-3,-1.7909572E-3,-4.8084124E-3,-6.729395E-3,-5.1293103E-3,-1.8789191E-3,-3.5058137E-3,-6.2002344E-3,-3.8386795E-3,-6.207349E-5,5.0059105E-3,-2.8260422E-3,-2.475558E-4,2.1725358E-3,-9.923513E-4,-7.9967827E-4,6.9113015E-3,-1.4783299E-3,-5.411694E-4,2.8176012E-3,4.4174996E-4,6.744427E-3,1.3938344E-2,2.0150791E-3,6.552223E-3,9.77668E-4,3.8754016E-3,8.216179E-3,4.1932496E-3,1.4348969E-2,8.306481E-3,4.677509E-3,1.0595473E-2,1.1806651E-2,1.5856588E-2],"categories":[],"categories_nodes":[],"categories_segments":[],"categories_sizes":[],"default_left":[0,0,0,0,0,0,0,0,0,0,0,0,0,0,0,0,0,0,0,0,0,0,0,0,0,0,0,0,0,0,0,0,0,0,0,0,0,0,0,0,0,0,0,0,0,0,0,0,0,0,0,0,0,0,0,0,0,0,0,0,0,0,0,0,0,0,0,0,0,0,0,0,0,0,0,0,0,0,0,0,0,0,0,0,0,0,0,0,0,0,0,0,0,0,0,0,0,0,0],"id":7,"left_children":[1,3,5,7,9,11,13,15,17,19,21,23,25,27,29,-1,31,33,35,37,39,41,43,45,47,49,51,53,-1,55,-1,57,59,61,63,65,67,69,71,73,75,77,79,81,83,85,87,89,91,93,95,-1,97,-1,-1,-1,-1,-1,-1,-1,-1,-1,-1,-1,-1,-1,-1,-1,-1,-1,-1,-1,-1,-1,-1,-1,-1,-1,-1,-1,-1,-1,-1,-1,-1,-1,-1,-1,-1,-1,-1,-1,-1,-1,-1,-1,-1,-1,-1],"loss_changes":[3.1035925E1,4.823785E0,3.5770035E0,2.7134418E-1,2.7213144E-1,7.311344E-1,4.645586E-1,1.7710686E-2,3.1145811E-2,5.4658085E-2,1.7691997E-1,6.008929E-2,1.6025352E-1,1.2839317E-2,2.0664692E-2,0E0,1.7066002E-3,7.5502396E-3,1.6807199E-2,2.6875407E-2,2.9429242E-2,1.0780901E-2,5.8249332E-2,1.941824E-2,4.0917277E-2,4.8850536E-2,1.053257E-1,4.5531273E-2,0E0,4.4674873E-3,0E0,6.9224834E-4,1.4183521E-3,1.6221106E-3,1.287818E-3,2.8830618E-3,3.6150217E-3,3.4239776E-3,9.465188E-3,7.131762E-3,2.2563085E-2,1.1926236E-3,6.924629E-3,1.6000353E-2,1.9524025E-2,2.2439271E-2,7.5104535E-3,1.9602954E-2,1.7641097E-2,3.0952692E-2,1.6514301E-2,0E0,2.7582169E-2,0E0,0E0,0E0,0E0,0E0,0E0,0E0,0E0,0E0,0E0,0E0,0E0,0E0,0E0,0E0,0E0,0E0,0E0,0E0,0E0,0E0,0E0,0E0,0E0,0E0,0E0,0E0,0E0,0E0,0E0,0E0,0E0,0E0,0E0,0E0,0E0,0E0,0E0,0E0,0E0,0E0,0E0,0E0,0E0,0E0,0E0],"parents":[2147483647,0,0,1,1,2,2,3,3,4,4,5,5,6,6,7,7,8,8,9,9,10,10,11,11,12,12,13,13,14,14,16,16,17,17,18,18,19,19,20,20,21,21,22,22,23,23,24,24,25,25,26,26,27,27,29,29,31,31,32,32,33,33,34,34,35,35,36,36,37,37,38,38,39,39,40,40,41,41,42,42,43,43,44,44,45,45,46,46,47,47,48,48,49,49,50,50,52,52],"right_children":[2,4,6,8,10,12,14,16,18,20,22,24,26,28,30,-1,32,34,36,38,40,42,44,46,48,50,52,54,-1,56,-1,58,60,62,64,66,68,70,72,74,76,78,80,82,84,86,88,90,92,94,96,-1,98,-1,-1,-1,-1,-1,-1,-1,-1,-1,-1,-1,-1,-1,-1,-1,-1,-1,-1,-1,-1,-1,-1,-1,-1,-1,-1,-1,-1,-1,-1,-1,-1,-1,-1,-1,-1,-1,-1,-1,-1,-1,-1,-1,-1,-1,-1],"split_conditions":[2.788104E-1,1.0594796E-1,5.613383E-1,4.0892195E-2,1.7286246E-1,3.5873607E-1,2.3791821E-1,1.6728625E-2,6.69145E-2,1.3011153E-1,2.2304833E-2,2.1561338E-1,4.6096656E-1,2.6951674E-1,7.230483E-1,-9.79029E-3,2.4163568E-2,1.11524165E-2,3.5315987E-2,6.3197024E-2,2.6022306E-2,4.8327137E-2,2.2862454E-1,1.7100371E-1,3.66171E-1,4.0520447E-1,2.6022306E-2,4.070632E-1,2.4421353E-2,5.613383E-1,1.3575139E-2,5.5762082E-2,7.063197E-2,5.5762082E-3,4.4609666E-2,1.858736E-3,1.1895911E-1,2.6022306E-2,1.4869888E-1,3.1598512E-2,2.1003717E-1,7.434944E-3,3.717472E-3,1.9144982E-1,1.2825279E-1,3.717472E-2,2.3420075E-1,2.881041E-1,4.182156E-1,1.8215613E-1,3.605948E-1,2.1637484E-2,5.613383E-1,2.3426931E-2,3.3857796E-2,1.293373E-2,2.0135062E-2,-8.227921E-3,-4.342714E-3,-9.23854E-3,-7.4176393E-3,-3.81427E-3,-6.4778365E-3,-8.644032E-3,-7.542128E-3,-1.7909572E-3,-4.8084124E-3,-6.729395E-3,-5.1293103E-3,-1.8789191E-3,-3.5058137E-3,-6.2002344E-3,-3.8386795E-3,-6.207349E-5,5.0059105E-3,-2.8260422E-3,-2.475558E-4,2.1725358E-3,-9.923513E-4,-7.9967827E-4,6.9113015E-3,-1.4783299E-3,-5.411694E-4,2.8176012E-3,4.4174996E-4,6.744427E-3,1.3938344E-2,2.0150791E-3,6.552223E-3,9.77668E-4,3.8754016E-3,8.216179E-3,4.1932496E-3,1.4348969E-2,8.306481E-3,4.677509E-3,1.0595473E-2,1.1806651E-2,1.5856588E-2],"split_indices":[11,11,11,11,11,11,4,11,11,11,2,6,11,6,1,0,0,2,5,1,0,8,11,9,10,0,1,9,0,9,0,10,8,6,10,0,10,4,10,1,10,1,0,10,0,5,10,10,1,9,2,0,10,0,0,0,0,0,0,0,0,0,0,0,0,0,0,0,0,0,0,0,0,0,0,0,0,0,0,0,0,0,0,0,0,0,0,0,0,0,0,0,0,0,0,0,0,0,0],"split_type":[0,0,0,0,0,0,0,0,0,0,0,0,0,0,0,0,0,0,0,0,0,0,0,0,0,0,0,0,0,0,0,0,0,0,0,0,0,0,0,0,0,0,0,0,0,0,0,0,0,0,0,0,0,0,0,0,0,0,0,0,0,0,0,0,0,0,0,0,0,0,0,0,0,0,0,0,0,0,0,0,0,0,0,0,0,0,0,0,0,0,0,0,0,0,0,0,0,0,0],"sum_hessian":[5.229E3,3.605E3,1.624E3,1.961E3,1.644E3,1.398E3,2.26E2,1.232E3,7.29E2,5.71E2,1.073E3,3.03E2,1.095E3,9.1E1,1.35E2,7.21E2,5.11E2,3.68E2,3.61E2,1.61E2,4.1E2,4E1,1.033E3,1.01E2,2.02E2,7.27E2,3.68E2,5.7E1,3.4E1,1.19E2,1.6E1,1.46E2,3.65E2,5.3E1,3.15E2,6.5E1,2.96E2,6.1E1,1E2,3.9E1,3.71E2,3E0,3.7E1,7.68E2,2.65E2,2.4E1,7.7E1,1.49E2,5.3E1,2.41E2,4.86E2,1.3E1,3.55E2,1.8E1,3.9E1,8E0,1.11E2,1.42E2,4E0,3.34E2,3.1E1,8E0,4.5E1,8.2E1,2.33E2,5E0,6E1,2.62E2,3.4E1,3E1,3.1E1,6.8E1,3.2E1,3.7E1,2E0,3.33E2,3.8E1,1E0,2E0,1E0,3.6E1,2.99E2,4.69E2,4E1,2.25E2,1.5E1,9E0,5E0,7.2E1,3E1,1.19E2,3E1,2.3E1,1E1,2.31E2,7E0,4.79E2,3.28E2,2.7E1],"tree_param":{"num_deleted":"0","num_feature":"12","num_nodes":"99","size_leaf_vector":"1"}},{"base_weights":[2.470463E-4,-4.5048315E-2,1.0664169E-1,-7.6497875E-2,-8.895456E-3,8.91749E-2,2.0897205E-1,-8.49916E-2,-6.3010395E-2,-2.5676E-2,1.6800602E-4,5.8918454E-2,9.948497E-2,2.611969E-1,1.7275721E-1,-8.877906E-3,-8.048295E-2,-6.9114015E-2,-5.6075137E-2,-4.0368825E-2,-2.018305E-2,5.3940836E-2,-2.366216E-3,4.108426E-2,6.777241E-2,1.7896064E-1,9.75877E-2,9.782777E-3,2.6376894E-1,1.6085246E-1,2.0540088E-2,-7.133619E-3,-8.206322E-2,-5.3779457E-2,-7.066416E-2,-4.1562572E-2,-5.911135E-2,-2.4827057E-2,-4.9509622E-2,-1.9310687E-3,-2.3416113E-2,6.0198896E-2,6.8986225E-3,-5.853904E-3,2.081006E-2,5.429371E-2,1.9802624E-2,1.15226954E-1,6.362786E-2,3.5654083E-3,1.8408693E-2,8.955644E-2,1.1097717E-1,2.8625196E-1,2.2271747E-2,1.7365594E-1,1.3663101E-1,-8.291137E-3,-6.7377663E-3,-3.1024555E-3,-5.6793885E-3,-7.2703483E-3,-6.259225E-3,-1.6417109E-3,-4.335454E-3,-6.2223766E-3,-5.2257995E-3,-2.7842058E-3,-6.364851E-4,-5.589196E-3,-3.4664446E-3,-9.0619485E-4,2.838658E-3,-2.6086902E-3,-3.4286626E-4,4.955949E-3,9.606776E-3,-1.6580239E-3,4.3730517E-3,-8.9907943E-4,5.0398364E-4,4.9723783E-3,1.4648515E-3,5.078788E-3,8.3808955E-3,-8.727303E-4,3.0128695E-3,4.872085E-3,1.3887777E-2,4.95683E-3,7.788868E-3,2.0040516E-3,9.02095E-3,1.0793726E-2,1.4327559E-2,2.2392077E-2,3.1119755E-2,1.7482733E-2,4.9343677E-3,3.2754526E-3,1.3840906E-2],"categories":[],"categories_nodes":[],"categories_segments":[],"categories_sizes":[],"default_left":[0,0,0,0,0,0,0,0,0,0,0,0,0,0,0,0,0,0,0,0,0,0,0,0,0,0,0,0,0,0,0,0,0,0,0,0,0,0,0,0,0,0,0,0,0,0,0,0,0,0,0,0,0,0,0,0,0,0,0,0,0,0,0,0,0,0,0,0,0,0,0,0,0,0,0,0,0,0,0,0,0,0,0,0,0,0,0,0,0,0,0,0,0,0,0,0,0,0,0,0,0],"id":8,"left_children":[1,3,5,7,9,11,13,15,17,19,21,23,25,27,29,-1,31,33,35,37,39,41,43,45,47,49,51,-1,53,55,-1,-1,57,59,61,63,65,67,69,71,73,75,77,79,81,83,85,87,89,-1,-1,91,93,95,-1,97,99,-1,-1,-1,-1,-1,-1,-1,-1,-1,-1,-1,-1,-1,-1,-1,-1,-1,-1,-1,-1,-1,-1,-1,-1,-1,-1,-1,-1,-1,-1,-1,-1,-1,-1,-1,-1,-1,-1,-1,-1,-1,-1,-1,-1],"loss_changes":[2.5209135E1,4.1709414E0,2.7732582E0,2.1940804E-1,2.5977376E-1,4.108982E-1,3.8420486E-1,1.3363838E-2,2.8380394E-2,4.7528744E-2,1.5138985E-1,5.121851E-2,1.3256836E-1,1.2433052E-2,2.0201206E-2,0E0,2.2258759E-3,5.731821E-3,1.3494015E-2,2.17852E-2,2.5801077E-2,1.4304355E-2,8.5884176E-2,3.1534612E-2,3.7314177E-2,9.598494E-3,9.4799995E-2,0E0,1.8390656E-2,8.835554E-3,0E0,0E0,2.6774406E-4,1.0503083E-3,1.3917685E-3,2.2621974E-3,3.0833483E-3,3.2739304E-3,7.6319575E-3,1.4742068E-2,1.976876E-2,1.2030363E-2,6.778459E-3,3.1586505E-2,2.4034917E-2,3.0902922E-3,1.3814637E-2,1.9973442E-2,3.8444877E-2,0E0,0E0,2.6066303E-2,1.9979954E-2,1.4280319E-2,0E0,8.3851814E-4,3.039062E-3,0E0,0E0,0E0,0E0,0E0,0E0,0E0,0E0,0E0,0E0,0E0,0E0,0E0,0E0,0E0,0E0,0E0,0E0,0E0,0E0,0E0,0E0,0E0,0E0,0E0,0E0,0E0,0E0,0E0,0E0,0E0,0E0,0E0,0E0,0E0,0E0,0E0,0E0,0E0,0E0,0E0,0E0,0E0,0E0],"parents":[2147483647,0,0,1,1,2,2,3,3,4,4,5,5,6,6,7,7,8,8,9,9,10,10,11,11,12,12,13,13,14,14,16,16,17,17,18,18,19,19,20,20,21,21,22,22,23,23,24,24,25,25,26,26,28,28,29,29,32,32,33,33,34,34,35,35,36,36,37,37,38,38,39,39,40,40,41,41,42,42,43,43,44,44,45,45,46,46,47,47,48,48,51,51,52,52,53,53,55,55,56,56],"right_children":[2,4,6,8,10,12,14,16,18,20,22,24,26,28,30,-1,32,34,36,38,40,42,44,46,48,50,52,-1,54,56,-1,-1,58,60,62,64,66,68,70,72,74,76,78,80,82,84,86,88,90,-1,-1,92,94,96,-1,98,100,-1,-1,-1,-1,-1,-1,-1,-1,-1,-1,-1,-1,-1,-1,-1,-1,-1,-1,-1,-1,-1,-1,-1,-1,-1,-1,-1,-1,-1,-1,-1,-1,-1,-1,-1,-1,-1,-1,-1,-1,-1,-1,-1,-1],"split_conditions":[2.9553902E-1,1.0594796E-1,5.613383E-1,3.9033458E-2,1.747212E-1,3.7918216E-1,1.133829E-1,1.4869888E-2,6.69145E-2,1.3011153E-1,2.6022306E-2,3.2527882E-1,9.665427E-2,7.620818E-2,6.914498E-1,-8.877906E-3,1.3011153E-2,7.434944E-3,3.5315987E-2,6.3197024E-2,6.877323E-2,2.6022306E-2,2.5464684E-1,2.2862454E-1,1.6914499E-1,9.29368E-3,4.6096656E-1,9.782777E-3,2.3605949E-1,5.1486987E-1,2.0540088E-2,-7.133619E-3,6.133829E-2,5.5762082E-3,7.063197E-2,1.858736E-3,9.665427E-2,1.1710037E-1,1.4869888E-1,1.33829E-1,2.9739776E-1,3.5315987E-2,9.479554E-2,2.32342E-1,1.598513E-1,9.479554E-2,3.0669144E-1,3.345725E-2,3.66171E-1,3.5654083E-3,1.8408693E-2,7.249071E-2,5.613383E-1,2.5464684E-1,2.2271747E-2,4.182156E-1,2.67658E-1,-8.291137E-3,-6.7377663E-3,-3.1024555E-3,-5.6793885E-3,-7.2703483E-3,-6.259225E-3,-1.6417109E-3,-4.335454E-3,-6.2223766E-3,-5.2257995E-3,-2.7842058E-3,-6.364851E-4,-5.589196E-3,-3.4664446E-3,-9.0619485E-4,2.838658E-3,-2.6086902E-3,-3.4286626E-4,4.955949E-3,9.606776E-3,-1.6580239E-3,4.3730517E-3,-8.9907943E-4,5.0398364E-4,4.9723783E-3,1.4648515E-3,5.078788E-3,8.3808955E-3,-8.727303E-4,3.0128695E-3,4.872085E-3,1.3887777E-2,4.95683E-3,7.788868E-3,2.0040516E-3,9.02095E-3,1.0793726E-2,1.4327559E-2,2.2392077E-2,3.1119755E-2,1.7482733E-2,4.9343677E-3,3.2754526E-3,1.3840906E-2],"split_indices":[11,11,11,11,11,11,2,10,11,11,1,11,6,6,11,0,1,2,5,1,2,2,11,3,9,2,10,0,6,1,0,0,9,6,10,0,10,10,10,9,2,5,8,10,3,0,9,5,10,0,0,2,10,8,0,0,0,0,0,0,0,0,0,0,0,0,0,0,0,0,0,0,0,0,0,0,0,0,0,0,0,0,0,0,0,0,0,0,0,0,0,0,0,0,0,0,0,0,0,0,0],"split_type":[0,0,0,0,0,0,0,0,0,0,0,0,0,0,0,0,0,0,0,0,0,0,0,0,0,0,0,0,0,0,0,0,0,0,0,0,0,0,0,0,0,0,0,0,0,0,0,0,0,0,0,0,0,0,0,0,0,0,0,0,0,0,0,0,0,0,0,0,0,0,0,0,0,0,0,0,0,0,0,0,0,0,0,0,0,0,0,0,0,0,0,0,0,0,0,0,0,0,0,0,0],"sum_hessian":[5.229E3,3.668E3,1.561E3,1.961E3,1.707E3,1.335E3,2.26E2,1.2E3,7.61E2,5.98E2,1.109E3,3.41E2,9.94E2,9E1,1.36E2,6.42E2,5.58E2,4E2,3.61E2,1.61E2,4.37E2,4.9E1,1.06E3,1.15E2,2.26E2,2.1E1,9.73E2,2E0,8.8E1,1.04E2,3.2E1,8.9E1,4.69E2,4E1,3.6E2,6.5E1,2.96E2,6.1E1,1E2,6.6E1,3.71E2,4.3E1,6E0,9.22E2,1.38E2,7E1,4.5E1,1.6E1,2.1E2,1E0,2E1,6.13E2,3.6E2,5.3E1,3.5E1,6.4E1,4E1,4.39E2,3E1,6E0,3.4E1,2.81E2,7.9E1,5E0,6E1,1.98E2,9.8E1,5.2E1,9E0,6.8E1,3.2E1,5.4E1,1.2E1,3.27E2,4.4E1,3.5E1,8E0,4E0,2E0,7.16E2,2.06E2,2.3E1,1.15E2,6.5E1,5E0,1.2E1,3.3E1,5E0,1.1E1,1.08E2,1.02E2,6E0,6.07E2,3.33E2,2.7E1,1.8E1,3.5E1,6.3E1,1E0,1E0,3.9E1],"tree_param":{"num_deleted":"0","num_feature":"12","num_nodes":"101","size_leaf_vector":"1"}},{"base_weights":[2.5865264E-4,-4.0560097E-2,9.613813E-2,-6.888416E-2,-8.000161E-3,7.956332E-2,1.8448316E-1,-7.625761E-2,-5.6335732E-2,-2.1786263E-2,9.851854E-4,5.7547424E-2,9.058097E-2,2.3609754E-1,1.5265732E-1,-7.900711E-3,-7.060726E-2,-6.098393E-2,-4.9314447E-2,-3.285184E-2,-1.5551491E-2,4.8805207E-2,-1.3390518E-3,5.0154705E-2,8.366957E-2,1.6317029E-2,8.886794E-2,2.5212616E-1,1.9642428E-2,1.2750368E-1,1.6598645E-1,-6.14528E-2,-7.3039524E-2,-5.0973587E-2,-6.3668355E-2,-3.8639214E-2,-5.282662E-2,-2.380732E-2,-4.3488834E-2,-1.4443253E-3,-1.8502869E-2,5.0928175E-2,-2.5487163E-3,-4.317558E-3,2.0871174E-2,5.3586297E-2,9.145254E-3,7.511983E-3,8.521003E-2,8.3805144E-2,1.0299467E-1,1.9425869E-2,2.7317787E-2,5.8549433E-3,1.3020028E-1,1.7265197E-2,1.2103488E-2,-6.230088E-3,-3.4066394E-3,-7.425236E-3,-5.9765712E-3,-5.594408E-3,-3.7389533E-3,-6.6586765E-3,-5.698743E-3,-1.784372E-3,-4.079168E-3,-5.388899E-3,-3.6970773E-3,-3.0253967E-3,-9.610762E-4,-5.623529E-3,-3.5980493E-3,-1.5764451E-3,5.884451E-4,-3.3152588E-3,-1.5078095E-3,3.7246158E-3,7.0902198E-3,-7.4866455E-4,5.522421E-4,4.083834E-3,1.3516537E-3,3.7629579E-3,6.1204094E-3,3.1811248E-3,-5.2142557E-4,2.731903E-3,-1.6051055E-3,8.619204E-3,-3.0583292E-4,7.623702E-3,8.930772E-3,2.9486509E-3,1.035289E-2,4.9419315E-3,1.3231617E-2],"categories":[],"categories_nodes":[],"categories_segments":[],"categories_sizes":[],"default_left":[0,0,0,0,0,0,0,0,0,0,0,0,0,0,0,0,0,0,0,0,0,0,0,0,0,0,0,0,0,0,0,0,0,0,0,0,0,0,0,0,0,0,0,0,0,0,0,0,0,0,0,0,0,0,0,0,0,0,0,0,0,0,0,0,0,0,0,0,0,0,0,0,0,0,0,0,0,0,0,0,0,0,0,0,0,0,0,0,0,0,0,0,0,0,0,0,0],"id":9,"left_children":[1,3,5,7,9,11,13,15,17,19,21,23,25,27,29,-1,31,33,35,37,39,41,43,45,47,-1,49,51,-1,53,55,57,59,61,63,65,67,69,71,73,75,77,-1,79,81,83,85,87,89,91,93,-1,-1,-1,95,-1,-1,-1,-1,-1,-1,-1,-1,-1,-1,-1,-1,-1,-1,-1,-1,-1,-1,-1,-1,-1,-1,-1,-1,-1,-1,-1,-1,-1,-1,-1,-1,-1,-1,-1,-1,-1,-1,-1,-1,-1,-1],"loss_changes":[2.0472448E1,3.38311E0,2.2725601E0,1.7723846E-1,2.1159637E-1,3.1424332E-1,3.6805534E-1,1.3576508E-2,2.0816803E-2,4.5989275E-2,1.15100496E-1,8.115983E-2,9.4427586E-2,8.979797E-3,3.0803919E-2,0E0,4.7073364E-3,8.443952E-3,9.056866E-3,2.2246629E-2,1.8001482E-2,8.86859E-3,6.5449566E-2,4.8342526E-2,1.0622382E-2,0E0,5.273342E-2,2.2461891E-2,0E0,3.1615496E-3,8.466482E-3,3.7640333E-5,7.301569E-4,4.4576824E-3,2.8151274E-3,2.7187616E-3,1.7134547E-3,1.18814185E-2,8.504152E-3,8.068888E-3,1.7461687E-2,1.0203563E-2,0E0,2.7233578E-2,1.6629603E-2,3.659445E-2,9.279104E-3,1.8386416E-3,8.411586E-3,1.9718647E-2,5.6653023E-3,0E0,0E0,0E0,2.8617978E-3,0E0,0E0,0E0,0E0,0E0,0E0,0E0,0E0,0E0,0E0,0E0,0E0,0E0,0E0,0E0,0E0,0E0,0E0,0E0,0E0,0E0,0E0,0E0,0E0,0E0,0E0,0E0,0E0,0E0,0E0,0E0,0E0,0E0,0E0,0E0,0E0,0E0,0E0,0E0,0E0,0E0,0E0],"parents":[2147483647,0,0,1,1,2,2,3,3,4,4,5,5,6,6,7,7,8,8,9,9,10,10,11,11,12,12,13,13,14,14,16,16,17,17,18,18,19,19,20,20,21,21,22,22,23,23,24,24,26,26,27,27,29,29,30,30,31,31,32,32,33,33,34,34,35,35,36,36,37,37,38,38,39,39,40,40,41,41,43,43,44,44,45,45,46,46,47,47,48,48,49,49,50,50,54,54],"right_children":[2,4,6,8,10,12,14,16,18,20,22,24,26,28,30,-1,32,34,36,38,40,42,44,46,48,-1,50,52,-1,54,56,58,60,62,64,66,68,70,72,74,76,78,-1,80,82,84,86,88,90,92,94,-1,-1,-1,96,-1,-1,-1,-1,-1,-1,-1,-1,-1,-1,-1,-1,-1,-1,-1,-1,-1,-1,-1,-1,-1,-1,-1,-1,-1,-1,-1,-1,-1,-1,-1,-1,-1,-1,-1,-1,-1,-1,-1,-1,-1,-1],"split_conditions":[2.9553902E-1,1.0594796E-1,5.4275095E-1,4.0892195E-2,1.802974E-1,3.9591077E-1,1.133829E-1,2.0446097E-2,7.249071E-2,1.4126395E-1,2.6022306E-2,4.182156E-1,9.665427E-2,4.275093E-2,6.2267655E-1,-7.900711E-3,2.9739777E-2,1.858736E-2,8.921933E-2,1.9144982E-1,1.3197026E-1,3.345725E-2,2.5836432E-1,4.795539E-1,3.3643124E-1,1.6317029E-2,4.795539E-1,5.613383E-1,1.9642428E-2,1.24535315E-1,5.8178437E-1,5.5762082E-2,7.063197E-2,5.0185874E-2,7.063197E-2,3.717472E-3,1.9144982E-1,1.3011153E-1,1.4869888E-1,1.5427509E-1,1.5241636E-1,7.620818E-2,-2.5487163E-3,2.32342E-1,1.7843866E-1,3.2527882E-1,4.4237918E-1,1.3011153E-2,7.230483E-1,4.3494424E-1,3.4200743E-1,1.9425869E-2,2.7317787E-2,5.8549433E-3,3.9033458E-1,1.7265197E-2,1.2103488E-2,-6.230088E-3,-3.4066394E-3,-7.425236E-3,-5.9765712E-3,-5.594408E-3,-3.7389533E-3,-6.6586765E-3,-5.698743E-3,-1.784372E-3,-4.079168E-3,-5.388899E-3,-3.6970773E-3,-3.0253967E-3,-9.610762E-4,-5.623529E-3,-3.5980493E-3,-1.5764451E-3,5.884451E-4,-3.3152588E-3,-1.5078095E-3,3.7246158E-3,7.0902198E-3,-7.4866455E-4,5.522421E-4,4.083834E-3,1.3516537E-3,3.7629579E-3,6.1204094E-3,3.1811248E-3,-5.2142557E-4,2.731903E-3,-1.6051055E-3,8.619204E-3,-3.0583292E-4,7.623702E-3,8.930772E-3,2.9486509E-3,1.035289E-2,4.9419315E-3,1.3231617E-2],"split_indices":[11,11,11,11,11,11,2,10,11,11,1,10,6,0,10,0,0,1,0,2,0,2,11,3,9,0,10,10,0,0,1,10,8,10,10,0,7,11,9,11,10,8,0,10,2,11,4,0,3,4,8,0,0,0,4,0,0,0,0,0,0,0,0,0,0,0,0,0,0,0,0,0,0,0,0,0,0,0,0,0,0,0,0,0,0,0,0,0,0,0,0,0,0,0,0,0,0],"split_type":[0,0,0,0,0,0,0,0,0,0,0,0,0,0,0,0,0,0,0,0,0,0,0,0,0,0,0,0,0,0,0,0,0,0,0,0,0,0,0,0,0,0,0,0,0,0,0,0,0,0,0,0,0,0,0,0,0,0,0,0,0,0,0,0,0,0,0,0,0,0,0,0,0,0,0,0,0,0,0,0,0,0,0,0,0,0,0,0,0,0,0,0,0,0,0,0,0],"sum_hessian":[5.229E3,3.668E3,1.561E3,1.961E3,1.707E3,1.316E3,2.45E2,1.232E3,7.29E2,6.73E2,1.034E3,4.41E2,8.75E2,9.1E1,1.54E2,8.2E2,4.12E2,4.34E2,2.95E2,2.41E2,4.32E2,4.7E1,9.87E2,3.46E2,9.5E1,1.8E1,8.57E2,6.1E1,3E1,5.7E1,9.7E1,9.2E1,3.2E2,9.6E1,3.38E2,7.6E1,2.19E2,1.32E2,1.09E2,7.5E1,3.57E2,4.6E1,1E0,8.71E2,1.16E2,3.19E2,2.7E1,2E0,9.3E1,6.36E2,2.21E2,1.9E1,4.2E1,3E0,5.4E1,8.2E1,1.5E1,8.8E1,4E0,2.89E2,3.1E1,6.8E1,2.8E1,2.29E2,1.09E2,8E0,6.8E1,2.03E2,1.6E1,9E1,4.2E1,3.8E1,7.1E1,2.5E1,5E1,6.6E1,2.91E2,2.9E1,1.7E1,6.59E2,2.12E2,3E1,8.6E1,1.05E2,2.14E2,1E1,1.7E1,1E0,1E0,9.2E1,1E0,2.74E2,3.62E2,2E0,2.19E2,2E0,5.2E1],"tree_param":{"num_deleted":"0","num_feature":"12","num_nodes":"97","size_leaf_vector":"1"}},{"base_weights":[2.5474688E-4,-3.7217353E-2,8.5063554E-2,-6.203019E-2,-7.991198E-3,7.024486E-2,1.6652177E-1,-6.889998E-2,-5.112119E-2,-2.1390546E-2,-9.908173E-4,3.930781E-2,7.828015E-2,2.1296228E-1,1.3739522E-1,-7.310561E-2,-6.5908894E-2,-5.6099694E-2,-4.546511E-2,-3.2776166E-2,-1.685074E-2,4.6983723E-2,-3.0420183E-3,6.249725E-2,3.3413906E-2,7.189054E-2,9.134689E-2,2.3195064E-1,1.8322216E-2,1.4834437E-1,1.1237353E-1,-7.3173293E-3,-2.0005058E-3,-5.6604496E-3,-6.6997096E-2,-4.5496836E-2,-5.7724304E-2,-3.35029E-2,-4.79703E-2,-1.37910275E-2,-3.8285438E-2,4.0617688E-3,-1.9054098E-2,3.5308454E-2,7.300681E-2,-6.7690993E-3,7.012158E-3,4.0300105E-2,7.466411E-2,3.0832514E-2,6.348802E-2,6.470451E-2,7.955142E-2,1.5970089E-2,8.844763E-2,1.7738345E-1,2.5964642E-2,4.2704614E-3,1.4895539E-2,6.229487E-2,1.18924804E-1,-6.8802126E-3,-6.0998383E-3,-5.8987285E-3,-3.9863805E-3,-6.403982E-3,-5.4948046E-3,-3.909959E-3,-2.5483554E-3,-4.9308217E-3,-3.6546232E-3,-2.0402889E-3,1.8404765E-3,-4.261823E-3,-2.5926312E-3,7.6735414E-5,4.4437097E-3,-2.1382319E-3,1.3735855E-4,3.8441306E-3,-3.2471367E-3,1.02330595E-2,4.1888114E-3,-7.555675E-4,1.3535563E-3,2.37205E-3,3.3562534E-4,4.4123265E-3,1.2065069E-3,8.284225E-3,2.132936E-3,3.6396326E-3,1.6554352E-3,8.991759E-3,2.2515056E-3,1.4220834E-3,6.602692E-3,6.888855E-3,8.665339E-3,7.917423E-3,9.460471E-3,4.900813E-3,1.813518E-2,1.4037684E-3,6.718337E-3,1.2362352E-2,6.856238E-3],"categories":[],"categories_nodes":[],"categories_segments":[],"categories_sizes":[],"default_left":[0,0,0,0,0,0,0,0,0,0,0,0,0,0,0,0,0,0,0,0,0,0,0,0,0,0,0,0,0,0,0,0,0,0,0,0,0,0,0,0,0,0,0,0,0,0,0,0,0,0,0,0,0,0,0,0,0,0,0,0,0,0,0,0,0,0,0,0,0,0,0,0,0,0,0,0,0,0,0,0,0,0,0,0,0,0,0,0,0,0,0,0,0,0,0,0,0,0,0,0,0,0,0,0,0,0,0],"id":10,"left_children":[1,3,5,7,9,11,13,15,17,19,21,23,25,27,29,31,33,35,37,39,41,43,45,47,49,51,53,55,-1,57,59,-1,-1,-1,61,63,65,67,69,71,73,75,77,79,81,83,85,87,89,91,93,95,97,-1,99,101,-1,-1,-1,103,105,-1,-1,-1,-1,-1,-1,-1,-1,-1,-1,-1,-1,-1,-1,-1,-1,-1,-1,-1,-1,-1,-1,-1,-1,-1,-1,-1,-1,-1,-1,-1,-1,-1,-1,-1,-1,-1,-1,-1,-1,-1,-1,-1,-1,-1,-1],"loss_changes":[1.6623919E1,2.6304708E0,1.9232912E0,1.4351559E-1,1.5634431E-1,3.3450603E-1,3.0349255E-1,1.0289192E-2,1.8906593E-2,2.9013515E-2,1.0799527E-1,3.645447E-2,8.335352E-2,1.0020256E-2,2.5520802E-2,2.9730797E-4,3.4167767E-3,4.281044E-3,9.241104E-3,1.6416281E-2,1.901535E-2,1.1094429E-2,3.946878E-2,1.2114912E-2,1.5665203E-2,3.492999E-2,5.523634E-2,3.4040928E-2,0E0,3.516674E-4,9.323597E-3,0E0,0E0,0E0,2.6464462E-3,2.056092E-3,2.5126934E-3,1.965806E-3,2.7374625E-3,8.464726E-3,5.588755E-3,5.2864235E-3,1.7721742E-2,8.2555935E-3,7.576309E-3,1.23681165E-2,1.7329356E-2,1.8424839E-3,1.349932E-2,1.6159534E-2,1.6384766E-2,2.4496675E-2,2.0383596E-2,0E0,1.1808395E-2,1.8104911E-3,0E0,0E0,0E0,9.4414316E-4,1.9361973E-3,0E0,0E0,0E0,0E0,0E0,0E0,0E0,0E0,0E0,0E0,0E0,0E0,0E0,0E0,0E0,0E0,0E0,0E0,0E0,0E0,0E0,0E0,0E0,0E0,0E0,0E0,0E0,0E0,0E0,0E0,0E0,0E0,0E0,0E0,0E0,0E0,0E0,0E0,0E0,0E0,0E0,0E0,0E0,0E0,0E0,0E0],"parents":[2147483647,0,0,1,1,2,2,3,3,4,4,5,5,6,6,7,7,8,8,9,9,10,10,11,11,12,12,13,13,14,14,15,15,16,16,17,17,18,18,19,19,20,20,21,21,22,22,23,23,24,24,25,25,26,26,27,27,29,29,30,30,34,34,35,35,36,36,37,37,38,38,39,39,40,40,41,41,42,42,43,43,44,44,45,45,46,46,47,47,48,48,49,49,50,50,51,51,52,52,54,54,55,55,59,59,60,60],"right_children":[2,4,6,8,10,12,14,16,18,20,22,24,26,28,30,32,34,36,38,40,42,44,46,48,50,52,54,56,-1,58,60,-1,-1,-1,62,64,66,68,70,72,74,76,78,80,82,84,86,88,90,92,94,96,98,-1,100,102,-1,-1,-1,104,106,-1,-1,-1,-1,-1,-1,-1,-1,-1,-1,-1,-1,-1,-1,-1,-1,-1,-1,-1,-1,-1,-1,-1,-1,-1,-1,-1,-1,-1,-1,-1,-1,-1,-1,-1,-1,-1,-1,-1,-1,-1,-1,-1,-1,-1,-1],"split_conditions":[2.843866E-1,1.0594796E-1,5.4275095E-1,3.9033458E-2,1.7286246E-1,3.5873607E-1,2.3791821E-1,1.11524165E-2,6.69145E-2,1.3011153E-1,2.4163568E-2,1.7100371E-1,4.6096656E-1,7.992565E-2,4.2936802E-1,1.4498141E-1,9.29368E-3,1.11524165E-2,3.5315987E-2,2.7881041E-2,2.6022306E-2,7.992565E-2,2.2862454E-1,7.434944E-3,4.182156E-1,4.3680298E-1,2.4163568E-2,2.3605949E-1,1.8322216E-2,4.163569E-1,5.315985E-1,-7.3173293E-3,-2.0005058E-3,-5.6604496E-3,3.345725E-2,2.9739777E-2,4.4609666E-2,6.5055765E-2,1.1895911E-1,1.6728625E-2,1.4869888E-1,3.1598512E-2,2.1003717E-1,2.2304833E-2,1.654275E-1,4.3494424E-1,1.2825279E-1,4.8327137E-2,3.5315984E-1,4.01487E-1,4.330855E-1,9.29368E-3,4.330855E-1,1.5970089E-2,4.4981414E-1,1.6728625E-2,2.5964642E-2,4.2704614E-3,1.4895539E-2,4.5724908E-1,8.866171E-1,-6.8802126E-3,-6.0998383E-3,-5.8987285E-3,-3.9863805E-3,-6.403982E-3,-5.4948046E-3,-3.909959E-3,-2.5483554E-3,-4.9308217E-3,-3.6546232E-3,-2.0402889E-3,1.8404765E-3,-4.261823E-3,-2.5926312E-3,7.6735414E-5,4.4437097E-3,-2.1382319E-3,1.3735855E-4,3.8441306E-3,-3.2471367E-3,1.02330595E-2,4.1888114E-3,-7.555675E-4,1.3535563E-3,2.37205E-3,3.3562534E-4,4.4123265E-3,1.2065069E-3,8.284225E-3,2.132936E-3,3.6396326E-3,1.6554352E-3,8.991759E-3,2.2515056E-3,1.4220834E-3,6.602692E-3,6.888855E-3,8.665339E-3,7.917423E-3,9.460471E-3,4.900813E-3,1.813518E-2,1.4037684E-3,6.718337E-3,1.2362352E-2,6.856238E-3],"split_indices":[11,11,11,11,11,11,4,10,11,11,2,7,11,3,0,1,0,2,5,3,0,8,11,0,10,1,2,8,0,9,5,0,0,0,10,10,10,10,10,0,10,1,10,2,10,2,0,4,10,1,7,0,8,0,4,2,0,0,0,0,1,0,0,0,0,0,0,0,0,0,0,0,0,0,0,0,0,0,0,0,0,0,0,0,0,0,0,0,0,0,0,0,0,0,0,0,0,0,0,0,0,0,0,0,0,0,0],"split_type":[0,0,0,0,0,0,0,0,0,0,0,0,0,0,0,0,0,0,0,0,0,0,0,0,0,0,0,0,0,0,0,0,0,0,0,0,0,0,0,0,0,0,0,0,0,0,0,0,0,0,0,0,0,0,0,0,0,0,0,0,0,0,0,0,0,0,0,0,0,0,0,0,0,0,0,0,0,0,0,0,0,0,0,0,0,0,0,0,0,0,0,0,0,0,0,0,0,0,0,0,0,0,0,0,0,0,0],"sum_hessian":[5.229E3,3.627E3,1.602E3,1.961E3,1.666E3,1.357E3,2.45E2,1.2E3,7.61E2,5.71E2,1.095E3,2.81E2,1.076E3,9.2E1,1.53E2,4.89E2,7.11E2,4E2,3.61E2,1.61E2,4.1E2,4.4E1,1.051E3,5.5E1,2.26E2,7.27E2,3.49E2,5.2E1,4E1,1.03E2,5E1,4.88E2,1E0,8E1,6.31E2,5.7E1,3.43E2,6.5E1,2.96E2,3.7E1,1.24E2,3.9E1,3.71E2,3.2E1,1.2E1,7.67E2,2.84E2,2.1E1,3.4E1,2.1E2,1.6E1,3.8E2,3.47E2,1.2E1,3.37E2,2E1,3.2E1,1E0,1.02E2,7E0,4.3E1,4.77E2,1.54E2,1.4E1,4.3E1,9.8E1,2.45E2,3.6E1,2.9E1,2.62E2,3.4E1,3.1E1,6E0,9E1,3.4E1,3.7E1,2E0,3.33E2,3.8E1,3.1E1,1E0,5E0,7E0,7.39E2,2.8E1,5E1,2.34E2,1.8E1,3E0,2.9E1,5E0,1.5E2,6E1,9E0,7E0,1E1,3.7E2,1.43E2,2.04E2,1.4E2,1.97E2,1E0,1.9E1,1E0,6E0,3.8E1,5E0],"tree_param":{"num_deleted":"0","num_feature":"12","num_nodes":"107","size_leaf_vector":"1"}},{"base_weights":[2.5839548E-4,-3.2694526E-2,7.85879E-2,-5.4807436E-2,-5.0063673E-3,6.4993024E-2,1.5033232E-1,-6.088371E-2,-4.2283986E-2,-1.0759523E-2,7.9739215E-3,4.7333065E-2,7.356737E-2,1.995818E-1,1.2756452E-1,-6.325032E-2,-5.446803E-2,-4.4844653E-2,-3.0490074E-2,-1.9371498E-2,-6.728926E-3,3.501372E-2,2.7008469E-3,4.1136194E-2,6.839995E-2,1.354022E-1,7.211232E-2,1.0774866E-2,2.0453134E-1,1.1606472E-1,1.5543494E-1,-6.589545E-2,-6.0615957E-2,-4.571993E-2,-5.7366576E-2,-3.7658967E-2,-4.7023725E-2,-2.0363E-2,-3.7620287E-2,-1.2827141E-2,-2.8084842E-2,2.5507288E-2,-8.017996E-3,5.2122317E-2,2.4668975E-2,-1.8366645E-3,1.7523604E-2,7.7053E-2,3.7597883E-2,1.9382337E-3,6.979341E-2,9.776726E-3,1.5949693E-2,6.615321E-2,8.1263274E-2,2.0713843E-2,7.639114E-3,1.3196185E-1,9.9360265E-2,1.7072341E-1,1.1841273E-1,-6.643419E-3,-4.816753E-3,-5.57333E-3,-6.2915324E-3,-1.246571E-3,-4.6277074E-3,-5.763686E-3,9.02091E-4,-4.7819125E-3,-3.2774825E-3,-5.30433E-3,-4.3666563E-3,-1.1266217E-3,-2.5115134E-3,-4.128897E-3,-1.8076234E-3,-1.4170163E-3,1.8443026E-3,-3.5606157E-3,-1.2646762E-3,-1.5854305E-3,3.248039E-3,-1.0656139E-3,-1.0635554E-4,2.0891125E-3,5.7532913E-3,-2.948588E-3,3.0924396E-3,-1.2635327E-3,1.8148868E-4,-1.5316379E-3,1.8709399E-3,4.1287164E-3,1.1242446E-2,4.0756683E-3,4.7799136E-4,2.145721E-3,-1.854986E-3,7.0699537E-3,-7.23809E-4,6.171969E-3,7.3106023E-3,7.0300177E-3,8.545366E-3,1.3293117E-2,3.690152E-3,1.3335794E-3,1.0049603E-2,4.367617E-3,1.7350245E-2,4.9011293E-3,1.2439883E-2],"categories":[],"categories_nodes":[],"categories_segments":[],"categories_sizes":[],"default_left":[0,0,0,0,0,0,0,0,0,0,0,0,0,0,0,0,0,0,0,0,0,0,0,0,0,0,0,0,0,0,0,0,0,0,0,0,0,0,0,0,0,0,0,0,0,0,0,0,0,0,0,0,0,0,0,0,0,0,0,0,0,0,0,0,0,0,0,0,0,0,0,0,0,0,0,0,0,0,0,0,0,0,0,0,0,0,0,0,0,0,0,0,0,0,0,0,0,0,0,0,0,0,0,0,0,0,0,0,0,0,0,0,0],"id":11,"left_children":[1,3,5,7,9,11,13,15,17,19,21,23,25,27,29,31,33,35,37,39,41,43,45,47,49,51,53,-1,55,57,59,61,63,65,67,69,71,73,75,77,79,81,83,85,87,89,91,93,95,97,99,-1,-1,101,103,-1,-1,105,107,109,111,-1,-1,-1,-1,-1,-1,-1,-1,-1,-1,-1,-1,-1,-1,-1,-1,-1,-1,-1,-1,-1,-1,-1,-1,-1,-1,-1,-1,-1,-1,-1,-1,-1,-1,-1,-1,-1,-1,-1,-1,-1,-1,-1,-1,-1,-1,-1,-1,-1,-1,-1,-1],"loss_changes":[1.3502171E1,2.254088E0,1.5010557E0,1.5319443E-1,1.22258395E-1,1.9397259E-1,2.50381E-1,1.7447472E-2,1.8927217E-2,3.923239E-2,7.162462E-2,5.319172E-2,6.905222E-2,1.2506247E-2,3.6765575E-2,2.9671192E-3,6.962061E-3,6.8410635E-3,8.115537E-3,2.0225137E-2,3.2367885E-2,1.32268965E-2,2.8415242E-2,3.954929E-2,8.7554455E-3,1.6357005E-3,4.1412354E-2,0E0,7.895708E-3,2.0082474E-2,6.386757E-3,1.4512539E-3,2.2529364E-3,1.2573302E-3,5.5440664E-3,5.0326884E-3,6.1309934E-3,2.0081922E-3,4.344426E-3,8.996613E-3,1.7431349E-2,9.167515E-3,1.3657037E-2,3.8674474E-3,1.8866181E-2,1.2798857E-2,4.1417703E-3,3.2045916E-2,3.1526804E-2,1.597748E-3,7.072985E-3,0E0,0E0,1.1671305E-2,9.336233E-3,0E0,0E0,7.1537495E-4,5.0104856E-3,3.3672452E-3,9.6561015E-4,0E0,0E0,0E0,0E0,0E0,0E0,0E0,0E0,0E0,0E0,0E0,0E0,0E0,0E0,0E0,0E0,0E0,0E0,0E0,0E0,0E0,0E0,0E0,0E0,0E0,0E0,0E0,0E0,0E0,0E0,0E0,0E0,0E0,0E0,0E0,0E0,0E0,0E0,0E0,0E0,0E0,0E0,0E0,0E0,0E0,0E0,0E0,0E0,0E0,0E0,0E0,0E0],"parents":[2147483647,0,0,1,1,2,2,3,3,4,4,5,5,6,6,7,7,8,8,9,9,10,10,11,11,12,12,13,13,14,14,15,15,16,16,17,17,18,18,19,19,20,20,21,21,22,22,23,23,24,24,25,25,26,26,28,28,29,29,30,30,31,31,32,32,33,33,34,34,35,35,36,36,37,37,38,38,39,39,40,40,41,41,42,42,43,43,44,44,45,45,46,46,47,47,48,48,49,49,50,50,53,53,54,54,57,57,58,58,59,59,60,60],"right_children":[2,4,6,8,10,12,14,16,18,20,22,24,26,28,30,32,34,36,38,40,42,44,46,48,50,52,54,-1,56,58,60,62,64,66,68,70,72,74,76,78,80,82,84,86,88,90,92,94,96,98,100,-1,-1,102,104,-1,-1,106,108,110,112,-1,-1,-1,-1,-1,-1,-1,-1,-1,-1,-1,-1,-1,-1,-1,-1,-1,-1,-1,-1,-1,-1,-1,-1,-1,-1,-1,-1,-1,-1,-1,-1,-1,-1,-1,-1,-1,-1,-1,-1,-1,-1,-1,-1,-1,-1,-1,-1,-1,-1,-1,-1],"split_conditions":[2.992565E-1,1.1710037E-1,5.4275095E-1,5.0185874E-2,2.1747212E-1,3.9591077E-1,1.1524164E-1,2.7881041E-2,1.0037175E-1,1.6356878E-1,1.2825279E-1,4.182156E-1,9.665427E-2,1.11524165E-1,6.914498E-1,1.11524165E-2,3.9033458E-2,3.717472E-2,1.3754646E-1,1.9702603E-1,2.6022306E-2,4.8327137E-2,3.5687733E-1,1.8215613E-1,3.3643124E-1,9.665427E-2,4.6096656E-1,1.0774866E-2,9.665427E-2,4.182156E-1,7.6022303E-1,7.992565E-2,1.6728625E-2,3.717472E-3,1.598513E-1,3.1598512E-2,7.434944E-2,2.2304833E-2,1.5427509E-1,2.2304833E-1,1.8215613E-1,6.877323E-2,2.1561338E-1,9.29368E-3,1.7100371E-1,2.007435E-1,2.4907063E-1,3.717472E-2,4.795539E-1,1.3011153E-2,7.230483E-1,9.776726E-3,1.5949693E-2,4.6096656E-1,4.4237918E-1,2.0713843E-2,7.639114E-3,4.182156E-1,3.8475835E-1,3.1598512E-2,5.1486987E-1,-6.643419E-3,-4.816753E-3,-5.57333E-3,-6.2915324E-3,-1.246571E-3,-4.6277074E-3,-5.763686E-3,9.02091E-4,-4.7819125E-3,-3.2774825E-3,-5.30433E-3,-4.3666563E-3,-1.1266217E-3,-2.5115134E-3,-4.128897E-3,-1.8076234E-3,-1.4170163E-3,1.8443026E-3,-3.5606157E-3,-1.2646762E-3,-1.5854305E-3,3.248039E-3,-1.0656139E-3,-1.0635554E-4,2.0891125E-3,5.7532913E-3,-2.948588E-3,3.0924396E-3,-1.2635327E-3,1.8148868E-4,-1.5316379E-3,1.8709399E-3,4.1287164E-3,1.1242446E-2,4.0756683E-3,4.7799136E-4,2.145721E-3,-1.854986E-3,7.0699537E-3,-7.23809E-4,6.171969E-3,7.3106023E-3,7.0300177E-3,8.545366E-3,1.3293117E-2,3.690152E-3,1.3335794E-3,1.0049603E-2,4.367617E-3,1.7350245E-2,4.9011293E-3,1.2439883E-2],"split_indices":[11,11,11,11,11,11,3,10,11,11,1,10,6,7,11,11,5,0,0,2,4,3,6,9,9,7,10,0,2,1,7,1,1,6,6,9,9,5,10,10,10,9,10,3,10,9,8,5,3,0,3,0,0,1,11,0,0,0,2,1,5,0,0,0,0,0,0,0,0,0,0,0,0,0,0,0,0,0,0,0,0,0,0,0,0,0,0,0,0,0,0,0,0,0,0,0,0,0,0,0,0,0,0,0,0,0,0,0,0,0,0,0,0],"split_type":[0,0,0,0,0,0,0,0,0,0,0,0,0,0,0,0,0,0,0,0,0,0,0,0,0,0,0,0,0,0,0,0,0,0,0,0,0,0,0,0,0,0,0,0,0,0,0,0,0,0,0,0,0,0,0,0,0,0,0,0,0,0,0,0,0,0,0,0,0,0,0,0,0,0,0,0,0,0,0,0,0,0,0,0,0,0,0,0,0,0,0,0,0,0,0,0,0,0,0,0,0,0,0,0,0,0,0,0,0,0,0,0,0],"sum_hessian":[5.229E3,3.681E3,1.548E3,2.046E3,1.635E3,1.303E3,2.45E2,1.375E3,6.71E2,1.133E3,5.02E2,4.28E2,8.75E2,7.5E1,1.7E2,9.98E2,3.77E2,5.49E2,1.22E2,3.6E2,7.73E2,8.1E1,4.21E2,3.33E2,9.5E1,1.8E1,8.57E2,5E0,7E1,1.24E2,4.6E1,4.86E2,5.12E2,9.8E1,2.79E2,1.32E2,4.17E2,5.2E1,7E1,2.07E2,1.53E2,2.9E1,7.44E2,2.9E1,5.2E1,3.23E2,9.8E1,2.8E1,3.05E2,2E0,9.3E1,9E0,9E0,5.24E2,3.33E2,6.8E1,2E0,6E1,6.4E1,3E1,1.6E1,4.69E2,1.7E1,1.72E2,3.4E2,2E0,9.6E1,2.78E2,1E0,4E1,9.2E1,1.44E2,2.73E2,1.9E1,3.3E1,5.8E1,1.2E1,1.99E2,8E0,1.02E2,5.1E1,4E0,2.5E1,5.39E2,2.05E2,5E0,2.4E1,5E0,4.7E1,8.1E1,2.42E2,3E0,9.5E1,1.5E1,1.3E1,2.78E2,2.7E1,1E0,1E0,9.2E1,1E0,3.26E2,1.98E2,9.7E1,2.36E2,5.9E1,1E0,1E0,6.3E1,1E0,2.9E1,2E0,1.4E1],"tree_param":{"num_deleted":"0","num_feature":"12","num_nodes":"113","size_leaf_vector":"1"}},{"base_weights":[2.5738703E-4,-3.1352174E-2,6.66036E-2,-5.0726376E-2,-8.296768E-3,5.3515777E-2,1.2925026E-1,-5.5275552E-2,-4.0661234E-2,-2.414652E-2,-4.5845285E-3,2.8696338E-2,6.2290214E-2,1.0634364E-1,1.6881488E-1,-5.816996E-2,-5.1744383E-2,-2.9813232E-2,-4.2836297E-2,-1.35139655E-2,-2.9686503E-2,2.4440916E-2,-5.848877E-3,4.6214107E-2,2.1309353E-2,5.9052113E-2,7.460977E-2,1.2526722E-1,8.628875E-2,2.0947324E-2,1.4639436E-1,-5.950555E-2,-5.4302514E-3,-4.593504E-2,-5.5063248E-2,-1.8653294E-2,-3.2412093E-2,-4.5281034E-2,-3.616125E-2,-1.8789593E-2,-5.620369E-4,-3.7794247E-2,-2.0424968E-2,-3.8196559E-3,3.6132935E-2,-1.6399909E-2,-3.0060024E-3,5.443594E-2,2.4036145E-2,1.0765141E-2,3.278716E-2,1.0395901E-1,5.8088593E-2,1.1522457E-2,7.5464286E-2,1.268299E-1,3.558889E-3,3.2148004E-2,8.8969156E-2,1.5572625E-2,1.075915E-1,-5.955586E-3,-1.6596428E-3,-4.7006244E-3,-1.4884247E-3,-5.5253757E-3,8.569867E-4,-1.0554539E-3,-2.7316345E-3,-3.3084948E-3,-1.0851953E-3,-4.5429426E-3,-1.2380662E-3,-3.667411E-3,-9.683777E-4,-1.1190507E-3,-2.6922177E-3,-9.3812385E-4,1.0058474E-3,-3.974061E-3,-1.7372003E-3,-8.115251E-4,-2.7044567E-3,1.8198285E-4,-1.7718384E-3,9.1528514E-4,4.0761046E-3,-4.5198607E-4,-1.967514E-3,-4.1618664E-4,1.4722313E-3,8.8515505E-3,4.9276627E-3,9.173684E-4,3.1751816E-3,3.0028296E-3,7.018982E-4,4.051303E-3,1.6738711E-3,-8.2856015E-4,1.2058578E-2,2.98886E-3,5.9714722E-3,-6.0133735E-4,3.2064975E-3,7.647682E-3,1.90602E-3,7.042873E-3,1.2926184E-2,1.2735174E-3,4.731578E-3,9.067954E-3,2.995365E-3,4.5743883E-3,1.1278826E-2],"categories":[],"categories_nodes":[],"categories_segments":[],"categories_sizes":[],"default_left":[0,0,0,0,0,0,0,0,0,0,0,0,0,0,0,0,0,0,0,0,0,0,0,0,0,0,0,0,0,0,0,0,0,0,0,0,0,0,0,0,0,0,0,0,0,0,0,0,0,0,0,0,0,0,0,0,0,0,0,0,0,0,0,0,0,0,0,0,0,0,0,0,0,0,0,0,0,0,0,0,0,0,0,0,0,0,0,0,0,0,0,0,0,0,0,0,0,0,0,0,0,0,0,0,0,0,0,0,0,0,0,0,0,0,0],"id":12,"left_children":[1,3,5,7,9,11,13,15,17,19,21,23,25,27,29,31,33,35,37,39,41,43,45,47,49,51,53,55,57,-1,59,61,-1,63,65,67,69,71,73,75,77,79,81,83,85,87,89,91,93,95,97,99,101,103,105,107,-1,109,111,-1,113,-1,-1,-1,-1,-1,-1,-1,-1,-1,-1,-1,-1,-1,-1,-1,-1,-1,-1,-1,-1,-1,-1,-1,-1,-1,-1,-1,-1,-1,-1,-1,-1,-1,-1,-1,-1,-1,-1,-1,-1,-1,-1,-1,-1,-1,-1,-1,-1,-1,-1,-1,-1,-1,-1],"loss_changes":[1.0970311E1,1.5821671E0,1.3770885E0,8.589411E-2,9.514813E-2,3.0266428E-1,2.4577856E-1,1.0511875E-2,1.2950778E-2,1.7682403E-2,4.8327796E-2,4.6506286E-2,3.6762714E-2,6.0159445E-2,6.505036E-2,4.825592E-4,9.135485E-3,2.4117455E-3,6.5218806E-3,7.300703E-3,1.4321178E-2,1.8311292E-2,3.771473E-2,1.8384665E-2,3.1113394E-2,2.9528141E-2,1.0505199E-2,8.659482E-3,1.078099E-2,0E0,8.954525E-3,1.4281273E-4,0E0,6.81746E-3,5.080104E-3,1.2552068E-3,8.4502995E-4,1.2048483E-3,1.5323758E-3,4.3955427E-3,3.0916224E-3,3.523022E-3,7.603124E-3,1.3647326E-3,4.4967234E-3,1.0300018E-2,2.0409355E-2,9.352773E-3,3.2636076E-3,9.675544E-3,1.4696404E-2,3.0859366E-2,3.5221577E-2,1.6337391E-3,1.04215145E-2,3.5151243E-3,0E0,1.1641216E-3,6.267369E-3,0E0,3.0454993E-4,0E0,0E0,0E0,0E0,0E0,0E0,0E0,0E0,0E0,0E0,0E0,0E0,0E0,0E0,0E0,0E0,0E0,0E0,0E0,0E0,0E0,0E0,0E0,0E0,0E0,0E0,0E0,0E0,0E0,0E0,0E0,0E0,0E0,0E0,0E0,0E0,0E0,0E0,0E0,0E0,0E0,0E0,0E0,0E0,0E0,0E0,0E0,0E0,0E0,0E0,0E0,0E0,0E0,0E0],"parents":[2147483647,0,0,1,1,2,2,3,3,4,4,5,5,6,6,7,7,8,8,9,9,10,10,11,11,12,12,13,13,14,14,15,15,16,16,17,17,18,18,19,19,20,20,21,21,22,22,23,23,24,24,25,25,26,26,27,27,28,28,30,30,31,31,33,33,34,34,35,35,36,36,37,37,38,38,39,39,40,40,41,41,42,42,43,43,44,44,45,45,46,46,47,47,48,48,49,49,50,50,51,51,52,52,53,53,54,54,55,55,57,57,58,58,60,60],"right_children":[2,4,6,8,10,12,14,16,18,20,22,24,26,28,30,32,34,36,38,40,42,44,46,48,50,52,54,56,58,-1,60,62,-1,64,66,68,70,72,74,76,78,80,82,84,86,88,90,92,94,96,98,100,102,104,106,108,-1,110,112,-1,114,-1,-1,-1,-1,-1,-1,-1,-1,-1,-1,-1,-1,-1,-1,-1,-1,-1,-1,-1,-1,-1,-1,-1,-1,-1,-1,-1,-1,-1,-1,-1,-1,-1,-1,-1,-1,-1,-1,-1,-1,-1,-1,-1,-1,-1,-1,-1,-1,-1,-1,-1,-1,-1,-1],"split_conditions":[2.5836432E-1,1.0037175E-1,5.204461E-1,4.6468403E-2,1.4498141E-1,3.5873607E-1,6.914498E-1,1.6728625E-2,4.275093E-2,1.11524165E-1,2.2304833E-2,1.0223048E-1,4.8698884E-1,4.2565057E-1,7.620818E-2,1.4869888E-2,2.7881041E-2,7.434944E-3,8.73606E-2,1.11524165E-1,1.5799257E-1,8.178439E-2,1.7100371E-1,3.2156134E-1,3.2527882E-1,1.33829E-1,3.66171E-1,4.684015E-1,4.4423792E-1,2.0947324E-2,7.6022303E-1,1.1710037E-1,-5.4302514E-3,5.0185874E-2,1.4498141E-1,3.1598512E-2,5.9479553E-2,2.0817845E-1,2.3048328E-1,3.345725E-2,1.3011153E-1,2.007435E-1,2.1003717E-1,2.2304833E-2,5.5762082E-3,1.394052E-1,4.535316E-1,9.665427E-2,1.0594796E-1,2.063197E-1,4.275093E-1,7.434944E-3,3.494424E-1,4.535316E-1,7.230483E-1,3.4386617E-1,3.558889E-3,4.684015E-1,7.230483E-1,1.5572625E-2,5.1486987E-1,-5.955586E-3,-1.6596428E-3,-4.7006244E-3,-1.4884247E-3,-5.5253757E-3,8.569867E-4,-1.0554539E-3,-2.7316345E-3,-3.3084948E-3,-1.0851953E-3,-4.5429426E-3,-1.2380662E-3,-3.667411E-3,-9.683777E-4,-1.1190507E-3,-2.6922177E-3,-9.3812385E-4,1.0058474E-3,-3.974061E-3,-1.7372003E-3,-8.115251E-4,-2.7044567E-3,1.8198285E-4,-1.7718384E-3,9.1528514E-4,4.0761046E-3,-4.5198607E-4,-1.967514E-3,-4.1618664E-4,1.4722313E-3,8.8515505E-3,4.9276627E-3,9.173684E-4,3.1751816E-3,3.0028296E-3,7.018982E-4,4.051303E-3,1.6738711E-3,-8.2856015E-4,1.2058578E-2,2.98886E-3,5.9714722E-3,-6.0133735E-4,3.2064975E-3,7.647682E-3,1.90602E-3,7.042873E-3,1.2926184E-2,1.2735174E-3,4.731578E-3,9.067954E-3,2.995365E-3,4.5743883E-3,1.1278826E-2],"split_indices":[11,11,11,10,11,11,11,11,5,1,2,3,8,1,3,9,0,0,10,10,9,9,10,9,10,8,6,0,3,0,7,1,0,9,6,8,6,6,5,6,11,7,2,5,0,1,0,8,5,5,1,0,10,0,6,10,0,2,9,0,5,0,0,0,0,0,0,0,0,0,0,0,0,0,0,0,0,0,0,0,0,0,0,0,0,0,0,0,0,0,0,0,0,0,0,0,0,0,0,0,0,0,0,0,0,0,0,0,0,0,0,0,0,0,0],"split_type":[0,0,0,0,0,0,0,0,0,0,0,0,0,0,0,0,0,0,0,0,0,0,0,0,0,0,0,0,0,0,0,0,0,0,0,0,0,0,0,0,0,0,0,0,0,0,0,0,0,0,0,0,0,0,0,0,0,0,0,0,0,0,0,0,0,0,0,0,0,0,0,0,0,0,0,0,0,0,0,0,0,0,0,0,0,0,0,0,0,0,0,0,0,0,0,0,0,0,0,0,0,0,0,0,0,0,0,0,0,0,0,0,0,0,0],"sum_hessian":[5.229E3,3.542E3,1.687E3,1.924E3,1.618E3,1.397E3,2.9E2,1.322E3,6.02E2,3.06E2,1.312E3,3.66E2,1.031E3,1.86E2,1.04E2,7.18E2,6.04E2,1.03E2,4.99E2,1.06E2,2E2,5.4E1,1.258E3,1.07E2,2.59E2,8.21E2,2.1E2,9.3E1,9.3E1,3.4E1,7E1,5.23E2,1.95E2,2.25E2,3.79E2,2.1E1,8.2E1,3.61E2,1.38E2,7.5E1,3.1E1,1.05E2,9.5E1,1.6E1,3.8E1,2.66E2,9.92E2,7.7E1,3E1,1.36E2,1.23E2,1.5E1,8.06E2,3E0,2.07E2,9.1E1,2E0,5E0,8.8E1,5.4E1,1.6E1,5.22E2,1E0,2.17E2,8E0,3.78E2,1E0,1.2E1,9E0,7.9E1,3E0,3.59E2,2E0,1.35E2,3E0,4E1,3.5E1,1.7E1,1.4E1,9.5E1,1E1,3.4E1,6.1E1,1.2E1,4E0,6E0,3.2E1,5.8E1,2.08E2,9.32E2,6E1,8E0,6.9E1,1.1E1,1.9E1,2.1E1,1.15E2,8.2E1,4.1E1,2E0,1.3E1,4.5E1,7.61E2,2E0,1E0,2.03E2,4E0,5E0,8.6E1,3E0,2E0,8.5E1,3E0,2E0,1.4E1],"tree_param":{"num_deleted":"0","num_feature":"12","num_nodes":"115","size_leaf_vector":"1"}},{"base_weights":[2.5080622E-4,-2.718652E-2,6.2348355E-2,-4.567582E-2,-6.2833E-3,5.140224E-2,1.22521006E-1,-4.9766064E-2,-3.6625955E-2,-1.6415436E-2,-6.4757536E-4,2.8767005E-2,5.728129E-2,1.6303563E-1,1.0379801E-1,-5.137275E-2,-4.448345E-2,-2.5180029E-2,-3.827853E-2,-2.4576591E-2,-1.2423988E-2,3.5234053E-2,-2.2174206E-3,4.075922E-2,2.2056686E-2,5.3497724E-2,7.145041E-2,5.6837085E-3,1.651378E-1,9.4157875E-2,1.272282E-1,-5.3955313E-2,-4.9541395E-2,-3.6851663E-2,-4.915629E-2,-1.5172281E-2,-2.7884409E-2,-4.0326882E-2,-3.2414034E-2,-1.4758571E-2,-3.052302E-2,4.889571E-3,-1.4252264E-2,2.9714549E-2,8.57602E-2,-3.6814122E-3,1.345566E-2,4.734163E-2,2.3822207E-2,1.3226399E-2,3.3013016E-2,4.7136255E-2,5.9574038E-2,1.0084949E-1,6.5284364E-2,1.6928505E-2,8.99215E-3,1.0328771E-2,7.680863E-2,1.1354423E-2,1.7238896E-2,-5.4054162E-3,-2.2626212E-3,-4.5319325E-3,-5.123489E-3,-3.8465464E-3,-2.0113417E-3,-4.9497117E-3,8.1413763E-4,-1.8249083E-3,7.3203596E-4,-3.1278904E-3,-2.245138E-3,-4.0414124E-3,-3.4125076E-4,-3.331051E-3,-1.7339146E-3,-2.174341E-3,-8.095218E-4,-3.453057E-3,-2.0274923E-3,9.045319E-5,3.2603943E-3,-3.3209E-3,-1.1996082E-3,-5.35281E-4,3.3448455E-3,9.865004E-3,2.354534E-3,1.961126E-4,-6.9699314E-4,6.9799554E-4,1.8270807E-3,3.597061E-3,5.865802E-3,1.1514946E-3,3.5361804E-3,-2.9525282E-3,1.5708887E-3,3.0299746E-3,9.34581E-3,8.877748E-3,4.5910063E-3,5.779128E-3,9.179809E-3,1.1118346E-2,7.3218816E-3,4.584504E-3,6.868522E-3,6.6296435E-3,1.0907411E-2],"categories":[],"categories_nodes":[],"categories_segments":[],"categories_sizes":[],"default_left":[0,0,0,0,0,0,0,0,0,0,0,0,0,0,0,0,0,0,0,0,0,0,0,0,0,0,0,0,0,0,0,0,0,0,0,0,0,0,0,0,0,0,0,0,0,0,0,0,0,0,0,0,0,0,0,0,0,0,0,0,0,0,0,0,0,0,0,0,0,0,0,0,0,0,0,0,0,0,0,0,0,0,0,0,0,0,0,0,0,0,0,0,0,0,0,0,0,0,0,0,0,0,0,0,0,0,0,0,0,0,0],"id":13,"left_children":[1,3,5,7,9,11,13,15,17,19,21,23,25,27,29,31,33,35,37,39,41,43,45,47,49,51,53,-1,55,57,59,61,63,65,67,69,71,73,75,77,79,81,83,85,87,89,91,93,95,97,99,101,103,105,107,-1,-1,-1,109,-1,-1,-1,-1,-1,-1,-1,-1,-1,-1,-1,-1,-1,-1,-1,-1,-1,-1,-1,-1,-1,-1,-1,-1,-1,-1,-1,-1,-1,-1,-1,-1,-1,-1,-1,-1,-1,-1,-1,-1,-1,-1,-1,-1,-1,-1,-1,-1,-1,-1,-1,-1],"loss_changes":[8.91252E0,1.4018836E0,1.0495291E0,6.943321E-2,9.729106E-2,1.7906618E-1,1.6968203E-1,8.943796E-3,1.04420185E-2,1.9532725E-2,6.1814275E-2,2.1793991E-2,5.3915262E-2,7.580757E-3,2.664423E-2,2.0945072E-3,9.457707E-3,1.7150417E-3,4.999459E-3,1.1167571E-2,1.3079472E-2,1.0280117E-2,2.4165E-2,1.0020837E-2,1.7268144E-2,3.0202627E-2,3.4021974E-2,0E0,7.861376E-3,1.1866093E-2,9.471178E-3,3.7431717E-5,1.9824505E-3,2.5758445E-3,4.1719973E-3,1.4484925E-3,4.2273477E-4,1.1020303E-3,1.3279468E-3,3.4077484E-3,4.351482E-3,4.388223E-3,1.55120045E-2,5.8093853E-3,8.850079E-4,1.7864153E-2,2.678804E-3,7.026255E-3,3.8534366E-3,1.1395251E-2,1.0452554E-2,1.7471552E-2,1.9569635E-2,2.4240613E-3,9.279847E-3,0E0,0E0,0E0,8.710265E-3,0E0,0E0,0E0,0E0,0E0,0E0,0E0,0E0,0E0,0E0,0E0,0E0,0E0,0E0,0E0,0E0,0E0,0E0,0E0,0E0,0E0,0E0,0E0,0E0,0E0,0E0,0E0,0E0,0E0,0E0,0E0,0E0,0E0,0E0,0E0,0E0,0E0,0E0,0E0,0E0,0E0,0E0,0E0,0E0,0E0,0E0,0E0,0E0,0E0,0E0,0E0,0E0],"parents":[2147483647,0,0,1,1,2,2,3,3,4,4,5,5,6,6,7,7,8,8,9,9,10,10,11,11,12,12,13,13,14,14,15,15,16,16,17,17,18,18,19,19,20,20,21,21,22,22,23,23,24,24,25,25,26,26,28,28,29,29,30,30,31,31,32,32,33,33,34,34,35,35,36,36,37,37,38,38,39,39,40,40,41,41,42,42,43,43,44,44,45,45,46,46,47,47,48,48,49,49,50,50,51,51,52,52,53,53,54,54,58,58],"right_children":[2,4,6,8,10,12,14,16,18,20,22,24,26,28,30,32,34,36,38,40,42,44,46,48,50,52,54,-1,56,58,60,62,64,66,68,70,72,74,76,78,80,82,84,86,88,90,92,94,96,98,100,102,104,106,108,-1,-1,-1,110,-1,-1,-1,-1,-1,-1,-1,-1,-1,-1,-1,-1,-1,-1,-1,-1,-1,-1,-1,-1,-1,-1,-1,-1,-1,-1,-1,-1,-1,-1,-1,-1,-1,-1,-1,-1,-1,-1,-1,-1,-1,-1,-1,-1,-1,-1,-1,-1,-1,-1,-1,-1],"split_conditions":[2.843866E-1,1.0037175E-1,5.4275095E-1,4.6468403E-2,1.7286246E-1,3.5873607E-1,1.1524164E-1,2.7881041E-2,3.1598512E-2,1.3011153E-1,3.1598512E-2,2.3048328E-1,4.795539E-1,3.6245352E-1,6.914498E-1,9.29368E-3,3.9033458E-2,7.434944E-3,8.73606E-2,6.5055765E-2,2.6022306E-2,4.275093E-2,3.5687733E-1,3.2156134E-1,3.4386617E-1,4.3680298E-1,3.7732342E-1,5.6837085E-3,8.921933E-2,4.2565057E-1,3.4758365E-1,1.2825279E-1,1.6728625E-2,5.0185874E-2,1.4126395E-1,1.4869888E-2,2.0446097E-2,2.3977695E-1,2.2118959E-1,8.921933E-2,1.4869888E-1,6.5055765E-2,1.3011153E-1,5.0185874E-2,1.3011153E-2,1.9702603E-1,2.881041E-1,1.4869888E-2,1.133829E-1,2.7695167E-1,4.535316E-1,1.2639405E-1,5.315985E-1,4.5724908E-1,4.2565057E-1,1.6928505E-2,8.99215E-3,1.0328771E-2,8.866171E-1,1.1354423E-2,1.7238896E-2,-5.4054162E-3,-2.2626212E-3,-4.5319325E-3,-5.123489E-3,-3.8465464E-3,-2.0113417E-3,-4.9497117E-3,8.1413763E-4,-1.8249083E-3,7.3203596E-4,-3.1278904E-3,-2.245138E-3,-4.0414124E-3,-3.4125076E-4,-3.331051E-3,-1.7339146E-3,-2.174341E-3,-8.095218E-4,-3.453057E-3,-2.0274923E-3,9.045319E-5,3.2603943E-3,-3.3209E-3,-1.1996082E-3,-5.35281E-4,3.3448455E-3,9.865004E-3,2.354534E-3,1.961126E-4,-6.9699314E-4,6.9799554E-4,1.8270807E-3,3.597061E-3,5.865802E-3,1.1514946E-3,3.5361804E-3,-2.9525282E-3,1.5708887E-3,3.0299746E-3,9.34581E-3,8.877748E-3,4.5910063E-3,5.779128E-3,9.179809E-3,1.1118346E-2,7.3218816E-3,4.584504E-3,6.868522E-3,6.6296435E-3,1.0907411E-2],"split_indices":[11,11,11,10,11,11,3,10,5,11,3,6,11,10,11,10,5,0,10,1,0,5,6,9,10,1,2,0,2,0,0,1,1,9,6,3,5,4,5,10,10,6,10,8,0,1,9,0,5,8,10,8,9,9,2,0,0,0,4,0,0,0,0,0,0,0,0,0,0,0,0,0,0,0,0,0,0,0,0,0,0,0,0,0,0,0,0,0,0,0,0,0,0,0,0,0,0,0,0,0,0,0,0,0,0,0,0,0,0,0,0],"split_type":[0,0,0,0,0,0,0,0,0,0,0,0,0,0,0,0,0,0,0,0,0,0,0,0,0,0,0,0,0,0,0,0,0,0,0,0,0,0,0,0,0,0,0,0,0,0,0,0,0,0,0,0,0,0,0,0,0,0,0,0,0,0,0,0,0,0,0,0,0,0,0,0,0,0,0,0,0,0,0,0,0,0,0,0,0,0,0,0,0,0,0,0,0,0,0,0,0,0,0,0,0,0,0,0,0,0,0,0,0,0,0],"sum_hessian":[5.229E3,3.627E3,1.602E3,1.924E3,1.703E3,1.357E3,2.45E2,1.322E3,6.02E2,6.08E2,1.095E3,2.81E2,1.076E3,7.5E1,1.7E2,1.007E3,3.15E2,7.8E1,5.24E2,1.98E2,4.1E2,4.5E1,1.05E3,9.9E1,1.82E2,8.53E2,2.23E2,2E0,7.3E1,1.24E2,4.6E1,4.06E2,6.01E2,1.23E2,1.92E2,1.8E1,6E1,3.84E2,1.4E2,7.6E1,1.22E2,3.9E1,3.71E2,4.2E1,3E0,9.61E2,8.9E1,7E1,2.9E1,1.02E2,8E1,4.21E2,4.32E2,3.6E1,1.87E2,6.8E1,5E0,7.8E1,4.6E1,3.8E1,8E0,4.04E2,2E0,1.8E2,4.21E2,1.11E2,1.2E1,1.91E2,1E0,1.6E1,2E0,3.4E1,2.6E1,3.83E2,1E0,1.31E2,9E0,3.6E1,4E1,8.6E1,3.6E1,3.5E1,4E0,3.8E1,3.33E2,4E0,3.8E1,2E0,1E0,3.54E2,6.07E2,3.9E1,5E1,3.7E1,3.3E1,1.5E1,1.4E1,5E0,9.7E1,7.8E1,2E0,1E1,4.11E2,4.12E2,2E1,2.4E1,1.2E1,3E1,1.57E2,3.7E1,9E0],"tree_param":{"num_deleted":"0","num_feature":"12","num_nodes":"111","size_leaf_vector":"1"}},{"base_weights":[2.516747E-4,-2.5438258E-2,5.417299E-2,-4.1130695E-2,-6.7641498E-3,4.3464947E-2,1.0542959E-1,-4.5843165E-2,-3.47515E-2,-1.666283E-2,-2.7490165E-3,2.2673884E-2,5.0229132E-2,8.655712E-2,1.3803647E-1,-4.7765397E-2,-4.319717E-2,-3.7815917E-2,-3.0572953E-2,-1.1967367E-2,-2.350607E-2,2.5408436E-2,-3.8363445E-3,3.54708E-2,1.3106948E-2,4.291686E-2,5.472613E-2,1.02046E-1,7.0147425E-2,1.7267957E-1,1.190147E-1,-4.943877E-3,-4.542545E-3,-3.6575887E-3,-4.45261E-2,-2.8174978E-2,-3.877043E-2,-2.1428486E-2,-3.2225013E-2,-1.8627929E-2,-6.7486586E-3,-2.711789E-2,-6.242827E-3,-1.2806143E-2,3.0773673E-2,-1.1892176E-2,-1.4470465E-3,5.8800988E-2,3.020805E-2,-6.072416E-4,1.9612987E-2,7.970094E-2,4.0904976E-2,5.2129496E-2,6.4887986E-2,1.0330314E-1,2.9478262E-3,2.4093881E-2,7.246398E-2,7.944447E-3,1.7893774E-2,1.2682903E-1,8.673222E-2,-4.48416E-3,-2.955061E-3,-6.962424E-4,-2.898095E-3,-4.2053508E-3,-3.6039446E-3,-2.333851E-3,-1.3035424E-4,-3.254034E-3,-1.4512868E-3,-5.888994E-4,-2.2186476E-3,-8.398494E-4,1.8508745E-3,-1.0724032E-3,-2.9313215E-3,-2.2608405E-3,3.7115067E-4,-1.4288005E-3,-2.698414E-4,1.8489946E-3,4.2084246E-3,1.832709E-3,-1.2949418E-3,-2.547378E-4,1.2971174E-3,2.9460287E-3,9.057678E-3,1.1179041E-3,3.318247E-3,-3.7849537E-4,4.8799105E-3,2.9116592E-3,6.8775547E-4,1.2312192E-3,9.577862E-3,2.1200483E-3,4.589022E-3,6.318269E-3,4.902505E-3,6.7174956E-3,3.118426E-3,1.1433546E-2,8.978526E-3,7.2593766E-4,3.8508594E-3,7.3980154E-3,2.1750391E-3,1.1767145E-2,1.6592083E-2,3.39639E-3,9.150374E-3],"categories":[],"categories_nodes":[],"categories_segments":[],"categories_sizes":[],"default_left":[0,0,0,0,0,0,0,0,0,0,0,0,0,0,0,0,0,0,0,0,0,0,0,0,0,0,0,0,0,0,0,0,0,0,0,0,0,0,0,0,0,0,0,0,0,0,0,0,0,0,0,0,0,0,0,0,0,0,0,0,0,0,0,0,0,0,0,0,0,0,0,0,0,0,0,0,0,0,0,0,0,0,0,0,0,0,0,0,0,0,0,0,0,0,0,0,0,0,0,0,0,0,0,0,0,0,0,0,0,0,0,0,0,0,0],"id":14,"left_children":[1,3,5,7,9,11,13,15,17,19,21,23,25,27,29,31,33,35,37,39,41,43,45,47,49,51,53,55,57,59,61,-1,-1,-1,63,65,67,69,71,73,75,77,79,81,83,85,87,89,91,93,95,97,99,101,103,105,-1,107,109,-1,-1,111,113,-1,-1,-1,-1,-1,-1,-1,-1,-1,-1,-1,-1,-1,-1,-1,-1,-1,-1,-1,-1,-1,-1,-1,-1,-1,-1,-1,-1,-1,-1,-1,-1,-1,-1,-1,-1,-1,-1,-1,-1,-1,-1,-1,-1,-1,-1,-1,-1,-1,-1,-1,-1],"loss_changes":[7.246156E0,1.0379705E0,9.218898E-1,5.6275606E-2,6.4300574E-2,1.9546843E-1,1.6712523E-1,3.55196E-3,9.3694925E-3,1.47244185E-2,3.5398167E-2,4.17725E-2,3.2310247E-2,4.037118E-2,4.8640728E-2,2.2101402E-4,2.5510192E-3,3.2327175E-3,4.642278E-3,9.572193E-3,1.1615194E-2,9.210393E-3,2.1367077E-2,1.627253E-2,1.7767698E-2,2.678603E-2,1.3742328E-2,5.530238E-3,8.282512E-3,6.206155E-3,6.9106817E-3,0E0,0E0,0E0,5.223155E-4,5.846694E-4,2.2949576E-3,2.160605E-3,1.1865199E-3,5.3998604E-3,6.7393924E-3,5.3000525E-3,5.622798E-3,5.131471E-5,4.501432E-3,8.35238E-3,1.3645058E-2,2.1572009E-2,6.534286E-3,1.03896465E-2,1.6139131E-2,2.0489842E-2,3.7042797E-2,1.4814258E-2,7.771313E-3,3.4546256E-3,0E0,1.1764392E-3,5.234152E-3,0E0,0E0,1.6510487E-4,1.1725277E-3,0E0,0E0,0E0,0E0,0E0,0E0,0E0,0E0,0E0,0E0,0E0,0E0,0E0,0E0,0E0,0E0,0E0,0E0,0E0,0E0,0E0,0E0,0E0,0E0,0E0,0E0,0E0,0E0,0E0,0E0,0E0,0E0,0E0,0E0,0E0,0E0,0E0,0E0,0E0,0E0,0E0,0E0,0E0,0E0,0E0,0E0,0E0,0E0,0E0,0E0,0E0,0E0],"parents":[2147483647,0,0,1,1,2,2,3,3,4,4,5,5,6,6,7,7,8,8,9,9,10,10,11,11,12,12,13,13,14,14,15,15,16,16,17,17,18,18,19,19,20,20,21,21,22,22,23,23,24,24,25,25,26,26,27,27,28,28,29,29,30,30,34,34,35,35,36,36,37,37,38,38,39,39,40,40,41,41,42,42,43,43,44,44,45,45,46,46,47,47,48,48,49,49,50,50,51,51,52,52,53,53,54,54,55,55,57,57,58,58,61,61,62,62],"right_children":[2,4,6,8,10,12,14,16,18,20,22,24,26,28,30,32,34,36,38,40,42,44,46,48,50,52,54,56,58,60,62,-1,-1,-1,64,66,68,70,72,74,76,78,80,82,84,86,88,90,92,94,96,98,100,102,104,106,-1,108,110,-1,-1,112,114,-1,-1,-1,-1,-1,-1,-1,-1,-1,-1,-1,-1,-1,-1,-1,-1,-1,-1,-1,-1,-1,-1,-1,-1,-1,-1,-1,-1,-1,-1,-1,-1,-1,-1,-1,-1,-1,-1,-1,-1,-1,-1,-1,-1,-1,-1,-1,-1,-1,-1,-1,-1],"split_conditions":[2.5836432E-1,1.0037175E-1,5.204461E-1,3.345725E-2,1.6171004E-1,3.5315984E-1,6.914498E-1,1.4869888E-2,6.5055765E-2,1.9702603E-1,2.2304833E-2,1.747212E-1,4.2193308E-1,4.2565057E-1,7.620818E-2,9.29368E-3,1.6728625E-2,7.434944E-3,3.345725E-2,1.3011153E-1,1.9144982E-1,7.249071E-2,1.7657992E-1,1.6171004E-1,3.0669144E-1,1.394052E-1,4.9814126E-1,4.684015E-1,4.4423792E-1,3.866171E-1,7.6022303E-1,-4.943877E-3,-4.542545E-3,-3.6575887E-3,7.249071E-2,3.717472E-3,4.6468403E-2,3.1598512E-2,2.2490707E-1,2.2304833E-2,2.1375465E-1,1.8401487E-1,2.2862454E-1,1.11524165E-2,1.11524165E-2,2.9739777E-2,4.535316E-1,3.717472E-2,2.4349442E-1,4.8698884E-1,4.2193308E-1,1.11524165E-2,3.513011E-1,4.0334573E-1,6.914498E-1,5.8178437E-1,2.9478262E-3,4.684015E-1,7.230483E-1,7.944447E-3,1.7893774E-2,3.345725E-1,1.3568774E-1,-4.48416E-3,-2.955061E-3,-6.962424E-4,-2.898095E-3,-4.2053508E-3,-3.6039446E-3,-2.333851E-3,-1.3035424E-4,-3.254034E-3,-1.4512868E-3,-5.888994E-4,-2.2186476E-3,-8.398494E-4,1.8508745E-3,-1.0724032E-3,-2.9313215E-3,-2.2608405E-3,3.7115067E-4,-1.4288005E-3,-2.698414E-4,1.8489946E-3,4.2084246E-3,1.832709E-3,-1.2949418E-3,-2.547378E-4,1.2971174E-3,2.9460287E-3,9.057678E-3,1.1179041E-3,3.318247E-3,-3.7849537E-4,4.8799105E-3,2.9116592E-3,6.8775547E-4,1.2312192E-3,9.577862E-3,2.1200483E-3,4.589022E-3,6.318269E-3,4.902505E-3,6.7174956E-3,3.118426E-3,1.1433546E-2,8.978526E-3,7.2593766E-4,3.8508594E-3,7.3980154E-3,2.1750391E-3,1.1767145E-2,1.6592083E-2,3.39639E-3,9.150374E-3],"split_indices":[11,11,11,11,11,11,11,9,11,2,2,3,10,1,3,11,2,2,6,11,10,9,10,9,9,8,9,0,3,9,7,0,0,0,8,6,10,6,5,5,10,0,1,0,1,2,0,5,10,3,1,2,5,6,6,5,0,2,9,0,0,0,2,0,0,0,0,0,0,0,0,0,0,0,0,0,0,0,0,0,0,0,0,0,0,0,0,0,0,0,0,0,0,0,0,0,0,0,0,0,0,0,0,0,0,0,0,0,0,0,0,0,0,0,0],"split_type":[0,0,0,0,0,0,0,0,0,0,0,0,0,0,0,0,0,0,0,0,0,0,0,0,0,0,0,0,0,0,0,0,0,0,0,0,0,0,0,0,0,0,0,0,0,0,0,0,0,0,0,0,0,0,0,0,0,0,0,0,0,0,0,0,0,0,0,0,0,0,0,0,0,0,0,0,0,0,0,0,0,0,0,0,0,0,0,0,0,0,0,0,0,0,0,0,0,0,0,0,0,0,0,0,0,0,0,0,0,0,0,0,0,0,0],"sum_hessian":[5.229E3,3.542E3,1.687E3,1.924E3,1.618E3,1.397E3,2.9E2,1.103E3,8.21E2,4.66E2,1.152E3,3.44E2,1.053E3,1.86E2,1.04E2,6.29E2,4.74E2,4.69E2,3.52E2,2.78E2,1.88E2,4.2E1,1.11E3,1.46E2,1.98E2,4.05E2,6.48E2,9.3E1,9.3E1,3.4E1,7E1,3.55E2,2.74E2,8.4E1,3.9E2,4.5E1,4.24E2,5.6E1,2.96E2,1.21E2,1.57E2,1.55E2,3.3E1,5E0,3.7E1,2.53E2,8.57E2,2.5E1,1.21E2,6.4E1,1.34E2,1.9E1,3.86E2,5.21E2,1.27E2,9.1E1,2E0,5E0,8.8E1,3E0,3.1E1,5.4E1,1.6E1,3.8E2,1E1,2E0,4.3E1,1.86E2,2.38E2,5.1E1,5E0,2.9E2,6E0,2.7E1,9.4E1,1.48E2,9E0,1.9E1,1.36E2,1.2E1,2.1E1,4E0,1E0,1.9E1,1.8E1,8E0,2.45E2,7.97E2,6E1,1.4E1,1.1E1,1.7E1,1.04E2,6.1E1,3E0,7.6E1,5.8E1,4E0,1.5E1,7.9E1,3.07E2,1.1E2,4.11E2,1.18E2,9E0,4.6E1,4.5E1,3E0,2E0,8.5E1,3E0,4.7E1,7E0,2E0,1.4E1],"tree_param":{"num_deleted":"0","num_feature":"12","num_nodes":"115","size_leaf_vector":"1"}},{"base_weights":[2.5068613E-4,-2.290598E-2,4.885484E-2,-3.7037965E-2,-6.0888175E-3,3.9163597E-2,9.524489E-2,-4.036595E-2,-2.9674854E-2,-1.5013016E-2,-2.4689657E-3,1.7947162E-2,4.4532478E-2,7.810199E-2,1.24868475E-1,-4.347179E-2,-3.8480803E-2,-2.1238448E-2,-3.137028E-2,-1.0017189E-2,-2.0296099E-2,2.296896E-2,-3.4512896E-3,3.0729296E-2,9.320784E-3,3.6575675E-2,4.8662215E-2,9.20899E-2,6.328322E-2,1.4429188E-1,9.782913E-2,-4.351345E-2,-1.1508589E-3,-3.4698382E-2,-4.0626526E-2,-1.6867064E-2,-2.56222E-2,-3.5676714E-2,-2.8638465E-2,-1.1123071E-2,1.9848771E-2,-2.9978374E-2,-1.4785412E-2,-1.1808637E-2,2.7855715E-2,-5.491545E-3,4.6522734E-3,7.1582496E-2,2.8198576E-2,8.211298E-3,9.896672E-3,2.0818174E-2,4.0383935E-2,1.0253037E-1,4.7772877E-2,4.6803784E-3,9.410818E-2,5.4032143E-2,7.801946E-2,1.4687619E-1,4.7092657E-3,2.8120182E-3,1.0030242E-2,-4.3552606E-3,-1.2163358E-3,-3.5527726E-3,-1.3145756E-3,-4.0741605E-3,9.83698E-4,-2.4843111E-3,-1.0357936E-3,-1.3761296E-3,-2.861473E-3,-3.5833127E-3,-3.057286E-4,-2.934075E-3,-2.016478E-3,-1.2713086E-3,4.0163271E-4,3.3550512E-3,2.1772743E-4,-3.2152005E-3,9.491186E-4,-4.8776614E-4,-2.0720013E-3,-1.3144967E-3,-2.5634916E-4,1.6733401E-3,3.8097322E-3,-1.2700633E-3,-3.973598E-4,1.42251E-3,1.0632811E-4,1.03989245E-4,8.5483035E-3,2.3168765E-3,3.5975606E-3,-6.707649E-5,1.3316472E-3,6.7486945E-3,1.0284098E-3,4.466278E-3,2.913066E-3,3.7005346E-3,1.12979775E-2,4.537735E-3,6.0393396E-3,1.1172349E-2,8.3732065E-3,5.620186E-3,1.8490916E-3,4.2788388E-4,8.012436E-3,1.5644452E-2,1.0631313E-2],"categories":[],"categories_nodes":[],"categories_segments":[],"categories_sizes":[],"default_left":[0,0,0,0,0,0,0,0,0,0,0,0,0,0,0,0,0,0,0,0,0,0,0,0,0,0,0,0,0,0,0,0,0,0,0,0,0,0,0,0,0,0,0,0,0,0,0,0,0,0,0,0,0,0,0,0,0,0,0,0,0,0,0,0,0,0,0,0,0,0,0,0,0,0,0,0,0,0,0,0,0,0,0,0,0,0,0,0,0,0,0,0,0,0,0,0,0,0,0,0,0,0,0,0,0,0,0,0,0,0,0,0,0,0,0],"id":15,"left_children":[1,3,5,7,9,11,13,15,17,19,21,23,25,27,29,31,33,35,37,39,41,43,45,47,49,51,53,55,57,59,61,63,-1,65,67,69,71,73,75,77,79,81,83,85,87,89,91,93,95,97,-1,99,101,103,105,-1,107,109,111,113,-1,-1,-1,-1,-1,-1,-1,-1,-1,-1,-1,-1,-1,-1,-1,-1,-1,-1,-1,-1,-1,-1,-1,-1,-1,-1,-1,-1,-1,-1,-1,-1,-1,-1,-1,-1,-1,-1,-1,-1,-1,-1,-1,-1,-1,-1,-1,-1,-1,-1,-1,-1,-1,-1,-1],"loss_changes":[5.887537E0,8.4180355E-1,7.551565E-1,4.5972824E-2,5.2263554E-2,1.5844488E-1,1.3802719E-1,6.0732365E-3,7.958591E-3,1.2122393E-2,2.8890762E-2,3.1028412E-2,3.4858465E-2,3.2934308E-2,4.102969E-2,1.5437603E-4,5.342841E-3,1.5607849E-3,4.860431E-3,8.213613E-3,1.1615209E-2,7.6367687E-3,1.8394087E-2,9.767711E-3,1.6195172E-2,2.2262573E-2,3.0121684E-2,4.1869283E-3,8.599073E-3,7.903576E-3,5.2827597E-3,7.289648E-5,0E0,5.038291E-3,3.4495592E-3,2.598118E-3,1.3809279E-3,8.598566E-4,1.2590885E-3,5.6838747E-3,2.1061238E-3,7.254325E-3,8.483522E-3,4.043046E-5,3.6910977E-3,9.666933E-3,7.6807984E-3,5.794592E-3,3.4302473E-3,7.717494E-3,0E0,3.716011E-2,1.357764E-2,3.3508316E-3,1.9057274E-2,0E0,6.91247E-3,3.6647469E-3,4.9345195E-3,5.49078E-3,0E0,0E0,0E0,0E0,0E0,0E0,0E0,0E0,0E0,0E0,0E0,0E0,0E0,0E0,0E0,0E0,0E0,0E0,0E0,0E0,0E0,0E0,0E0,0E0,0E0,0E0,0E0,0E0,0E0,0E0,0E0,0E0,0E0,0E0,0E0,0E0,0E0,0E0,0E0,0E0,0E0,0E0,0E0,0E0,0E0,0E0,0E0,0E0,0E0,0E0,0E0,0E0,0E0,0E0,0E0],"parents":[2147483647,0,0,1,1,2,2,3,3,4,4,5,5,6,6,7,7,8,8,9,9,10,10,11,11,12,12,13,13,14,14,15,15,16,16,17,17,18,18,19,19,20,20,21,21,22,22,23,23,24,24,25,25,26,26,27,27,28,28,29,29,30,30,31,31,33,33,34,34,35,35,36,36,37,37,38,38,39,39,40,40,41,41,42,42,43,43,44,44,45,45,46,46,47,47,48,48,49,49,51,51,52,52,53,53,54,54,56,56,57,57,58,58,59,59],"right_children":[2,4,6,8,10,12,14,16,18,20,22,24,26,28,30,32,34,36,38,40,42,44,46,48,50,52,54,56,58,60,62,64,-1,66,68,70,72,74,76,78,80,82,84,86,88,90,92,94,96,98,-1,100,102,104,106,-1,108,110,112,114,-1,-1,-1,-1,-1,-1,-1,-1,-1,-1,-1,-1,-1,-1,-1,-1,-1,-1,-1,-1,-1,-1,-1,-1,-1,-1,-1,-1,-1,-1,-1,-1,-1,-1,-1,-1,-1,-1,-1,-1,-1,-1,-1,-1,-1,-1,-1,-1,-1,-1,-1,-1,-1,-1,-1],"split_conditions":[2.5836432E-1,1.0037175E-1,5.204461E-1,4.6468403E-2,1.6171004E-1,3.3643124E-1,6.914498E-1,1.11524165E-2,4.275093E-2,1.8401487E-1,2.2304833E-2,1.7286246E-1,4.1078067E-1,4.2565057E-1,6.654275E-1,4.275093E-2,3.345725E-2,1.6728625E-2,7.249071E-2,2.1375465E-1,1.5799257E-1,7.249071E-2,2.32342E-1,1.133829E-1,4.4981414E-1,7.249071E-2,9.665427E-2,3.4386617E-1,8.085502E-1,5.0743496E-1,2.0446096E-1,1.5055762E-1,-1.1508589E-3,4.8327137E-2,1.4498141E-1,5.5762082E-2,5.204461E-2,1.2639405E-1,1.1895911E-1,1.8773234E-1,1.8215613E-1,2.6208177E-1,2.0817845E-1,1.11524165E-2,1.11524165E-2,1.6914499E-1,1.9888476E-1,7.434944E-3,1.0780669E-1,3.0669144E-1,9.896672E-3,8.921933E-2,4.5724908E-1,7.434944E-3,5.0743496E-1,4.6803784E-3,2.67658E-1,7.230483E-1,2.67658E-1,7.230483E-1,4.7092657E-3,2.8120182E-3,1.0030242E-2,-4.3552606E-3,-1.2163358E-3,-3.5527726E-3,-1.3145756E-3,-4.0741605E-3,9.83698E-4,-2.4843111E-3,-1.0357936E-3,-1.3761296E-3,-2.861473E-3,-3.5833127E-3,-3.057286E-4,-2.934075E-3,-2.016478E-3,-1.2713086E-3,4.0163271E-4,3.3550512E-3,2.1772743E-4,-3.2152005E-3,9.491186E-4,-4.8776614E-4,-2.0720013E-3,-1.3144967E-3,-2.5634916E-4,1.6733401E-3,3.8097322E-3,-1.2700633E-3,-3.973598E-4,1.42251E-3,1.0632811E-4,1.03989245E-4,8.5483035E-3,2.3168765E-3,3.5975606E-3,-6.707649E-5,1.3316472E-3,6.7486945E-3,1.0284098E-3,4.466278E-3,2.913066E-3,3.7005346E-3,1.12979775E-2,4.537735E-3,6.0393396E-3,1.1172349E-2,8.3732065E-3,5.620186E-3,1.8490916E-3,4.2788388E-4,8.012436E-3,1.5644452E-2,1.0631313E-2],"split_indices":[11,11,11,10,11,11,11,10,5,2,2,3,11,1,8,11,0,1,9,10,9,9,10,9,10,0,6,10,4,1,5,2,0,9,6,10,10,8,10,7,1,3,3,0,1,8,0,0,4,9,0,7,3,1,8,0,3,6,0,9,0,0,0,0,0,0,0,0,0,0,0,0,0,0,0,0,0,0,0,0,0,0,0,0,0,0,0,0,0,0,0,0,0,0,0,0,0,0,0,0,0,0,0,0,0,0,0,0,0,0,0,0,0,0,0],"split_type":[0,0,0,0,0,0,0,0,0,0,0,0,0,0,0,0,0,0,0,0,0,0,0,0,0,0,0,0,0,0,0,0,0,0,0,0,0,0,0,0,0,0,0,0,0,0,0,0,0,0,0,0,0,0,0,0,0,0,0,0,0,0,0,0,0,0,0,0,0,0,0,0,0,0,0,0,0,0,0,0,0,0,0,0,0,0,0,0,0,0,0,0,0,0,0,0,0,0,0,0,0,0,0,0,0,0,0,0,0,0,0,0,0,0,0],"sum_hessian":[5.229E3,3.542E3,1.687E3,1.924E3,1.618E3,1.397E3,2.9E2,1.322E3,6.02E2,4.66E2,1.152E3,2.83E2,1.114E3,1.86E2,1.04E2,4.91E2,8.31E2,1.03E2,4.99E2,2.41E2,2.25E2,4.2E1,1.11E3,1.13E2,1.7E2,3.84E2,7.3E2,9.3E1,9.3E1,5.8E1,4.6E1,4.9E2,1E0,3.07E2,5.24E2,5.4E1,4.9E1,1.89E2,3.1E2,2.33E2,8E0,8E1,1.45E2,5E0,3.7E1,8.87E2,2.23E2,5E0,1.08E2,1.69E2,1E0,7.6E1,3.08E2,1E1,7.2E2,5E0,8.8E1,6E1,3.3E1,5.6E1,2E0,2E0,4.4E1,4.89E2,1E0,2.95E2,1.2E1,5.23E2,1E0,2.3E1,3.1E1,1.1E1,3.8E1,1.88E2,1E0,2.84E2,2.6E1,2.11E2,2.2E1,4E0,4E0,7.6E1,4E0,5.5E1,9E1,4E0,1E0,1.9E1,1.8E1,1.53E2,7.34E2,6E1,1.63E2,1E0,4E0,6.8E1,4E1,6.2E1,1.07E2,1.3E1,6.3E1,2.21E2,8.7E1,2E0,8E0,6.09E2,1.11E2,2.9E1,5.9E1,5.6E1,4E0,1E0,3.2E1,4.3E1,1.3E1],"tree_param":{"num_deleted":"0","num_feature":"12","num_nodes":"115","size_leaf_vector":"1"}},{"base_weights":[2.4871426E-4,-2.0623744E-2,4.4058472E-2,-3.335042E-2,-5.4789186E-3,3.529478E-2,8.6008936E-2,-3.7453257E-2,-2.8435737E-2,-9.895635E-3,5.8834633E-4,1.6243039E-2,4.0115766E-2,7.050643E-2,1.12799026E-1,-3.96607E-2,-3.6008064E-2,-2.241057E-2,-3.0095775E-2,-1.6732553E-2,-6.9860816E-3,2.4698459E-2,-5.571389E-4,2.8525043E-2,8.768782E-3,3.3944782E-2,4.447817E-2,8.313864E-2,5.7124153E-2,1.3038787E-1,8.831943E-2,-3.9791875E-2,-8.862714E-3,-3.23244E-2,-3.7053693E-3,-2.9692577E-2,-2.0505304E-2,-3.3281446E-2,-2.5512787E-2,-8.642001E-3,-2.1134345E-2,1.1287725E-2,-7.967428E-3,1.4280034E-2,4.2342864E-2,-1.2753234E-2,1.4403663E-3,8.536121E-3,2.6629485E-2,7.7559687E-3,9.401838E-3,2.850758E-2,4.4068E-2,1.0293711E-1,4.3589372E-2,8.423086E-2,2.1930903E-3,4.875138E-2,7.046577E-2,1.3264956E-1,4.3953164E-3,2.6245497E-3,9.049504E-2,-3.9833477E-3,-1.1555189E-3,-5.329773E-5,-1.2761094E-3,-3.5330632E-3,-2.8932404E-3,-1.2335492E-3,-3.3214E-3,-1.2024522E-3,-2.2496413E-3,-3.3389595E-3,5.043723E-4,-2.5928097E-3,-1.3869161E-3,-1.129988E-3,1.3889925E-3,-2.630006E-3,-1.3202408E-3,-1.8760562E-6,3.2017843E-3,-2.6072732E-3,-7.076089E-4,1.3975105E-4,2.8311058E-3,4.7955387E-3,1.139101E-3,-1.9569297E-3,-3.7974172E-4,8.883049E-4,-1.2662748E-4,2.1947394E-3,3.5761283E-3,-3.7538045E-4,1.3254393E-3,3.0189888E-3,-1.1731343E-3,3.4371351E-3,5.3945575E-3,1.1144148E-2,1.7451078E-3,4.15191E-3,5.33319E-3,9.4734E-3,7.3080473E-3,1.9788514E-3,5.1551177E-3,3.7638773E-3,7.7582444E-3,5.9435624E-3,1.3561633E-2,9.632357E-3,6.372288E-3],"categories":[],"categories_nodes":[],"categories_segments":[],"categories_sizes":[],"default_left":[0,0,0,0,0,0,0,0,0,0,0,0,0,0,0,0,0,0,0,0,0,0,0,0,0,0,0,0,0,0,0,0,0,0,0,0,0,0,0,0,0,0,0,0,0,0,0,0,0,0,0,0,0,0,0,0,0,0,0,0,0,0,0,0,0,0,0,0,0,0,0,0,0,0,0,0,0,0,0,0,0,0,0,0,0,0,0,0,0,0,0,0,0,0,0,0,0,0,0,0,0,0,0,0,0,0,0,0,0,0,0,0,0,0,0],"id":16,"left_children":[1,3,5,7,9,11,13,15,17,19,21,23,25,27,29,31,33,35,37,39,41,43,45,47,49,51,53,55,57,59,61,63,65,67,-1,69,71,73,75,77,79,81,83,85,87,89,91,-1,93,95,-1,97,99,101,103,105,-1,107,109,111,-1,-1,113,-1,-1,-1,-1,-1,-1,-1,-1,-1,-1,-1,-1,-1,-1,-1,-1,-1,-1,-1,-1,-1,-1,-1,-1,-1,-1,-1,-1,-1,-1,-1,-1,-1,-1,-1,-1,-1,-1,-1,-1,-1,-1,-1,-1,-1,-1,-1,-1,-1,-1,-1,-1],"loss_changes":[4.7833114E0,6.827066E-1,6.1754227E-1,3.775096E-2,4.3390792E-2,1.2775218E-1,1.1290336E-1,1.9087791E-3,8.127272E-3,1.8522263E-2,1.88767E-2,2.582074E-2,2.8506398E-2,2.686274E-2,3.369391E-2,1.2794733E-3,1.2789369E-3,2.0827353E-3,9.181023E-3,9.753369E-3,1.1907741E-2,5.0939787E-3,1.5926601E-2,9.254642E-3,1.4639663E-2,2.439332E-2,2.9285789E-2,4.4368505E-3,7.0650876E-3,5.70333E-3,3.9721727E-3,1.1920929E-5,9.061604E-5,5.0736964E-4,0E0,1.9129068E-3,2.380617E-3,1.8346608E-3,1.0234118E-3,6.1456696E-3,7.0281103E-3,7.969683E-3,9.917881E-3,3.7562903E-3,1.3646372E-3,5.5416804E-3,1.1332551E-2,0E0,3.7045106E-3,1.1251308E-2,0E0,2.1068633E-2,1.3566285E-2,4.5982674E-3,1.0734677E-2,3.8513541E-3,0E0,3.9263815E-3,5.022943E-3,4.3206215E-3,0E0,0E0,8.838773E-4,0E0,0E0,0E0,0E0,0E0,0E0,0E0,0E0,0E0,0E0,0E0,0E0,0E0,0E0,0E0,0E0,0E0,0E0,0E0,0E0,0E0,0E0,0E0,0E0,0E0,0E0,0E0,0E0,0E0,0E0,0E0,0E0,0E0,0E0,0E0,0E0,0E0,0E0,0E0,0E0,0E0,0E0,0E0,0E0,0E0,0E0,0E0,0E0,0E0,0E0,0E0,0E0],"parents":[2147483647,0,0,1,1,2,2,3,3,4,4,5,5,6,6,7,7,8,8,9,9,10,10,11,11,12,12,13,13,14,14,15,15,16,16,17,17,18,18,19,19,20,20,21,21,22,22,23,23,24,24,25,25,26,26,27,27,28,28,29,29,30,30,31,31,32,32,33,33,35,35,36,36,37,37,38,38,39,39,40,40,41,41,42,42,43,43,44,44,45,45,46,46,48,48,49,49,51,51,52,52,53,53,54,54,55,55,57,57,58,58,59,59,62,62],"right_children":[2,4,6,8,10,12,14,16,18,20,22,24,26,28,30,32,34,36,38,40,42,44,46,48,50,52,54,56,58,60,62,64,66,68,-1,70,72,74,76,78,80,82,84,86,88,90,92,-1,94,96,-1,98,100,102,104,106,-1,108,110,112,-1,-1,114,-1,-1,-1,-1,-1,-1,-1,-1,-1,-1,-1,-1,-1,-1,-1,-1,-1,-1,-1,-1,-1,-1,-1,-1,-1,-1,-1,-1,-1,-1,-1,-1,-1,-1,-1,-1,-1,-1,-1,-1,-1,-1,-1,-1,-1,-1,-1,-1,-1,-1,-1,-1],"split_conditions":[2.5836432E-1,1.0037175E-1,5.204461E-1,2.9739777E-2,1.9516729E-1,3.3643124E-1,6.914498E-1,9.29368E-3,3.9033458E-2,1.4126395E-1,7.992565E-2,1.8773234E-1,4.2007434E-1,4.2565057E-1,6.654275E-1,2.9739777E-2,1.4869888E-2,2.4163568E-2,8.178439E-2,1.11524165E-1,2.4163568E-2,5.762082E-2,1.7843866E-1,8.921933E-2,4.4981414E-1,4.3680298E-1,9.665427E-2,4.684015E-1,8.085502E-1,5.0743496E-1,2.0446096E-1,8.921933E-2,1.858736E-3,1.4869888E-2,-3.7053693E-3,5.5762082E-3,1.6728625E-2,9.479554E-2,2.2118959E-1,1.3011153E-1,1.6171004E-1,8.921933E-2,1.2639405E-1,3.717472E-2,1.3011153E-1,1.8959108E-1,1.9516729E-1,8.536121E-3,1.0780669E-1,3.0669144E-1,9.401838E-3,4.9814126E-1,4.4237918E-1,2.6022306E-2,5.0743496E-1,6.4684016E-1,2.1930903E-3,4.684015E-1,6.2267655E-1,2.32342E-1,4.3953164E-3,2.6245497E-3,8.085502E-1,-3.9833477E-3,-1.1555189E-3,-5.329773E-5,-1.2761094E-3,-3.5330632E-3,-2.8932404E-3,-1.2335492E-3,-3.3214E-3,-1.2024522E-3,-2.2496413E-3,-3.3389595E-3,5.043723E-4,-2.5928097E-3,-1.3869161E-3,-1.129988E-3,1.3889925E-3,-2.630006E-3,-1.3202408E-3,-1.8760562E-6,3.2017843E-3,-2.6072732E-3,-7.076089E-4,1.3975105E-4,2.8311058E-3,4.7955387E-3,1.139101E-3,-1.9569297E-3,-3.7974172E-4,8.883049E-4,-1.2662748E-4,2.1947394E-3,3.5761283E-3,-3.7538045E-4,1.3254393E-3,3.0189888E-3,-1.1731343E-3,3.4371351E-3,5.3945575E-3,1.1144148E-2,1.7451078E-3,4.15191E-3,5.33319E-3,9.4734E-3,7.3080473E-3,1.9788514E-3,5.1551177E-3,